FANN_FIX_2.0
decimal_point=11
num_layers=6
learning_rate=0.500000
connection_rate=1.000000
network_type=0
learning_momentum=0.000000
training_algorithm=3
train_error_function=1
train_stop_function=0
cascade_output_change_fraction=0.010000
quickprop_decay=-0.000100
quickprop_mu=1.750000
rprop_increase_factor=1.200000
rprop_decrease_factor=0.500000
rprop_delta_min=0.000000
rprop_delta_max=50.000000
rprop_delta_zero=0.100000
cascade_output_stagnation_epochs=12
cascade_candidate_change_fraction=0.010000
cascade_candidate_stagnation_epochs=12
cascade_max_out_epochs=150
cascade_min_out_epochs=50
cascade_max_cand_epochs=150
cascade_min_cand_epochs=50
cascade_num_candidate_groups=2
bit_fail_limit=717
cascade_candidate_limit=2048000
cascade_weight_multiplier=819
cascade_activation_functions_count=10
cascade_activation_functions=3 5 7 8 10 11 14 15 16 17 
cascade_activation_steepnesses_count=4
cascade_activation_steepnesses=512 1024 1536 2048 
layer_sizes=84 501 129 65 13 2 
neurons (num_inputs, activation_function, activation_steepness)=(0, 0, 0) (0, 0, 0) (0, 0, 0) (0, 0, 0) (0, 0, 0) (0, 0, 0) (0, 0, 0) (0, 0, 0) (0, 0, 0) (0, 0, 0) (0, 0, 0) (0, 0, 0) (0, 0, 0) (0, 0, 0) (0, 0, 0) (0, 0, 0) (0, 0, 0) (0, 0, 0) (0, 0, 0) (0, 0, 0) (0, 0, 0) (0, 0, 0) (0, 0, 0) (0, 0, 0) (0, 0, 0) (0, 0, 0) (0, 0, 0) (0, 0, 0) (0, 0, 0) (0, 0, 0) (0, 0, 0) (0, 0, 0) (0, 0, 0) (0, 0, 0) (0, 0, 0) (0, 0, 0) (0, 0, 0) (0, 0, 0) (0, 0, 0) (0, 0, 0) (0, 0, 0) (0, 0, 0) (0, 0, 0) (0, 0, 0) (0, 0, 0) (0, 0, 0) (0, 0, 0) (0, 0, 0) (0, 0, 0) (0, 0, 0) (0, 0, 0) (0, 0, 0) (0, 0, 0) (0, 0, 0) (0, 0, 0) (0, 0, 0) (0, 0, 0) (0, 0, 0) (0, 0, 0) (0, 0, 0) (0, 0, 0) (0, 0, 0) (0, 0, 0) (0, 0, 0) (0, 0, 0) (0, 0, 0) (0, 0, 0) (0, 0, 0) (0, 0, 0) (0, 0, 0) (0, 0, 0) (0, 0, 0) (0, 0, 0) (0, 0, 0) (0, 0, 0) (0, 0, 0) (0, 0, 0) (0, 0, 0) (0, 0, 0) (0, 0, 0) (0, 0, 0) (0, 0, 0) (0, 0, 0) (0, 0, 0) (84, 5, 2048) (84, 5, 2048) (84, 5, 2048) (84, 5, 2048) (84, 5, 2048) (84, 5, 2048) (84, 5, 2048) (84, 5, 2048) (84, 5, 2048) (84, 5, 2048) (84, 5, 2048) (84, 5, 2048) (84, 5, 2048) (84, 5, 2048) (84, 5, 2048) (84, 5, 2048) (84, 5, 2048) (84, 5, 2048) (84, 5, 2048) (84, 5, 2048) (84, 5, 2048) (84, 5, 2048) (84, 5, 2048) (84, 5, 2048) (84, 5, 2048) (84, 5, 2048) (84, 5, 2048) (84, 5, 2048) (84, 5, 2048) (84, 5, 2048) (84, 5, 2048) (84, 5, 2048) (84, 5, 2048) (84, 5, 2048) (84, 5, 2048) (84, 5, 2048) (84, 5, 2048) (84, 5, 2048) (84, 5, 2048) (84, 5, 2048) (84, 5, 2048) (84, 5, 2048) (84, 5, 2048) (84, 5, 2048) (84, 5, 2048) (84, 5, 2048) (84, 5, 2048) (84, 5, 2048) (84, 5, 2048) (84, 5, 2048) (84, 5, 2048) (84, 5, 2048) (84, 5, 2048) (84, 5, 2048) (84, 5, 2048) (84, 5, 2048) (84, 5, 2048) (84, 5, 2048) (84, 5, 2048) (84, 5, 2048) (84, 5, 2048) (84, 5, 2048) (84, 5, 2048) (84, 5, 2048) (84, 5, 2048) (84, 5, 2048) (84, 5, 2048) (84, 5, 2048) (84, 5, 2048) (84, 5, 2048) (84, 5, 2048) (84, 5, 2048) (84, 5, 2048) (84, 5, 2048) (84, 5, 2048) (84, 5, 2048) (84, 5, 2048) (84, 5, 2048) (84, 5, 2048) (84, 5, 2048) (84, 5, 2048) (84, 5, 2048) (84, 5, 2048) (84, 5, 2048) (84, 5, 2048) (84, 5, 2048) (84, 5, 2048) (84, 5, 2048) (84, 5, 2048) (84, 5, 2048) (84, 5, 2048) (84, 5, 2048) (84, 5, 2048) (84, 5, 2048) (84, 5, 2048) (84, 5, 2048) (84, 5, 2048) (84, 5, 2048) (84, 5, 2048) (84, 5, 2048) (84, 5, 2048) (84, 5, 2048) (84, 5, 2048) (84, 5, 2048) (84, 5, 2048) (84, 5, 2048) (84, 5, 2048) (84, 5, 2048) (84, 5, 2048) (84, 5, 2048) (84, 5, 2048) (84, 5, 2048) (84, 5, 2048) (84, 5, 2048) (84, 5, 2048) (84, 5, 2048) (84, 5, 2048) (84, 5, 2048) (84, 5, 2048) (84, 5, 2048) (84, 5, 2048) (84, 5, 2048) (84, 5, 2048) (84, 5, 2048) (84, 5, 2048) (84, 5, 2048) (84, 5, 2048) (84, 5, 2048) (84, 5, 2048) (84, 5, 2048) (84, 5, 2048) (84, 5, 2048) (84, 5, 2048) (84, 5, 2048) (84, 5, 2048) (84, 5, 2048) (84, 5, 2048) (84, 5, 2048) (84, 5, 2048) (84, 5, 2048) (84, 5, 2048) (84, 5, 2048) (84, 5, 2048) (84, 5, 2048) (84, 5, 2048) (84, 5, 2048) (84, 5, 2048) (84, 5, 2048) (84, 5, 2048) (84, 5, 2048) (84, 5, 2048) (84, 5, 2048) (84, 5, 2048) (84, 5, 2048) (84, 5, 2048) (84, 5, 2048) (84, 5, 2048) (84, 5, 2048) (84, 5, 2048) (84, 5, 2048) (84, 5, 2048) (84, 5, 2048) (84, 5, 2048) (84, 5, 2048) (84, 5, 2048) (84, 5, 2048) (84, 5, 2048) (84, 5, 2048) (84, 5, 2048) (84, 5, 2048) (84, 5, 2048) (84, 5, 2048) (84, 5, 2048) (84, 5, 2048) (84, 5, 2048) (84, 5, 2048) (84, 5, 2048) (84, 5, 2048) (84, 5, 2048) (84, 5, 2048) (84, 5, 2048) (84, 5, 2048) (84, 5, 2048) (84, 5, 2048) (84, 5, 2048) (84, 5, 2048) (84, 5, 2048) (84, 5, 2048) (84, 5, 2048) (84, 5, 2048) (84, 5, 2048) (84, 5, 2048) (84, 5, 2048) (84, 5, 2048) (84, 5, 2048) (84, 5, 2048) (84, 5, 2048) (84, 5, 2048) (84, 5, 2048) (84, 5, 2048) (84, 5, 2048) (84, 5, 2048) (84, 5, 2048) (84, 5, 2048) (84, 5, 2048) (84, 5, 2048) (84, 5, 2048) (84, 5, 2048) (84, 5, 2048) (84, 5, 2048) (84, 5, 2048) (84, 5, 2048) (84, 5, 2048) (84, 5, 2048) (84, 5, 2048) (84, 5, 2048) (84, 5, 2048) (84, 5, 2048) (84, 5, 2048) (84, 5, 2048) (84, 5, 2048) (84, 5, 2048) (84, 5, 2048) (84, 5, 2048) (84, 5, 2048) (84, 5, 2048) (84, 5, 2048) (84, 5, 2048) (84, 5, 2048) (84, 5, 2048) (84, 5, 2048) (84, 5, 2048) (84, 5, 2048) (84, 5, 2048) (84, 5, 2048) (84, 5, 2048) (84, 5, 2048) (84, 5, 2048) (84, 5, 2048) (84, 5, 2048) (84, 5, 2048) (84, 5, 2048) (84, 5, 2048) (84, 5, 2048) (84, 5, 2048) (84, 5, 2048) (84, 5, 2048) (84, 5, 2048) (84, 5, 2048) (84, 5, 2048) (84, 5, 2048) (84, 5, 2048) (84, 5, 2048) (84, 5, 2048) (84, 5, 2048) (84, 5, 2048) (84, 5, 2048) (84, 5, 2048) (84, 5, 2048) (84, 5, 2048) (84, 5, 2048) (84, 5, 2048) (84, 5, 2048) (84, 5, 2048) (84, 5, 2048) (84, 5, 2048) (84, 5, 2048) (84, 5, 2048) (84, 5, 2048) (84, 5, 2048) (84, 5, 2048) (84, 5, 2048) (84, 5, 2048) (84, 5, 2048) (84, 5, 2048) (84, 5, 2048) (84, 5, 2048) (84, 5, 2048) (84, 5, 2048) (84, 5, 2048) (84, 5, 2048) (84, 5, 2048) (84, 5, 2048) (84, 5, 2048) (84, 5, 2048) (84, 5, 2048) (84, 5, 2048) (84, 5, 2048) (84, 5, 2048) (84, 5, 2048) (84, 5, 2048) (84, 5, 2048) (84, 5, 2048) (84, 5, 2048) (84, 5, 2048) (84, 5, 2048) (84, 5, 2048) (84, 5, 2048) (84, 5, 2048) (84, 5, 2048) (84, 5, 2048) (84, 5, 2048) (84, 5, 2048) (84, 5, 2048) (84, 5, 2048) (84, 5, 2048) (84, 5, 2048) (84, 5, 2048) (84, 5, 2048) (84, 5, 2048) (84, 5, 2048) (84, 5, 2048) (84, 5, 2048) (84, 5, 2048) (84, 5, 2048) (84, 5, 2048) (84, 5, 2048) (84, 5, 2048) (84, 5, 2048) (84, 5, 2048) (84, 5, 2048) (84, 5, 2048) (84, 5, 2048) (84, 5, 2048) (84, 5, 2048) (84, 5, 2048) (84, 5, 2048) (84, 5, 2048) (84, 5, 2048) (84, 5, 2048) (84, 5, 2048) (84, 5, 2048) (84, 5, 2048) (84, 5, 2048) (84, 5, 2048) (84, 5, 2048) (84, 5, 2048) (84, 5, 2048) (84, 5, 2048) (84, 5, 2048) (84, 5, 2048) (84, 5, 2048) (84, 5, 2048) (84, 5, 2048) (84, 5, 2048) (84, 5, 2048) (84, 5, 2048) (84, 5, 2048) (84, 5, 2048) (84, 5, 2048) (84, 5, 2048) (84, 5, 2048) (84, 5, 2048) (84, 5, 2048) (84, 5, 2048) (84, 5, 2048) (84, 5, 2048) (84, 5, 2048) (84, 5, 2048) (84, 5, 2048) (84, 5, 2048) (84, 5, 2048) (84, 5, 2048) (84, 5, 2048) (84, 5, 2048) (84, 5, 2048) (84, 5, 2048) (84, 5, 2048) (84, 5, 2048) (84, 5, 2048) (84, 5, 2048) (84, 5, 2048) (84, 5, 2048) (84, 5, 2048) (84, 5, 2048) (84, 5, 2048) (84, 5, 2048) (84, 5, 2048) (84, 5, 2048) (84, 5, 2048) (84, 5, 2048) (84, 5, 2048) (84, 5, 2048) (84, 5, 2048) (84, 5, 2048) (84, 5, 2048) (84, 5, 2048) (84, 5, 2048) (84, 5, 2048) (84, 5, 2048) (84, 5, 2048) (84, 5, 2048) (84, 5, 2048) (84, 5, 2048) (84, 5, 2048) (84, 5, 2048) (84, 5, 2048) (84, 5, 2048) (84, 5, 2048) (84, 5, 2048) (84, 5, 2048) (84, 5, 2048) (84, 5, 2048) (84, 5, 2048) (84, 5, 2048) (84, 5, 2048) (84, 5, 2048) (84, 5, 2048) (84, 5, 2048) (84, 5, 2048) (84, 5, 2048) (84, 5, 2048) (84, 5, 2048) (84, 5, 2048) (84, 5, 2048) (84, 5, 2048) (84, 5, 2048) (84, 5, 2048) (84, 5, 2048) (84, 5, 2048) (84, 5, 2048) (84, 5, 2048) (84, 5, 2048) (84, 5, 2048) (84, 5, 2048) (84, 5, 2048) (84, 5, 2048) (84, 5, 2048) (84, 5, 2048) (84, 5, 2048) (84, 5, 2048) (84, 5, 2048) (84, 5, 2048) (84, 5, 2048) (84, 5, 2048) (84, 5, 2048) (84, 5, 2048) (84, 5, 2048) (84, 5, 2048) (84, 5, 2048) (84, 5, 2048) (84, 5, 2048) (84, 5, 2048) (84, 5, 2048) (84, 5, 2048) (84, 5, 2048) (84, 5, 2048) (84, 5, 2048) (84, 5, 2048) (84, 5, 2048) (84, 5, 2048) (84, 5, 2048) (84, 5, 2048) (84, 5, 2048) (84, 5, 2048) (84, 5, 2048) (84, 5, 2048) (84, 5, 2048) (84, 5, 2048) (84, 5, 2048) (84, 5, 2048) (84, 5, 2048) (84, 5, 2048) (84, 5, 2048) (84, 5, 2048) (84, 5, 2048) (84, 5, 2048) (84, 5, 2048) (84, 5, 2048) (84, 5, 2048) (84, 5, 2048) (84, 5, 2048) (84, 5, 2048) (84, 5, 2048) (84, 5, 2048) (84, 5, 2048) (84, 5, 2048) (84, 5, 2048) (84, 5, 2048) (84, 5, 2048) (84, 5, 2048) (84, 5, 2048) (84, 5, 2048) (84, 5, 2048) (84, 5, 2048) (84, 5, 2048) (84, 5, 2048) (84, 5, 2048) (84, 5, 2048) (84, 5, 2048) (84, 5, 2048) (84, 5, 2048) (84, 5, 2048) (84, 5, 2048) (84, 5, 2048) (84, 5, 2048) (84, 5, 2048) (84, 5, 2048) (84, 5, 2048) (84, 5, 2048) (0, 5, 2048) (501, 5, 2048) (501, 5, 2048) (501, 5, 2048) (501, 5, 2048) (501, 5, 2048) (501, 5, 2048) (501, 5, 2048) (501, 5, 2048) (501, 5, 2048) (501, 5, 2048) (501, 5, 2048) (501, 5, 2048) (501, 5, 2048) (501, 5, 2048) (501, 5, 2048) (501, 5, 2048) (501, 5, 2048) (501, 5, 2048) (501, 5, 2048) (501, 5, 2048) (501, 5, 2048) (501, 5, 2048) (501, 5, 2048) (501, 5, 2048) (501, 5, 2048) (501, 5, 2048) (501, 5, 2048) (501, 5, 2048) (501, 5, 2048) (501, 5, 2048) (501, 5, 2048) (501, 5, 2048) (501, 5, 2048) (501, 5, 2048) (501, 5, 2048) (501, 5, 2048) (501, 5, 2048) (501, 5, 2048) (501, 5, 2048) (501, 5, 2048) (501, 5, 2048) (501, 5, 2048) (501, 5, 2048) (501, 5, 2048) (501, 5, 2048) (501, 5, 2048) (501, 5, 2048) (501, 5, 2048) (501, 5, 2048) (501, 5, 2048) (501, 5, 2048) (501, 5, 2048) (501, 5, 2048) (501, 5, 2048) (501, 5, 2048) (501, 5, 2048) (501, 5, 2048) (501, 5, 2048) (501, 5, 2048) (501, 5, 2048) (501, 5, 2048) (501, 5, 2048) (501, 5, 2048) (501, 5, 2048) (501, 5, 2048) (501, 5, 2048) (501, 5, 2048) (501, 5, 2048) (501, 5, 2048) (501, 5, 2048) (501, 5, 2048) (501, 5, 2048) (501, 5, 2048) (501, 5, 2048) (501, 5, 2048) (501, 5, 2048) (501, 5, 2048) (501, 5, 2048) (501, 5, 2048) (501, 5, 2048) (501, 5, 2048) (501, 5, 2048) (501, 5, 2048) (501, 5, 2048) (501, 5, 2048) (501, 5, 2048) (501, 5, 2048) (501, 5, 2048) (501, 5, 2048) (501, 5, 2048) (501, 5, 2048) (501, 5, 2048) (501, 5, 2048) (501, 5, 2048) (501, 5, 2048) (501, 5, 2048) (501, 5, 2048) (501, 5, 2048) (501, 5, 2048) (501, 5, 2048) (501, 5, 2048) (501, 5, 2048) (501, 5, 2048) (501, 5, 2048) (501, 5, 2048) (501, 5, 2048) (501, 5, 2048) (501, 5, 2048) (501, 5, 2048) (501, 5, 2048) (501, 5, 2048) (501, 5, 2048) (501, 5, 2048) (501, 5, 2048) (501, 5, 2048) (501, 5, 2048) (501, 5, 2048) (501, 5, 2048) (501, 5, 2048) (501, 5, 2048) (501, 5, 2048) (501, 5, 2048) (501, 5, 2048) (501, 5, 2048) (501, 5, 2048) (501, 5, 2048) (501, 5, 2048) (501, 5, 2048) (0, 5, 2048) (129, 5, 2048) (129, 5, 2048) (129, 5, 2048) (129, 5, 2048) (129, 5, 2048) (129, 5, 2048) (129, 5, 2048) (129, 5, 2048) (129, 5, 2048) (129, 5, 2048) (129, 5, 2048) (129, 5, 2048) (129, 5, 2048) (129, 5, 2048) (129, 5, 2048) (129, 5, 2048) (129, 5, 2048) (129, 5, 2048) (129, 5, 2048) (129, 5, 2048) (129, 5, 2048) (129, 5, 2048) (129, 5, 2048) (129, 5, 2048) (129, 5, 2048) (129, 5, 2048) (129, 5, 2048) (129, 5, 2048) (129, 5, 2048) (129, 5, 2048) (129, 5, 2048) (129, 5, 2048) (129, 5, 2048) (129, 5, 2048) (129, 5, 2048) (129, 5, 2048) (129, 5, 2048) (129, 5, 2048) (129, 5, 2048) (129, 5, 2048) (129, 5, 2048) (129, 5, 2048) (129, 5, 2048) (129, 5, 2048) (129, 5, 2048) (129, 5, 2048) (129, 5, 2048) (129, 5, 2048) (129, 5, 2048) (129, 5, 2048) (129, 5, 2048) (129, 5, 2048) (129, 5, 2048) (129, 5, 2048) (129, 5, 2048) (129, 5, 2048) (129, 5, 2048) (129, 5, 2048) (129, 5, 2048) (129, 5, 2048) (129, 5, 2048) (129, 5, 2048) (129, 5, 2048) (129, 5, 2048) (0, 5, 2048) (65, 5, 2048) (65, 5, 2048) (65, 5, 2048) (65, 5, 2048) (65, 5, 2048) (65, 5, 2048) (65, 5, 2048) (65, 5, 2048) (65, 5, 2048) (65, 5, 2048) (65, 5, 2048) (65, 5, 2048) (0, 5, 2048) (13, 5, 2048) (0, 5, 2048) 
connections (connected_to_neuron, weight)=(0, 392) (1, 184) (2, 469) (3, 521) (4, -389) (5, -264) (6, 394) (7, 592) (8, -550) (9, -95) (10, 499) (11, -319) (12, -284) (13, 437) (14, -600) (15, -77) (16, -142) (17, -207) (18, -303) (19, -533) (20, 459) (21, 392) (22, -241) (23, 32) (24, -234) (25, -211) (26, -597) (27, -97) (28, 125) (29, -275) (30, 593) (31, -132) (32, 522) (33, 457) (34, -226) (35, -464) (36, -405) (37, -421) (38, -486) (39, -339) (40, 100) (41, -604) (42, -54) (43, 421) (44, 460) (45, -15) (46, -250) (47, -305) (48, 382) (49, 60) (50, -233) (51, 195) (52, -194) (53, 89) (54, -411) (55, 216) (56, 481) (57, -367) (58, -499) (59, -14) (60, -68) (61, -541) (62, 489) (63, -138) (64, 515) (65, -366) (66, 20) (67, -470) (68, -151) (69, 157) (70, -205) (71, 562) (72, 161) (73, 395) (74, 378) (75, -19) (76, -291) (77, -517) (78, 304) (79, -536) (80, 135) (81, -583) (82, 306) (83, 610) (0, 193) (1, 517) (2, 187) (3, -28) (4, -460) (5, 254) (6, -565) (7, 130) (8, 378) (9, 532) (10, -614) (11, 304) (12, -433) (13, 27) (14, 439) (15, 32) (16, -436) (17, -381) (18, -19) (19, 253) (20, 602) (21, -244) (22, -280) (23, -302) (24, -132) (25, -590) (26, -172) (27, -578) (28, -543) (29, -474) (30, -595) (31, 215) (32, -555) (33, 207) (34, -375) (35, -393) (36, -115) (37, -337) (38, 355) (39, -350) (40, -422) (41, 355) (42, 568) (43, -238) (44, -235) (45, 390) (46, 409) (47, -55) (48, -606) (49, -235) (50, -327) (51, -612) (52, 157) (53, 52) (54, -277) (55, -581) (56, 33) (57, 154) (58, -575) (59, 181) (60, 305) (61, -537) (62, -296) (63, 375) (64, 267) (65, -32) (66, 614) (67, -455) (68, 239) (69, 325) (70, -183) (71, 451) (72, 86) (73, -234) (74, -427) (75, 453) (76, -443) (77, 612) (78, -216) (79, -457) (80, -238) (81, 92) (82, -444) (83, 508) (0, -551) (1, -81) (2, 519) (3, 109) (4, -559) (5, 562) (6, -401) (7, 343) (8, -610) (9, -55) (10, 93) (11, 280) (12, 514) (13, 68) (14, 438) (15, 128) (16, -220) (17, -373) (18, -63) (19, 447) (20, 3) (21, 118) (22, 323) (23, 113) (24, 107) (25, -544) (26, 305) (27, 473) (28, 139) (29, 462) (30, 366) (31, 222) (32, -279) (33, 263) (34, -273) (35, -242) (36, 206) (37, -39) (38, -513) (39, 210) (40, 523) (41, 197) (42, -120) (43, 426) (44, -355) (45, -308) (46, -72) (47, 43) (48, -60) (49, 483) (50, -113) (51, 523) (52, -9) (53, -420) (54, 123) (55, -519) (56, -368) (57, -210) (58, 565) (59, 419) (60, -401) (61, 319) (62, 23) (63, -28) (64, -31) (65, 368) (66, 313) (67, -452) (68, -327) (69, 424) (70, 358) (71, -395) (72, 28) (73, -349) (74, -594) (75, 272) (76, -58) (77, -54) (78, -303) (79, 481) (80, -139) (81, 214) (82, 456) (83, 430) (0, 347) (1, -51) (2, 542) (3, -561) (4, 336) (5, 493) (6, 412) (7, 553) (8, 184) (9, -158) (10, -104) (11, -467) (12, -425) (13, -385) (14, -297) (15, -113) (16, -561) (17, -532) (18, 105) (19, 68) (20, -309) (21, 76) (22, -279) (23, 334) (24, -520) (25, 81) (26, 193) (27, -89) (28, -310) (29, 28) (30, -271) (31, -515) (32, 567) (33, -357) (34, -460) (35, 268) (36, -491) (37, 611) (38, 202) (39, 308) (40, -164) (41, -515) (42, 470) (43, 39) (44, -297) (45, -468) (46, 518) (47, -236) (48, -370) (49, 28) (50, 482) (51, -39) (52, -518) (53, -404) (54, -346) (55, -391) (56, 328) (57, 479) (58, 119) (59, 591) (60, -131) (61, 500) (62, -522) (63, -154) (64, -434) (65, -420) (66, -431) (67, -361) (68, -374) (69, 322) (70, 567) (71, 67) (72, 387) (73, 415) (74, -499) (75, -487) (76, 558) (77, -619) (78, -114) (79, -359) (80, 15) (81, -210) (82, 201) (83, 163) (0, -27) (1, 423) (2, 390) (3, -342) (4, 269) (5, -49) (6, -394) (7, -451) (8, -192) (9, -328) (10, -8) (11, -60) (12, -90) (13, 85) (14, 197) (15, 140) (16, -234) (17, 146) (18, -410) (19, -429) (20, -26) (21, -322) (22, -361) (23, -113) (24, -329) (25, 154) (26, 86) (27, 333) (28, 497) (29, -359) (30, -108) (31, -182) (32, -533) (33, -317) (34, 44) (35, 373) (36, 236) (37, 253) (38, 540) (39, -572) (40, 541) (41, -86) (42, -35) (43, -184) (44, -598) (45, -418) (46, 609) (47, -225) (48, 325) (49, -437) (50, -72) (51, -348) (52, -149) (53, 166) (54, 141) (55, 150) (56, -296) (57, -399) (58, -111) (59, -399) (60, -144) (61, 365) (62, 33) (63, -36) (64, -553) (65, -523) (66, -284) (67, 314) (68, 349) (69, -358) (70, 341) (71, 254) (72, 157) (73, -304) (74, -550) (75, 185) (76, -96) (77, -532) (78, 534) (79, -400) (80, -363) (81, -167) (82, -160) (83, 144) (0, -520) (1, -609) (2, -312) (3, -159) (4, -360) (5, 264) (6, 45) (7, 134) (8, -43) (9, -529) (10, -523) (11, 33) (12, -432) (13, -188) (14, -271) (15, 533) (16, 68) (17, -533) (18, 190) (19, -417) (20, -189) (21, 257) (22, 441) (23, 338) (24, 390) (25, 347) (26, 551) (27, -588) (28, -405) (29, -193) (30, 154) (31, -341) (32, -171) (33, 450) (34, 78) (35, 86) (36, 13) (37, -502) (38, -398) (39, 585) (40, -414) (41, -302) (42, 13) (43, -220) (44, 117) (45, 340) (46, -321) (47, -427) (48, 433) (49, 494) (50, -186) (51, -361) (52, 189) (53, -413) (54, 549) (55, -109) (56, 567) (57, 496) (58, -43) (59, -418) (60, -289) (61, -494) (62, -166) (63, 159) (64, 591) (65, 514) (66, -367) (67, -21) (68, -617) (69, -193) (70, -70) (71, -391) (72, 145) (73, 553) (74, 2) (75, -372) (76, 289) (77, 291) (78, -159) (79, 120) (80, 200) (81, 294) (82, 354) (83, -272) (0, 449) (1, 264) (2, 303) (3, 460) (4, 171) (5, -386) (6, -581) (7, 474) (8, -229) (9, -160) (10, -10) (11, -272) (12, -254) (13, 207) (14, 313) (15, -233) (16, -587) (17, -363) (18, -10) (19, 138) (20, -438) (21, 588) (22, 406) (23, 487) (24, 289) (25, -347) (26, -21) (27, -159) (28, 543) (29, -292) (30, 194) (31, 428) (32, 616) (33, -127) (34, 270) (35, 170) (36, 137) (37, 282) (38, 29) (39, 526) (40, -495) (41, -600) (42, -355) (43, -124) (44, 217) (45, 558) (46, 243) (47, 251) (48, -413) (49, -388) (50, -198) (51, -199) (52, -387) (53, -378) (54, -339) (55, 531) (56, -121) (57, 237) (58, -268) (59, -166) (60, 591) (61, 558) (62, -373) (63, 591) (64, -199) (65, 520) (66, 100) (67, 547) (68, 184) (69, -444) (70, 467) (71, 309) (72, -417) (73, -500) (74, -448) (75, 419) (76, -567) (77, 432) (78, 56) (79, -377) (80, -570) (81, 445) (82, 32) (83, -363) (0, -656) (1, 308) (2, -467) (3, -39) (4, -72) (5, -54) (6, 351) (7, -108) (8, -195) (9, -614) (10, -151) (11, 218) (12, 510) (13, 593) (14, 153) (15, 66) (16, -484) (17, -5) (18, -256) (19, -315) (20, 81) (21, -127) (22, -552) (23, 86) (24, -298) (25, 125) (26, 388) (27, -259) (28, -36) (29, -196) (30, 2) (31, 35) (32, -511) (33, 153) (34, 605) (35, 41) (36, -583) (37, 370) (38, 548) (39, -162) (40, 372) (41, -219) (42, -562) (43, 263) (44, -241) (45, 210) (46, -284) (47, -109) (48, -411) (49, 82) (50, 200) (51, 297) (52, 572) (53, 282) (54, -180) (55, -360) (56, -186) (57, -379) (58, 33) (59, 374) (60, 14) (61, -565) (62, -211) (63, 138) (64, 206) (65, -194) (66, -439) (67, 230) (68, -447) (69, -529) (70, -556) (71, 503) (72, -136) (73, -521) (74, 162) (75, 251) (76, 331) (77, 489) (78, -481) (79, 537) (80, -58) (81, 331) (82, 227) (83, -59) (0, 14) (1, -556) (2, 273) (3, 396) (4, -355) (5, -289) (6, 166) (7, 258) (8, -289) (9, 578) (10, -241) (11, 524) (12, -258) (13, -82) (14, 138) (15, -108) (16, 8) (17, 206) (18, -204) (19, 505) (20, 350) (21, 587) (22, 160) (23, 75) (24, 497) (25, 260) (26, -32) (27, -194) (28, -24) (29, -430) (30, 362) (31, 596) (32, -390) (33, -14) (34, 392) (35, -143) (36, 270) (37, -58) (38, -503) (39, 592) (40, -92) (41, -125) (42, 538) (43, 298) (44, 378) (45, -4) (46, -490) (47, -214) (48, -382) (49, -55) (50, -339) (51, 569) (52, -57) (53, 447) (54, 22) (55, -248) (56, 88) (57, 599) (58, 187) (59, -564) (60, -468) (61, -60) (62, -557) (63, -232) (64, 524) (65, 405) (66, 212) (67, 195) (68, -238) (69, 364) (70, 214) (71, 271) (72, -359) (73, 95) (74, -52) (75, -610) (76, -506) (77, 97) (78, -159) (79, -289) (80, -566) (81, 128) (82, -316) (83, -82) (0, -108) (1, 267) (2, 333) (3, 577) (4, 233) (5, -59) (6, -570) (7, 379) (8, 460) (9, -563) (10, -477) (11, 382) (12, 467) (13, 372) (14, -42) (15, -405) (16, 105) (17, -484) (18, 480) (19, 323) (20, 174) (21, -215) (22, 358) (23, 288) (24, 473) (25, -451) (26, 611) (27, 504) (28, 281) (29, -349) (30, -162) (31, -414) (32, 534) (33, -444) (34, -427) (35, 146) (36, 80) (37, -396) (38, -91) (39, -78) (40, -344) (41, 49) (42, -313) (43, -493) (44, -195) (45, 263) (46, -281) (47, 526) (48, 394) (49, -430) (50, 239) (51, -36) (52, -53) (53, -25) (54, -374) (55, -195) (56, 130) (57, -372) (58, -304) (59, -215) (60, -74) (61, 181) (62, 11) (63, -199) (64, 356) (65, 171) (66, 610) (67, -198) (68, 413) (69, -118) (70, 357) (71, -578) (72, 536) (73, -578) (74, -431) (75, -284) (76, 304) (77, -95) (78, -362) (79, 73) (80, 105) (81, 463) (82, -557) (83, -533) (0, -181) (1, -286) (2, -52) (3, 597) (4, -42) (5, 247) (6, -249) (7, 462) (8, -182) (9, 390) (10, -335) (11, -449) (12, -37) (13, -368) (14, -21) (15, -245) (16, 125) (17, -289) (18, -180) (19, 84) (20, -234) (21, -22) (22, 406) (23, -570) (24, 560) (25, -585) (26, 127) (27, 19) (28, 522) (29, 177) (30, 102) (31, -250) (32, 485) (33, -595) (34, -275) (35, -188) (36, 279) (37, 114) (38, -345) (39, -523) (40, -110) (41, -60) (42, -322) (43, 498) (44, 160) (45, 214) (46, -422) (47, -317) (48, 571) (49, 41) (50, 344) (51, -299) (52, -597) (53, 145) (54, -224) (55, 592) (56, 191) (57, 522) (58, -3) (59, 59) (60, 88) (61, -537) (62, 476) (63, -64) (64, -451) (65, -440) (66, 387) (67, 394) (68, 282) (69, -605) (70, 456) (71, -421) (72, -19) (73, -453) (74, -554) (75, -472) (76, 384) (77, -358) (78, -156) (79, 334) (80, 311) (81, -374) (82, -549) (83, 317) (0, 325) (1, -222) (2, 319) (3, -139) (4, -325) (5, -313) (6, 627) (7, 337) (8, -236) (9, 422) (10, -354) (11, -130) (12, 592) (13, 616) (14, -361) (15, 263) (16, -605) (17, -495) (18, 438) (19, -54) (20, -358) (21, 473) (22, 137) (23, -584) (24, -507) (25, 561) (26, 338) (27, 396) (28, -470) (29, 370) (30, 126) (31, 489) (32, -462) (33, -180) (34, -229) (35, -181) (36, 116) (37, -253) (38, -461) (39, 494) (40, -445) (41, -198) (42, -242) (43, -462) (44, -206) (45, -3) (46, 401) (47, -190) (48, 127) (49, 224) (50, 391) (51, 385) (52, 78) (53, -88) (54, 405) (55, 179) (56, -145) (57, 81) (58, -42) (59, -4) (60, -145) (61, -534) (62, -146) (63, 19) (64, -85) (65, 228) (66, 499) (67, -587) (68, 588) (69, 596) (70, 523) (71, -458) (72, -210) (73, -335) (74, -295) (75, 199) (76, 251) (77, -554) (78, -594) (79, -196) (80, 331) (81, 434) (82, -439) (83, -218) (0, -306) (1, 501) (2, 598) (3, 109) (4, 58) (5, -132) (6, -524) (7, 530) (8, 24) (9, -42) (10, -68) (11, 551) (12, -423) (13, -231) (14, 576) (15, -438) (16, -238) (17, 479) (18, -284) (19, 160) (20, -450) (21, 48) (22, -239) (23, 430) (24, 120) (25, -205) (26, -424) (27, -181) (28, -400) (29, -259) (30, 226) (31, -96) (32, -321) (33, 199) (34, -581) (35, 344) (36, -481) (37, -471) (38, 258) (39, 159) (40, 102) (41, -425) (42, 102) (43, 306) (44, -50) (45, 42) (46, 466) (47, 333) (48, -87) (49, -438) (50, -110) (51, 85) (52, 206) (53, 294) (54, -159) (55, -240) (56, -522) (57, 39) (58, 140) (59, -309) (60, 388) (61, -274) (62, 204) (63, -573) (64, 556) (65, 226) (66, 402) (67, -536) (68, 378) (69, 40) (70, 273) (71, -147) (72, 258) (73, -250) (74, -442) (75, -412) (76, 411) (77, -571) (78, 537) (79, -328) (80, -386) (81, -175) (82, 369) (83, 408) (0, -526) (1, -464) (2, -485) (3, -467) (4, 206) (5, 264) (6, -147) (7, -21) (8, -608) (9, -579) (10, 45) (11, 572) (12, 268) (13, -162) (14, -579) (15, 28) (16, 506) (17, 279) (18, 506) (19, 142) (20, 660) (21, -564) (22, 336) (23, 379) (24, -539) (25, 248) (26, -556) (27, -342) (28, -554) (29, 404) (30, -541) (31, -460) (32, 584) (33, -421) (34, -291) (35, 175) (36, 455) (37, 167) (38, -461) (39, 462) (40, 206) (41, 200) (42, 430) (43, -132) (44, -589) (45, 446) (46, 490) (47, 539) (48, 119) (49, 391) (50, 53) (51, 136) (52, 461) (53, -213) (54, -112) (55, 509) (56, -583) (57, -64) (58, -426) (59, -534) (60, -278) (61, -399) (62, -376) (63, -299) (64, -163) (65, -43) (66, 500) (67, -335) (68, -503) (69, -593) (70, -484) (71, 340) (72, 227) (73, 543) (74, -431) (75, 269) (76, 397) (77, -530) (78, 205) (79, -123) (80, 436) (81, -356) (82, 617) (83, 264) (0, 32) (1, -114) (2, 164) (3, 29) (4, 410) (5, 307) (6, 180) (7, -454) (8, 570) (9, 357) (10, -143) (11, -227) (12, -315) (13, -272) (14, 47) (15, -201) (16, -245) (17, 168) (18, -498) (19, 638) (20, 54) (21, -294) (22, 234) (23, -74) (24, -262) (25, -175) (26, 357) (27, -427) (28, 76) (29, 355) (30, 465) (31, -517) (32, -383) (33, 14) (34, 138) (35, -565) (36, -272) (37, -360) (38, -403) (39, -321) (40, 615) (41, 71) (42, 70) (43, -316) (44, 416) (45, -499) (46, 101) (47, -445) (48, 285) (49, 221) (50, -472) (51, -236) (52, 500) (53, 407) (54, 229) (55, -348) (56, -394) (57, -54) (58, -195) (59, 275) (60, -294) (61, -305) (62, 397) (63, -64) (64, 284) (65, -122) (66, -35) (67, -575) (68, 170) (69, 209) (70, -291) (71, 168) (72, -330) (73, 402) (74, 481) (75, -526) (76, 506) (77, -56) (78, -406) (79, 153) (80, -437) (81, -216) (82, 562) (83, -540) (0, -463) (1, 183) (2, -289) (3, -174) (4, -475) (5, 106) (6, -471) (7, -137) (8, 441) (9, 495) (10, 426) (11, 129) (12, -201) (13, -194) (14, 160) (15, 595) (16, -600) (17, 488) (18, 155) (19, -258) (20, 286) (21, 64) (22, -253) (23, 186) (24, 596) (25, 13) (26, -262) (27, -457) (28, 417) (29, -317) (30, -380) (31, 605) (32, 478) (33, -54) (34, -217) (35, -604) (36, -518) (37, -123) (38, -123) (39, 539) (40, -242) (41, -316) (42, 53) (43, 174) (44, 107) (45, -405) (46, 151) (47, 124) (48, -533) (49, -310) (50, 412) (51, 369) (52, 329) (53, -443) (54, -106) (55, 336) (56, 208) (57, 237) (58, 478) (59, -25) (60, 533) (61, -534) (62, -24) (63, 410) (64, 27) (65, 379) (66, 397) (67, 129) (68, -350) (69, -275) (70, 63) (71, 54) (72, 22) (73, -503) (74, -410) (75, -498) (76, -303) (77, 342) (78, 219) (79, -269) (80, -594) (81, 33) (82, -484) (83, 363) (0, 240) (1, 76) (2, 43) (3, -182) (4, -269) (5, -66) (6, 410) (7, -361) (8, -19) (9, -214) (10, -553) (11, -607) (12, -444) (13, 501) (14, 138) (15, -178) (16, -418) (17, -427) (18, 461) (19, 213) (20, -321) (21, -595) (22, 333) (23, -64) (24, 383) (25, -83) (26, 391) (27, 429) (28, 568) (29, 529) (30, 176) (31, 171) (32, -42) (33, -389) (34, 588) (35, 266) (36, 125) (37, 388) (38, 522) (39, -512) (40, -443) (41, 589) (42, -509) (43, -278) (44, 480) (45, 260) (46, 175) (47, -558) (48, 442) (49, 12) (50, 235) (51, -512) (52, 27) (53, -77) (54, 116) (55, -201) (56, 454) (57, -107) (58, -383) (59, 395) (60, -177) (61, 426) (62, -22) (63, 370) (64, -568) (65, -16) (66, 0) (67, 135) (68, -281) (69, -60) (70, 271) (71, -134) (72, -129) (73, 367) (74, 235) (75, -275) (76, -4) (77, -221) (78, -161) (79, -154) (80, 422) (81, -579) (82, -26) (83, -135) (0, -11) (1, -551) (2, 289) (3, -122) (4, -63) (5, 603) (6, -327) (7, 376) (8, 375) (9, 258) (10, 132) (11, 417) (12, -409) (13, -462) (14, -32) (15, -71) (16, 84) (17, -377) (18, 440) (19, 567) (20, -624) (21, -16) (22, -283) (23, 14) (24, 459) (25, 168) (26, 498) (27, 276) (28, 232) (29, -151) (30, -483) (31, -384) (32, -75) (33, 436) (34, 89) (35, 505) (36, 378) (37, 371) (38, 263) (39, 139) (40, 10) (41, -221) (42, -76) (43, 205) (44, -55) (45, 534) (46, -458) (47, -594) (48, -472) (49, 583) (50, -606) (51, -456) (52, -15) (53, -284) (54, 177) (55, -142) (56, 517) (57, 51) (58, -482) (59, 142) (60, 519) (61, -320) (62, 363) (63, -122) (64, -494) (65, -156) (66, -248) (67, 503) (68, -403) (69, 621) (70, 35) (71, 206) (72, -221) (73, 546) (74, -182) (75, 323) (76, 460) (77, -28) (78, 331) (79, 640) (80, -54) (81, 369) (82, -455) (83, 602) (0, -533) (1, 272) (2, -132) (3, 641) (4, -174) (5, 33) (6, 112) (7, -290) (8, 321) (9, -118) (10, 169) (11, 436) (12, 344) (13, 515) (14, 313) (15, 557) (16, 508) (17, -292) (18, 164) (19, -323) (20, -323) (21, 566) (22, 614) (23, -511) (24, -34) (25, 316) (26, -492) (27, 515) (28, 35) (29, -339) (30, 487) (31, 112) (32, -615) (33, -269) (34, 98) (35, -207) (36, 371) (37, -393) (38, 120) (39, 74) (40, 107) (41, -327) (42, -96) (43, -158) (44, -435) (45, -415) (46, -232) (47, -540) (48, -82) (49, 550) (50, -258) (51, 233) (52, 544) (53, -297) (54, 313) (55, -114) (56, -570) (57, 461) (58, -233) (59, 64) (60, -509) (61, -355) (62, -409) (63, -489) (64, 1) (65, 293) (66, -122) (67, -257) (68, 508) (69, -592) (70, 455) (71, -1) (72, -305) (73, -269) (74, 458) (75, -128) (76, -66) (77, -385) (78, -47) (79, 458) (80, -429) (81, 327) (82, 46) (83, -529) (0, -526) (1, -236) (2, 6) (3, -555) (4, -412) (5, 404) (6, 153) (7, -321) (8, -578) (9, 344) (10, -216) (11, 42) (12, 13) (13, 299) (14, 416) (15, -94) (16, 320) (17, 250) (18, 522) (19, -600) (20, 651) (21, 411) (22, -77) (23, -83) (24, 608) (25, 473) (26, -227) (27, -483) (28, 175) (29, 437) (30, -388) (31, 219) (32, -430) (33, 210) (34, 302) (35, -239) (36, -23) (37, -160) (38, 56) (39, 13) (40, -430) (41, 456) (42, -533) (43, 224) (44, 116) (45, 450) (46, -536) (47, -169) (48, 108) (49, -614) (50, -155) (51, 83) (52, 393) (53, 396) (54, -565) (55, 342) (56, 256) (57, -210) (58, 493) (59, -208) (60, -373) (61, -555) (62, -595) (63, -230) (64, 292) (65, 326) (66, 150) (67, -347) (68, -470) (69, -377) (70, 307) (71, -254) (72, -520) (73, 376) (74, 551) (75, 197) (76, 198) (77, -582) (78, -546) (79, -279) (80, -556) (81, -87) (82, 413) (83, 375) (0, -358) (1, 428) (2, 94) (3, 464) (4, -472) (5, -16) (6, -374) (7, -223) (8, 48) (9, -334) (10, 181) (11, -278) (12, 587) (13, -273) (14, -10) (15, -499) (16, -52) (17, -342) (18, -165) (19, 44) (20, -620) (21, -241) (22, -462) (23, 196) (24, -249) (25, -357) (26, 513) (27, -194) (28, 164) (29, 292) (30, -411) (31, 434) (32, 75) (33, 322) (34, 312) (35, 254) (36, -326) (37, 593) (38, -584) (39, 341) (40, -360) (41, 210) (42, -579) (43, -412) (44, 576) (45, 73) (46, -250) (47, -104) (48, 325) (49, 180) (50, 523) (51, 301) (52, 495) (53, -491) (54, -81) (55, -321) (56, -282) (57, -171) (58, 103) (59, 493) (60, -533) (61, 326) (62, 326) (63, 163) (64, 8) (65, 45) (66, -218) (67, 338) (68, 21) (69, -140) (70, 49) (71, 276) (72, -564) (73, 88) (74, 480) (75, 647) (76, -420) (77, -375) (78, -145) (79, 456) (80, 387) (81, -249) (82, 170) (83, 364) (0, -128) (1, -479) (2, -550) (3, 273) (4, -42) (5, 156) (6, 153) (7, 23) (8, -112) (9, -109) (10, -417) (11, 542) (12, 552) (13, 15) (14, 253) (15, -45) (16, 477) (17, -314) (18, -385) (19, 539) (20, 411) (21, -464) (22, 548) (23, 587) (24, -247) (25, -218) (26, 436) (27, -475) (28, 168) (29, 14) (30, 482) (31, -569) (32, 123) (33, 528) (34, 292) (35, -574) (36, 84) (37, -168) (38, 64) (39, 584) (40, 343) (41, 265) (42, 536) (43, 299) (44, -356) (45, 131) (46, -404) (47, -485) (48, 453) (49, -159) (50, -574) (51, 237) (52, 5) (53, 571) (54, 215) (55, 331) (56, -246) (57, 38) (58, 453) (59, 529) (60, -573) (61, 329) (62, 599) (63, 142) (64, 226) (65, 249) (66, 165) (67, -314) (68, -529) (69, -352) (70, -326) (71, 422) (72, 532) (73, -409) (74, 116) (75, -432) (76, 330) (77, 315) (78, -288) (79, 161) (80, -437) (81, -187) (82, -168) (83, 118) (0, -277) (1, -623) (2, -179) (3, 106) (4, 14) (5, -317) (6, 6) (7, 60) (8, 612) (9, -20) (10, -400) (11, 228) (12, -383) (13, 416) (14, 546) (15, -295) (16, -551) (17, -396) (18, -479) (19, 603) (20, -188) (21, 214) (22, -451) (23, -487) (24, -75) (25, -99) (26, 308) (27, 114) (28, 297) (29, -501) (30, -364) (31, -577) (32, -493) (33, 88) (34, 143) (35, 149) (36, 379) (37, -455) (38, -407) (39, 376) (40, 139) (41, -191) (42, -28) (43, 359) (44, -378) (45, -70) (46, -523) (47, -320) (48, 135) (49, -402) (50, -340) (51, 544) (52, 421) (53, -177) (54, -564) (55, -234) (56, 336) (57, 370) (58, 474) (59, 16) (60, 462) (61, -502) (62, 54) (63, 608) (64, 205) (65, -415) (66, 127) (67, -13) (68, -244) (69, 351) (70, -271) (71, 496) (72, -480) (73, 347) (74, 269) (75, -232) (76, -346) (77, 353) (78, 54) (79, 401) (80, 560) (81, 286) (82, 318) (83, 407) (0, -484) (1, 386) (2, -479) (3, 484) (4, 139) (5, -523) (6, -78) (7, -5) (8, -437) (9, 598) (10, -17) (11, 402) (12, -426) (13, -496) (14, -228) (15, -55) (16, 466) (17, 133) (18, -161) (19, -644) (20, -163) (21, -526) (22, -234) (23, 127) (24, 429) (25, 435) (26, -94) (27, 399) (28, 140) (29, -388) (30, 175) (31, 292) (32, 609) (33, 335) (34, 177) (35, 122) (36, 379) (37, -522) (38, -498) (39, 562) (40, -544) (41, 101) (42, 320) (43, -377) (44, 244) (45, -476) (46, 231) (47, 82) (48, 249) (49, -570) (50, 77) (51, -513) (52, -476) (53, 458) (54, 234) (55, 563) (56, 231) (57, -487) (58, 355) (59, -194) (60, -226) (61, -47) (62, -552) (63, -248) (64, -339) (65, 251) (66, 465) (67, -592) (68, 343) (69, 578) (70, 573) (71, 420) (72, 58) (73, 303) (74, -555) (75, -315) (76, 446) (77, 292) (78, 377) (79, 98) (80, 330) (81, -188) (82, 170) (83, 506) (0, -390) (1, -183) (2, 469) (3, 577) (4, -53) (5, 298) (6, -243) (7, 324) (8, -430) (9, -162) (10, -544) (11, -150) (12, -512) (13, 560) (14, -106) (15, 463) (16, 549) (17, -122) (18, 277) (19, 37) (20, -386) (21, 360) (22, 323) (23, -548) (24, 20) (25, 94) (26, 115) (27, -265) (28, 548) (29, -312) (30, -400) (31, -390) (32, 115) (33, -546) (34, -438) (35, -548) (36, 311) (37, -73) (38, 392) (39, 497) (40, 383) (41, 466) (42, -269) (43, 486) (44, 411) (45, 244) (46, 335) (47, 344) (48, -495) (49, -3) (50, -254) (51, -288) (52, -327) (53, -542) (54, -246) (55, 334) (56, 175) (57, 474) (58, -537) (59, 88) (60, -447) (61, -312) (62, 328) (63, 276) (64, -220) (65, 482) (66, 354) (67, -525) (68, -193) (69, 118) (70, 582) (71, -410) (72, -26) (73, -311) (74, -555) (75, -221) (76, 553) (77, 400) (78, -515) (79, -564) (80, -231) (81, -114) (82, -233) (83, 132) (0, -9) (1, 197) (2, -122) (3, -491) (4, 6) (5, 56) (6, 169) (7, 176) (8, 304) (9, -67) (10, -156) (11, -540) (12, -175) (13, -419) (14, -454) (15, 261) (16, 328) (17, -487) (18, 464) (19, -286) (20, -173) (21, 552) (22, 80) (23, -243) (24, 322) (25, 197) (26, -168) (27, -507) (28, -556) (29, 224) (30, 239) (31, 3) (32, -250) (33, -495) (34, 116) (35, 372) (36, 106) (37, -281) (38, -69) (39, -208) (40, 268) (41, 393) (42, -134) (43, -527) (44, 593) (45, 36) (46, 358) (47, 303) (48, 161) (49, 197) (50, 600) (51, 577) (52, 104) (53, 62) (54, -242) (55, -221) (56, -390) (57, 246) (58, -71) (59, -315) (60, -172) (61, -438) (62, 327) (63, 169) (64, -317) (65, -169) (66, -59) (67, 399) (68, 178) (69, 477) (70, -426) (71, -187) (72, 257) (73, 46) (74, -84) (75, 222) (76, -510) (77, -345) (78, -67) (79, 255) (80, 469) (81, -105) (82, 256) (83, -22) (0, 690) (1, -621) (2, 400) (3, -307) (4, 178) (5, -272) (6, -30) (7, -583) (8, -76) (9, -315) (10, 216) (11, 224) (12, 135) (13, -466) (14, 13) (15, -313) (16, -597) (17, 212) (18, 124) (19, 292) (20, -256) (21, -587) (22, -107) (23, -202) (24, -332) (25, 432) (26, -590) (27, -457) (28, -273) (29, 278) (30, 134) (31, -291) (32, 289) (33, -61) (34, -37) (35, -109) (36, 301) (37, 549) (38, -73) (39, -389) (40, -384) (41, -478) (42, 426) (43, 345) (44, -305) (45, -134) (46, -540) (47, -296) (48, -561) (49, 171) (50, 601) (51, -285) (52, 207) (53, -179) (54, 90) (55, 527) (56, -326) (57, 108) (58, -548) (59, 19) (60, -236) (61, 145) (62, 318) (63, -544) (64, -507) (65, -332) (66, -29) (67, 462) (68, -355) (69, 536) (70, -554) (71, -147) (72, -599) (73, 490) (74, -411) (75, -297) (76, -279) (77, -327) (78, 27) (79, -249) (80, 474) (81, -8) (82, 102) (83, 85) (0, 467) (1, -403) (2, -2) (3, -482) (4, 309) (5, 12) (6, 185) (7, -491) (8, -384) (9, -77) (10, -413) (11, -246) (12, 239) (13, 171) (14, -425) (15, 487) (16, 64) (17, -379) (18, -266) (19, 76) (20, -540) (21, -49) (22, 415) (23, -146) (24, 279) (25, -185) (26, 227) (27, 97) (28, 418) (29, -278) (30, -457) (31, 275) (32, -66) (33, 129) (34, 433) (35, -343) (36, -454) (37, 3) (38, -219) (39, -224) (40, 541) (41, -13) (42, 178) (43, 194) (44, -489) (45, 311) (46, 7) (47, 208) (48, 577) (49, 376) (50, -304) (51, -531) (52, -286) (53, -480) (54, -76) (55, 631) (56, -49) (57, -467) (58, 65) (59, -253) (60, -110) (61, 269) (62, -584) (63, 405) (64, -226) (65, 420) (66, -519) (67, -52) (68, -134) (69, -126) (70, 322) (71, -228) (72, 472) (73, -136) (74, 557) (75, 610) (76, -403) (77, 2) (78, 241) (79, -436) (80, -287) (81, 551) (82, -361) (83, 46) (0, -582) (1, 149) (2, 75) (3, -48) (4, 296) (5, -498) (6, 320) (7, -504) (8, 385) (9, 308) (10, 518) (11, -477) (12, 131) (13, 581) (14, 56) (15, 574) (16, -190) (17, -250) (18, -290) (19, -346) (20, 188) (21, -359) (22, -345) (23, 427) (24, 212) (25, 449) (26, 536) (27, 538) (28, 354) (29, -481) (30, -3) (31, 377) (32, 259) (33, -559) (34, -287) (35, -100) (36, -416) (37, -604) (38, 10) (39, 582) (40, 321) (41, -85) (42, -494) (43, -150) (44, -134) (45, 150) (46, -220) (47, 299) (48, 530) (49, 114) (50, 552) (51, 114) (52, 365) (53, -422) (54, -103) (55, -39) (56, -592) (57, -186) (58, -147) (59, 367) (60, -50) (61, 496) (62, 159) (63, -407) (64, 555) (65, 447) (66, 167) (67, -511) (68, 449) (69, -505) (70, -529) (71, 192) (72, 46) (73, -406) (74, -567) (75, 515) (76, 333) (77, -227) (78, 180) (79, 301) (80, 569) (81, 180) (82, -193) (83, 286) (0, 407) (1, 259) (2, -360) (3, 427) (4, -487) (5, 109) (6, 147) (7, 72) (8, -21) (9, -343) (10, 285) (11, -98) (12, -495) (13, -218) (14, 24) (15, 601) (16, -92) (17, 115) (18, 168) (19, 539) (20, 306) (21, 190) (22, 493) (23, 34) (24, -605) (25, 95) (26, -279) (27, 552) (28, -351) (29, 121) (30, 235) (31, -610) (32, -197) (33, 482) (34, 386) (35, -80) (36, -20) (37, -94) (38, 607) (39, 574) (40, 181) (41, 277) (42, -129) (43, 313) (44, -568) (45, 491) (46, 277) (47, -38) (48, 0) (49, -157) (50, -86) (51, -272) (52, -584) (53, -238) (54, 345) (55, -583) (56, 515) (57, -524) (58, 548) (59, -452) (60, 196) (61, 205) (62, -464) (63, -603) (64, 69) (65, 552) (66, -45) (67, -572) (68, -167) (69, -73) (70, -577) (71, -603) (72, -408) (73, -135) (74, 331) (75, -359) (76, -265) (77, -22) (78, 262) (79, 376) (80, 397) (81, -463) (82, -530) (83, 453) (0, -79) (1, 435) (2, 485) (3, -133) (4, 530) (5, 476) (6, -34) (7, 136) (8, 39) (9, 113) (10, 156) (11, -513) (12, 35) (13, -521) (14, -468) (15, 479) (16, 27) (17, -463) (18, 488) (19, 210) (20, 30) (21, 171) (22, 494) (23, 370) (24, -459) (25, 121) (26, 132) (27, 602) (28, 271) (29, 196) (30, 449) (31, -410) (32, 19) (33, 325) (34, 20) (35, -62) (36, 164) (37, 597) (38, -541) (39, -412) (40, 93) (41, 230) (42, -317) (43, -495) (44, 333) (45, -154) (46, 615) (47, -260) (48, -9) (49, 480) (50, 594) (51, -612) (52, 70) (53, 440) (54, 395) (55, 203) (56, -32) (57, -99) (58, 201) (59, -356) (60, -508) (61, 19) (62, -168) (63, 134) (64, -284) (65, 488) (66, -584) (67, 517) (68, 459) (69, -481) (70, -504) (71, -66) (72, 375) (73, -207) (74, 49) (75, 80) (76, 259) (77, 45) (78, 413) (79, -391) (80, -105) (81, 371) (82, -369) (83, 584) (0, 276) (1, -626) (2, 154) (3, -341) (4, -66) (5, -234) (6, -93) (7, 29) (8, 393) (9, 319) (10, -466) (11, -488) (12, 178) (13, -407) (14, -588) (15, 18) (16, -274) (17, -485) (18, 568) (19, -538) (20, -48) (21, 15) (22, 162) (23, -447) (24, -567) (25, -30) (26, -202) (27, -18) (28, -249) (29, 47) (30, -57) (31, -612) (32, 68) (33, -504) (34, -379) (35, 611) (36, -139) (37, 103) (38, 25) (39, -361) (40, -196) (41, 173) (42, -251) (43, 583) (44, 399) (45, -190) (46, 17) (47, -500) (48, -74) (49, -43) (50, -412) (51, 479) (52, 561) (53, 326) (54, -602) (55, -598) (56, -285) (57, -210) (58, -15) (59, 85) (60, 452) (61, 546) (62, 60) (63, -73) (64, -569) (65, 304) (66, -8) (67, -76) (68, -201) (69, 552) (70, 183) (71, 220) (72, 140) (73, 539) (74, 189) (75, -111) (76, -263) (77, -414) (78, 3) (79, 311) (80, 150) (81, 203) (82, 122) (83, 146) (0, -1) (1, 128) (2, 135) (3, 280) (4, 584) (5, -448) (6, -281) (7, 472) (8, -484) (9, 444) (10, -206) (11, -415) (12, 150) (13, 341) (14, 132) (15, 573) (16, 298) (17, -300) (18, 185) (19, -224) (20, -334) (21, -225) (22, 323) (23, -5) (24, -34) (25, -283) (26, -322) (27, -460) (28, 538) (29, 431) (30, 287) (31, -132) (32, -24) (33, -168) (34, -471) (35, -39) (36, 8) (37, -109) (38, -181) (39, 144) (40, -286) (41, 228) (42, 313) (43, 454) (44, -23) (45, -119) (46, 465) (47, -356) (48, 170) (49, -3) (50, 75) (51, 442) (52, 371) (53, -243) (54, -193) (55, -236) (56, 73) (57, 119) (58, -66) (59, 49) (60, -73) (61, -415) (62, 502) (63, 524) (64, 55) (65, -577) (66, -108) (67, -558) (68, -83) (69, 290) (70, 219) (71, 242) (72, -72) (73, -72) (74, 106) (75, 475) (76, 412) (77, -59) (78, -514) (79, -71) (80, 551) (81, 151) (82, -239) (83, 381) (0, 634) (1, 274) (2, -476) (3, -3) (4, -263) (5, 46) (6, -602) (7, 264) (8, 291) (9, 583) (10, 176) (11, -272) (12, -612) (13, -568) (14, -212) (15, -69) (16, 354) (17, 602) (18, -428) (19, -348) (20, -95) (21, 344) (22, -447) (23, -335) (24, -355) (25, -372) (26, 244) (27, -411) (28, 417) (29, -609) (30, 559) (31, 363) (32, 216) (33, -540) (34, -206) (35, 545) (36, 145) (37, -132) (38, 194) (39, -181) (40, -167) (41, -245) (42, 171) (43, -155) (44, -205) (45, 561) (46, 378) (47, -463) (48, 554) (49, 564) (50, -195) (51, -195) (52, 243) (53, -32) (54, 163) (55, 536) (56, 173) (57, -198) (58, -493) (59, -24) (60, -182) (61, -559) (62, -260) (63, 573) (64, -462) (65, 156) (66, 558) (67, 262) (68, -614) (69, 116) (70, -507) (71, -118) (72, 499) (73, 266) (74, 303) (75, -354) (76, 206) (77, 61) (78, -164) (79, 138) (80, 53) (81, 260) (82, 614) (83, -332) (0, -431) (1, 140) (2, -416) (3, 375) (4, 527) (5, -301) (6, -256) (7, -320) (8, -251) (9, 92) (10, -328) (11, -121) (12, -383) (13, -406) (14, -461) (15, -373) (16, 325) (17, -367) (18, 86) (19, 209) (20, 514) (21, -224) (22, 489) (23, 112) (24, 451) (25, -308) (26, -368) (27, -143) (28, 560) (29, -378) (30, 149) (31, -481) (32, 372) (33, 347) (34, 511) (35, 274) (36, -575) (37, -362) (38, 570) (39, -211) (40, 348) (41, -374) (42, 287) (43, 583) (44, -165) (45, 439) (46, -410) (47, -455) (48, -542) (49, 294) (50, 355) (51, 579) (52, -550) (53, 222) (54, 68) (55, 508) (56, 530) (57, 317) (58, -248) (59, 465) (60, 553) (61, 511) (62, 607) (63, 306) (64, 240) (65, 495) (66, -39) (67, 284) (68, -480) (69, -81) (70, -543) (71, 484) (72, 161) (73, 359) (74, 458) (75, -619) (76, 182) (77, -577) (78, -456) (79, 259) (80, 333) (81, 516) (82, 225) (83, 397) (0, 107) (1, -320) (2, 292) (3, 100) (4, 615) (5, -588) (6, -87) (7, 551) (8, 557) (9, -121) (10, 245) (11, 187) (12, -235) (13, -403) (14, -143) (15, -95) (16, 135) (17, -65) (18, -223) (19, -306) (20, -329) (21, -374) (22, -305) (23, 471) (24, -342) (25, -150) (26, 131) (27, 611) (28, -248) (29, -257) (30, 393) (31, 491) (32, 39) (33, 68) (34, -90) (35, 35) (36, 110) (37, 415) (38, -31) (39, 49) (40, -321) (41, -402) (42, -379) (43, 61) (44, -190) (45, 94) (46, 582) (47, 562) (48, -588) (49, -261) (50, -377) (51, -291) (52, -25) (53, -109) (54, -439) (55, 254) (56, 394) (57, 313) (58, 238) (59, -476) (60, -536) (61, 21) (62, -586) (63, 95) (64, -531) (65, -55) (66, -496) (67, 194) (68, -271) (69, 106) (70, -380) (71, 36) (72, 328) (73, -136) (74, -510) (75, -491) (76, 564) (77, -564) (78, -524) (79, 594) (80, -222) (81, -303) (82, -288) (83, 389) (0, 263) (1, -144) (2, 15) (3, 78) (4, -429) (5, -356) (6, 173) (7, -328) (8, 277) (9, 224) (10, 396) (11, 363) (12, -456) (13, 538) (14, -58) (15, -104) (16, 33) (17, 187) (18, 544) (19, -268) (20, -571) (21, -600) (22, -191) (23, -671) (24, -542) (25, -37) (26, -614) (27, -122) (28, 293) (29, -298) (30, -349) (31, -61) (32, 212) (33, 286) (34, 601) (35, 432) (36, 546) (37, 183) (38, -513) (39, 209) (40, -212) (41, 498) (42, -50) (43, -54) (44, 422) (45, 514) (46, 465) (47, -163) (48, 82) (49, 403) (50, 199) (51, 152) (52, 419) (53, -562) (54, 147) (55, 489) (56, 40) (57, 162) (58, -233) (59, -287) (60, 462) (61, 23) (62, 263) (63, 63) (64, -316) (65, 300) (66, -95) (67, -352) (68, -204) (69, -5) (70, 441) (71, 229) (72, -125) (73, -225) (74, -444) (75, -286) (76, -333) (77, -610) (78, 80) (79, 369) (80, 412) (81, -294) (82, -112) (83, 203) (0, -234) (1, -563) (2, 71) (3, 411) (4, 189) (5, 426) (6, -480) (7, 40) (8, -164) (9, 400) (10, -511) (11, 139) (12, 36) (13, -15) (14, 371) (15, 470) (16, 584) (17, 193) (18, 77) (19, -164) (20, 583) (21, 241) (22, 116) (23, -353) (24, 265) (25, -386) (26, -608) (27, 56) (28, -75) (29, -105) (30, -361) (31, 309) (32, -70) (33, 327) (34, 113) (35, -499) (36, 146) (37, 245) (38, 157) (39, 598) (40, 29) (41, 264) (42, 121) (43, -552) (44, -369) (45, -125) (46, 535) (47, -402) (48, -548) (49, -7) (50, 46) (51, -589) (52, -404) (53, -457) (54, -331) (55, 504) (56, -238) (57, -313) (58, -69) (59, 306) (60, 203) (61, 199) (62, 7) (63, -497) (64, -65) (65, -509) (66, -373) (67, -559) (68, 368) (69, 420) (70, -583) (71, -210) (72, 70) (73, 173) (74, -163) (75, 293) (76, -582) (77, -241) (78, 510) (79, -517) (80, 344) (81, -91) (82, -461) (83, 612) (0, 42) (1, -172) (2, 526) (3, 485) (4, 136) (5, -195) (6, 221) (7, -297) (8, -580) (9, -427) (10, -171) (11, -51) (12, -309) (13, 76) (14, 7) (15, -562) (16, -138) (17, 46) (18, -170) (19, 520) (20, -390) (21, 261) (22, 206) (23, -314) (24, -551) (25, 102) (26, -270) (27, 412) (28, -576) (29, -128) (30, 407) (31, 140) (32, 308) (33, 294) (34, 10) (35, -186) (36, -489) (37, -425) (38, 133) (39, -454) (40, -233) (41, 579) (42, 137) (43, 96) (44, 19) (45, -516) (46, 107) (47, 509) (48, 169) (49, 594) (50, 429) (51, 379) (52, 272) (53, 36) (54, -576) (55, 318) (56, -458) (57, -276) (58, 103) (59, -429) (60, 243) (61, -110) (62, 310) (63, -50) (64, -426) (65, -329) (66, 355) (67, -309) (68, -124) (69, -137) (70, -173) (71, 271) (72, -174) (73, 600) (74, -235) (75, 492) (76, -546) (77, 475) (78, 376) (79, 287) (80, 450) (81, 233) (82, 20) (83, 41) (0, -497) (1, -23) (2, -280) (3, -234) (4, 332) (5, 456) (6, -87) (7, -28) (8, -306) (9, -416) (10, 503) (11, -136) (12, -102) (13, 230) (14, 163) (15, 405) (16, -523) (17, -606) (18, 61) (19, -86) (20, 591) (21, 362) (22, -247) (23, -565) (24, 254) (25, -438) (26, 315) (27, 86) (28, 384) (29, -286) (30, -468) (31, 605) (32, 348) (33, -117) (34, -279) (35, 97) (36, -298) (37, 236) (38, -547) (39, 16) (40, 434) (41, 571) (42, 478) (43, -299) (44, 198) (45, 51) (46, -483) (47, 284) (48, 48) (49, 184) (50, -409) (51, 43) (52, -56) (53, -39) (54, 76) (55, -395) (56, 168) (57, -245) (58, 295) (59, -68) (60, 104) (61, 481) (62, -109) (63, -137) (64, -240) (65, 245) (66, 585) (67, 68) (68, -110) (69, -584) (70, -529) (71, -306) (72, 574) (73, 520) (74, 5) (75, 157) (76, 2) (77, 146) (78, -179) (79, -517) (80, -255) (81, 23) (82, 33) (83, 311) (0, 669) (1, -468) (2, 565) (3, 146) (4, -85) (5, 274) (6, -538) (7, -590) (8, 105) (9, 13) (10, -134) (11, 463) (12, -345) (13, -195) (14, -93) (15, 147) (16, -188) (17, -21) (18, 456) (19, -249) (20, -103) (21, -139) (22, 552) (23, 515) (24, -582) (25, -279) (26, 559) (27, -286) (28, 339) (29, -4) (30, -606) (31, 333) (32, 132) (33, 548) (34, -126) (35, -567) (36, 178) (37, -36) (38, -544) (39, -338) (40, 595) (41, -56) (42, -457) (43, -338) (44, 336) (45, 10) (46, 369) (47, -454) (48, -600) (49, 225) (50, -68) (51, -51) (52, -514) (53, -123) (54, -140) (55, -520) (56, 211) (57, -187) (58, -178) (59, -61) (60, 446) (61, -152) (62, -322) (63, -77) (64, -226) (65, 145) (66, 7) (67, 569) (68, -506) (69, 53) (70, -372) (71, -523) (72, 594) (73, -266) (74, -272) (75, 344) (76, 392) (77, -506) (78, 524) (79, 417) (80, 349) (81, -134) (82, -235) (83, 415) (0, 343) (1, 208) (2, 551) (3, -81) (4, 576) (5, -270) (6, 461) (7, 404) (8, 200) (9, -507) (10, -288) (11, 578) (12, 241) (13, 299) (14, 517) (15, 338) (16, -270) (17, -492) (18, 413) (19, -295) (20, -125) (21, -521) (22, -556) (23, -382) (24, -385) (25, 607) (26, -572) (27, 573) (28, -146) (29, -221) (30, 400) (31, -420) (32, 598) (33, 334) (34, 125) (35, 596) (36, -531) (37, -21) (38, 384) (39, 288) (40, 87) (41, -522) (42, 249) (43, -287) (44, 392) (45, 146) (46, -569) (47, -494) (48, 272) (49, 456) (50, -157) (51, -486) (52, 577) (53, -79) (54, -244) (55, -403) (56, -93) (57, -178) (58, -450) (59, 381) (60, 227) (61, 539) (62, 580) (63, 194) (64, 295) (65, 99) (66, 192) (67, 378) (68, -532) (69, -42) (70, 37) (71, 163) (72, 37) (73, -324) (74, 477) (75, -189) (76, 427) (77, 543) (78, -56) (79, 73) (80, 383) (81, 398) (82, 217) (83, 342) (0, -286) (1, 622) (2, 520) (3, 204) (4, -188) (5, -481) (6, -30) (7, -616) (8, -598) (9, -51) (10, 192) (11, 289) (12, -581) (13, -256) (14, 29) (15, -517) (16, 298) (17, -561) (18, 250) (19, -262) (20, -263) (21, 174) (22, 146) (23, -474) (24, 1) (25, -549) (26, 208) (27, -220) (28, 460) (29, -199) (30, -492) (31, -460) (32, -222) (33, -567) (34, 377) (35, 185) (36, -486) (37, -251) (38, 187) (39, -468) (40, 313) (41, -238) (42, 414) (43, 327) (44, 144) (45, -129) (46, 471) (47, -186) (48, -96) (49, 71) (50, 140) (51, 208) (52, -459) (53, -355) (54, 345) (55, 178) (56, -317) (57, -39) (58, 560) (59, -460) (60, 342) (61, -523) (62, -310) (63, -522) (64, -468) (65, -543) (66, 330) (67, -343) (68, -178) (69, -107) (70, -151) (71, -459) (72, 259) (73, -374) (74, 478) (75, -227) (76, 105) (77, 330) (78, 188) (79, -596) (80, -201) (81, -314) (82, 241) (83, 18) (0, -36) (1, -15) (2, -401) (3, 323) (4, 591) (5, -448) (6, 522) (7, 323) (8, -288) (9, -398) (10, 473) (11, -118) (12, -305) (13, 193) (14, 180) (15, 154) (16, -518) (17, -608) (18, 311) (19, 387) (20, -352) (21, 227) (22, -444) (23, 410) (24, -75) (25, 377) (26, 407) (27, 341) (28, -516) (29, 40) (30, -279) (31, 89) (32, -581) (33, -67) (34, -202) (35, 604) (36, 141) (37, -316) (38, 311) (39, 471) (40, -96) (41, 165) (42, -261) (43, 219) (44, -261) (45, 528) (46, -251) (47, -161) (48, 541) (49, -553) (50, -385) (51, -423) (52, 283) (53, -220) (54, 602) (55, -404) (56, -446) (57, 366) (58, 496) (59, -362) (60, -226) (61, -353) (62, 331) (63, -178) (64, 185) (65, -473) (66, -186) (67, -298) (68, -192) (69, -458) (70, -404) (71, 376) (72, 330) (73, -86) (74, -67) (75, -565) (76, -178) (77, 330) (78, -81) (79, -184) (80, 393) (81, 98) (82, -54) (83, 19) (0, 469) (1, -104) (2, 193) (3, -584) (4, -294) (5, 114) (6, -311) (7, 103) (8, 366) (9, -604) (10, 559) (11, -69) (12, -464) (13, -232) (14, 253) (15, -24) (16, -95) (17, 429) (18, -298) (19, -390) (20, -269) (21, 262) (22, -369) (23, 182) (24, -61) (25, 142) (26, 535) (27, -287) (28, -365) (29, -131) (30, 352) (31, -481) (32, 407) (33, -57) (34, -445) (35, -525) (36, -554) (37, -157) (38, 195) (39, 429) (40, -144) (41, 136) (42, -273) (43, -8) (44, 536) (45, 627) (46, 615) (47, -183) (48, 424) (49, -310) (50, 30) (51, -457) (52, 544) (53, 271) (54, 304) (55, -105) (56, -205) (57, 218) (58, 221) (59, 38) (60, -536) (61, -40) (62, 160) (63, 507) (64, 504) (65, 347) (66, 572) (67, 570) (68, -421) (69, 189) (70, 391) (71, 40) (72, -328) (73, -495) (74, -572) (75, -390) (76, -480) (77, -582) (78, 5) (79, 538) (80, -282) (81, -583) (82, -543) (83, -309) (0, 388) (1, 420) (2, 170) (3, -511) (4, 22) (5, -212) (6, 138) (7, 131) (8, 387) (9, -269) (10, 26) (11, 296) (12, -531) (13, 10) (14, 266) (15, -333) (16, -427) (17, 48) (18, 337) (19, -76) (20, 226) (21, 426) (22, 87) (23, 308) (24, 420) (25, -478) (26, 268) (27, -444) (28, -430) (29, 360) (30, -152) (31, 505) (32, 152) (33, -577) (34, -612) (35, -438) (36, -155) (37, 168) (38, 312) (39, -381) (40, 514) (41, -282) (42, 506) (43, 577) (44, 366) (45, 199) (46, -329) (47, 543) (48, -391) (49, 598) (50, -180) (51, 394) (52, 390) (53, 532) (54, 117) (55, 218) (56, -588) (57, -221) (58, 396) (59, -399) (60, -508) (61, -417) (62, -511) (63, 274) (64, -375) (65, -467) (66, 448) (67, 104) (68, 296) (69, 154) (70, 349) (71, 217) (72, 480) (73, 223) (74, 158) (75, 231) (76, -163) (77, 471) (78, 154) (79, 32) (80, 416) (81, 516) (82, -188) (83, 220) (0, 580) (1, 564) (2, -208) (3, 467) (4, -255) (5, -471) (6, -503) (7, -132) (8, -213) (9, -339) (10, -464) (11, 57) (12, -208) (13, -616) (14, -444) (15, -527) (16, 157) (17, 518) (18, 286) (19, 80) (20, 202) (21, -125) (22, -377) (23, 556) (24, -322) (25, 386) (26, 26) (27, -508) (28, 328) (29, 484) (30, 307) (31, 185) (32, 447) (33, -518) (34, 95) (35, -434) (36, -343) (37, 245) (38, 51) (39, 60) (40, 523) (41, 204) (42, -500) (43, -302) (44, 203) (45, -329) (46, -214) (47, -256) (48, -426) (49, -538) (50, 404) (51, 357) (52, -98) (53, -548) (54, 328) (55, 219) (56, 424) (57, -232) (58, 333) (59, 99) (60, -402) (61, -19) (62, -305) (63, -583) (64, 128) (65, 420) (66, -366) (67, 383) (68, 25) (69, 298) (70, -177) (71, -55) (72, -123) (73, -44) (74, 254) (75, -524) (76, 242) (77, -573) (78, -187) (79, 420) (80, -513) (81, -398) (82, 165) (83, 33) (0, -391) (1, -86) (2, -387) (3, -531) (4, 240) (5, 613) (6, 158) (7, 460) (8, -29) (9, 478) (10, 518) (11, -534) (12, 268) (13, -475) (14, 468) (15, -314) (16, 432) (17, -322) (18, 241) (19, -269) (20, 264) (21, -102) (22, -262) (23, -118) (24, -102) (25, 214) (26, -341) (27, 29) (28, 433) (29, 433) (30, -553) (31, -556) (32, -309) (33, -304) (34, -514) (35, 542) (36, -347) (37, 271) (38, 385) (39, 240) (40, 134) (41, 285) (42, 303) (43, -235) (44, 447) (45, 193) (46, 106) (47, 252) (48, 469) (49, -288) (50, 552) (51, 72) (52, 159) (53, -325) (54, 517) (55, -524) (56, 537) (57, -385) (58, 106) (59, 318) (60, -598) (61, 187) (62, 387) (63, -290) (64, 503) (65, 473) (66, -373) (67, -454) (68, 170) (69, -582) (70, 403) (71, -350) (72, 308) (73, 131) (74, 75) (75, 143) (76, -308) (77, -451) (78, -258) (79, -469) (80, -124) (81, -288) (82, 223) (83, -503) (0, -9) (1, 197) (2, -399) (3, -45) (4, 427) (5, 361) (6, -282) (7, 448) (8, -31) (9, -512) (10, -441) (11, -118) (12, -609) (13, -168) (14, 63) (15, 180) (16, -129) (17, -132) (18, 487) (19, -434) (20, 594) (21, -22) (22, 344) (23, -294) (24, 137) (25, -516) (26, -166) (27, -591) (28, -199) (29, -538) (30, -497) (31, 443) (32, 268) (33, -281) (34, -223) (35, 62) (36, -527) (37, 80) (38, -108) (39, 57) (40, 185) (41, 69) (42, 557) (43, 194) (44, 517) (45, 3) (46, -243) (47, -228) (48, 488) (49, -367) (50, -36) (51, 472) (52, 230) (53, -309) (54, -434) (55, -261) (56, -208) (57, -24) (58, -256) (59, 223) (60, 69) (61, -118) (62, 45) (63, -272) (64, 169) (65, 423) (66, 368) (67, 283) (68, -99) (69, -345) (70, -284) (71, -581) (72, 346) (73, -331) (74, 266) (75, 259) (76, 276) (77, -606) (78, -583) (79, 194) (80, -341) (81, 4) (82, 24) (83, 478) (0, 320) (1, 154) (2, -405) (3, -491) (4, -476) (5, -57) (6, 294) (7, 272) (8, 439) (9, -266) (10, 615) (11, 28) (12, -454) (13, 403) (14, -292) (15, 56) (16, -532) (17, 63) (18, 135) (19, 418) (20, 375) (21, -208) (22, 96) (23, 15) (24, -171) (25, 144) (26, -404) (27, 95) (28, -461) (29, 250) (30, -44) (31, 472) (32, -167) (33, 159) (34, 579) (35, 31) (36, -505) (37, 280) (38, -314) (39, 550) (40, -603) (41, -314) (42, -29) (43, -431) (44, -537) (45, 278) (46, 223) (47, -448) (48, -267) (49, -265) (50, -617) (51, -489) (52, 158) (53, 102) (54, 115) (55, 607) (56, -355) (57, 362) (58, 88) (59, -189) (60, -4) (61, -601) (62, -340) (63, 420) (64, 194) (65, -359) (66, -160) (67, 338) (68, 526) (69, 172) (70, 255) (71, 517) (72, 441) (73, -433) (74, -539) (75, 543) (76, 497) (77, 330) (78, -510) (79, -372) (80, -534) (81, -512) (82, -312) (83, 213) (0, 226) (1, 369) (2, 202) (3, 458) (4, 151) (5, -379) (6, -347) (7, -467) (8, -315) (9, -95) (10, 579) (11, 490) (12, 135) (13, -194) (14, 172) (15, 27) (16, 569) (17, -213) (18, -68) (19, 370) (20, -20) (21, -5) (22, 305) (23, -138) (24, -285) (25, 410) (26, 62) (27, -223) (28, 508) (29, 368) (30, 615) (31, 100) (32, 193) (33, 199) (34, -53) (35, -253) (36, 470) (37, 203) (38, -103) (39, -460) (40, -506) (41, -142) (42, -585) (43, 246) (44, 279) (45, 199) (46, -349) (47, 231) (48, 606) (49, 214) (50, 20) (51, 7) (52, -412) (53, -270) (54, 428) (55, -54) (56, -473) (57, -129) (58, 324) (59, -577) (60, -346) (61, 326) (62, 120) (63, 445) (64, -95) (65, -557) (66, -452) (67, -217) (68, 279) (69, 78) (70, -65) (71, 378) (72, 575) (73, -37) (74, 11) (75, 232) (76, -460) (77, 265) (78, -144) (79, -479) (80, -140) (81, 521) (82, 106) (83, 78) (0, -453) (1, -56) (2, -618) (3, -288) (4, 451) (5, 337) (6, -250) (7, -556) (8, 41) (9, 467) (10, 505) (11, 562) (12, 535) (13, -537) (14, -296) (15, 189) (16, 166) (17, 236) (18, -48) (19, 133) (20, -455) (21, 553) (22, -264) (23, -288) (24, 223) (25, 185) (26, -155) (27, -518) (28, 47) (29, 569) (30, 180) (31, 246) (32, -120) (33, 191) (34, 572) (35, -309) (36, -91) (37, -314) (38, -249) (39, 565) (40, -462) (41, -360) (42, 498) (43, -557) (44, -269) (45, -388) (46, 274) (47, 508) (48, 452) (49, -399) (50, 3) (51, -604) (52, -484) (53, 339) (54, -296) (55, 401) (56, -102) (57, 175) (58, 469) (59, 554) (60, 105) (61, 78) (62, 183) (63, -595) (64, -363) (65, 160) (66, -305) (67, 147) (68, 446) (69, 86) (70, 119) (71, 587) (72, 300) (73, -15) (74, -553) (75, -577) (76, 209) (77, 320) (78, 514) (79, 34) (80, 496) (81, -98) (82, 69) (83, -505) (0, -322) (1, 383) (2, 486) (3, 202) (4, -26) (5, 437) (6, 144) (7, -485) (8, -153) (9, -280) (10, -465) (11, 106) (12, 493) (13, -139) (14, -343) (15, 336) (16, 555) (17, 390) (18, 333) (19, 324) (20, -245) (21, 383) (22, 296) (23, -617) (24, 97) (25, 260) (26, 75) (27, 44) (28, -421) (29, -463) (30, 142) (31, -149) (32, 574) (33, 31) (34, -585) (35, -50) (36, -192) (37, 167) (38, 81) (39, 275) (40, 502) (41, 231) (42, -258) (43, 359) (44, -505) (45, 55) (46, 117) (47, -578) (48, -191) (49, -182) (50, 311) (51, 228) (52, -415) (53, -14) (54, 208) (55, 303) (56, -351) (57, -327) (58, -232) (59, -195) (60, -152) (61, 524) (62, 285) (63, -201) (64, -72) (65, 353) (66, 355) (67, 369) (68, -125) (69, -208) (70, -4) (71, -220) (72, -563) (73, 366) (74, -483) (75, -464) (76, -205) (77, 233) (78, -420) (79, 228) (80, -566) (81, 487) (82, -195) (83, -310) (0, -144) (1, -559) (2, -627) (3, 125) (4, -276) (5, -264) (6, 607) (7, 194) (8, -335) (9, 298) (10, 605) (11, 215) (12, 25) (13, 347) (14, -42) (15, 535) (16, -447) (17, 590) (18, -302) (19, -377) (20, 373) (21, -123) (22, -259) (23, -408) (24, -519) (25, -70) (26, 418) (27, -436) (28, -208) (29, -364) (30, -149) (31, 278) (32, -306) (33, -146) (34, -201) (35, 52) (36, 233) (37, -216) (38, -369) (39, 517) (40, -536) (41, -382) (42, 100) (43, 93) (44, 594) (45, -532) (46, 38) (47, -476) (48, -572) (49, 343) (50, -248) (51, 406) (52, -426) (53, 116) (54, 584) (55, -298) (56, -584) (57, 384) (58, -141) (59, -180) (60, -608) (61, 330) (62, -522) (63, -290) (64, -442) (65, -109) (66, 379) (67, 429) (68, 312) (69, -585) (70, 322) (71, 384) (72, -364) (73, -191) (74, -130) (75, -388) (76, -110) (77, 518) (78, -264) (79, -70) (80, 231) (81, 83) (82, -282) (83, 452) (0, -399) (1, -228) (2, -520) (3, -360) (4, -522) (5, 5) (6, 75) (7, -489) (8, -284) (9, 192) (10, -149) (11, -94) (12, -514) (13, -374) (14, -288) (15, 412) (16, -353) (17, -583) (18, 186) (19, -49) (20, -124) (21, -518) (22, 120) (23, 334) (24, 558) (25, 478) (26, -325) (27, 218) (28, -41) (29, 22) (30, 41) (31, 164) (32, 342) (33, 168) (34, 414) (35, 440) (36, -452) (37, -120) (38, 569) (39, -116) (40, -546) (41, -200) (42, 372) (43, -474) (44, 75) (45, -471) (46, 616) (47, 323) (48, -469) (49, 165) (50, -400) (51, -53) (52, 196) (53, 319) (54, -278) (55, 178) (56, 162) (57, 23) (58, -230) (59, -506) (60, -596) (61, 435) (62, 279) (63, 369) (64, -7) (65, 124) (66, 199) (67, 155) (68, 604) (69, 158) (70, -590) (71, -569) (72, 576) (73, 426) (74, -421) (75, 13) (76, 565) (77, -422) (78, -265) (79, -503) (80, 341) (81, -101) (82, 60) (83, -2) (0, -377) (1, 454) (2, -457) (3, 422) (4, -144) (5, -91) (6, 589) (7, -74) (8, -204) (9, 298) (10, -295) (11, 418) (12, -204) (13, 541) (14, -29) (15, -211) (16, 95) (17, 22) (18, -148) (19, 104) (20, -141) (21, 148) (22, -542) (23, -209) (24, 292) (25, -212) (26, -89) (27, 39) (28, 321) (29, -607) (30, -611) (31, 571) (32, 465) (33, -448) (34, 399) (35, -279) (36, 128) (37, 380) (38, 264) (39, 541) (40, 61) (41, 585) (42, 338) (43, 471) (44, 511) (45, -302) (46, -352) (47, -12) (48, 334) (49, 103) (50, -562) (51, -421) (52, -387) (53, -470) (54, -12) (55, 525) (56, -78) (57, 525) (58, -48) (59, -394) (60, 571) (61, -78) (62, -420) (63, 354) (64, 94) (65, 612) (66, -492) (67, -382) (68, 354) (69, 359) (70, -468) (71, -182) (72, 338) (73, 510) (74, -338) (75, 236) (76, -433) (77, -58) (78, -383) (79, 475) (80, -583) (81, -350) (82, -530) (83, -373) (0, -177) (1, 88) (2, -518) (3, 330) (4, -4) (5, 42) (6, 561) (7, -67) (8, 588) (9, -465) (10, -295) (11, 66) (12, -485) (13, -186) (14, 289) (15, 492) (16, -430) (17, 434) (18, -320) (19, 557) (20, 327) (21, -54) (22, 125) (23, 472) (24, 473) (25, 357) (26, 386) (27, 535) (28, -605) (29, 478) (30, -457) (31, -202) (32, -43) (33, -334) (34, -491) (35, 583) (36, 326) (37, -536) (38, -100) (39, 300) (40, -387) (41, 220) (42, -277) (43, -280) (44, -558) (45, -556) (46, -356) (47, -384) (48, 470) (49, -76) (50, -477) (51, 153) (52, 471) (53, 259) (54, 4) (55, 372) (56, -2) (57, -209) (58, 274) (59, -9) (60, -374) (61, 424) (62, 411) (63, 233) (64, -532) (65, 568) (66, 183) (67, 443) (68, -608) (69, -528) (70, 116) (71, -387) (72, 286) (73, 452) (74, -30) (75, 349) (76, 515) (77, 226) (78, 569) (79, 366) (80, -487) (81, -557) (82, -107) (83, -568) (0, 369) (1, 590) (2, 385) (3, -277) (4, -263) (5, 29) (6, 387) (7, 16) (8, -97) (9, 201) (10, -368) (11, 19) (12, 145) (13, 446) (14, -156) (15, 166) (16, 543) (17, 584) (18, 419) (19, 323) (20, 506) (21, -180) (22, -16) (23, 357) (24, -594) (25, -67) (26, 118) (27, -434) (28, 17) (29, -581) (30, -409) (31, -246) (32, 595) (33, 602) (34, 117) (35, -281) (36, 55) (37, -118) (38, 354) (39, 577) (40, -533) (41, 598) (42, -33) (43, 217) (44, 441) (45, 449) (46, -212) (47, 363) (48, 406) (49, -415) (50, -12) (51, 213) (52, 30) (53, 591) (54, 10) (55, 51) (56, -110) (57, -515) (58, 246) (59, 483) (60, -485) (61, 395) (62, -341) (63, -492) (64, 393) (65, 408) (66, -148) (67, -160) (68, -334) (69, -447) (70, -228) (71, -241) (72, -436) (73, 411) (74, 578) (75, 607) (76, 229) (77, -246) (78, 307) (79, -2) (80, -55) (81, -296) (82, -370) (83, 574) (0, -291) (1, 283) (2, -38) (3, 176) (4, 362) (5, -429) (6, 120) (7, 485) (8, 607) (9, 389) (10, 605) (11, 395) (12, 174) (13, -174) (14, -376) (15, 457) (16, 17) (17, 46) (18, -408) (19, 243) (20, -137) (21, -434) (22, 168) (23, -563) (24, -73) (25, -88) (26, 58) (27, 509) (28, 244) (29, 311) (30, 456) (31, 539) (32, -65) (33, -184) (34, 114) (35, -336) (36, 5) (37, -398) (38, -467) (39, -8) (40, 607) (41, -477) (42, -242) (43, 151) (44, -22) (45, 27) (46, 21) (47, 604) (48, -559) (49, 216) (50, 180) (51, -152) (52, 365) (53, -266) (54, -95) (55, -282) (56, 220) (57, 583) (58, -388) (59, -148) (60, 256) (61, -571) (62, -179) (63, -375) (64, -116) (65, 547) (66, -86) (67, 492) (68, -500) (69, 39) (70, -112) (71, -472) (72, 170) (73, 289) (74, 299) (75, -458) (76, -332) (77, -330) (78, -557) (79, -310) (80, 495) (81, 261) (82, 221) (83, 327) (0, -623) (1, -489) (2, -565) (3, 223) (4, -460) (5, -390) (6, -366) (7, 450) (8, -268) (9, 28) (10, -547) (11, 239) (12, -40) (13, -31) (14, 131) (15, 112) (16, -598) (17, -597) (18, 254) (19, 224) (20, 358) (21, -43) (22, 360) (23, 655) (24, 273) (25, 488) (26, -309) (27, 172) (28, 176) (29, 536) (30, -131) (31, 221) (32, -536) (33, -93) (34, -83) (35, -388) (36, 181) (37, 123) (38, -551) (39, 528) (40, -463) (41, -484) (42, 165) (43, 127) (44, 89) (45, -346) (46, -403) (47, 114) (48, -315) (49, 472) (50, -286) (51, 625) (52, -152) (53, -477) (54, 571) (55, -503) (56, 585) (57, -397) (58, 252) (59, 125) (60, -453) (61, -534) (62, -272) (63, -351) (64, -17) (65, 231) (66, -152) (67, -414) (68, -235) (69, -34) (70, -464) (71, -56) (72, 75) (73, 280) (74, -570) (75, -430) (76, 563) (77, -340) (78, 312) (79, -381) (80, -495) (81, 562) (82, -411) (83, -80) (0, -641) (1, -439) (2, 27) (3, 620) (4, -191) (5, -378) (6, 142) (7, -48) (8, -262) (9, 449) (10, 201) (11, 373) (12, 88) (13, -551) (14, 573) (15, 469) (16, -7) (17, -547) (18, -228) (19, -561) (20, 325) (21, -188) (22, -384) (23, 240) (24, 88) (25, 500) (26, 497) (27, 186) (28, 493) (29, -526) (30, -497) (31, 553) (32, -375) (33, 121) (34, 551) (35, 24) (36, 365) (37, 45) (38, 591) (39, -516) (40, -119) (41, 177) (42, 502) (43, 609) (44, 219) (45, 409) (46, 413) (47, -392) (48, 503) (49, -413) (50, -338) (51, 218) (52, 57) (53, -99) (54, -133) (55, -522) (56, -206) (57, -258) (58, 273) (59, -334) (60, -167) (61, 412) (62, -399) (63, 97) (64, -127) (65, -441) (66, -497) (67, -369) (68, 188) (69, -536) (70, -225) (71, -552) (72, 259) (73, -371) (74, -559) (75, -117) (76, -576) (77, 459) (78, 146) (79, 606) (80, -531) (81, 421) (82, 147) (83, 54) (0, -239) (1, -566) (2, 155) (3, 84) (4, -232) (5, -167) (6, 343) (7, 216) (8, -429) (9, 548) (10, -321) (11, 76) (12, -546) (13, -216) (14, 332) (15, 256) (16, -134) (17, -543) (18, 322) (19, -416) (20, -317) (21, 369) (22, 30) (23, -288) (24, 212) (25, -481) (26, -360) (27, 277) (28, 548) (29, 399) (30, -261) (31, -381) (32, 411) (33, 512) (34, 313) (35, -445) (36, -301) (37, 39) (38, 386) (39, -117) (40, -27) (41, -550) (42, 578) (43, 41) (44, -147) (45, 295) (46, -317) (47, 335) (48, 368) (49, -605) (50, 458) (51, -595) (52, 340) (53, -146) (54, -258) (55, -64) (56, -8) (57, 23) (58, -395) (59, -125) (60, -217) (61, -38) (62, 158) (63, -415) (64, -142) (65, -150) (66, -258) (67, 182) (68, 503) (69, -473) (70, -555) (71, -142) (72, -402) (73, -606) (74, 527) (75, 59) (76, 315) (77, -425) (78, -239) (79, 57) (80, -409) (81, -361) (82, 131) (83, 576) (0, 96) (1, 514) (2, -93) (3, -523) (4, -107) (5, 117) (6, 1) (7, 324) (8, -491) (9, -437) (10, 537) (11, -5) (12, 35) (13, -313) (14, -436) (15, -70) (16, -159) (17, -365) (18, 413) (19, 66) (20, -354) (21, 336) (22, -492) (23, 582) (24, 522) (25, -74) (26, 74) (27, -489) (28, 176) (29, -417) (30, -531) (31, -335) (32, -530) (33, 1) (34, -239) (35, -7) (36, -464) (37, 399) (38, -299) (39, -338) (40, 577) (41, -379) (42, 264) (43, -13) (44, -67) (45, 462) (46, 551) (47, 386) (48, -529) (49, 342) (50, -166) (51, -251) (52, 24) (53, -36) (54, -238) (55, -23) (56, 489) (57, 447) (58, 76) (59, 64) (60, -603) (61, 186) (62, 342) (63, -516) (64, -449) (65, -483) (66, 97) (67, -287) (68, 504) (69, 421) (70, -39) (71, 465) (72, -579) (73, -359) (74, -159) (75, -24) (76, -518) (77, -222) (78, -285) (79, -445) (80, -512) (81, 136) (82, -72) (83, 168) (0, -458) (1, 295) (2, -464) (3, -585) (4, 129) (5, 242) (6, 87) (7, 155) (8, -239) (9, -175) (10, 264) (11, -65) (12, -66) (13, -246) (14, 260) (15, -175) (16, -442) (17, -371) (18, -323) (19, -402) (20, -135) (21, 89) (22, 179) (23, -15) (24, 566) (25, 527) (26, 167) (27, -586) (28, 84) (29, -511) (30, 189) (31, 224) (32, 413) (33, 309) (34, 252) (35, -72) (36, -102) (37, -271) (38, -536) (39, 272) (40, 173) (41, 349) (42, -372) (43, -477) (44, -546) (45, 438) (46, -101) (47, -355) (48, -516) (49, 216) (50, -138) (51, 11) (52, -236) (53, -553) (54, 589) (55, -341) (56, 620) (57, 153) (58, -286) (59, 50) (60, 283) (61, 519) (62, -306) (63, 72) (64, 219) (65, 533) (66, 617) (67, -504) (68, -345) (69, -549) (70, 381) (71, 435) (72, 391) (73, 552) (74, 565) (75, 516) (76, 446) (77, -150) (78, -449) (79, 550) (80, -500) (81, 79) (82, -60) (83, -203) (0, 169) (1, -136) (2, 97) (3, 78) (4, -603) (5, 461) (6, -534) (7, 268) (8, 317) (9, -225) (10, -307) (11, -104) (12, -313) (13, -337) (14, -9) (15, -55) (16, -284) (17, -254) (18, -240) (19, -444) (20, -269) (21, -288) (22, -618) (23, -447) (24, 133) (25, -441) (26, -547) (27, 228) (28, 220) (29, -20) (30, -558) (31, -297) (32, 479) (33, 172) (34, 383) (35, 501) (36, -14) (37, 501) (38, 154) (39, -311) (40, -342) (41, 462) (42, 182) (43, -56) (44, -475) (45, -409) (46, 540) (47, -150) (48, -64) (49, -333) (50, -36) (51, 265) (52, -39) (53, -53) (54, 415) (55, -528) (56, 106) (57, 495) (58, 357) (59, -298) (60, -145) (61, 394) (62, 51) (63, -304) (64, -70) (65, -184) (66, -411) (67, 548) (68, -313) (69, 335) (70, -378) (71, -9) (72, 217) (73, 412) (74, 535) (75, 338) (76, -591) (77, 466) (78, -481) (79, -90) (80, -448) (81, 119) (82, -398) (83, 119) (0, -557) (1, -633) (2, 204) (3, 241) (4, 509) (5, -92) (6, 596) (7, -278) (8, -277) (9, 45) (10, 47) (11, 295) (12, 492) (13, 255) (14, 236) (15, -412) (16, 0) (17, 480) (18, 193) (19, -437) (20, 287) (21, 132) (22, 500) (23, 352) (24, -12) (25, -529) (26, -342) (27, 137) (28, 215) (29, -127) (30, -378) (31, 309) (32, -116) (33, 452) (34, -72) (35, -239) (36, -224) (37, -89) (38, 102) (39, 116) (40, 572) (41, -470) (42, -218) (43, 437) (44, 412) (45, -577) (46, -571) (47, -210) (48, 509) (49, 218) (50, -9) (51, 220) (52, -264) (53, -99) (54, -104) (55, 390) (56, 23) (57, 174) (58, -132) (59, -376) (60, -589) (61, 137) (62, 507) (63, -54) (64, -48) (65, -202) (66, 305) (67, 335) (68, 354) (69, -201) (70, -114) (71, 295) (72, -39) (73, 279) (74, 145) (75, -244) (76, 311) (77, 192) (78, 125) (79, 140) (80, -184) (81, -506) (82, -248) (83, 175) (0, -37) (1, 281) (2, -108) (3, -576) (4, -202) (5, 430) (6, -406) (7, -100) (8, -65) (9, -472) (10, 454) (11, 515) (12, -22) (13, 150) (14, 253) (15, -279) (16, 564) (17, -509) (18, -580) (19, -170) (20, 389) (21, 198) (22, 235) (23, 39) (24, -278) (25, -246) (26, -393) (27, 158) (28, -123) (29, -11) (30, -294) (31, 523) (32, -342) (33, 240) (34, 552) (35, 121) (36, 47) (37, -439) (38, -592) (39, 603) (40, -298) (41, 474) (42, 470) (43, 272) (44, 33) (45, 158) (46, -572) (47, -32) (48, 238) (49, -558) (50, 481) (51, -23) (52, 252) (53, 65) (54, -596) (55, 596) (56, 440) (57, -358) (58, 164) (59, -246) (60, 233) (61, 456) (62, -406) (63, 506) (64, 69) (65, -455) (66, 25) (67, -465) (68, -267) (69, 56) (70, -493) (71, 42) (72, -117) (73, 617) (74, -296) (75, 525) (76, 132) (77, -244) (78, -130) (79, -230) (80, -190) (81, -306) (82, 336) (83, -548) (0, 489) (1, 373) (2, -579) (3, 248) (4, -554) (5, 222) (6, 599) (7, 265) (8, 19) (9, -413) (10, 164) (11, -508) (12, -242) (13, -430) (14, -372) (15, 106) (16, 230) (17, -257) (18, -459) (19, -510) (20, -274) (21, -119) (22, -547) (23, 488) (24, 267) (25, -99) (26, -381) (27, -554) (28, 226) (29, 591) (30, -512) (31, 24) (32, 359) (33, -484) (34, -341) (35, 383) (36, 304) (37, -375) (38, 29) (39, -298) (40, -170) (41, -418) (42, -176) (43, 214) (44, -243) (45, 47) (46, -316) (47, 608) (48, 418) (49, -147) (50, -497) (51, -452) (52, 321) (53, -456) (54, -593) (55, -45) (56, 89) (57, -360) (58, 15) (59, -321) (60, -360) (61, 148) (62, 336) (63, 574) (64, 332) (65, 572) (66, 410) (67, -28) (68, -432) (69, -248) (70, 295) (71, 28) (72, 2) (73, -474) (74, -358) (75, 331) (76, 127) (77, -77) (78, 330) (79, -35) (80, 375) (81, 467) (82, 145) (83, 145) (0, -704) (1, 212) (2, -489) (3, 89) (4, 361) (5, 244) (6, 340) (7, -577) (8, -238) (9, 84) (10, -597) (11, -559) (12, 60) (13, 380) (14, 40) (15, 277) (16, -460) (17, -272) (18, -292) (19, 115) (20, -209) (21, -71) (22, -137) (23, -609) (24, 494) (25, -395) (26, -4) (27, 316) (28, -532) (29, -487) (30, -146) (31, -508) (32, 289) (33, 8) (34, 199) (35, 95) (36, -395) (37, -31) (38, 135) (39, -14) (40, -569) (41, 156) (42, 14) (43, 83) (44, -58) (45, -511) (46, -205) (47, 85) (48, -194) (49, 101) (50, -400) (51, 217) (52, -607) (53, 49) (54, 263) (55, 531) (56, 255) (57, -321) (58, 233) (59, 365) (60, -215) (61, -485) (62, 484) (63, -537) (64, 122) (65, 49) (66, 177) (67, 377) (68, -572) (69, -307) (70, -303) (71, -568) (72, 434) (73, 361) (74, 163) (75, -247) (76, 472) (77, 596) (78, 471) (79, -374) (80, 42) (81, -594) (82, 508) (83, 129) (0, 68) (1, 144) (2, 80) (3, -189) (4, 447) (5, -273) (6, -476) (7, -345) (8, -163) (9, -590) (10, -263) (11, 585) (12, 92) (13, 530) (14, 321) (15, 123) (16, -391) (17, -578) (18, 202) (19, -590) (20, 429) (21, -257) (22, -206) (23, 258) (24, -247) (25, -325) (26, 506) (27, 398) (28, -286) (29, 415) (30, -115) (31, 441) (32, -5) (33, 559) (34, -389) (35, -145) (36, -345) (37, -230) (38, 126) (39, 107) (40, -202) (41, 480) (42, 100) (43, 530) (44, 373) (45, -240) (46, -8) (47, -623) (48, -180) (49, -400) (50, -541) (51, -341) (52, 20) (53, -92) (54, 469) (55, 339) (56, 224) (57, 393) (58, 140) (59, 585) (60, 175) (61, -613) (62, 391) (63, -414) (64, 561) (65, 592) (66, 8) (67, -374) (68, -232) (69, -443) (70, 356) (71, 165) (72, -575) (73, -198) (74, 73) (75, 445) (76, 219) (77, -535) (78, 423) (79, -607) (80, -335) (81, 466) (82, -358) (83, 249) (0, -197) (1, -462) (2, 5) (3, 629) (4, 522) (5, -473) (6, 525) (7, 23) (8, -505) (9, 281) (10, 186) (11, -559) (12, 256) (13, -410) (14, -341) (15, -613) (16, -263) (17, 601) (18, 166) (19, -292) (20, -159) (21, -364) (22, -389) (23, 568) (24, -317) (25, 562) (26, 583) (27, -48) (28, 431) (29, -411) (30, -393) (31, -397) (32, -309) (33, 215) (34, -402) (35, -455) (36, 325) (37, -487) (38, 182) (39, 430) (40, 413) (41, -243) (42, 506) (43, 67) (44, -52) (45, -479) (46, 43) (47, 309) (48, -480) (49, -384) (50, -556) (51, -116) (52, -192) (53, -418) (54, -134) (55, 100) (56, -437) (57, -154) (58, -569) (59, 605) (60, 46) (61, -385) (62, -400) (63, 313) (64, 497) (65, -205) (66, 451) (67, 182) (68, -70) (69, 79) (70, 48) (71, -293) (72, 430) (73, -100) (74, 383) (75, -255) (76, 25) (77, -189) (78, -512) (79, 156) (80, 39) (81, -451) (82, -501) (83, 484) (0, -269) (1, -47) (2, -2) (3, -79) (4, 391) (5, 96) (6, -94) (7, -157) (8, 342) (9, 101) (10, -426) (11, 227) (12, 511) (13, -533) (14, -181) (15, -180) (16, 161) (17, 463) (18, 158) (19, -25) (20, -247) (21, -64) (22, 411) (23, 406) (24, 388) (25, 517) (26, -4) (27, -178) (28, -544) (29, 96) (30, -297) (31, -157) (32, -552) (33, 311) (34, 389) (35, 483) (36, -249) (37, -322) (38, -290) (39, -523) (40, 395) (41, -99) (42, 325) (43, 296) (44, -22) (45, -483) (46, -512) (47, -475) (48, 602) (49, 268) (50, 136) (51, -246) (52, -419) (53, -66) (54, -443) (55, 557) (56, -165) (57, 157) (58, -203) (59, -87) (60, -361) (61, 107) (62, 372) (63, -300) (64, -187) (65, 140) (66, -400) (67, 189) (68, 430) (69, -99) (70, 277) (71, 231) (72, 423) (73, -22) (74, -109) (75, -225) (76, 108) (77, -8) (78, -78) (79, 109) (80, -357) (81, -551) (82, 453) (83, -164) (0, -49) (1, 596) (2, -213) (3, 397) (4, 134) (5, 202) (6, -296) (7, 392) (8, -296) (9, -541) (10, -525) (11, 123) (12, 208) (13, -343) (14, -324) (15, 18) (16, 166) (17, 554) (18, -392) (19, -58) (20, -88) (21, 153) (22, 362) (23, -605) (24, -544) (25, -345) (26, 96) (27, -265) (28, -287) (29, -77) (30, 194) (31, 316) (32, -92) (33, -614) (34, 131) (35, -566) (36, 215) (37, 462) (38, 442) (39, 538) (40, 537) (41, 532) (42, 21) (43, 107) (44, -406) (45, 356) (46, -448) (47, 363) (48, 272) (49, -214) (50, -276) (51, -449) (52, 439) (53, -554) (54, -436) (55, 577) (56, -277) (57, 274) (58, -356) (59, 26) (60, -410) (61, 490) (62, -294) (63, 68) (64, 474) (65, 466) (66, 147) (67, 101) (68, 308) (69, -44) (70, 39) (71, 228) (72, -115) (73, -565) (74, -274) (75, 77) (76, 356) (77, -122) (78, -185) (79, 40) (80, 235) (81, 112) (82, 200) (83, 154) (0, 234) (1, 423) (2, 57) (3, 488) (4, 48) (5, 421) (6, -142) (7, 267) (8, 275) (9, 255) (10, -241) (11, 160) (12, 115) (13, 531) (14, -355) (15, -180) (16, -104) (17, 280) (18, -554) (19, 431) (20, 331) (21, -187) (22, -149) (23, 102) (24, 305) (25, 316) (26, -441) (27, -10) (28, -165) (29, 402) (30, -494) (31, -602) (32, 192) (33, 209) (34, 512) (35, -356) (36, -15) (37, -192) (38, 527) (39, -354) (40, -556) (41, -330) (42, 390) (43, 146) (44, -388) (45, -524) (46, 640) (47, 109) (48, 344) (49, -548) (50, -92) (51, 53) (52, -184) (53, 376) (54, -455) (55, -447) (56, 52) (57, -231) (58, 177) (59, 505) (60, -478) (61, 311) (62, 515) (63, 331) (64, -98) (65, 433) (66, 617) (67, 512) (68, -360) (69, 516) (70, -506) (71, -348) (72, -455) (73, 552) (74, 462) (75, -225) (76, -590) (77, 483) (78, 475) (79, 356) (80, 495) (81, -255) (82, -192) (83, -181) (0, -346) (1, -25) (2, -1) (3, 203) (4, 369) (5, -433) (6, 146) (7, 538) (8, 516) (9, 58) (10, 269) (11, -189) (12, -117) (13, 260) (14, -293) (15, 130) (16, 159) (17, -140) (18, 437) (19, 345) (20, -196) (21, 269) (22, -507) (23, -156) (24, 164) (25, 590) (26, -416) (27, 81) (28, -276) (29, 18) (30, 488) (31, -144) (32, -586) (33, -130) (34, -547) (35, 415) (36, 67) (37, 198) (38, 334) (39, -35) (40, -359) (41, -10) (42, 394) (43, 141) (44, -370) (45, -517) (46, -347) (47, 408) (48, -40) (49, -528) (50, 146) (51, 420) (52, 344) (53, 243) (54, -438) (55, -63) (56, 216) (57, -202) (58, -626) (59, 545) (60, 456) (61, 496) (62, -192) (63, 482) (64, -240) (65, -151) (66, 258) (67, 457) (68, -547) (69, -12) (70, -211) (71, -300) (72, 568) (73, -454) (74, 459) (75, -397) (76, -349) (77, -484) (78, -605) (79, 215) (80, -443) (81, 130) (82, 28) (83, 600) (0, -186) (1, 273) (2, -59) (3, -674) (4, -525) (5, -52) (6, 568) (7, 516) (8, -159) (9, -258) (10, 377) (11, 221) (12, 225) (13, 37) (14, 50) (15, 291) (16, -585) (17, 460) (18, 612) (19, -595) (20, -566) (21, 463) (22, -363) (23, -264) (24, 588) (25, -356) (26, 570) (27, -454) (28, 413) (29, -21) (30, -470) (31, -421) (32, -381) (33, 72) (34, -422) (35, -313) (36, -596) (37, -480) (38, -414) (39, -140) (40, -121) (41, 581) (42, -518) (43, -497) (44, -13) (45, 117) (46, 379) (47, 26) (48, -22) (49, 389) (50, 35) (51, 3) (52, 265) (53, 338) (54, 369) (55, 185) (56, 554) (57, 289) (58, 364) (59, 341) (60, -317) (61, 494) (62, 548) (63, -104) (64, -37) (65, -514) (66, 191) (67, -37) (68, -362) (69, 390) (70, 442) (71, 129) (72, 355) (73, 526) (74, 262) (75, -254) (76, 60) (77, 11) (78, 390) (79, -573) (80, -179) (81, -162) (82, 55) (83, -609) (0, -597) (1, -247) (2, 192) (3, -599) (4, -569) (5, -41) (6, 359) (7, -311) (8, -177) (9, 310) (10, 190) (11, 392) (12, 428) (13, -241) (14, -251) (15, -549) (16, -467) (17, -416) (18, 203) (19, 456) (20, -530) (21, -234) (22, -419) (23, 116) (24, 440) (25, -596) (26, 199) (27, -366) (28, -158) (29, -378) (30, -344) (31, -50) (32, -7) (33, 484) (34, -9) (35, 33) (36, -189) (37, -236) (38, 339) (39, 254) (40, -546) (41, -86) (42, 6) (43, 481) (44, 304) (45, 408) (46, 586) (47, 446) (48, 591) (49, 148) (50, 330) (51, -529) (52, 539) (53, 563) (54, 269) (55, 414) (56, 560) (57, -155) (58, -584) (59, -167) (60, 69) (61, -262) (62, 355) (63, -525) (64, -400) (65, -226) (66, 127) (67, -3) (68, 169) (69, -143) (70, -362) (71, 150) (72, 336) (73, 294) (74, 79) (75, 48) (76, 96) (77, 45) (78, -149) (79, 42) (80, -460) (81, -491) (82, 120) (83, -431) (0, -506) (1, -255) (2, 596) (3, -516) (4, 205) (5, -666) (6, -103) (7, -291) (8, -218) (9, -328) (10, -215) (11, -10) (12, 43) (13, 510) (14, -609) (15, -442) (16, -276) (17, -342) (18, 377) (19, -433) (20, 635) (21, -117) (22, 84) (23, 92) (24, 491) (25, 570) (26, -567) (27, -545) (28, -493) (29, 181) (30, -377) (31, -372) (32, 576) (33, -391) (34, -276) (35, 200) (36, -336) (37, 247) (38, 527) (39, 65) (40, 537) (41, -310) (42, -571) (43, -44) (44, -405) (45, -549) (46, 145) (47, -68) (48, -283) (49, -91) (50, 25) (51, -324) (52, 389) (53, -492) (54, 310) (55, 320) (56, -529) (57, 354) (58, 309) (59, -475) (60, -103) (61, 523) (62, -200) (63, -137) (64, -483) (65, 117) (66, -568) (67, -147) (68, -198) (69, 599) (70, 496) (71, -273) (72, -317) (73, 527) (74, 265) (75, -94) (76, -591) (77, -177) (78, 439) (79, -288) (80, 333) (81, -158) (82, -19) (83, 84) (0, -39) (1, -356) (2, -279) (3, 33) (4, -600) (5, -623) (6, 192) (7, -67) (8, 572) (9, -595) (10, 418) (11, -498) (12, 186) (13, 486) (14, -53) (15, 598) (16, 463) (17, -160) (18, -302) (19, -508) (20, -238) (21, 591) (22, -30) (23, -223) (24, -170) (25, -189) (26, 130) (27, -472) (28, 239) (29, -482) (30, 221) (31, -446) (32, -185) (33, 541) (34, 172) (35, -161) (36, 559) (37, -246) (38, 389) (39, 515) (40, -225) (41, 189) (42, -583) (43, 595) (44, 41) (45, -54) (46, 542) (47, -104) (48, 420) (49, -368) (50, 19) (51, -384) (52, -316) (53, -584) (54, 20) (55, 85) (56, -129) (57, -474) (58, 226) (59, -494) (60, -336) (61, -165) (62, -331) (63, 101) (64, -227) (65, 459) (66, 547) (67, -311) (68, -398) (69, 330) (70, -403) (71, 7) (72, -88) (73, -381) (74, -52) (75, 579) (76, 201) (77, -112) (78, -159) (79, -4) (80, 158) (81, 506) (82, 201) (83, 365) (0, 483) (1, -442) (2, -183) (3, -210) (4, -339) (5, -556) (6, -134) (7, -51) (8, -147) (9, 148) (10, -592) (11, 207) (12, -29) (13, 556) (14, 503) (15, 164) (16, 243) (17, -535) (18, -483) (19, -595) (20, -371) (21, 31) (22, -615) (23, 426) (24, 538) (25, -109) (26, -172) (27, 65) (28, -231) (29, -606) (30, -169) (31, -307) (32, -428) (33, 277) (34, 92) (35, -123) (36, 317) (37, 593) (38, 442) (39, -443) (40, 120) (41, 467) (42, 363) (43, -538) (44, 418) (45, 276) (46, 269) (47, 37) (48, 344) (49, 377) (50, 146) (51, -598) (52, -174) (53, 187) (54, 469) (55, -243) (56, -554) (57, -303) (58, 451) (59, -86) (60, -275) (61, -318) (62, 160) (63, -86) (64, 544) (65, -340) (66, 385) (67, 252) (68, -352) (69, 211) (70, 427) (71, 336) (72, 34) (73, 163) (74, 432) (75, -134) (76, -105) (77, 125) (78, 522) (79, -424) (80, -140) (81, 13) (82, -430) (83, 320) (0, -408) (1, -571) (2, -551) (3, -287) (4, -251) (5, 520) (6, 169) (7, 84) (8, -423) (9, -275) (10, 596) (11, -481) (12, -17) (13, 366) (14, 394) (15, 214) (16, -38) (17, 206) (18, -51) (19, -625) (20, -286) (21, -250) (22, -141) (23, 215) (24, 463) (25, -247) (26, 402) (27, -287) (28, 399) (29, 598) (30, -597) (31, -606) (32, -571) (33, -519) (34, -288) (35, -192) (36, -608) (37, 507) (38, 508) (39, -412) (40, -387) (41, 488) (42, -291) (43, 202) (44, 247) (45, -490) (46, -177) (47, -413) (48, 320) (49, 377) (50, -388) (51, -512) (52, -455) (53, 78) (54, 276) (55, -609) (56, 449) (57, 106) (58, -323) (59, 258) (60, 91) (61, -227) (62, 242) (63, 134) (64, -153) (65, 581) (66, 564) (67, -151) (68, 476) (69, 451) (70, 55) (71, -533) (72, 325) (73, 380) (74, 291) (75, -67) (76, 496) (77, -515) (78, 138) (79, 219) (80, 499) (81, 375) (82, 314) (83, -585) (0, -148) (1, -9) (2, -572) (3, -324) (4, -526) (5, -273) (6, 563) (7, 194) (8, 110) (9, 175) (10, -290) (11, 565) (12, 140) (13, -351) (14, -205) (15, -6) (16, -522) (17, 460) (18, 78) (19, 458) (20, 253) (21, -238) (22, -255) (23, 151) (24, -119) (25, 477) (26, -302) (27, -266) (28, 213) (29, 613) (30, -246) (31, -573) (32, 0) (33, -217) (34, -279) (35, 108) (36, 151) (37, -361) (38, -315) (39, -357) (40, 432) (41, 10) (42, -391) (43, -29) (44, 262) (45, -10) (46, 552) (47, 364) (48, -152) (49, 29) (50, 164) (51, -520) (52, 420) (53, 518) (54, 200) (55, -323) (56, 386) (57, 492) (58, 26) (59, -50) (60, 485) (61, 361) (62, 11) (63, -112) (64, -442) (65, 327) (66, 616) (67, 326) (68, 605) (69, -287) (70, 577) (71, 445) (72, 312) (73, -440) (74, -224) (75, -32) (76, 175) (77, -292) (78, -265) (79, -587) (80, 365) (81, 515) (82, -511) (83, 127) (0, 432) (1, 273) (2, 433) (3, 138) (4, 159) (5, -172) (6, -484) (7, 46) (8, -448) (9, 128) (10, 543) (11, -292) (12, -139) (13, 534) (14, -602) (15, -149) (16, -408) (17, 581) (18, -344) (19, 446) (20, -513) (21, 12) (22, -121) (23, 258) (24, 386) (25, 194) (26, 309) (27, 104) (28, 76) (29, 400) (30, -370) (31, -147) (32, 62) (33, -576) (34, -613) (35, -391) (36, -165) (37, -498) (38, 270) (39, 3) (40, 248) (41, 198) (42, 352) (43, -486) (44, 96) (45, 322) (46, -63) (47, 317) (48, 311) (49, 237) (50, 214) (51, 457) (52, -340) (53, -510) (54, 161) (55, -609) (56, 300) (57, -195) (58, 147) (59, -215) (60, -348) (61, 393) (62, 215) (63, 288) (64, 419) (65, 253) (66, 492) (67, -361) (68, 347) (69, 128) (70, 217) (71, -28) (72, -222) (73, -29) (74, 70) (75, 462) (76, -314) (77, -570) (78, 222) (79, 657) (80, 256) (81, -166) (82, 438) (83, 500) (0, -98) (1, -67) (2, 507) (3, -457) (4, 352) (5, 50) (6, -194) (7, 570) (8, -216) (9, -534) (10, 224) (11, -429) (12, 291) (13, 103) (14, -189) (15, 1) (16, -362) (17, -560) (18, 575) (19, -12) (20, -37) (21, 38) (22, -173) (23, 241) (24, 19) (25, -593) (26, 320) (27, -312) (28, -189) (29, 140) (30, -406) (31, 293) (32, -542) (33, -487) (34, 435) (35, 437) (36, 167) (37, -301) (38, 391) (39, 571) (40, -222) (41, -2) (42, -509) (43, -577) (44, -488) (45, -23) (46, 98) (47, -249) (48, 6) (49, 24) (50, 355) (51, -613) (52, -591) (53, -459) (54, 319) (55, 62) (56, -451) (57, 79) (58, 392) (59, -4) (60, -429) (61, 630) (62, -326) (63, -374) (64, -494) (65, -450) (66, -508) (67, 282) (68, -162) (69, 447) (70, 208) (71, 197) (72, -174) (73, 328) (74, 260) (75, -48) (76, -267) (77, -244) (78, 302) (79, 331) (80, 385) (81, 25) (82, 332) (83, 464) (0, 109) (1, 101) (2, -107) (3, 390) (4, -468) (5, -208) (6, -180) (7, -303) (8, -298) (9, 135) (10, -42) (11, -172) (12, 265) (13, 39) (14, -497) (15, -527) (16, -108) (17, 360) (18, 308) (19, 373) (20, 167) (21, -20) (22, -313) (23, 482) (24, 310) (25, 609) (26, 162) (27, 103) (28, 21) (29, -99) (30, -79) (31, -381) (32, 599) (33, 455) (34, -575) (35, -505) (36, -456) (37, -134) (38, -191) (39, -137) (40, -616) (41, 383) (42, 282) (43, 239) (44, -168) (45, 452) (46, 380) (47, 327) (48, 171) (49, 64) (50, 83) (51, -345) (52, -646) (53, 380) (54, -494) (55, 297) (56, 351) (57, 276) (58, -178) (59, -260) (60, -485) (61, 344) (62, -32) (63, -460) (64, 216) (65, 14) (66, -314) (67, 373) (68, 503) (69, 82) (70, -369) (71, 479) (72, -193) (73, 521) (74, 147) (75, 270) (76, 340) (77, -111) (78, -35) (79, -100) (80, 513) (81, -600) (82, 190) (83, 620) (0, 378) (1, 326) (2, 331) (3, 118) (4, 16) (5, -450) (6, 518) (7, 190) (8, 568) (9, -103) (10, 360) (11, 175) (12, 551) (13, -593) (14, -59) (15, 455) (16, 113) (17, 187) (18, 360) (19, 613) (20, 150) (21, -74) (22, 257) (23, -139) (24, 427) (25, -390) (26, 403) (27, 387) (28, -355) (29, -4) (30, 365) (31, -573) (32, -287) (33, 87) (34, 182) (35, 332) (36, 272) (37, 82) (38, -93) (39, 225) (40, 595) (41, -353) (42, -226) (43, 522) (44, -321) (45, 346) (46, 376) (47, 404) (48, -91) (49, 116) (50, 376) (51, -588) (52, -613) (53, 11) (54, -89) (55, 465) (56, 228) (57, -317) (58, 215) (59, 473) (60, 292) (61, -41) (62, 529) (63, -616) (64, -536) (65, 105) (66, 346) (67, 328) (68, -447) (69, -354) (70, -59) (71, -463) (72, -70) (73, 337) (74, -544) (75, 187) (76, 65) (77, 450) (78, -26) (79, 587) (80, -47) (81, -264) (82, -618) (83, -35) (0, 310) (1, -135) (2, -222) (3, -33) (4, 236) (5, -625) (6, -193) (7, -107) (8, 5) (9, -252) (10, -93) (11, 69) (12, 463) (13, -365) (14, -212) (15, -590) (16, -114) (17, 347) (18, -432) (19, 357) (20, 72) (21, -365) (22, -37) (23, -481) (24, -558) (25, 558) (26, -510) (27, 14) (28, -334) (29, -506) (30, 587) (31, -608) (32, 15) (33, -230) (34, -35) (35, -392) (36, -203) (37, 414) (38, 119) (39, 421) (40, -457) (41, -592) (42, -151) (43, -631) (44, -321) (45, 294) (46, -563) (47, 170) (48, 3) (49, -389) (50, -52) (51, -535) (52, -136) (53, 513) (54, -425) (55, -44) (56, 464) (57, -295) (58, 504) (59, -458) (60, -233) (61, 525) (62, -497) (63, 429) (64, -303) (65, 117) (66, -583) (67, 82) (68, -95) (69, 157) (70, -90) (71, 72) (72, 180) (73, 379) (74, 64) (75, 455) (76, 24) (77, 88) (78, 10) (79, -555) (80, 331) (81, 546) (82, -507) (83, -416) (0, 596) (1, -260) (2, 141) (3, 354) (4, 95) (5, 115) (6, 518) (7, 451) (8, -18) (9, -611) (10, 273) (11, 287) (12, 118) (13, 322) (14, -227) (15, -591) (16, -130) (17, 290) (18, 93) (19, -581) (20, -1) (21, -452) (22, 513) (23, -543) (24, 299) (25, -92) (26, -461) (27, -21) (28, -143) (29, -339) (30, 159) (31, -277) (32, -8) (33, -342) (34, -554) (35, -595) (36, 336) (37, 538) (38, 468) (39, -302) (40, 547) (41, 131) (42, 634) (43, 74) (44, -191) (45, -263) (46, 46) (47, 310) (48, -562) (49, -446) (50, 374) (51, 109) (52, -305) (53, 276) (54, 178) (55, 578) (56, -418) (57, 367) (58, -40) (59, 50) (60, -545) (61, -459) (62, 412) (63, 10) (64, -206) (65, 468) (66, 75) (67, -519) (68, 385) (69, -111) (70, -162) (71, 299) (72, -575) (73, -162) (74, -245) (75, -130) (76, 182) (77, 408) (78, -390) (79, 241) (80, 527) (81, 581) (82, -226) (83, -339) (0, 259) (1, 629) (2, -333) (3, 422) (4, 352) (5, 240) (6, -139) (7, 396) (8, 388) (9, -369) (10, -188) (11, -443) (12, -534) (13, 481) (14, -322) (15, 456) (16, -227) (17, 121) (18, 142) (19, -158) (20, 529) (21, 505) (22, 300) (23, 169) (24, 287) (25, 498) (26, -235) (27, 269) (28, 456) (29, 131) (30, 573) (31, 78) (32, 107) (33, -367) (34, -110) (35, -157) (36, 510) (37, 366) (38, -375) (39, 284) (40, 613) (41, 51) (42, 446) (43, -546) (44, -74) (45, -473) (46, 545) (47, 310) (48, 253) (49, 56) (50, -498) (51, 167) (52, -52) (53, 422) (54, -299) (55, -371) (56, 284) (57, 71) (58, 511) (59, 117) (60, -409) (61, 475) (62, -404) (63, 329) (64, -556) (65, 82) (66, -466) (67, 591) (68, -159) (69, -216) (70, 261) (71, -131) (72, 457) (73, 100) (74, -66) (75, -239) (76, 237) (77, -148) (78, -557) (79, -97) (80, 544) (81, -446) (82, -568) (83, -140) (0, 736) (1, -217) (2, 60) (3, 315) (4, -855) (5, -22) (6, -230) (7, -546) (8, -191) (9, 25) (10, 393) (11, -100) (12, -483) (13, 559) (14, -115) (15, -9) (16, -267) (17, -463) (18, 463) (19, -378) (20, 260) (21, -206) (22, -53) (23, -180) (24, 230) (25, 16) (26, 376) (27, 168) (28, 197) (29, 442) (30, -599) (31, 180) (32, -405) (33, 100) (34, -152) (35, -551) (36, -549) (37, 271) (38, -480) (39, -122) (40, -321) (41, 529) (42, 370) (43, -210) (44, 494) (45, -316) (46, 443) (47, -405) (48, -187) (49, 277) (50, -214) (51, -567) (52, -542) (53, 317) (54, -63) (55, 285) (56, -303) (57, -285) (58, -128) (59, 513) (60, -458) (61, -143) (62, 111) (63, -258) (64, 585) (65, 622) (66, -186) (67, -582) (68, 221) (69, -76) (70, -126) (71, 547) (72, -130) (73, -321) (74, -280) (75, -292) (76, -76) (77, -484) (78, -129) (79, 378) (80, 407) (81, 313) (82, 462) (83, 493) (0, 66) (1, -205) (2, 152) (3, 405) (4, 129) (5, -610) (6, 364) (7, 292) (8, -123) (9, -139) (10, -574) (11, -152) (12, -167) (13, -142) (14, -114) (15, -542) (16, 427) (17, 418) (18, 613) (19, -333) (20, -497) (21, -279) (22, 2) (23, 76) (24, -118) (25, 548) (26, -142) (27, -310) (28, 250) (29, -289) (30, -456) (31, -318) (32, 134) (33, 315) (34, -523) (35, -346) (36, 322) (37, 448) (38, 563) (39, -416) (40, -309) (41, 606) (42, 44) (43, 138) (44, -150) (45, 553) (46, 219) (47, -340) (48, 351) (49, 211) (50, -50) (51, 458) (52, 592) (53, 574) (54, -86) (55, -169) (56, 493) (57, 384) (58, 150) (59, 149) (60, -509) (61, 286) (62, 444) (63, 246) (64, -6) (65, 535) (66, 507) (67, -299) (68, 365) (69, 455) (70, -110) (71, -554) (72, 430) (73, 556) (74, 177) (75, -318) (76, 503) (77, -200) (78, -73) (79, 215) (80, -578) (81, 512) (82, 67) (83, 568) (0, 532) (1, 610) (2, -222) (3, 363) (4, 381) (5, 556) (6, -121) (7, 489) (8, 208) (9, -300) (10, 110) (11, -415) (12, -386) (13, 2) (14, -99) (15, 590) (16, -161) (17, 416) (18, -590) (19, -338) (20, 340) (21, 181) (22, -45) (23, 241) (24, -605) (25, 519) (26, -145) (27, -600) (28, 415) (29, 545) (30, 581) (31, 268) (32, 537) (33, -258) (34, 10) (35, 306) (36, -345) (37, 508) (38, 178) (39, 480) (40, -409) (41, -326) (42, -551) (43, -178) (44, 290) (45, -35) (46, -206) (47, -487) (48, -235) (49, -182) (50, -202) (51, -496) (52, -581) (53, 357) (54, 369) (55, -597) (56, 265) (57, -401) (58, -555) (59, 58) (60, -423) (61, -583) (62, -272) (63, -531) (64, -201) (65, 331) (66, 401) (67, 48) (68, 242) (69, -58) (70, -87) (71, 442) (72, 198) (73, -36) (74, -340) (75, -102) (76, 545) (77, 66) (78, 31) (79, -302) (80, 489) (81, 445) (82, -150) (83, 536) (0, 134) (1, -488) (2, 571) (3, -187) (4, -282) (5, -640) (6, 475) (7, -41) (8, -547) (9, -363) (10, 34) (11, -157) (12, 600) (13, -206) (14, 504) (15, 219) (16, 352) (17, -204) (18, 46) (19, -75) (20, 392) (21, 296) (22, 449) (23, 316) (24, -263) (25, -94) (26, -592) (27, -366) (28, -262) (29, -144) (30, -446) (31, 549) (32, 55) (33, -475) (34, -218) (35, 477) (36, -438) (37, -298) (38, -175) (39, -360) (40, -49) (41, 467) (42, 75) (43, -81) (44, -339) (45, -5) (46, -445) (47, 621) (48, 390) (49, 194) (50, -31) (51, 189) (52, -63) (53, -150) (54, -146) (55, 306) (56, 337) (57, -75) (58, 563) (59, -495) (60, 357) (61, -541) (62, -610) (63, -177) (64, -421) (65, -186) (66, -329) (67, -187) (68, 144) (69, 121) (70, 48) (71, -492) (72, 1) (73, -483) (74, -8) (75, 232) (76, 144) (77, 194) (78, 198) (79, -134) (80, -184) (81, -435) (82, -614) (83, 278) (0, 30) (1, -162) (2, -81) (3, -252) (4, 393) (5, -191) (6, -194) (7, 130) (8, -121) (9, -146) (10, 543) (11, 89) (12, 277) (13, -415) (14, 478) (15, -217) (16, 296) (17, -118) (18, -142) (19, -410) (20, -21) (21, 488) (22, 450) (23, -541) (24, 43) (25, 35) (26, -51) (27, 402) (28, 201) (29, -30) (30, 47) (31, -417) (32, 470) (33, 575) (34, -62) (35, 240) (36, -233) (37, 385) (38, -246) (39, 265) (40, -377) (41, -321) (42, -254) (43, 525) (44, -127) (45, -409) (46, -325) (47, -443) (48, 98) (49, 153) (50, -196) (51, -497) (52, 63) (53, -369) (54, -432) (55, -553) (56, 301) (57, 144) (58, 483) (59, -106) (60, -499) (61, -90) (62, 69) (63, 557) (64, -125) (65, -586) (66, 205) (67, 247) (68, 393) (69, 584) (70, -104) (71, -596) (72, -365) (73, 248) (74, 530) (75, 129) (76, 467) (77, -405) (78, 317) (79, -48) (80, 372) (81, -481) (82, 36) (83, -225) (0, -269) (1, 217) (2, -137) (3, -580) (4, -277) (5, -284) (6, -51) (7, -187) (8, 202) (9, 579) (10, -238) (11, -562) (12, 587) (13, 571) (14, 292) (15, 364) (16, 515) (17, -440) (18, 379) (19, -444) (20, 417) (21, 312) (22, 270) (23, 293) (24, 528) (25, -55) (26, -427) (27, 266) (28, 48) (29, 218) (30, -567) (31, 403) (32, -192) (33, -106) (34, 427) (35, 141) (36, 202) (37, -298) (38, 567) (39, -218) (40, -332) (41, -282) (42, -140) (43, -344) (44, -347) (45, -502) (46, -633) (47, -439) (48, -307) (49, 385) (50, -297) (51, -503) (52, 50) (53, 584) (54, 355) (55, -54) (56, -57) (57, 521) (58, -390) (59, 560) (60, 145) (61, -349) (62, 384) (63, 565) (64, 182) (65, 148) (66, 128) (67, -243) (68, 496) (69, 52) (70, 152) (71, -478) (72, 371) (73, 617) (74, -177) (75, -554) (76, -494) (77, -206) (78, -355) (79, -185) (80, -428) (81, -19) (82, -52) (83, 227) (0, -91) (1, -276) (2, -404) (3, 483) (4, -337) (5, -245) (6, 440) (7, 381) (8, 70) (9, 175) (10, 342) (11, -383) (12, -264) (13, -170) (14, -19) (15, -382) (16, 504) (17, -484) (18, -218) (19, 307) (20, -520) (21, 215) (22, 385) (23, -272) (24, -598) (25, 590) (26, 71) (27, -427) (28, -71) (29, 615) (30, 435) (31, 474) (32, -326) (33, -600) (34, 318) (35, -100) (36, -181) (37, 123) (38, -337) (39, 500) (40, -315) (41, -607) (42, -480) (43, 52) (44, -174) (45, 90) (46, 259) (47, -279) (48, 236) (49, -563) (50, -628) (51, 340) (52, 269) (53, 346) (54, 621) (55, 297) (56, 325) (57, 79) (58, 431) (59, -376) (60, 69) (61, 291) (62, -484) (63, 364) (64, 283) (65, 351) (66, -387) (67, -545) (68, -82) (69, -112) (70, 570) (71, 206) (72, -70) (73, -490) (74, -312) (75, 360) (76, 202) (77, 541) (78, -524) (79, -200) (80, 592) (81, -511) (82, -401) (83, 231) (0, 584) (1, -415) (2, -96) (3, 189) (4, 291) (5, -316) (6, 420) (7, -285) (8, 611) (9, 538) (10, -547) (11, 282) (12, 349) (13, -290) (14, 388) (15, -330) (16, 249) (17, 385) (18, 525) (19, -434) (20, 529) (21, -406) (22, 596) (23, 142) (24, -483) (25, -550) (26, 567) (27, -511) (28, -428) (29, -463) (30, 350) (31, -574) (32, -264) (33, -378) (34, 217) (35, -616) (36, -37) (37, 27) (38, -285) (39, -44) (40, -50) (41, -217) (42, -361) (43, -302) (44, 98) (45, -619) (46, -46) (47, -261) (48, 397) (49, -134) (50, -85) (51, 289) (52, 141) (53, -114) (54, -186) (55, 221) (56, -39) (57, -254) (58, 308) (59, 163) (60, -106) (61, 31) (62, 191) (63, 249) (64, 240) (65, -228) (66, 222) (67, -398) (68, 410) (69, 539) (70, 169) (71, -260) (72, -243) (73, 420) (74, 70) (75, 462) (76, 450) (77, -585) (78, -404) (79, 198) (80, -66) (81, 144) (82, -99) (83, 567) (0, -629) (1, 268) (2, 140) (3, 11) (4, -623) (5, -161) (6, -536) (7, -116) (8, 454) (9, 272) (10, -498) (11, 98) (12, -567) (13, 353) (14, 323) (15, 472) (16, 305) (17, -110) (18, -389) (19, -555) (20, -284) (21, 282) (22, 510) (23, -482) (24, 301) (25, -511) (26, 348) (27, -406) (28, 245) (29, -386) (30, -440) (31, 263) (32, 506) (33, 322) (34, -391) (35, 509) (36, -478) (37, -295) (38, -223) (39, 594) (40, 594) (41, -107) (42, 68) (43, -597) (44, -361) (45, -211) (46, 505) (47, 556) (48, 288) (49, -504) (50, 603) (51, 601) (52, 381) (53, 455) (54, -501) (55, 75) (56, 594) (57, 472) (58, 313) (59, 208) (60, -551) (61, 458) (62, -144) (63, 581) (64, 154) (65, 105) (66, 456) (67, 320) (68, 426) (69, -343) (70, 302) (71, 398) (72, 117) (73, -259) (74, 410) (75, 403) (76, 150) (77, 308) (78, 311) (79, -178) (80, 386) (81, 299) (82, -198) (83, 194) (0, 191) (1, -76) (2, -337) (3, 180) (4, -208) (5, 617) (6, -226) (7, -150) (8, 419) (9, 250) (10, -182) (11, -22) (12, -272) (13, -320) (14, -322) (15, -472) (16, -66) (17, 586) (18, 538) (19, -525) (20, -272) (21, 318) (22, 498) (23, 503) (24, 36) (25, 196) (26, -308) (27, -178) (28, -109) (29, 115) (30, -608) (31, -541) (32, -578) (33, -337) (34, 235) (35, -190) (36, -389) (37, -617) (38, 275) (39, -589) (40, 251) (41, -520) (42, 18) (43, 604) (44, -232) (45, 294) (46, -502) (47, 323) (48, 273) (49, -561) (50, 415) (51, 609) (52, 362) (53, 264) (54, 492) (55, -234) (56, -135) (57, -445) (58, 228) (59, 346) (60, 303) (61, 237) (62, 447) (63, 340) (64, 532) (65, 42) (66, -461) (67, -489) (68, 44) (69, 394) (70, -458) (71, -320) (72, 502) (73, 158) (74, -329) (75, -336) (76, -150) (77, -219) (78, 596) (79, -470) (80, -168) (81, 402) (82, -479) (83, -402) (0, -23) (1, 608) (2, 2) (3, 523) (4, -501) (5, -374) (6, 236) (7, 453) (8, 499) (9, 97) (10, 164) (11, 406) (12, -465) (13, 299) (14, 540) (15, 206) (16, 96) (17, -528) (18, 510) (19, -30) (20, 236) (21, -429) (22, 228) (23, -525) (24, -49) (25, 273) (26, -358) (27, 422) (28, 63) (29, -230) (30, -587) (31, -490) (32, -237) (33, 49) (34, -575) (35, -72) (36, 305) (37, 320) (38, -233) (39, 191) (40, -201) (41, 545) (42, -43) (43, -69) (44, 245) (45, -82) (46, -443) (47, -285) (48, -12) (49, -564) (50, 315) (51, -366) (52, -407) (53, -23) (54, -257) (55, 198) (56, -382) (57, 33) (58, 27) (59, 315) (60, 404) (61, 48) (62, 400) (63, -447) (64, -553) (65, 494) (66, 70) (67, 398) (68, 198) (69, 506) (70, -14) (71, 555) (72, 374) (73, 519) (74, -84) (75, 38) (76, -142) (77, 93) (78, 321) (79, 414) (80, 116) (81, 6) (82, -581) (83, 374) (0, -611) (1, -152) (2, -87) (3, -368) (4, 434) (5, 624) (6, 527) (7, 251) (8, -31) (9, 365) (10, 418) (11, 49) (12, 222) (13, -104) (14, -183) (15, -220) (16, -244) (17, 388) (18, -245) (19, -500) (20, 231) (21, 279) (22, 132) (23, -511) (24, -265) (25, -106) (26, 586) (27, 502) (28, 543) (29, -578) (30, 241) (31, 545) (32, -132) (33, -439) (34, -443) (35, -284) (36, -502) (37, -505) (38, 582) (39, 86) (40, 473) (41, 388) (42, -508) (43, 56) (44, -312) (45, -28) (46, 498) (47, 49) (48, -279) (49, -387) (50, 204) (51, -592) (52, 451) (53, -265) (54, -476) (55, -403) (56, 221) (57, -449) (58, -483) (59, 187) (60, -382) (61, 427) (62, 112) (63, 42) (64, 563) (65, 288) (66, 406) (67, -534) (68, 425) (69, 352) (70, 115) (71, 184) (72, 83) (73, 271) (74, -296) (75, 414) (76, -362) (77, -403) (78, -139) (79, -35) (80, -250) (81, -604) (82, -13) (83, -263) (0, -242) (1, 201) (2, -9) (3, -547) (4, 372) (5, 143) (6, 224) (7, 557) (8, -44) (9, -262) (10, 5) (11, -75) (12, -587) (13, -214) (14, 8) (15, 427) (16, -467) (17, -443) (18, 66) (19, 324) (20, 506) (21, 436) (22, 108) (23, -484) (24, 588) (25, 529) (26, 68) (27, -217) (28, 561) (29, -540) (30, 114) (31, -270) (32, 275) (33, -507) (34, -221) (35, 19) (36, 273) (37, -601) (38, -42) (39, -388) (40, -244) (41, 580) (42, 150) (43, -221) (44, -245) (45, -448) (46, -400) (47, -98) (48, -280) (49, 283) (50, -424) (51, -428) (52, 58) (53, 243) (54, -327) (55, 49) (56, 175) (57, 367) (58, 430) (59, 86) (60, 437) (61, -88) (62, 457) (63, 68) (64, 42) (65, -400) (66, -497) (67, -303) (68, -415) (69, 54) (70, -83) (71, 3) (72, 25) (73, -538) (74, 406) (75, 383) (76, -387) (77, -626) (78, -334) (79, -34) (80, 277) (81, -141) (82, 156) (83, -264) (0, -439) (1, 478) (2, 363) (3, 316) (4, 191) (5, 183) (6, -162) (7, 14) (8, -476) (9, -361) (10, -508) (11, 184) (12, -120) (13, -395) (14, 502) (15, 137) (16, 293) (17, -183) (18, -467) (19, -189) (20, -79) (21, 583) (22, -500) (23, 193) (24, 549) (25, -201) (26, -493) (27, 241) (28, 281) (29, 284) (30, 589) (31, 404) (32, 120) (33, 358) (34, 81) (35, -301) (36, -53) (37, 490) (38, 330) (39, 88) (40, -487) (41, 