FANN_FIX_2.0
decimal_point=12
num_layers=5
learning_rate=0.700000
connection_rate=1.000000
network_type=0
learning_momentum=0.000000
training_algorithm=3
train_error_function=1
train_stop_function=0
cascade_output_change_fraction=0.010000
quickprop_decay=-0.000100
quickprop_mu=1.750000
rprop_increase_factor=1.200000
rprop_decrease_factor=0.500000
rprop_delta_min=0.000000
rprop_delta_max=50.000000
rprop_delta_zero=0.100000
cascade_output_stagnation_epochs=12
cascade_candidate_change_fraction=0.010000
cascade_candidate_stagnation_epochs=12
cascade_max_out_epochs=150
cascade_min_out_epochs=50
cascade_max_cand_epochs=150
cascade_min_cand_epochs=50
cascade_num_candidate_groups=2
bit_fail_limit=1434
cascade_candidate_limit=4096000
cascade_weight_multiplier=1638
cascade_activation_functions_count=10
cascade_activation_functions=3 5 7 8 10 11 14 15 16 17 
cascade_activation_steepnesses_count=4
cascade_activation_steepnesses=1024 2048 3072 4096 
layer_sizes=72 201 41 13 2 
neurons (num_inputs, activation_function, activation_steepness)=(0, 0, 0) (0, 0, 0) (0, 0, 0) (0, 0, 0) (0, 0, 0) (0, 0, 0) (0, 0, 0) (0, 0, 0) (0, 0, 0) (0, 0, 0) (0, 0, 0) (0, 0, 0) (0, 0, 0) (0, 0, 0) (0, 0, 0) (0, 0, 0) (0, 0, 0) (0, 0, 0) (0, 0, 0) (0, 0, 0) (0, 0, 0) (0, 0, 0) (0, 0, 0) (0, 0, 0) (0, 0, 0) (0, 0, 0) (0, 0, 0) (0, 0, 0) (0, 0, 0) (0, 0, 0) (0, 0, 0) (0, 0, 0) (0, 0, 0) (0, 0, 0) (0, 0, 0) (0, 0, 0) (0, 0, 0) (0, 0, 0) (0, 0, 0) (0, 0, 0) (0, 0, 0) (0, 0, 0) (0, 0, 0) (0, 0, 0) (0, 0, 0) (0, 0, 0) (0, 0, 0) (0, 0, 0) (0, 0, 0) (0, 0, 0) (0, 0, 0) (0, 0, 0) (0, 0, 0) (0, 0, 0) (0, 0, 0) (0, 0, 0) (0, 0, 0) (0, 0, 0) (0, 0, 0) (0, 0, 0) (0, 0, 0) (0, 0, 0) (0, 0, 0) (0, 0, 0) (0, 0, 0) (0, 0, 0) (0, 0, 0) (0, 0, 0) (0, 0, 0) (0, 0, 0) (0, 0, 0) (0, 0, 0) (72, 5, 4096) (72, 5, 4096) (72, 5, 4096) (72, 5, 4096) (72, 5, 4096) (72, 5, 4096) (72, 5, 4096) (72, 5, 4096) (72, 5, 4096) (72, 5, 4096) (72, 5, 4096) (72, 5, 4096) (72, 5, 4096) (72, 5, 4096) (72, 5, 4096) (72, 5, 4096) (72, 5, 4096) (72, 5, 4096) (72, 5, 4096) (72, 5, 4096) (72, 5, 4096) (72, 5, 4096) (72, 5, 4096) (72, 5, 4096) (72, 5, 4096) (72, 5, 4096) (72, 5, 4096) (72, 5, 4096) (72, 5, 4096) (72, 5, 4096) (72, 5, 4096) (72, 5, 4096) (72, 5, 4096) (72, 5, 4096) (72, 5, 4096) (72, 5, 4096) (72, 5, 4096) (72, 5, 4096) (72, 5, 4096) (72, 5, 4096) (72, 5, 4096) (72, 5, 4096) (72, 5, 4096) (72, 5, 4096) (72, 5, 4096) (72, 5, 4096) (72, 5, 4096) (72, 5, 4096) (72, 5, 4096) (72, 5, 4096) (72, 5, 4096) (72, 5, 4096) (72, 5, 4096) (72, 5, 4096) (72, 5, 4096) (72, 5, 4096) (72, 5, 4096) (72, 5, 4096) (72, 5, 4096) (72, 5, 4096) (72, 5, 4096) (72, 5, 4096) (72, 5, 4096) (72, 5, 4096) (72, 5, 4096) (72, 5, 4096) (72, 5, 4096) (72, 5, 4096) (72, 5, 4096) (72, 5, 4096) (72, 5, 4096) (72, 5, 4096) (72, 5, 4096) (72, 5, 4096) (72, 5, 4096) (72, 5, 4096) (72, 5, 4096) (72, 5, 4096) (72, 5, 4096) (72, 5, 4096) (72, 5, 4096) (72, 5, 4096) (72, 5, 4096) (72, 5, 4096) (72, 5, 4096) (72, 5, 4096) (72, 5, 4096) (72, 5, 4096) (72, 5, 4096) (72, 5, 4096) (72, 5, 4096) (72, 5, 4096) (72, 5, 4096) (72, 5, 4096) (72, 5, 4096) (72, 5, 4096) (72, 5, 4096) (72, 5, 4096) (72, 5, 4096) (72, 5, 4096) (72, 5, 4096) (72, 5, 4096) (72, 5, 4096) (72, 5, 4096) (72, 5, 4096) (72, 5, 4096) (72, 5, 4096) (72, 5, 4096) (72, 5, 4096) (72, 5, 4096) (72, 5, 4096) (72, 5, 4096) (72, 5, 4096) (72, 5, 4096) (72, 5, 4096) (72, 5, 4096) (72, 5, 4096) (72, 5, 4096) (72, 5, 4096) (72, 5, 4096) (72, 5, 4096) (72, 5, 4096) (72, 5, 4096) (72, 5, 4096) (72, 5, 4096) (72, 5, 4096) (72, 5, 4096) (72, 5, 4096) (72, 5, 4096) (72, 5, 4096) (72, 5, 4096) (72, 5, 4096) (72, 5, 4096) (72, 5, 4096) (72, 5, 4096) (72, 5, 4096) (72, 5, 4096) (72, 5, 4096) (72, 5, 4096) (72, 5, 4096) (72, 5, 4096) (72, 5, 4096) (72, 5, 4096) (72, 5, 4096) (72, 5, 4096) (72, 5, 4096) (72, 5, 4096) (72, 5, 4096) (72, 5, 4096) (72, 5, 4096) (72, 5, 4096) (72, 5, 4096) (72, 5, 4096) (72, 5, 4096) (72, 5, 4096) (72, 5, 4096) (72, 5, 4096) (72, 5, 4096) (72, 5, 4096) (72, 5, 4096) (72, 5, 4096) (72, 5, 4096) (72, 5, 4096) (72, 5, 4096) (72, 5, 4096) (72, 5, 4096) (72, 5, 4096) (72, 5, 4096) (72, 5, 4096) (72, 5, 4096) (72, 5, 4096) (72, 5, 4096) (72, 5, 4096) (72, 5, 4096) (72, 5, 4096) (72, 5, 4096) (72, 5, 4096) (72, 5, 4096) (72, 5, 4096) (72, 5, 4096) (72, 5, 4096) (72, 5, 4096) (72, 5, 4096) (72, 5, 4096) (72, 5, 4096) (72, 5, 4096) (72, 5, 4096) (72, 5, 4096) (72, 5, 4096) (72, 5, 4096) (72, 5, 4096) (72, 5, 4096) (72, 5, 4096) (72, 5, 4096) (72, 5, 4096) (72, 5, 4096) (72, 5, 4096) (72, 5, 4096) (72, 5, 4096) (72, 5, 4096) (0, 5, 4096) (201, 5, 4096) (201, 5, 4096) (201, 5, 4096) (201, 5, 4096) (201, 5, 4096) (201, 5, 4096) (201, 5, 4096) (201, 5, 4096) (201, 5, 4096) (201, 5, 4096) (201, 5, 4096) (201, 5, 4096) (201, 5, 4096) (201, 5, 4096) (201, 5, 4096) (201, 5, 4096) (201, 5, 4096) (201, 5, 4096) (201, 5, 4096) (201, 5, 4096) (201, 5, 4096) (201, 5, 4096) (201, 5, 4096) (201, 5, 4096) (201, 5, 4096) (201, 5, 4096) (201, 5, 4096) (201, 5, 4096) (201, 5, 4096) (201, 5, 4096) (201, 5, 4096) (201, 5, 4096) (201, 5, 4096) (201, 5, 4096) (201, 5, 4096) (201, 5, 4096) (201, 5, 4096) (201, 5, 4096) (201, 5, 4096) (201, 5, 4096) (0, 5, 4096) (41, 5, 4096) (41, 5, 4096) (41, 5, 4096) (41, 5, 4096) (41, 5, 4096) (41, 5, 4096) (41, 5, 4096) (41, 5, 4096) (41, 5, 4096) (41, 5, 4096) (41, 5, 4096) (41, 5, 4096) (0, 5, 4096) (13, 5, 4096) (0, 5, 4096) 
connections (connected_to_neuron, weight)=(0, -1085) (1, -574) (2, -999) (3, -809) (4, -628) (5, -675) (6, 974) (7, 109) (8, 729) (9, -279) (10, 317) (11, -956) (12, -997) (13, 162) (14, 684) (15, 592) (16, -1041) (17, 583) (18, 905) (19, -113) (20, 726) (21, -513) (22, -6) (23, -1141) (24, -1099) (25, -1048) (26, -301) (27, 39) (28, -701) (29, -326) (30, 274) (31, -579) (32, 343) (33, 482) (34, -153) (35, 958) (36, 1069) (37, -456) (38, -142) (39, 580) (40, 559) (41, -1040) (42, 887) (43, 800) (44, 379) (45, 273) (46, 97) (47, 433) (48, -315) (49, -200) (50, -834) (51, -810) (52, 588) (53, 335) (54, -743) (55, 677) (56, 572) (57, 163) (58, -521) (59, 1044) (60, 1012) (61, 993) (62, -777) (63, 155) (64, 276) (65, 350) (66, -25) (67, 166) (68, 1133) (69, 988) (70, -565) (71, 390) (0, 1135) (1, -970) (2, -11) (3, 312) (4, 561) (5, -981) (6, -496) (7, -1058) (8, -49) (9, -103) (10, -701) (11, -682) (12, -1042) (13, -323) (14, 1241) (15, 733) (16, 1108) (17, -546) (18, 472) (19, 822) (20, -815) (21, 929) (22, -232) (23, 634) (24, -53) (25, 818) (26, -567) (27, -187) (28, 533) (29, 79) (30, -995) (31, 431) (32, 309) (33, 213) (34, -571) (35, -377) (36, 344) (37, 307) (38, -111) (39, -905) (40, -1295) (41, 207) (42, -516) (43, -1060) (44, -1234) (45, -417) (46, 844) (47, 957) (48, 87) (49, 79) (50, 637) (51, 426) (52, -235) (53, -974) (54, -181) (55, 877) (56, 1151) (57, 412) (58, -534) (59, 417) (60, -797) (61, -295) (62, -363) (63, 936) (64, -1266) (65, 329) (66, -758) (67, 292) (68, -803) (69, 201) (70, 619) (71, -700) (0, -637) (1, -1115) (2, -518) (3, -752) (4, -371) (5, -1011) (6, -929) (7, 932) (8, 479) (9, 988) (10, 168) (11, -1033) (12, -1101) (13, -1178) (14, -1289) (15, -1059) (16, 512) (17, -491) (18, 625) (19, 1078) (20, 578) (21, -889) (22, 688) (23, 591) (24, 667) (25, 1160) (26, -251) (27, 1167) (28, 210) (29, -806) (30, -777) (31, 798) (32, -649) (33, -116) (34, -1107) (35, 264) (36, 250) (37, -716) (38, 74) (39, -520) (40, -879) (41, -949) (42, -225) (43, -680) (44, -982) (45, -211) (46, -502) (47, 765) (48, 650) (49, -1022) (50, 577) (51, 36) (52, -797) (53, 131) (54, -589) (55, 1116) (56, -60) (57, 376) (58, 1029) (59, -1032) (60, 850) (61, -973) (62, 946) (63, -1044) (64, 218) (65, 1038) (66, 429) (67, -829) (68, -844) (69, -810) (70, -112) (71, -514) (0, -599) (1, 959) (2, -12) (3, -192) (4, -546) (5, 825) (6, -724) (7, -1108) (8, 810) (9, 1124) (10, 100) (11, -1149) (12, -104) (13, 687) (14, 1268) (15, 1084) (16, -198) (17, 994) (18, 1247) (19, -615) (20, 1213) (21, 942) (22, -475) (23, 79) (24, 780) (25, 1214) (26, 427) (27, 1146) (28, -840) (29, -916) (30, -636) (31, -185) (32, 1215) (33, 670) (34, 760) (35, -597) (36, 118) (37, 1257) (38, -331) (39, -156) (40, 969) (41, 760) (42, -322) (43, -205) (44, 255) (45, -376) (46, -584) (47, -1015) (48, -661) (49, -567) (50, -491) (51, -836) (52, -826) (53, 376) (54, 486) (55, 1076) (56, 264) (57, -379) (58, 1100) (59, 613) (60, -179) (61, -834) (62, -758) (63, -138) (64, 1103) (65, -1149) (66, 548) (67, 31) (68, -1136) (69, 1194) (70, 905) (71, 1032) (0, 720) (1, -557) (2, -579) (3, -189) (4, 192) (5, 228) (6, -136) (7, 716) (8, 801) (9, 601) (10, 1063) (11, 1242) (12, -372) (13, 211) (14, 1184) (15, 1104) (16, 1055) (17, 1046) (18, 549) (19, -268) (20, -1046) (21, 1035) (22, 840) (23, -1164) (24, 1079) (25, 124) (26, -4) (27, 1099) (28, 83) (29, -313) (30, 878) (31, -421) (32, 318) (33, -861) (34, 585) (35, -744) (36, 479) (37, -822) (38, 1160) (39, 93) (40, 950) (41, 943) (42, -35) (43, -611) (44, -42) (45, -50) (46, -775) (47, -164) (48, -510) (49, 897) (50, 782) (51, -241) (52, 700) (53, 482) (54, -246) (55, 565) (56, -693) (57, 904) (58, 464) (59, 637) (60, -654) (61, 107) (62, -1016) (63, 1009) (64, 475) (65, 836) (66, -1066) (67, -262) (68, -1181) (69, -1151) (70, 941) (71, 1037) (0, 1074) (1, -247) (2, -883) (3, -176) (4, 882) (5, -462) (6, 886) (7, -838) (8, -729) (9, 469) (10, 117) (11, -1207) (12, -328) (13, 1041) (14, 594) (15, 217) (16, 743) (17, -138) (18, -354) (19, -1106) (20, -1246) (21, -104) (22, 1026) (23, 487) (24, -491) (25, 1193) (26, -1008) (27, -463) (28, -1190) (29, -1241) (30, -693) (31, 1125) (32, -226) (33, -355) (34, -290) (35, -593) (36, 427) (37, -629) (38, -140) (39, 906) (40, 1100) (41, 1209) (42, 964) (43, -499) (44, 952) (45, 352) (46, 1008) (47, 585) (48, -930) (49, -532) (50, 603) (51, -954) (52, 498) (53, 468) (54, 769) (55, -1200) (56, 369) (57, 972) (58, -429) (59, 412) (60, 1012) (61, 111) (62, 305) (63, -470) (64, 984) (65, -1192) (66, 167) (67, 241) (68, -546) (69, 1171) (70, -128) (71, -772) (0, 1135) (1, -351) (2, -37) (3, 932) (4, 1203) (5, -175) (6, 176) (7, -997) (8, 314) (9, -468) (10, -767) (11, -324) (12, 1176) (13, 1206) (14, -232) (15, 294) (16, 990) (17, 531) (18, -527) (19, 683) (20, -615) (21, 1035) (22, -1006) (23, -882) (24, 1052) (25, 353) (26, 480) (27, -796) (28, 355) (29, -855) (30, -335) (31, 228) (32, -47) (33, 838) (34, -149) (35, -66) (36, -694) (37, 1111) (38, -69) (39, 960) (40, -494) (41, 558) (42, -742) (43, -653) (44, 602) (45, 161) (46, 923) (47, 265) (48, -734) (49, -934) (50, -218) (51, -133) (52, -1046) (53, -82) (54, 148) (55, 1241) (56, -915) (57, -592) (58, -730) (59, 622) (60, -272) (61, 119) (62, -373) (63, 997) (64, -281) (65, 723) (66, -304) (67, 220) (68, 625) (69, 1034) (70, -114) (71, -1174) (0, 410) (1, 227) (2, -505) (3, -336) (4, -855) (5, -1008) (6, -1333) (7, -346) (8, -488) (9, -297) (10, 746) (11, -411) (12, 831) (13, -266) (14, -473) (15, 1192) (16, 329) (17, 85) (18, 539) (19, -1145) (20, -1123) (21, -1075) (22, 1018) (23, -119) (24, 819) (25, -600) (26, -1123) (27, 227) (28, -793) (29, -32) (30, 350) (31, 826) (32, -966) (33, 1023) (34, -686) (35, -537) (36, -1055) (37, -637) (38, 400) (39, -337) (40, 384) (41, 63) (42, 638) (43, 36) (44, 894) (45, -898) (46, 25) (47, -12) (48, 354) (49, -589) (50, 74) (51, 539) (52, -531) (53, -306) (54, -807) (55, -997) (56, 364) (57, -733) (58, 456) (59, 901) (60, 592) (61, -355) (62, 491) (63, 711) (64, -634) (65, 911) (66, -1021) (67, -371) (68, -801) (69, 697) (70, 512) (71, 638) (0, -622) (1, -141) (2, -586) (3, -915) (4, 115) (5, 668) (6, 280) (7, -749) (8, 1141) (9, -863) (10, 1012) (11, -626) (12, 175) (13, -1015) (14, -352) (15, -555) (16, -509) (17, -1138) (18, -945) (19, 1226) (20, -321) (21, 737) (22, 773) (23, 282) (24, 481) (25, 1019) (26, 1076) (27, 809) (28, 432) (29, 330) (30, 222) (31, 1051) (32, -1035) (33, 918) (34, -1099) (35, 297) (36, 293) (37, 454) (38, 715) (39, 176) (40, 753) (41, 504) (42, 768) (43, -365) (44, 745) (45, -790) (46, 307) (47, -1007) (48, -822) (49, 566) (50, -1012) (51, 103) (52, 52) (53, 810) (54, -949) (55, -687) (56, 726) (57, -1084) (58, -1101) (59, -75) (60, 488) (61, 366) (62, -231) (63, 729) (64, 33) (65, -79) (66, -239) (67, -935) (68, -958) (69, -745) (70, 538) (71, 1138) (0, 1180) (1, 111) (2, -304) (3, 604) (4, 482) (5, 1294) (6, 840) (7, 919) (8, 632) (9, 1017) (10, -196) (11, -479) (12, 768) (13, 210) (14, 293) (15, 401) (16, 482) (17, 381) (18, -1003) (19, -201) (20, -412) (21, 157) (22, -667) (23, 856) (24, -1217) (25, 327) (26, 1151) (27, -843) (28, 951) (29, 565) (30, -878) (31, 850) (32, -674) (33, -120) (34, 188) (35, 1114) (36, -66) (37, -65) (38, 1010) (39, -610) (40, -414) (41, -551) (42, 31) (43, -790) (44, 808) (45, -967) (46, 687) (47, 31) (48, 423) (49, 1005) (50, 1048) (51, 1139) (52, -154) (53, -862) (54, 684) (55, -133) (56, 724) (57, 568) (58, 301) (59, 363) (60, -199) (61, 524) (62, -113) (63, 592) (64, -663) (65, -1056) (66, 377) (67, 414) (68, -93) (69, -82) (70, 972) (71, 834) (0, 642) (1, -176) (2, 1243) (3, 179) (4, 38) (5, 624) (6, -863) (7, -785) (8, 520) (9, -1096) (10, -849) (11, -899) (12, -657) (13, 1056) (14, 140) (15, -1239) (16, 356) (17, -754) (18, 382) (19, -930) (20, 1116) (21, -891) (22, 718) (23, -798) (24, -759) (25, -112) (26, 954) (27, 404) (28, 1054) (29, 706) (30, -8) (31, 486) (32, -663) (33, -104) (34, -537) (35, 639) (36, -583) (37, -178) (38, 1217) (39, 1007) (40, -14) (41, -900) (42, -901) (43, 578) (44, -1144) (45, 501) (46, 602) (47, 483) (48, -1186) (49, -159) (50, 844) (51, 1156) (52, 141) (53, 364) (54, -792) (55, 641) (56, -980) (57, -1072) (58, -271) (59, -1056) (60, 1016) (61, 988) (62, 617) (63, -1009) (64, -381) (65, -1202) (66, 868) (67, 307) (68, -176) (69, 789) (70, 259) (71, 1108) (0, 1172) (1, 494) (2, 449) (3, -1282) (4, -43) (5, -374) (6, 559) (7, -53) (8, 785) (9, 200) (10, -52) (11, -418) (12, -596) (13, 505) (14, -1049) (15, -261) (16, 679) (17, -19) (18, -106) (19, 404) (20, -231) (21, -683) (22, 693) (23, 678) (24, -610) (25, 389) (26, -204) (27, 497) (28, 27) (29, -1177) (30, 392) (31, -60) (32, 599) (33, -520) (34, -71) (35, -586) (36, 524) (37, -868) (38, 582) (39, 40) (40, 864) (41, -515) (42, 1002) (43, -965) (44, 1129) (45, -1171) (46, 61) (47, 489) (48, 178) (49, 1160) (50, -281) (51, 1156) (52, -678) (53, -750) (54, 609) (55, -33) (56, 776) (57, -745) (58, -782) (59, -367) (60, -657) (61, 808) (62, 703) (63, 1009) (64, -960) (65, -643) (66, -659) (67, 835) (68, -48) (69, 1200) (70, -330) (71, -509) (0, -585) (1, -511) (2, -243) (3, -591) (4, -454) (5, 1197) (6, 1250) (7, 847) (8, 1003) (9, -337) (10, 794) (11, -843) (12, 73) (13, 120) (14, 409) (15, -384) (16, 517) (17, 662) (18, 342) (19, 1041) (20, 271) (21, -179) (22, 912) (23, 470) (24, 400) (25, -985) (26, 39) (27, -914) (28, -1015) (29, 944) (30, -186) (31, -361) (32, -908) (33, 806) (34, 200) (35, -227) (36, 601) (37, 260) (38, -551) (39, 412) (40, 844) (41, -1229) (42, 618) (43, -303) (44, 197) (45, -274) (46, 423) (47, -515) (48, -1015) (49, -564) (50, -688) (51, 346) (52, 580) (53, -1048) (54, -391) (55, -180) (56, -694) (57, 910) (58, 115) (59, -604) (60, 463) (61, 1090) (62, 301) (63, 989) (64, 667) (65, -726) (66, -510) (67, 79) (68, 617) (69, 27) (70, -763) (71, 411) (0, 86) (1, 1208) (2, -1141) (3, -885) (4, -365) (5, 671) (6, -118) (7, -106) (8, -976) (9, 397) (10, -875) (11, 939) (12, 671) (13, -39) (14, -497) (15, 1071) (16, -360) (17, 901) (18, -590) (19, -965) (20, 804) (21, 948) (22, 1199) (23, 343) (24, -907) (25, -526) (26, -777) (27, 995) (28, 718) (29, -318) (30, 129) (31, -388) (32, -332) (33, 297) (34, -69) (35, 452) (36, -327) (37, 971) (38, -958) (39, -74) (40, 86) (41, -580) (42, -400) (43, -490) (44, 546) (45, 355) (46, -629) (47, -1002) (48, -62) (49, 8) (50, -727) (51, -467) (52, -300) (53, -850) (54, 1041) (55, 96) (56, -51) (57, -958) (58, -196) (59, -520) (60, -16) (61, 1175) (62, 380) (63, 863) (64, 127) (65, -989) (66, 56) (67, 1123) (68, -1208) (69, 397) (70, -171) (71, 155) (0, 1080) (1, 631) (2, 887) (3, 340) (4, -217) (5, -1141) (6, 599) (7, 923) (8, 194) (9, 1113) (10, -749) (11, 1073) (12, -827) (13, -787) (14, -64) (15, 472) (16, -590) (17, 906) (18, 1143) (19, 765) (20, 998) (21, 373) (22, 369) (23, -35) (24, 647) (25, -739) (26, -64) (27, 702) (28, 930) (29, 1014) (30, -349) (31, 777) (32, 440) (33, -806) (34, -106) (35, -969) (36, -558) (37, -810) (38, -1333) (39, 888) (40, -752) (41, -706) (42, 809) (43, -397) (44, -366) (45, -557) (46, -1126) (47, 335) (48, -648) (49, -1186) (50, -207) (51, -879) (52, 384) (53, -1094) (54, 363) (55, -176) (56, -622) (57, -939) (58, -736) (59, -874) (60, -1123) (61, 123) (62, 1100) (63, 451) (64, 617) (65, -261) (66, 811) (67, -1210) (68, 281) (69, 840) (70, 889) (71, 694) (0, -1127) (1, 496) (2, -860) (3, -204) (4, 1246) (5, -646) (6, -1104) (7, -665) (8, -748) (9, -154) (10, -323) (11, 923) (12, 9) (13, 1185) (14, -509) (15, 597) (16, -957) (17, 11) (18, 939) (19, -878) (20, 1275) (21, 790) (22, 928) (23, 626) (24, -701) (25, 529) (26, 566) (27, 797) (28, 135) (29, 218) (30, 283) (31, 229) (32, -609) (33, 637) (34, 1188) (35, -638) (36, 1095) (37, 1258) (38, -65) (39, -864) (40, -190) (41, 766) (42, 1197) (43, 1016) (44, 793) (45, -600) (46, 357) (47, 1060) (48, 496) (49, 54) (50, -1016) (51, 449) (52, -353) (53, 1144) (54, -228) (55, 132) (56, 432) (57, -902) (58, -254) (59, -663) (60, 565) (61, -1209) (62, 788) (63, 1294) (64, 631) (65, 764) (66, -643) (67, 538) (68, 744) (69, 459) (70, 873) (71, -695) (0, -20) (1, 840) (2, -926) (3, -465) (4, -1023) (5, 664) (6, -650) (7, 690) (8, -462) (9, -431) (10, -55) (11, 407) (12, -525) (13, 932) (14, -724) (15, 1152) (16, -1165) (17, 323) (18, -751) (19, 636) (20, 309) (21, -1199) (22, 597) (23, -222) (24, 775) (25, 1168) (26, -919) (27, 273) (28, 377) (29, 1190) (30, 816) (31, -867) (32, 787) (33, 1135) (34, -112) (35, 981) (36, 583) (37, 419) (38, 406) (39, -1092) (40, -1205) (41, -875) (42, 561) (43, -420) (44, -1119) (45, 1121) (46, -568) (47, -1068) (48, 286) (49, -238) (50, 862) (51, -699) (52, -49) (53, 247) (54, 382) (55, -510) (56, 183) (57, 739) (58, 991) (59, -686) (60, 670) (61, 578) (62, -326) (63, 152) (64, 466) (65, 792) (66, -58) (67, -191) (68, 21) (69, -831) (70, -46) (71, 21) (0, -413) (1, -779) (2, 862) (3, -336) (4, -924) (5, -899) (6, -188) (7, 577) (8, 102) (9, -625) (10, 1163) (11, -1173) (12, 803) (13, 443) (14, -325) (15, -166) (16, -96) (17, -698) (18, 181) (19, -660) (20, 1162) (21, 1248) (22, 775) (23, 328) (24, 701) (25, -573) (26, -1164) (27, -505) (28, -130) (29, 90) (30, 862) (31, 631) (32, 396) (33, 269) (34, -1076) (35, 845) (36, 545) (37, -88) (38, 81) (39, -513) (40, 566) (41, 122) (42, -550) (43, 209) (44, -541) (45, 94) (46, 1079) (47, 445) (48, 580) (49, -4) (50, 1008) (51, 318) (52, 8) (53, 323) (54, -623) (55, -594) (56, 1036) (57, -573) (58, 200) (59, -350) (60, 697) (61, -209) (62, -1019) (63, -75) (64, -1081) (65, -877) (66, -469) (67, 615) (68, 277) (69, 1066) (70, -1203) (71, -442) (0, 52) (1, -484) (2, 1010) (3, 587) (4, 885) (5, 815) (6, -204) (7, 239) (8, -312) (9, -502) (10, -589) (11, 922) (12, 1150) (13, 74) (14, -785) (15, 1047) (16, 754) (17, 677) (18, -599) (19, 274) (20, -743) (21, -309) (22, -1038) (23, -614) (24, 23) (25, -252) (26, -1187) (27, -905) (28, -445) (29, -1087) (30, -14) (31, 825) (32, -410) (33, -373) (34, 149) (35, -714) (36, -748) (37, 1145) (38, 638) (39, 187) (40, -478) (41, -1008) (42, -104) (43, -561) (44, 276) (45, 282) (46, -736) (47, -211) (48, -197) (49, -125) (50, -1171) (51, 200) (52, 821) (53, -1040) (54, 795) (55, -481) (56, -71) (57, 829) (58, -95) (59, 767) (60, 1028) (61, 1126) (62, 331) (63, -687) (64, -559) (65, -870) (66, -163) (67, 0) (68, -786) (69, -527) (70, -1020) (71, -104) (0, -337) (1, 61) (2, 596) (3, 1137) (4, -872) (5, 1008) (6, -285) (7, 135) (8, -285) (9, -255) (10, -882) (11, -748) (12, -7) (13, 1180) (14, 84) (15, 1230) (16, 785) (17, -1214) (18, 736) (19, 588) (20, 1111) (21, -160) (22, 1201) (23, -580) (24, 287) (25, -100) (26, 666) (27, 711) (28, 591) (29, 861) (30, -594) (31, -979) (32, -330) (33, 1195) (34, -1086) (35, 65) (36, 1017) (37, -179) (38, -1021) (39, -512) (40, 855) (41, -643) (42, 22) (43, -398) (44, -680) (45, -1184) (46, -395) (47, -1101) (48, -1092) (49, -977) (50, 734) (51, -1246) (52, 172) (53, 677) (54, -560) (55, -737) (56, -627) (57, -1134) (58, 1176) (59, 1215) (60, 965) (61, -661) (62, -1013) (63, -609) (64, -688) (65, -840) (66, 730) (67, -898) (68, 223) (69, 918) (70, -173) (71, -210) (0, -1017) (1, 1015) (2, 610) (3, -490) (4, 1132) (5, -1048) (6, -359) (7, -1193) (8, -690) (9, -848) (10, -1194) (11, 697) (12, 1088) (13, -524) (14, 1099) (15, -756) (16, -415) (17, 1073) (18, -774) (19, -738) (20, -878) (21, -599) (22, -98) (23, -324) (24, -238) (25, -641) (26, -5) (27, 1197) (28, -987) (29, 1031) (30, -256) (31, -762) (32, 882) (33, -808) (34, 37) (35, 783) (36, -617) (37, 986) (38, 927) (39, -125) (40, -1138) (41, 865) (42, -636) (43, 1146) (44, -901) (45, -639) (46, -829) (47, -35) (48, -907) (49, -380) (50, 420) (51, -443) (52, 277) (53, -845) (54, 410) (55, -1144) (56, -268) (57, -721) (58, -1196) (59, -32) (60, -962) (61, -247) (62, 443) (63, 1166) (64, 211) (65, -689) (66, 698) (67, 766) (68, -1067) (69, 265) (70, -545) (71, -902) (0, -57) (1, 142) (2, -960) (3, 318) (4, 666) (5, -514) (6, -973) (7, 1070) (8, 355) (9, 705) (10, -624) (11, -592) (12, 1054) (13, 1045) (14, -543) (15, -495) (16, -932) (17, -562) (18, 720) (19, -659) (20, 460) (21, -70) (22, -748) (23, -613) (24, 436) (25, 1182) (26, -1048) (27, 639) (28, 244) (29, -320) (30, 944) (31, -1052) (32, 1020) (33, 1221) (34, 498) (35, 449) (36, -533) (37, 794) (38, 319) (39, 1038) (40, 210) (41, 824) (42, -763) (43, 55) (44, 724) (45, -168) (46, 783) (47, 1030) (48, 596) (49, 344) (50, -840) (51, -216) (52, -1013) (53, -357) (54, 433) (55, 674) (56, -363) (57, 630) (58, 65) (59, 1066) (60, -959) (61, -217) (62, -1208) (63, -1072) (64, -220) (65, 564) (66, 556) (67, 449) (68, 21) (69, -442) (70, 299) (71, -975) (0, -799) (1, 731) (2, 291) (3, 1204) (4, -583) (5, -115) (6, 971) (7, -1234) (8, -1095) (9, -1097) (10, -182) (11, -855) (12, -228) (13, -982) (14, 1033) (15, 597) (16, 861) (17, -148) (18, 434) (19, 1162) (20, 865) (21, 451) (22, -1235) (23, -613) (24, -264) (25, 533) (26, 1084) (27, 1003) (28, -1118) (29, 127) (30, -1207) (31, -703) (32, -351) (33, 332) (34, -776) (35, 291) (36, -1049) (37, -996) (38, 252) (39, -888) (40, -963) (41, -1143) (42, -551) (43, 15) (44, -866) (45, -816) (46, -633) (47, 1212) (48, 365) (49, 1092) (50, 1179) (51, 5) (52, 265) (53, 1190) (54, 570) (55, -1244) (56, 462) (57, 402) (58, 971) (59, 547) (60, -721) (61, 1033) (62, 1110) (63, 181) (64, 131) (65, -920) (66, -723) (67, 355) (68, -699) (69, 816) (70, 666) (71, -470) (0, 863) (1, -1157) (2, 798) (3, -1337) (4, -710) (5, -1139) (6, 1075) (7, 881) (8, -1191) (9, 1103) (10, -439) (11, 262) (12, 1005) (13, -1099) (14, 209) (15, 322) (16, 551) (17, 90) (18, -336) (19, 1102) (20, -142) (21, -500) (22, 63) (23, -1178) (24, -173) (25, 571) (26, 401) (27, 318) (28, 120) (29, -177) (30, 1080) (31, -253) (32, -58) (33, 704) (34, -229) (35, 490) (36, 901) (37, -297) (38, 103) (39, 856) (40, -289) (41, 868) (42, 25) (43, -430) (44, 1126) (45, -994) (46, 1117) (47, 495) (48, 477) (49, -500) (50, 385) (51, -863) (52, 270) (53, -820) (54, -704) (55, -1182) (56, 974) (57, 883) (58, 409) (59, -64) (60, -445) (61, 308) (62, 941) (63, 532) (64, -345) (65, -621) (66, -146) (67, -654) (68, 445) (69, -1163) (70, -896) (71, -1100) (0, 1036) (1, 324) (2, -295) (3, 791) (4, 774) (5, -665) (6, 4) (7, -46) (8, 303) (9, -753) (10, 418) (11, -814) (12, -313) (13, 830) (14, -947) (15, -520) (16, 541) (17, 816) (18, 739) (19, -1198) (20, -144) (21, 368) (22, 683) (23, 871) (24, 1120) (25, -600) (26, -877) (27, 348) (28, -559) (29, -596) (30, 507) (31, -733) (32, 1032) (33, -1038) (34, -1038) (35, 527) (36, -237) (37, 369) (38, -551) (39, -1298) (40, 943) (41, 927) (42, -611) (43, -459) (44, 578) (45, -107) (46, 300) (47, 18) (48, -181) (49, -13) (50, -16) (51, 964) (52, -903) (53, -565) (54, 757) (55, -1044) (56, 122) (57, 1187) (58, 451) (59, 775) (60, -621) (61, -205) (62, -1111) (63, -864) (64, 74) (65, -913) (66, 922) (67, 966) (68, 627) (69, -997) (70, 1069) (71, 373) (0, 1098) (1, -745) (2, 1074) (3, 564) (4, 413) (5, 376) (6, -810) (7, -990) (8, -1228) (9, 428) (10, -1207) (11, -847) (12, 1120) (13, 814) (14, -682) (15, -5) (16, 723) (17, 1055) (18, -413) (19, -1126) (20, -489) (21, -338) (22, -714) (23, 714) (24, -56) (25, -999) (26, 371) (27, -631) (28, -790) (29, 184) (30, 951) (31, -926) (32, 584) (33, 838) (34, 774) (35, -256) (36, -234) (37, 936) (38, -221) (39, -63) (40, 313) (41, -46) (42, 68) (43, 118) (44, -442) (45, 585) (46, -1113) (47, -925) (48, 160) (49, -435) (50, -815) (51, 859) (52, 603) (53, -321) (54, 268) (55, -639) (56, -59) (57, -648) (58, -95) (59, 383) (60, 756) (61, -396) (62, 674) (63, 223) (64, -827) (65, 249) (66, 1198) (67, 264) (68, 167) (69, -205) (70, 1239) (71, -907) (0, 931) (1, 1) (2, 476) (3, -789) (4, -780) (5, 525) (6, -529) (7, 595) (8, -992) (9, -158) (10, 170) (11, 774) (12, 735) (13, -822) (14, -1204) (15, -605) (16, -295) (17, -57) (18, 961) (19, -737) (20, 748) (21, 370) (22, 551) (23, 1199) (24, -668) (25, 397) (26, 156) (27, 666) (28, -1080) (29, 108) (30, 1025) (31, 1090) (32, -1101) (33, 292) (34, -910) (35, -650) (36, -372) (37, -189) (38, 1233) (39, -120) (40, 871) (41, 154) (42, -585) (43, 390) (44, 478) (45, -427) (46, 1005) (47, -1017) (48, 650) (49, 763) (50, -518) (51, 205) (52, -149) (53, -1157) (54, 178) (55, 455) (56, 471) (57, -892) (58, -151) (59, 604) (60, 440) (61, -357) (62, 467) (63, 597) (64, 1192) (65, 816) (66, 1150) (67, -428) (68, -611) (69, 1083) (70, 661) (71, -951) (0, -15) (1, -1077) (2, 653) (3, -782) (4, -345) (5, 471) (6, -487) (7, -922) (8, -71) (9, 202) (10, 531) (11, 1055) (12, 299) (13, -525) (14, 279) (15, -475) (16, -225) (17, -1113) (18, -1098) (19, -986) (20, -206) (21, 629) (22, 807) (23, -269) (24, 197) (25, 732) (26, 534) (27, 811) (28, 575) (29, -43) (30, 1075) (31, -647) (32, 96) (33, 488) (34, -166) (35, 951) (36, -313) (37, 631) (38, -1181) (39, 832) (40, -449) (41, 624) (42, 640) (43, 1020) (44, 1150) (45, -351) (46, -634) (47, -293) (48, -252) (49, -552) (50, -84) (51, 744) (52, -1139) (53, -533) (54, -793) (55, 344) (56, -1035) (57, 967) (58, -131) (59, 836) (60, -199) (61, -273) (62, -1048) (63, 1016) (64, -1080) (65, -67) (66, 715) (67, -162) (68, -625) (69, 783) (70, -514) (71, 185) (0, 57) (1, -1057) (2, -48) (3, 116) (4, -206) (5, 599) (6, 1041) (7, 827) (8, -1181) (9, -220) (10, 328) (11, -1036) (12, 521) (13, 793) (14, 448) (15, 728) (16, 594) (17, -864) (18, 404) (19, -912) (20, 51) (21, 558) (22, -1040) (23, 285) (24, -604) (25, 1008) (26, -1042) (27, -7) (28, 573) (29, -310) (30, -1120) (31, -588) (32, -94) (33, 164) (34, 721) (35, 924) (36, -534) (37, 398) (38, 311) (39, -441) (40, -1016) (41, -429) (42, -314) (43, 716) (44, -801) (45, -1067) (46, 224) (47, 955) (48, -738) (49, -690) (50, -1103) (51, 535) (52, 1163) (53, -1018) (54, -399) (55, -714) (56, -1173) (57, -183) (58, 502) (59, 643) (60, 758) (61, 693) (62, -1131) (63, -605) (64, -452) (65, 790) (66, -932) (67, 205) (68, 21) (69, 848) (70, 1057) (71, 280) (0, -815) (1, -478) (2, -251) (3, -347) (4, -308) (5, 1264) (6, -578) (7, 192) (8, -675) (9, -496) (10, -434) (11, -706) (12, -187) (13, 426) (14, -121) (15, -108) (16, -995) (17, -857) (18, -697) (19, 1035) (20, 1083) (21, -594) (22, -786) (23, -584) (24, -1008) (25, -425) (26, 941) (27, 313) (28, -843) (29, 735) (30, -640) (31, -398) (32, -958) (33, 405) (34, 466) (35, -88) (36, 363) (37, 1080) (38, -1004) (39, 943) (40, -707) (41, -333) (42, -1070) (43, 334) (44, -1264) (45, 100) (46, -1051) (47, -1002) (48, 325) (49, -572) (50, -1188) (51, 160) (52, 60) (53, -653) (54, 832) (55, 312) (56, 119) (57, 541) (58, -594) (59, 510) (60, 20) (61, -35) (62, -1106) (63, 337) (64, -858) (65, 633) (66, -1001) (67, 737) (68, 450) (69, -943) (70, 408) (71, 1010) (0, -137) (1, 648) (2, 25) (3, -3) (4, -659) (5, 289) (6, 225) (7, 980) (8, 897) (9, 322) (10, -124) (11, -210) (12, 832) (13, -544) (14, -1055) (15, -271) (16, 1251) (17, -528) (18, -1011) (19, 6) (20, 680) (21, -885) (22, -888) (23, 1009) (24, 941) (25, -703) (26, 478) (27, 149) (28, -408) (29, -303) (30, -140) (31, 677) (32, -930) (33, 1227) (34, -601) (35, -377) (36, 181) (37, 784) (38, -587) (39, -40) (40, -181) (41, 353) (42, 828) (43, -558) (44, 1087) (45, 903) (46, 266) (47, 1107) (48, -975) (49, 469) (50, -125) (51, 934) (52, 841) (53, 300) (54, 669) (55, 419) (56, 785) (57, -124) (58, -518) (59, -928) (60, 692) (61, 554) (62, 1007) (63, 1168) (64, 537) (65, -731) (66, -523) (67, -468) (68, 1272) (69, -12) (70, 539) (71, -149) (0, -877) (1, 133) (2, 461) (3, -974) (4, -228) (5, -504) (6, -1088) (7, 4) (8, -1170) (9, 8) (10, -368) (11, 862) (12, -1020) (13, -1055) (14, 124) (15, 872) (16, 6) (17, 775) (18, 1230) (19, -462) (20, 151) (21, 943) (22, -695) (23, -565) (24, -1080) (25, -13) (26, 205) (27, -1087) (28, 1140) (29, -499) (30, -39) (31, -930) (32, 943) (33, -714) (34, -628) (35, -567) (36, 57) (37, -556) (38, 708) (39, 125) (40, 716) (41, -940) (42, -218) (43, 951) (44, -720) (45, 1144) (46, 580) (47, 557) (48, 831) (49, 537) (50, -1092) (51, -207) (52, 309) (53, -515) (54, 521) (55, 492) (56, 758) (57, -454) (58, 646) (59, 670) (60, 259) (61, -646) (62, 998) (63, -22) (64, -108) (65, -789) (66, 634) (67, 1159) (68, -118) (69, 47) (70, 27) (71, -651) (0, 301) (1, 1027) (2, -968) (3, 811) (4, 984) (5, 856) (6, 144) (7, 587) (8, 187) (9, 284) (10, -864) (11, -750) (12, 1009) (13, 882) (14, 896) (15, 463) (16, -843) (17, 286) (18, -83) (19, 630) (20, 845) (21, -352) (22, -655) (23, -532) (24, 28) (25, 1181) (26, -633) (27, 1122) (28, -26) (29, 609) (30, -767) (31, -951) (32, 428) (33, -462) (34, 1108) (35, 175) (36, -842) (37, 11) (38, 5966) (39, 581) (40, -935) (41, -101) (42, 1057) (43, -1169) (44, -493) (45, 769) (46, 545) (47, -50) (48, -193) (49, -734) (50, -670) (51, -535) (52, 106) (53, -65) (54, 155) (55, -1071) (56, -125) (57, 757) (58, -1206) (59, 1086) (60, 141) (61, -734) (62, -1096) (63, -670) (64, 51) (65, -1197) (66, 732) (67, 422) (68, 42) (69, -989) (70, -243) (71, 341) (0, 170) (1, -428) (2, 418) (3, 899) (4, -869) (5, -364) (6, -381) (7, 136) (8, 153) (9, 179) (10, 830) (11, -1020) (12, -1124) (13, -219) (14, -856) (15, 29) (16, -741) (17, -847) (18, -179) (19, 665) (20, -308) (21, 18) (22, 1190) (23, 943) (24, 5) (25, 681) (26, 139) (27, -1192) (28, 944) (29, 1135) (30, 396) (31, -131) (32, -526) (33, -491) (34, -457) (35, -151) (36, 470) (37, 296) (38, -1280) (39, -603) (40, -596) (41, 844) (42, -343) (43, -556) (44, -620) (45, -6) (46, 748) (47, -118) (48, 461) (49, -619) (50, -702) (51, -1091) (52, 578) (53, -677) (54, 1099) (55, -662) (56, 1159) (57, 53) (58, -606) (59, 826) (60, -82) (61, 1018) (62, -518) (63, 595) (64, -640) (65, 292) (66, -687) (67, 1039) (68, -617) (69, -720) (70, -820) (71, 0) (0, -1120) (1, 59) (2, 761) (3, -482) (4, -1134) (5, 321) (6, 625) (7, 567) (8, 862) (9, 1112) (10, 724) (11, 233) (12, -888) (13, 600) (14, 857) (15, -1023) (16, -601) (17, -1066) (18, 1081) (19, 535) (20, 1210) (21, -721) (22, -35) (23, -771) (24, 758) (25, 459) (26, -994) (27, -1071) (28, 961) (29, -610) (30, 180) (31, 1082) (32, 670) (33, -266) (34, -657) (35, 744) (36, -1230) (37, 1091) (38, -24) (39, 888) (40, 1026) (41, -464) (42, -130) (43, -1125) (44, -1081) (45, -651) (46, -892) (47, -462) (48, -388) (49, -1080) (50, -1154) (51, -482) (52, -502) (53, -38) (54, 1) (55, -1017) (56, -717) (57, 256) (58, -839) (59, -1026) (60, 861) (61, 599) (62, -1150) (63, 256) (64, -944) (65, -581) (66, -187) (67, -905) (68, -651) (69, 1108) (70, 1193) (71, -932) (0, -601) (1, -247) (2, -783) (3, -480) (4, 369) (5, -462) (6, 269) (7, 1178) (8, -296) (9, 297) (10, -553) (11, 395) (12, -935) (13, 673) (14, 611) (15, -478) (16, -335) (17, 1004) (18, -300) (19, -720) (20, 343) (21, -229) (22, 788) (23, 645) (24, 389) (25, -666) (26, 937) (27, 938) (28, -788) (29, 893) (30, -1175) (31, -188) (32, -608) (33, -766) (34, 547) (35, 1031) (36, 14) (37, -414) (38, 895) (39, 952) (40, 1157) (41, -824) (42, 159) (43, -1001) (44, 1221) (45, -550) (46, -274) (47, -400) (48, -708) (49, 706) (50, 147) (51, 846) (52, -759) (53, -407) (54, 257) (55, 676) (56, 209) (57, -71) (58, 509) (59, 663) (60, -377) (61, 608) (62, -740) (63, 254) (64, 962) (65, 979) (66, 60) (67, -168) (68, -671) (69, -171) (70, -412) (71, -872) (0, 211) (1, 920) (2, -680) (3, 194) (4, -842) (5, 344) (6, 1024) (7, -314) (8, -318) (9, -137) (10, -715) (11, 141) (12, 750) (13, 728) (14, -264) (15, -322) (16, -551) (17, -963) (18, -893) (19, 257) (20, 734) (21, -520) (22, -740) (23, 548) (24, -762) (25, 531) (26, -924) (27, -219) (28, -947) (29, -173) (30, 159) (31, 522) (32, -488) (33, 812) (34, -522) (35, -144) (36, -175) (37, -717) (38, 737) (39, 732) (40, 242) (41, 1255) (42, -433) (43, -207) (44, 663) (45, 525) (46, 605) (47, -1051) (48, 638) (49, 1091) (50, 420) (51, 201) (52, -790) (53, 1014) (54, -650) (55, -312) (56, 247) (57, -329) (58, 688) (59, 525) (60, 694) (61, -388) (62, -131) (63, -990) (64, -869) (65, 557) (66, 50) (67, 223) (68, 1047) (69, -428) (70, -249) (71, 132) (0, -410) (1, 647) (2, 1081) (3, -923) (4, -121) (5, 540) (6, -688) (7, -719) (8, 223) (9, 942) (10, 626) (11, 704) (12, 702) (13, 1204) (14, -751) (15, -292) (16, -380) (17, 1120) (18, -982) (19, -824) (20, -419) (21, 170) (22, -615) (23, -11) (24, -475) (25, 713) (26, -998) (27, -656) (28, -946) (29, 18) (30, 679) (31, -114) (32, -624) (33, 479) (34, 172) (35, 489) (36, -248) (37, 695) (38, 962) (39, 1210) (40, 386) (41, 422) (42, 671) (43, -173) (44, 321) (45, 1048) (46, 741) (47, -1184) (48, 883) (49, 1025) (50, -846) (51, -771) (52, -77) (53, -236) (54, 348) (55, 669) (56, -747) (57, 556) (58, -1253) (59, -458) (60, -638) (61, 666) (62, 693) (63, 22) (64, -79) (65, -408) (66, -786) (67, 939) (68, -909) (69, -982) (70, 907) (71, 669) (0, 620) (1, 316) (2, -765) (3, -296) (4, 106) (5, 1111) (6, -308) (7, -222) (8, 975) (9, 118) (10, 175) (11, -381) (12, 1150) (13, -703) (14, -955) (15, -807) (16, 1145) (17, -844) (18, 30) (19, -710) (20, 1048) (21, -523) (22, 530) (23, -186) (24, 347) (25, 1029) (26, -476) (27, 630) (28, -1179) (29, -805) (30, 54) (31, 664) (32, 772) (33, 497) (34, -854) (35, -310) (36, 472) (37, 243) (38, 857) (39, 145) (40, -992) (41, -347) (42, 1076) (43, -1010) (44, 215) (45, -1063) (46, -617) (47, 181) (48, -654) (49, 760) (50, 679) (51, -733) (52, -1128) (53, -50) (54, 222) (55, 399) (56, -265) (57, 1013) (58, -161) (59, -153) (60, -928) (61, 1155) (62, -743) (63, 1020) (64, 442) (65, -371) (66, -543) (67, -375) (68, 1013) (69, -1054) (70, 1078) (71, -1174) (0, -104) (1, 956) (2, -1069) (3, -1165) (4, -1257) (5, -508) (6, 231) (7, -579) (8, -976) (9, -196) (10, -100) (11, -854) (12, 1053) (13, -927) (14, 832) (15, -298) (16, -1051) (17, -431) (18, 849) (19, -836) (20, -514) (21, -1131) (22, -969) (23, -1256) (24, -199) (25, -263) (26, -305) (27, -419) (28, -15) (29, -391) (30, -432) (31, 1100) (32, -571) (33, -190) (34, -1164) (35, -556) (36, 607) (37, 500) (38, 134) (39, 784) (40, -956) (41, -1268) (42, -1223) (43, -1184) (44, -887) (45, 835) (46, -199) (47, -734) (48, -642) (49, -506) (50, -442) (51, 69) (52, -453) (53, -55) (54, 40) (55, 570) (56, 741) (57, 1035) (58, -1082) (59, -508) (60, -546) (61, -225) (62, -614) (63, 76) (64, 743) (65, -562) (66, 708) (67, 163) (68, 1176) (69, -345) (70, -211) (71, -985) (0, -269) (1, -81) (2, -879) (3, 184) (4, -344) (5, 335) (6, 649) (7, 245) (8, 948) (9, -1023) (10, -848) (11, -636) (12, 43) (13, 468) (14, 1180) (15, -470) (16, 307) (17, -1072) (18, 316) (19, 1015) (20, -68) (21, 951) (22, -137) (23, -482) (24, -775) (25, -563) (26, 931) (27, -854) (28, 325) (29, -505) (30, -664) (31, -1165) (32, 636) (33, -272) (34, 170) (35, -983) (36, 1195) (37, -438) (38, 486) (39, 929) (40, -372) (41, 747) (42, -1010) (43, 824) (44, 81) (45, -1087) (46, -880) (47, -759) (48, -946) (49, 652) (50, -1000) (51, 261) (52, 409) (53, 111) (54, 960) (55, 831) (56, 784) (57, 624) (58, -1235) (59, -118) (60, -1112) (61, -663) (62, -16) (63, 797) (64, 255) (65, -1109) (66, 1061) (67, 264) (68, -378) (69, 279) (70, -61) (71, 503) (0, -201) (1, 156) (2, 51) (3, 1121) (4, 298) (5, 486) (6, -886) (7, 620) (8, -77) (9, -644) (10, -418) (11, -870) (12, 736) (13, -683) (14, 1114) (15, 247) (16, 1230) (17, 1172) (18, -985) (19, -1128) (20, -734) (21, 135) (22, 919) (23, 833) (24, 343) (25, 722) (26, -89) (27, 1216) (28, -285) (29, 1060) (30, 418) (31, 788) (32, 84) (33, -603) (34, 775) (35, -883) (36, 1057) (37, 1206) (38, 1218) (39, -255) (40, -751) (41, -610) (42, 68) (43, 1182) (44, -223) (45, 69) (46, 248) (47, -79) (48, 56) (49, 408) (50, -147) (51, 631) (52, -578) (53, -297) (54, 292) (55, 1040) (56, -875) (57, -982) (58, 994) (59, 105) (60, -1169) (61, 184) (62, -348) (63, 200) (64, 850) (65, -674) (66, 471) (67, 643) (68, -814) (69, 119) (70, -911) (71, -313) (0, 690) (1, 423) (2, -379) (3, -752) (4, -759) (5, 1127) (6, 293) (7, 511) (8, 326) (9, -1028) (10, -115) (11, 971) (12, -186) (13, -1062) (14, 687) (15, 142) (16, -878) (17, 422) (18, -1023) (19, -859) (20, -612) (21, -75) (22, 438) (23, -1068) (24, 382) (25, -408) (26, 753) (27, 746) (28, 980) (29, 1104) (30, -841) (31, 413) (32, 275) (33, -58) (34, 897) (35, 789) (36, -172) (37, -59) (38, 30) (39, -1093) (40, 197) (41, 1182) (42, 1131) (43, -1176) (44, -1074) (45, 499) (46, 212) (47, -761) (48, -210) (49, 474) (50, -404) (51, 388) (52, -878) (53, 1230) (54, 615) (55, 620) (56, -452) (57, 48) (58, 198) (59, -704) (60, -28) (61, 631) (62, 949) (63, -1056) (64, -680) (65, 588) (66, 1023) (67, 405) (68, -650) (69, -71) (70, 568) (71, 758) (0, -152) (1, 516) (2, 776) (3, 70) (4, -208) (5, -65) (6, 524) (7, 885) (8, -1048) (9, -1131) (10, 29) (11, -590) (12, -1136) (13, -699) (14, -1145) (15, -347) (16, 691) (17, 387) (18, 223) (19, -636) (20, -328) (21, -117) (22, -340) (23, 284) (24, -739) (25, -521) (26, -590) (27, -178) (28, 590) (29, 1199) (30, -662) (31, -780) (32, 440) (33, -1022) (34, 504) (35, -1023) (36, -57) (37, -281) (38, 891) (39, 136) (40, -182) (41, -181) (42, 670) (43, -121) (44, 441) (45, 669) (46, 767) (47, -244) (48, -297) (49, -488) (50, 533) (51, 556) (52, 778) (53, -1249) (54, -491) (55, -1224) (56, -384) (57, 182) (58, -143) (59, -996) (60, 202) (61, 514) (62, -495) (63, -597) (64, 631) (65, 1130) (66, -506) (67, -687) (68, -351) (69, -624) (70, 770) (71, 742) (0, 495) (1, 172) (2, -564) (3, -411) (4, -349) (5, -1118) (6, 721) (7, 605) (8, -138) (9, -58) (10, 7) (11, -581) (12, 119) (13, 956) (14, -482) (15, 1008) (16, -112) (17, 639) (18, 1201) (19, -1037) (20, -31) (21, -506) (22, -452) (23, -584) (24, -539) (25, 400) (26, 71) (27, 434) (28, 1048) (29, -384) (30, 4) (31, 318) (32, 1020) (33, 605) (34, 1172) (35, -528) (36, 785) (37, 646) (38, -1173) (39, -579) (40, -578) (41, 156) (42, 113) (43, 767) (44, -246) (45, 854) (46, 565) (47, 927) (48, 318) (49, 522) (50, 1067) (51, -952) (52, -1223) (53, -603) (54, -274) (55, -444) (56, 1019) (57, 1037) (58, 1142) (59, 841) (60, -589) (61, -113) (62, -96) (63, -785) (64, -753) (65, -202) (66, -104) (67, -1147) (68, -691) (69, 35) (70, -524) (71, -76) (0, -1106) (1, 891) (2, -553) (3, -2) (4, 460) (5, -1116) (6, -318) (7, -412) (8, 536) (9, -505) (10, -152) (11, 614) (12, 111) (13, 766) (14, -1114) (15, -127) (16, 560) (17, 1227) (18, -522) (19, 1194) (20, -154) (21, 598) (22, -821) (23, 343) (24, -793) (25, 346) (26, 373) (27, -286) (28, -882) (29, 1071) (30, 847) (31, -740) (32, 672) (33, -872) (34, 439) (35, -142) (36, -886) (37, -1254) (38, 650) (39, 934) (40, -524) (41, -790) (42, 195) (43, 793) (44, 1176) (45, 220) (46, -591) (47, 599) (48, 125) (49, 35) (50, 545) (51, 1213) (52, -537) (53, 896) (54, 224) (55, -102) (56, 136) (57, -600) (58, 844) (59, 438) (60, -794) (61, 473) (62, 957) (63, 1107) (64, 758) (65, 140) (66, -250) (67, 1178) (68, 218) (69, -892) (70, 815) (71, 936) (0, -465) (1, -211) (2, 485) (3, -487) (4, 1209) (5, 1154) (6, -1141) (7, 116) (8, -12) (9, 625) (10, 23) (11, 692) (12, 366) (13, -1007) (14, -655) (15, -780) (16, -401) (17, -1072) (18, 886) (19, 37) (20, 645) (21, 603) (22, -97) (23, 213) (24, -473) (25, 861) (26, 147) (27, 967) (28, 1195) (29, -277) (30, 665) (31, -501) (32, 744) (33, -54) (34, 272) (35, 717) (36, -166) (37, 314) (38, -494) (39, 1058) (40, -225) (41, 788) (42, 503) (43, -1073) (44, 1126) (45, 1013) (46, -655) (47, -529) (48, 1246) (49, -1004) (50, 776) (51, 616) (52, 806) (53, -602) (54, -354) (55, -925) (56, -939) (57, 1007) (58, -1153) (59, -967) (60, -486) (61, 753) (62, -208) (63, -994) (64, -576) (65, -1192) (66, 964) (67, 514) (68, 406) (69, -665) (70, 357) (71, -1094) (0, -1089) (1, -412) (2, -954) (3, -1177) (4, -558) (5, -364) (6, -466) (7, -573) (8, -184) (9, -974) (10, -1155) (11, -598) (12, -303) (13, -286) (14, -235) (15, -46) (16, -518) (17, -238) (18, 219) (19, 219) (20, -691) (21, 1205) (22, 452) (23, -52) (24, -1219) (25, 177) (26, -763) (27, 412) (28, 715) (29, 811) (30, 569) (31, 863) (32, -824) (33, 871) (34, 879) (35, -170) (36, -756) (37, -923) (38, 399) (39, 324) (40, -641) (41, 534) (42, 940) (43, 300) (44, -944) (45, -518) (46, -1046) (47, -305) (48, 399) (49, 381) (50, 1214) (51, 927) (52, 408) (53, 406) (54, -379) (55, 429) (56, -602) (57, 131) (58, -398) (59, -1127) (60, -310) (61, -1056) (62, 968) (63, 91) (64, 1061) (65, 610) (66, 1180) (67, -969) (68, 933) (69, 425) (70, 580) (71, -959) (0, -292) (1, 219) (2, 511) (3, -30) (4, 863) (5, 709) (6, 955) (7, 39) (8, -80) (9, 931) (10, -275) (11, -927) (12, 115) (13, 634) (14, 723) (15, 722) (16, -535) (17, -992) (18, 807) (19, 413) (20, -789) (21, 483) (22, -752) (23, -1035) (24, -154) (25, -811) (26, -730) (27, -446) (28, 813) (29, 1053) (30, -180) (31, -695) (32, 103) (33, -805) (34, 573) (35, -297) (36, 1140) (37, 224) (38, 907) (39, -193) (40, 35) (41, -524) (42, 168) (43, -1026) (44, -1144) (45, -491) (46, 837) (47, -464) (48, -54) (49, 386) (50, 1223) (51, 342) (52, -333) (53, -676) (54, 668) (55, 688) (56, -300) (57, 1136) (58, -979) (59, -734) (60, 957) (61, 131) (62, -155) (63, -202) (64, 492) (65, -824) (66, 750) (67, 448) (68, 767) (69, 485) (70, -960) (71, -513) (0, 1169) (1, 370) (2, -346) (3, 1207) (4, -1208) (5, -841) (6, -469) (7, -91) (8, 859) (9, -489) (10, -947) (11, -797) (12, -20) (13, 861) (14, 1168) (15, 853) (16, 774) (17, -1030) (18, -1097) (19, 483) (20, 331) (21, -42) (22, -952) (23, -389) (24, 373) (25, 1008) (26, -1198) (27, -139) (28, 246) (29, -950) (30, 611) (31, 174) (32, 660) (33, -1003) (34, 157) (35, 681) (36, -512) (37, 1118) (38, -336) (39, -928) (40, -813) (41, -390) (42, -447) (43, 481) (44, -700) (45, -504) (46, 65) (47, -1063) (48, -242) (49, 301) (50, 585) (51, -1041) (52, -1024) (53, 880) (54, -283) (55, 579) (56, 700) (57, -188) (58, -795) (59, -357) (60, 30) (61, 1042) (62, 1038) (63, -454) (64, -1089) (65, 48) (66, -1022) (67, -442) (68, -323) (69, -479) (70, -118) (71, 232) (0, 438) (1, 823) (2, -597) (3, 1071) (4, -860) (5, 907) (6, 1139) (7, 168) (8, -168) (9, 572) (10, 302) (11, 161) (12, 218) (13, -1246) (14, -396) (15, -319) (16, -144) (17, 64) (18, 609) (19, 1080) (20, -130) (21, 432) (22, -594) (23, -52) (24, -790) (25, -422) (26, 717) (27, 163) (28, 374) (29, -574) (30, -909) (31, -422) (32, -1037) (33, -195) (34, -597) (35, -735) (36, -663) (37, -634) (38, 539) (39, 426) (40, 1053) (41, -380) (42, -771) (43, -37) (44, -410) (45, 176) (46, 949) (47, 714) (48, 1132) (49, 397) (50, 520) (51, -237) (52, -511) (53, 1270) (54, 839) (55, -153) (56, -488) (57, 315) (58, -1158) (59, 1077) (60, 970) (61, -796) (62, -544) (63, 1196) (64, 196) (65, 80) (66, -856) (67, 788) (68, 648) (69, 1018) (70, -46) (71, 570) (0, -570) (1, 511) (2, -654) (3, 316) (4, -767) (5, -973) (6, -222) (7, -830) (8, 657) (9, -886) (10, 133) (11, -1089) (12, -942) (13, -310) (14, -22) (15, -243) (16, -1142) (17, 176) (18, -283) (19, 1060) (20, 619) (21, 370) (22, 1016) (23, -323) (24, -697) (25, -989) (26, -686) (27, 1213) (28, -1208) (29, 472) (30, 486) (31, -505) (32, -186) (33, 1159) (34, 1105) (35, 227) (36, -995) (37, -220) (38, 719) (39, 839) (40, 23) (41, -484) (42, 1034) (43, 342) (44, 415) (45, -88) (46, -1142) (47, 516) (48, -1056) (49, -180) (50, 402) (51, 897) (52, -1057) (53, 202) (54, -631) (55, -544) (56, 460) (57, 1) (58, -541) (59, 592) (60, -628) (61, 1205) (62, -1162) (63, 264) (64, 1132) (65, 1139) (66, -806) (67, -1171) (68, -390) (69, 1120) (70, 972) (71, 933) (0, -658) (1, 958) (2, -80) (3, 1205) (4, -325) (5, 252) (6, 525) (7, -87) (8, 1089) (9, -275) (10, -382) (11, -1053) (12, 1210) (13, 193) (14, -278) (15, 383) (16, -994) (17, 361) (18, -215) (19, -510) (20, 335) (21, -190) (22, 1073) (23, 188) (24, -185) (25, -843) (26, 285) (27, 681) (28, -956) (29, 65) (30, 296) (31, -364) (32, -246) (33, -889) (34, -473) (35, 557) (36, 369) (37, 1076) (38, -977) (39, 319) (40, -474) (41, -40) (42, 305) (43, -439) (44, -1024) (45, 1105) (46, 1112) (47, -845) (48, 77) (49, -365) (50, -24) (51, -893) (52, 699) (53, -201) (54, 551) (55, -833) (56, 212) (57, -428) (58, 1179) (59, 487) (60, 840) (61, 306) (62, -1040) (63, -481) (64, 570) (65, -305) (66, 1192) (67, -255) (68, -365) (69, -858) (70, 1236) (71, 418) (0, 291) (1, 154) (2, 1174) (3, 398) (4, 19) (5, 887) (6, 840) (7, -1080) (8, -557) (9, -447) (10, -700) (11, -1183) (12, 591) (13, 1159) (14, -660) (15, -480) (16, -452) (17, -675) (18, -1209) (19, -843) (20, 880) (21, -1061) (22, -220) (23, 261) (24, -133) (25, -341) (26, -1208) (27, 731) (28, 5) (29, 1242) (30, -47) (31, -960) (32, 236) (33, -151) (34, 721) (35, -879) (36, -324) (37, 514) (38, -450) (39, 261) (40, 1143) (41, -146) (42, 440) (43, 546) (44, -256) (45, 1109) (46, -1168) (47, 434) (48, -735) (49, -996) (50, 814) (51, -1128) (52, -924) (53, -509) (54, 429) (55, 302) (56, 288) (57, 539) (58, -301) (59, -1010) (60, 474) (61, 827) (62, -774) (63, -440) (64, -391) (65, -1209) (66, -104) (67, 375) (68, 303) (69, 410) (70, -506) (71, 446) (0, -808) (1, -1162) (2, -275) (3, 246) (4, 1199) (5, -139) (6, -456) (7, -704) (8, 64) (9, -777) (10, -491) (11, 437) (12, -140) (13, -1173) (14, -512) (15, -1056) (16, 592) (17, 466) (18, -789) (19, -89) (20, 143) (21, -231) (22, 698) (23, 923) (24, -210) (25, -628) (26, 130) (27, -1043) (28, 1096) (29, 955) (30, 561) (31, -954) (32, 1000) (33, -971) (34, 517) (35, 1000) (36, 140) (37, -1141) (38, -953) (39, -1008) (40, -710) (41, -133) (42, 655) (43, 389) (44, -130) (45, -1129) (46, 565) (47, -784) (48, 552) (49, 1011) (50, 354) (51, -518) (52, -458) (53, -184) (54, -892) (55, 567) (56, 429) (57, 493) (58, 762) (59, 300) (60, 201) (61, 88) (62, 551) (63, -29) (64, 340) (65, -171) (66, -291) (67, -752) (68, -95) (69, 28) (70, -545) (71, 443) (0, 1119) (1, -1184) (2, -374) (3, -380) (4, -1019) (5, -1191) (6, 141) (7, 732) (8, 1187) (9, -747) (10, -1027) (11, -583) (12, 337) (13, -629) (14, -1188) (15, -404) (16, 1041) (17, 878) (18, 1067) (19, 55) (20, -325) (21, 436) (22, -1234) (23, -1167) (24, -984) (25, -262) (26, -716) (27, 167) (28, 1012) (29, -24) (30, -612) (31, 892) (32, 65) (33, 167) (34, -636) (35, 317) (36, 359) (37, 765) (38, -39) (39, 274) (40, -1051) (41, 171) (42, 1025) (43, 454) (44, 586) (45, 1134) (46, -1089) (47, 597) (48, 680) (49, 1202) (50, -759) (51, -770) (52, 388) (53, -456) (54, -874) (55, 702) (56, 251) (57, -253) (58, -387) (59, 115) (60, 985) (61, 150) (62, -282) (63, -240) (64, -930) (65, 294) (66, -1125) (67, 736) (68, -94) (69, -20) (70, -245) (71, 64) (0, -1227) (1, -415) (2, -774) (3, 763) (4, -504) (5, -691) (6, 71) (7, -1051) (8, -706) (9, 632) (10, -652) (11, 886) (12, 1209) (13, -319) (14, 209) (15, 215) (16, 604) (17, 1018) (18, -861) (19, 291) (20, -115) (21, 9) (22, -1173) (23, 232) (24, -872) (25, -1045) (26, -289) (27, 230) (28, 100) (29, 670) (30, -1050) (31, 144) (32, -914) (33, -466) (34, -313) (35, -275) (36, 77) (37, 1009) (38, -66) (39, 629) (40, 309) (41, 409) (42, 267) (43, 345) (44, -1063) (45, -726) (46, -730) (47, 774) (48, -851) (49, -482) (50, -114) (51, 297) (52, 898) (53, -38) (54, -675) (55, 1217) (56, 216) (57, 303) (58, 253) (59, -908) (60, -264) (61, 458) (62, 502) (63, 92) (64, 1174) (65, -1030) (66, 976) (67, 25) (68, 1138) (69, -357) (70, -587) (71, 213) (0, -1189) (1, 892) (2, -751) (3, -1065) (4, -1062) (5, -272) (6, 956) (7, -699) (8, 561) (9, -399) (10, 797) (11, 190) (12, 818) (13, -1074) (14, 217) (15, -211) (16, 320) (17, -819) (18, 55) (19, -1099) (20, 892) (21, -646) (22, 88) (23, 819) (24, -487) (25, -157) (26, -396) (27, -588) (28, 694) (29, 271) (30, 877) (31, 729) (32, -123) (33, -1154) (34, 880) (35, 90) (36, -174) (37, 554) (38, 621) (39, -814) (40, -1040) (41, 274) (42, 603) (43, 1092) (44, 386) (45, -483) (46, -438) (47, -438) (48, 45) (49, 886) (50, -352) (51, -337) (52, -1013) (53, 974) (54, -764) (55, -280) (56, -388) (57, 51) (58, 376) (59, -937) (60, -965) (61, -9) (62, 989) (63, 100) (64, 104) (65, 655) (66, -932) (67, 1158) (68, -8) (69, 901) (70, -906) (71, 160) (0, -54) (1, 813) (2, 71) (3, -1084) (4, -810) (5, 667) (6, -317) (7, 322) (8, 420) (9, 488) (10, -1261) (11, 507) (12, 232) (13, -787) (14, -994) (15, 1088) (16, 451) (17, 591) (18, -1200) (19, 770) (20, -580) (21, 1119) (22, -342) (23, 727) (24, 460) (25, -109) (26, 647) (27, -783) (28, -418) (29, 932) (30, 727) (31, 723) (32, 497) (33, -679) (34, 856) (35, 1001) (36, -1049) (37, -761) (38, -89) (39, 525) (40, 1154) (41, 179) (42, -25) (43, 185) (44, 664) (45, 288) (46, 104) (47, -197) (48, -354) (49, 61) (50, -666) (51, 348) (52, -49) (53, 78) (54, -160) (55, -743) (56, -1193) (57, -717) (58, -340) (59, -410) (60, -965) (61, -881) (62, -925) (63, 614) (64, -368) (65, 1002) (66, 451) (67, -202) (68, -906) (69, -575) (70, -695) (71, -868) (0, 933) (1, 472) (2, 587) (3, 216) (4, -502) (5, -646) (6, -1161) (7, 489) (8, 772) (9, -612) (10, -372) (11, -475) (12, 844) (13, 780) (14, 6) (15, 958) (16, -1122) (17, 944) (18, -625) (19, -889) (20, -1169) (21, -320) (22, 1177) (23, -187) (24, -407) (25, 518) (26, 973) (27, 76) (28, -1192) (29, -956) (30, 481) (31, 969) (32, 741) (33, -219) (34, -2) (35, -926) (36, 412) (37, -10) (38, 694) (39, -74) (40, 786) (41, -795) (42, 751) (43, 467) (44, -1189) (45, -557) (46, 221) (47, -1149) (48, -761) (49, 845) (50, -724) (51, -712) (52, -752) (53, -757) (54, 341) (55, 81) (56, 924) (57, 83) (58, -1071) (59, 997) (60, 398) (61, 637) (62, 710) (63, -116) (64, -752) (65, -505) (66, 170) (67, 825) (68, 757) (69, -217) (70, -418) (71, 308) (0, 233) (1, -925) (2, -511) (3, 389) (4, -223) (5, 994) (6, 489) (7, 298) (8, 455) (9, 990) (10, 816) (11, 985) (12, -1084) (13, -129) (14, -144) (15, 1032) (16, -1149) (17, 4) (18, 810) (19, 336) (20, -691) (21, 218) (22, -940) (23, -284) (24, 926) (25, 456) (26, -750) (27, 484) (28, -1009) (29, 22) (30, -441) (31, 463) (32, 302) (33, 360) (34, -441) (35, -1175) (36, 7) (37, -1223) (38, 186) (39, -744) (40, 940) (41, -186) (42, -1072) (43, 1010) (44, 1035) (45, -56) (46, 874) (47, 1085) (48, 1023) (49, 425) (50, 204) (51, -943) (52, -587) (53, 512) (54, -51) (55, -875) (56, -322) (57, 435) (58, 826) (59, -108) (60, -795) (61, -838) (62, -839) (63, 736) (64, 658) (65, -83) (66, 772) (67, -533) (68, -73) (69, -132) (70, -29) (71, -325) (0, 1015) (1, 133) (2, -498) (3, 744) (4, -1135) (5, -956) (6, 598) (7, 1077) (8, 766) (9, -434) (10, -1056) (11, -1098) (12, -1189) (13, 109) (14, -869) (15, -297) (16, -627) (17, -1289) (18, 895) (19, -200) (20, -787) (21, -1178) (22, -685) (23, -1285) (24, 45) (25, -1129) (26, -441) (27, -1215) (28, -33) (29, 752) (30, -298) (31, -226) (32, -330) (33, 395) (34, -662) (35, -265) (36, 761) (37, 1309) (38, -274) (39, 150) (40, -439) (41, -295) (42, 409) (43, -387) (44, 1017) (45, 852) (46, 613) (47, -876) (48, 1039) (49, 350) (50, 177) (51, -885) (52, 319) (53, 761) (54, -801) (55, -763) (56, 811) (57, -47) (58, -814) (59, -357) (60, -435) (61, 114) (62, 596) (63, 383) (64, -683) (65, 1125) (66, -1141) (67, -1184) (68, 1136) (69, -257) (70, 305) (71, -395) (0, 774) (1, -389) (2, 442) (3, 552) (4, -587) (5, -219) (6, 1049) (7, -731) (8, -1047) (9, 48) (10, -295) (11, 549) (12, -364) (13, 193) (14, 929) (15, -660) (16, -1076) (17, -1140) (18, 213) (19, -261) (20, 378) (21, -359) (22, -1054) (23, 904) (24, -379) (25, -841) (26, 1105) (27, -414) (28, 165) (29, 233) (30, 370) (31, -268) (32, 1121) (33, -424) (34, -860) (35, -714) (36, 669) (37, -964) (38, -211) (39, 753) (40, 339) (41, 770) (42, 228) (43, 1245) (44, -343) (45, -102) (46, -684) (47, -176) (48, 270) (49, 763) (50, 729) (51, -546) (52, -885) (53, 939) (54, -747) (55, -16) (56, -1198) (57, -857) (58, 814) (59, 268) (60, 723) (61, -18) (62, -1196) (63, 383) (64, 737) (65, -913) (66, 983) (67, 148) (68, -631) (69, -403) (70, -145) (71, 941) (0, -877) (1, -1175) (2, 896) (3, -7) (4, 32) (5, -1030) (6, 1010) (7, -835) (8, 950) (9, 544) (10, -108) (11, -1133) (12, 237) (13, 435) (14, 51) (15, 350) (16, 781) (17, -360) (18, -601) (19, 275) (20, 838) (21, -594) (22, -436) (23, 371) (24, -207) (25, -552) (26, -637) (27, 403) (28, 317) (29, 423) (30, 91) (31, 678) (32, 462) (33, -216) (34, -541) (35, -715) (36, -21) (37, -757) (38, -277) (39, -318) (40, 1027) (41, 856) (42, -222) (43, 136) (44, 28) (45, 1104) (46, -865) (47, -412) (48, -443) (49, -176) (50, 1136) (51, -853) (52, 398) (53, -456) (54, 809) (55, -1101) (56, 172) (57, -1049) (58, 582) (59, -699) (60, 624) (61, -512) (62, 1214) (63, -124) (64, 515) (65, -558) (66, 338) (67, -786) (68, -78) (69, -1227) (70, 155) (71, -265) (0, 847) (1, 1184) (2, 1046) (3, -387) (4, 1065) (5, -1039) (6, 503) (7, -607) (8, -52) (9, 351) (10, -171) (11, -874) (12, 1116) (13, -528) (14, -545) (15, 85) (16, -310) (17, 1254) (18, 545) (19, -959) (20, -501) (21, 579) (22, 117) (23, 1193) (24, 1212) (25, -817) (26, -868) (27, -87) (28, -777) (29, 555) (30, 904) (31, -1192) (32, 443) (33, 618) (34, -401) (35, 318) (36, 819) (37, -1068) (38, 1145) (39, -513) (40, 347) (41, -445) (42, -182) (43, 170) (44, 109) (45, 548) (46, -937) (47, 1081) (48, 318) (49, 926) (50, -1203) (51, 1032) (52, 150) (53, 284) (54, 893) (55, 209) (56, 551) (57, -1208) (58, -1158) (59, 970) (60, 533) (61, 904) (62, 950) (63, -34) (64, 397) (65, -647) (66, -1110) (67, -60) (68, -617) (69, 1036) (70, 675) (71, 1158) (0, -561) (1, -543) (2, 101) (3, 977) (4, 1112) (5, 535) (6, 844) (7, 298) (8, 118) (9, 942) (10, 100) (11, -830) (12, -110) (13, -217) (14, 582) (15, -792) (16, -85) (17, 663) (18, -982) (19, -778) (20, 436) (21, -1209) (22, 325) (23, -410) (24, -568) (25, 464) (26, 828) (27, 104) (28, 351) (29, 360) (30, -61) (31, 1019) (32, 1009) (33, -1155) (34, 722) (35, 866) (36, 509) (37, 237) (38, -259) (39, -579) (40, -77) (41, 1185) (42, -267) (43, 961) (44, -186) (45, -936) (46, -962) (47, 821) (48, 1003) (49, -760) (50, -1091) (51, 123) (52, -717) (53, 446) (54, 1055) (55, -74) (56, -316) (57, 597) (58, -1164) (59, 1202) (60, -312) (61, 21) (62, 1019) (63, -506) (64, 118) (65, 556) (66, -837) (67, -608) (68, -422) (69, 274) (70, 35) (71, 705) (0, 205) (1, 978) (2, 542) (3, 1225) (4, -1228) (5, 751) (6, 838) (7, 1013) (8, -1159) (9, 953) (10, -77) (11, -655) (12, 110) (13, -315) (14, 573) (15, 982) (16, -979) (17, 620) (18, 963) (19, -12) (20, -573) (21, 731) (22, 681) (23, 735) (24, -2) (25, 1043) (26, -1120) (27, 780) (28, 34) (29, 111) (30, 279) (31, -981) (32, -153) (33, -386) (34, -991) (35, -130) (36, -818) (37, 1026) (38, -347) (39, -747) (40, 796) (41, 808) (42, -145) (43, -288) (44, -720) (45, 1282) (46, -585) (47, -491) (48, 1073) (49, -912) (50, 795) (51, -727) (52, 1103) (53, 292) (54, -1223) (55, -123) (56, 85) (57, -1100) (58, -592) (59, -1101) (60, 241) (61, 933) (62, -849) (63, -1120) (64, -688) (65, -587) (66, -40) (67, -277) (68, -750) (69, 816) (70, 209) (71, -1175) (0, 389) (1, -1155) (2, -277) (3, 902) (4, -734) (5, 388) (6, -733) (7, -872) (8, 759) (9, -1191) (10, -378) (11, 640) (12, 333) (13, -321) (14, -705) (15, -824) (16, -198) (17, -85) (18, -700) (19, -1190) (20, -361) (21, -312) (22, -1112) (23, 166) (24, 315) (25, 61) (26, 1132) (27, 799) (28, -339) (29, 127) (30, 847) (31, -1196) (32, 203) (33, -640) (34, 948) (35, 710) (36, 970) (37, -1038) (38, 994) (39, 493) (40, -1046) (41, -571) (42, -82) (43, 423) (44, 373) (45, 339) (46, 897) (47, -1178) (48, -927) (49, -1023) (50, -1044) (51, -102) (52, -104) (53, -903) (54, -1089) (55, -1009) (56, 350) (57, -1204) (58, 991) (59, 1194) (60, 85) (61, 654) (62, -1196) (63, -903) (64, -1225) (65, 997) (66, 1090) (67, 975) (68, 1147) (69, 894) (70, 232) (71, -1091) (0, -839) (1, -1279) (2, 744) (3, 563) (4, 564) (5, 137) (6, 720) (7, 740) (8, 637) (9, 911) (10, -443) (11, -855) (12, -1272) (13, -271) (14, -784) (15, 410) (16, -262) (17, -833) (18, 328) (19, 1147) (20, 1061) (21, 433) (22, -1005) (23, 1146) (24, 141) (25, -1195) (26, 957) (27, 76) (28, 963) (29, -27) (30, 280) (31, -1144) (32, 59) (33, -343) (34, 743) (35, -591) (36, -1128) (37, 349) (38, -1119) (39, 615) (40, 180) (41, -192) (42, -1134) (43, 146) (44, 837) (45, -448) (46, -571) (47, -650) (48, 228) (49, 1082) (50, -767) (51, 204) (52, 166) (53, -534) (54, 147) (55, -947) (56, -585) (57, -203) (58, 268) (59, -759) (60, 1182) (61, -565) (62, -708) (63, -205) (64, 173) (65, 1065) (66, 552) (67, 379) (68, 264) (69, 878) (70, -70) (71, -811) (0, -519) (1, -13) (2, 609) (3, -861) (4, 805) (5, 1315) (6, -293) (7, -283) (8, 879) (9, 123) (10, 1108) (11, -170) (12, 807) (13, -37) (14, 75) (15, -973) (16, 1002) (17, -859) (18, -566) (19, 890) (20, -303) (21, -105) (22, -444) (23, 1179) (24, -139) (25, -1057) (26, 298) (27, -1053) (28, 1027) (29, -1070) (30, -617) (31, -720) (32, 96) (33, -1225) (34, -413) (35, -395) (36, 1179) (37, 385) (38, 591) (39, 891) (40, -709) (41, 384) (42, -658) (43, -1064) (44, -899) (45, 611) (46, -965) (47, -1082) (48, 882) (49, -289) (50, 1021) (51, -542) (52, 806) (53, -712) (54, -711) (55, -536) (56, -438) (57, 767) (58, -329) (59, -641) (60, 933) (61, 277) (62, -129) (63, -111) (64, 379) (65, 747) (66, 682) (67, 252) (68, -50) (69, -67) (70, -171) (71, 412) (0, -909) (1, 350) (2, 542) (3, -654) (4, -261) (5, 817) (6, -549) (7, -642) (8, -733) (9, -809) (10, -42) (11, -1130) (12, -211) (13, 497) (14, -328) (15, 652) (16, 34) (17, 494) (18, 1092) (19, -226) (20, -411) (21, -143) (22, 799) (23, 1063) (24, -770) (25, 172) (26, 12) (27, 356) (28, -1075) (29, 1129) (30, -375) (31, -812) (32, 148) (33, -1269) (34, -333) (35, 1185) (36, 801) (37, 287) (38, -882) (39, -1128) (40, 785) (41, 532) (42, -1022) (43, -653) (44, -85) (45, -215) (46, 1145) (47, 949) (48, -1025) (49, 998) (50, -377) (51, -283) (52, -319) (53, -1071) (54, -496) (55, -21) (56, 488) (57, 707) (58, -797) (59, 562) (60, 523) (61, 55) (62, 976) (63, -566) (64, -40) (65, -731) (66, -537) (67, -432) (68, 889) (69, 131) (70, -241) (71, 378) (0, -539) (1, -141) (2, 1054) (3, 401) (4, 822) (5, 924) (6, 262) (7, 1044) (8, 809) (9, 1013) (10, -475) (11, -814) (12, -1123) (13, 286) (14, 593) (15, 597) (16, -185) (17, 1044) (18, -65) (19, -856) (20, -138) (21, -349) (22, -62) (23, 1145) (24, 243) (25, 654) (26, -471) (27, -60) (28, -472) (29, 462) (30, -814) (31, 215) (32, -935) (33, -1057) (34, -564) (35, 1162) (36, 1154) (37, 856) (38, 974) (39, 683) (40, 842) (41, -590) (42, 1160) (43, 1024) (44, 784) (45, 549) (46, 380) (47, -625) (48, 268) (49, -885) (50, -288) (51, -1067) (52, -84) (53, 956) (54, -1192) (55, -1044) (56, 277) (57, -478) (58, 118) (59, 1087) (60, -1133) (61, 504) (62, 30) (63, -1048) (64, 676) (65, 698) (66, -995) (67, 654) (68, 500) (69, -1256) (70, 69) (71, 2) (0, -758) (1, 218) (2, -393) (3, -916) (4, -676) (5, 1453) (6, -326) (7, 965) (8, -1000) (9, 612) (10, 1003) (11, 315) (12, 262) (13, 965) (14, 516) (15, -786) (16, -671) (17, -640) (18, -885) (19, -722) (20, 981) (21, 281) (22, -354) (23, 429) (24, -219) (25, -88) (26, -269) (27, -1035) (28, -104) (29, 1070) (30, 113) (31, 390) (32, -55) (33, 1148) (34, 577) (35, 424) (36, 1061) (37, -1026) (38, 18) (39, -1109) (40, 568) (41, -379) (42, 233) (43, -377) (44, -440) (45, -742) (46, -167) (47, 150) (48, -269) (49, 194) (50, 647) (51, -567) (52, -725) (53, -993) (54, 904) (55, 264) (56, 190) (57, -572) (58, 452) (59, -1098) (60, -704) (61, -567) (62, 564) (63, 452) (64, -814) (65, -46) (66, -323) (67, -867) (68, 30) (69, 885) (70, -829) (71, -737) (0, -686) (1, 626) (2, -90) (3, 139) (4, 1137) (5, 1058) (6, -1021) (7, -365) (8, 48) (9, 845) (10, 208) (11, 549) (12, 1117) (13, -99) (14, -408) (15, 5) (16, 590) (17, -1183) (18, 172) (19, 1055) (20, -559) (21, -612) (22, 232) (23, -68) (24, 551) (25, 1051) (26, 276) (27, -722) (28, 618) (29, 643) (30, -266) (31, -1264) (32, 105) (33, 1054) (34, 157) (35, -52) (36, 865) (37, 321) (38, 809) (39, -281) (40, -46) (41, -210) (42, -994) (43, -243) (44, 840) (45, -172) (46, 1059) (47, 266) (48, -103) (49, -29) (50, 65) (51, 611) (52, 560) (53, -782) (54, -668) (55, -59) (56, -1073) (57, 861) (58, 406) (59, 815) (60, 283) (61, -1040) (62, 790) (63, -905) (64, 1234) (65, -244) (66, 215) (67, 859) (68, -1121) (69, -214) (70, -739) (71, 20) (0, 686) (1, -434) (2, 965) (3, 458) (4, 567) (5, 944) (6, -580) (7, -744) (8, -481) (9, 751) (10, 1026) (11, -1042) (12, 1042) (13, -1042) (14, 6) (15, 1069) (16, 1073) (17, -788) (18, 720) (19, 5) (20, -671) (21, 172) (22, 337) (23, -694) (24, 1192) (25, -634) (26, -1108) (27, -1199) (28, 353) (29, -618) (30, -20) (31, -172) (32, 204) (33, -89) (34, -943) (35, -538) (36, -550) (37, -307) (38, -79) (39, 288) (40, -908) (41, -361) (42, 317) (43, -1134) (44, -73) (45, -794) (46, 1227) (47, -212) (48, -562) (49, 609) (50, 1093) (51, 56) (52, -351) (53, 244) (54, 604) (55, -368) (56, 904) (57, 747) (58, -297) (59, -30) (60, -1176) (61, 870) (62, 1041) (63, 377) (64, -461) (65, -973) (66, 1079) (67, 275) (68, -207) (69, -410) (70, -805) (71, 158) (0, 471) (1, 652) (2, 284) (3, -916) (4, 956) (5, 207) (6, 71) (7, -789) (8, -306) (9, -50) (10, 474) (11, 528) (12, -1080) (13, -71) (14, -1104) (15, 990) (16, -613) (17, -260) (18, -284) (19, -505) (20, -557) (21, -445) (22, 967) (23, 184) (24, -306) (25, 656) (26, -828) (27, 732) (28, -967) (29, -399) (30, -333) (31, 721) (32, -932) (33, 1175) (34, 1103) (35, -1139) (36, 222) (37, -84) (38, -744) (39, 1113) (40, -1174) (41, 1144) (42, 524) (43, -999) (44, -224) (45, 598) (46, 1270) (47, 439) (48, -761) (49, -262) (50, 1077) (51, -104) (52, 541) (53, 821) (54, -1077) (55, -1028) (56, 198) (57, -708) (58, 911) (59, 480) (60, 174) (61, -611) (62, -21) (63, 355) (64, -696) (65, -199) (66, 500) (67, 786) (68, 1052) (69, 1071) (70, 701) (71, 1030) (0, 905) (1, -42) (2, -1247) (3, -519) (4, -649) (5, -1216) (6, 1123) (7, -201) (8, -304) (9, 907) (10, 914) (11, -1017) (12, 475) (13, 933) (14, -948) (15, -687) (16, -964) (17, -1212) (18, 1103) (19, 302) (20, -662) (21, -301) (22, -501) (23, -108) (24, 792) (25, -1230) (26, -552) (27, 605) (28, 1014) (29, -1185) (30, 384) (31, 745) (32, 71) (33, 496) (34, -971) (35, 588) (36, 459) (37, -1003) (38, -840) (39, -1145) (40, 969) (41, 1273) (42, -944) (43, 198) (44, 903) (45, -510) (46, 792) (47, 1097) (48, -560) (49, 520) (50, 280) (51, 125) (52, -918) (53, 1127) (54, -1206) (55, 1167) (56, 990) (57, -473) (58, 478) (59, 881) (60, -344) (61, -316) (62, 449) (63, 935) (64, -1198) (65, 629) (66, 135) (67, 500) (68, 772) (69, 585) (70, 736) (71, 636) (0, 643) (1, 1111) (2, -478) (3, 340) (4, -595) (5, -974) (6, 321) (7, 163) (8, 915) (9, -544) (10, -867) (11, -1208) (12, -698) (13, -706) (14, 1198) (15, -804) (16, 37) (17, 524) (18, -1120) (19, 1004) (20, -1014) (21, 608) (22, 686) (23, -822) (24, 113) (25, -233) (26, 1026) (27, -280) (28, -817) (29, 594) (30, -928) (31, 1055) (32, 490) (33, -189) (34, 193) (35, 1129) (36, 118) (37, -657) (38, 156) (39, -176) (40, 24) (41, 471) (42, -149) (43, 619) (44, 939) (45, -136) (46, 1016) (47, -135) (48, -890) (49, 1163) (50, -480) (51, -638) (52, 538) (53, -1032) (54, -250) (55, -566) (56, 16) (57, -479) (58, 363) (59, 424) (60, -1135) (61, 639) (62, 208) (63, 540) (64, -752) (65, -791) (66, 520) (67, 622) (68, -244) (69, -664) (70, -861) (71, 1032) (0, 968) (1, 211) (2, 351) (3, 659) (4, -1249) (5, 69) (6, -811) (7, -845) (8, 102) (9, 19) (10, -337) (11, -658) (12, 239) (13, 628) (14, -127) (15, -1062) (16, -1086) (17, -951) (18, 714) (19, -1024) (20, 916) (21, -408) (22, 807) (23, -1052) (24, 84) (25, 72) (26, 827) (27, 1064) (28, 581) (29, 1148) (30, 804) (31, 368) (32, 255) (33, 57) (34, -95) (35, 266) (36, -1029) (37, 467) (38, 724) (39, 291) (40, -779) (41, -942) (42, 891) (43, 643) (44, 927) (45, -244) (46, 937) (47, 1051) (48, 54) (49, 372) (50, -1169) (51, -176) (52, -1196) (53, 987) (54, 98) (55, 387) (56, -222) (57, -228) (58, -8) (59, -869) (60, -325) (61, -443) (62, 786) (63, 1033) (64, 858) (65, -563) (66, 84) (67, 989) (68, 1103) (69, -451) (70, 73) (71, -824) (0, -84) (1, -141) (2, 1053) (3, -285) (4, 777) (5, 882) (6, -396) (7, -336) (8, -15) (9, -289) (10, 750) (11, 106) (12, -578) (13, -381) (14, -968) (15, 418) (16, 613) (17, 291) (18, 836) (19, -949) (20, 1038) (21, 413) (22, -1007) (23, 672) (24, 1147) (25, 400) (26, 432) (27, 1056) (28, 1216) (29, -672) (30, -1071) (31, -93) (32, 393) (33, -1202) (34, 832) (35, -78) (36, 824) (37, -822) (38, 786) (39, -398) (40, 51) (41, 289) (42, 845) (43, 654) (44, 1115) (45, 1172) (46, -115) (47, 528) (48, 7) (49, -613) (50, 823) (51, -168) (52, 1073) (53, 1045) (54, -802) (55, 1055) (56, 232) (57, 857) (58, 838) (59, 191) (60, -1083) (61, 985) (62, -1128) (63, 634) (64, 952) (65, 889) (66, -783) (67, 593) (68, -1139) (69, -1219) (70, -1071) (71, 226) (0, 329) (1, 1086) (2, -346) (3, 268) (4, 907) (5, 765) (6, -417) (7, -266) (8, -991) (9, -797) (10, 761) (11, -1114) (12, -968) (13, 1203) (14, 1115) (15, 484) (16, 825) (17, 751) (18, -510) (19, 1014) (20, 515) (21, -405) (22, 342) (23, 332) (24, -657) (25, 838) (26, -268) (27, -525) (28, 860) (29, -73) (30, 889) (31, -23) (32, -202) (33, -629) (34, -943) (35, -536) (36, -1101) (37, -35) (38, 562) (39, -873) (40, 300) (41, -26) (42, -781) (43, 623) (44, -131) (45, -780) (46, -162) (47, -458) (48, 1111) (49, 522) (50, -750) (51, 442) (52, -1102) (53, 965) (54, -462) (55, -462) (56, 495) (57, 568) (58, 228) (59, 112) (60, -797) (61, -166) (62, -1140) (63, 302) (64, 501) (65, -763) (66, 914) (67, 582) (68, 287) (69, 82) (70, 926) (71, -540) (0, -1172) (1, -970) (2, -1233) (3, 12) (4, -575) (5, -102) (6, 770) (7, -659) (8, -819) (9, -1178) (10, 1032) (11, -633) (12, 949) (13, -676) (14, 97) (15, 157) (16, 1129) (17, -924) (18, -902) (19, -908) (20, 169) (21, -791) (22, 595) (23, -595) (24, -346) (25, 292) (26, 1224) (27, 1202) (28, -813) (29, 944) (30, -626) (31, -757) (32, 1206) (33, -599) (34, 468) (35, -633) (36, 486) (37, 49) (38, -20) (39, 850) (40, -34) (41, -312) (42, -1016) (43, -356) (44, 254) (45, 272) (46, 1073) (47, 150) (48, 609) (49, -1004) (50, 464) (51, -441) (52, -603) (53, -202) (54, 167) (55, 243) (56, -1166) (57, 78) (58, 212) (59, -764) (60, -179) (61, 852) (62, -235) (63, -207) (64, -977) (65, -1052) (66, 389) (67, 766) (68, 224) (69, -855) (70, 430) (71, -1002) (0, 66) (1, 688) (2, -80) (3, -807) (4, -235) (5, -59) (6, 521) (7, -868) (8, -23) (9, -249) (10, -108) (11, 713) (12, 786) (13, -1137) (14, -25) (15, 942) (16, 288) (17, 1384) (18, -1079) (19, -1134) (20, 1027) (21, -8) (22, -22) (23, 1258) (24, 195) (25, -886) (26, 698) (27, -819) (28, -492) (29, -39) (30, -592) (31, 767) (32, -666) (33, 526) (34, 1078) (35, 343) (36, -914) (37, 77) (38, 467) (39, 389) (40, -1212) (41, -610) (42, -260) (43, 699) (44, -555) (45, 647) (46, 451) (47, 958) (48, 646) (49, 703) (50, 946) (51, 393) (52, -677) (53, -231) (54, 282) (55, 631) (56, -11) (57, -327) (58, 1189) (59, 674) (60, 775) (61, -682) (62, 174) (63, -1066) (64, 1015) (65, -27) (66, 530) (67, -995) (68, -822) (69, 33) (70, 466) (71, -987) (0, 568) (1, -1098) (2, 1089) (3, 1148) (4, 777) (5, 235) (6, 804) (7, 111) (8, -461) (9, 406) (10, -850) (11, 39) (12, -1224) (13, 560) (14, -408) (15, -49) (16, -1058) (17, -530) (18, -743) (19, 965) (20, -28) (21, 707) (22, 1060) (23, -214) (24, -587) (25, 258) (26, -136) (27, -297) (28, -1032) (29, -912) (30, 32) (31, 752) (32, -868) (33, -243) (34, 643) (35, 1156) (36, -1225) (37, 236) (38, 104) (39, -472) (40, -609) (41, 469) (42, 809) (43, -572) (44, -334) (45, -878) (46, 558) (47, -131) (48, -270) (49, 1169) (50, -446) (51, 861) (52, 520) (53, -655) (54, -599) (55, 1103) (56, 823) (57, 393) (58, -437) (59, 985) (60, 721) (61, 838) (62, 519) (63, 1108) (64, -610) (65, -80) (66, 1058) (67, -565) (68, -1097) (69, -120) (70, 193) (71, -464) (0, -903) (1, -216) (2, 168) (3, 0) (4, 116) (5, -540) (6, 1126) (7, 1068) (8, -705) (9, -551) (10, 715) (11, 1033) (12, 77) (13, -1136) (14, 1009) (15, -239) (16, 513) (17, -594) (18, -472) (19, 74) (20, -967) (21, -1103) (22, -33) (23, -312) (24, 42) (25, -188) (26, 322) (27, 171) (28, 949) (29, -675) (30, 949) (31, 1262) (32, 285) (33, -219) (34, 3) (35, -789) (36, 494) (37, -159) (38, -930) (39, 1038) (40, 618) (41, 1089) (42, 855) (43, -451) (44, 1158) (45, 480) (46, 445) (47, 350) (48, 1211) (49, 1331) (50, -739) (51, -1042) (52, -1136) (53, 509) (54, -96) (55, 93) (56, -928) (57, -1056) (58, -909) (59, 1224) (60, -514) (61, 1228) (62, 1194) (63, 988) (64, -119) (65, 79) (66, -923) (67, -875) (68, 1120) (69, -712) (70, -1134) (71, 404) (0, -953) (1, 911) (2, 1104) (3, -1059) (4, 226) (5, 341) (6, 578) (7, 182) (8, 271) (9, 1050) (10, 346) (11, 377) (12, 247) (13, -1041) (14, -719) (15, 482) (16, -884) (17, -466) (18, 446) (19, -237) (20, -479) (21, 370) (22, -471) (23, 522) (24, -909) (25, -282) (26, 803) (27, -1070) (28, 209) (29, 848) (30, 581) (31, 498) (32, 543) (33, 480) (34, 671) (35, -470) (36, -467) (37, 63) (38, 1012) (39, 1025) (40, -185) (41, 61) (42, 143) (43, -1219) (44, 165) (45, 718) (46, 550) (47, 567) (48, -1099) (49, -241) (50, -992) (51, -326) (52, -1092) (53, -218) (54, -1068) (55, -745) (56, 702) (57, 927) (58, -641) (59, -306) (60, 592) (61, 1180) (62, -1010) (63, -135) (64, 424) (65, 879) (66, 640) (67, 1211) (68, -308) (69, 375) (70, 988) (71, 782) (0, -820) (1, -47) (2, 813) (3, 591) (4, -680) (5, 171) (6, -101) (7, -528) (8, 1124) (9, 178) (10, 339) (11, -1184) (12, 1214) (13, 512) (14, -682) (15, 729) (16, 259) (17, -87) (18, -769) (19, -384) (20, -111) (21, -530) (22, 762) (23, -909) (24, -852) (25, 186) (26, -950) (27, 71) (28, -674) (29, -1169) (30, -413) (31, -266) (32, 0) (33, -843) (34, -881) (35, 556) (36, 525) (37, 218) (38, -1227) (39, 385) (40, -762) (41, 375) (42, 422) (43, -876) (44, -420) (45, 912) (46, 1199) (47, 1118) (48, -456) (49, -774) (50, -535) (51, 636) (52, -118) (53, -1021) (54, 909) (55, 254) (56, 374) (57, -1225) (58, -880) (59, 948) (60, -1148) (61, -71) (62, -545) (63, 12) (64, 293) (65, -209) (66, -665) (67, -419) (68, -1161) (69, -586) (70, -1207) (71, -679) (0, 1051) (1, 404) (2, -205) (3, -642) (4, 123) (5, -360) (6, -779) (7, 930) (8, 147) (9, -56) (10, 364) (11, -1251) (12, 167) (13, 180) (14, 237) (15, -589) (16, 174) (17, 620) (18, -903) (19, 274) (20, -664) (21, -152) (22, -890) (23, 914) (24, 870) (25, -267) (26, -690) (27, 957) (28, 415) (29, -638) (30, -936) (31, 215) (32, 1027) (33, -2) (34, 833) (35, 5) (36, 983) (37, -1050) (38, -134) (39, -196) (40, 60) (41, -1041) (42, -123) (43, -933) (44, 292) (45, -1027) (46, -288) (47, -797) (48, 869) (49, 182) (50, 690) (51, -965) (52, 1089) (53, 1116) (54, 1243) (55, 745) (56, -465) (57, -727) (58, 476) (59, 1150) (60, -133) (61, 748) (62, 102) (63, -338) (64, -432) (65, -280) (66, 886) (67, -680) (68, -187) (69, -577) (70, 399) (71, 1227) (0, -349) (1, -954) (2, -935) (3, 1070) (4, -696) (5, -177) (6, -905) (7, -988) (8, -1156) (9, 1090) (10, -716) (11, 1106) (12, 913) (13, -598) (14, 670) (15, -624) (16, -186) (17, -32) (18, -759) (19, 1001) (20, -486) (21, 676) (22, -592) (23, 326) (24, -870) (25, -888) (26, 885) (27, 214) (28, -188) (29, 120) (30, 190) (31, 686) (32, 446) (33, 430) (34, 621) (35, 1087) (36, -787) (37, 951) (38, -1116) (39, -725) (40, 1039) (41, -512) (42, -704) (43, 777) (44, 83) (45, -1267) (46, -1163) (47, 1193) (48, 87) (49, -665) (50, 899) (51, 847) (52, 1214) (53, -1053) (54, -79) (55, -862) (56, -600) (57, -389) (58, 566) (59, 487) (60, 980) (61, -519) (62, -103) (63, 63) (64, 1079) (65, -813) (66, -31) (67, -811) (68, -831) (69, 199) (70, -341) (71, -1152) (0, 929) (1, 119) (2, 841) (3, -260) (4, 171) (5, 837) (6, -283) (7, -1041) (8, -1029) (9, -646) (10, 1029) (11, -1118) (12, -319) (13, -254) (14, -817) (15, 351) (16, 569) (17, 967) (18, -443) (19, 272) (20, -816) (21, 690) (22, -805) (23, -891) (24, 1190) (25, 443) (26, -534) (27, -941) (28, -618) (29, 337) (30, -844) (31, -919) (32, -749) (33, 1218) (34, 88) (35, 653) (36, 879) (37, 1044) (38, 832) (39, 1028) (40, -808) (41, 666) (42, 1224) (43, 67) (44, -828) (45, -781) (46, -776) (47, 996) (48, -1031) (49, 6) (50, 20) (51, -576) (52, -558) (53, 435) (54, -290) (55, -572) (56, -333) (57, 448) (58, -293) (59, 286) (60, -430) (61, 101) (62, 604) (63, 9) (64, 53) (65, -565) (66, -574) (67, -322) (68, -775) (69, -938) (70, -427) (71, -327) (0, 1013) (1, -479) (2, 1030) (3, -1030) (4, -11) (5, -967) (6, 1156) (7, 169) (8, 211) (9, -41) (10, 804) (11, 909) (12, -835) (13, -604) (14, -886) (15, 108) (16, 1013) (17, 41) (18, -893) (19, -623) (20, -1121) (21, 992) (22, 616) (23, 182) (24, -818) (25, -1167) (26, 1093) (27, -327) (28, -817) (29, -542) (30, 605) (31, -1066) (32, 194) (33, 324) (34, -927) (35, -1002) (36, 560) (37, -1089) (38, 316) (39, -415) (40, 209) (41, -31) (42, -760) (43, 479) (44, 641) (45, -470) (46, -562) (47, 478) (48, 766) (49, -198) (50, 1009) (51, 841) (52, -405) (53, 374) (54, -250) (55, -71) (56, 442) (57, -404) (58, 893) (59, 818) (60, 192) (61, 235) (62, 961) (63, -779) (64, -638) (65, 1277) (66, -434) (67, 1198) (68, -955) (69, 1146) (70, -543) (71, 352) (0, -86) (1, -169) (2, -221) (3, -718) (4, 531) (5, 451) (6, 896) (7, 8) (8, -1011) (9, 605) (10, -458) (11, -243) (12, -304) (13, 465) (14, 952) (15, -1165) (16, -1142) (17, 648) (18, 850) (19, 226) (20, -454) (21, 561) (22, 692) (23, 138) (24, 556) (25, -1169) (26, -44) (27, 780) (28, 1190) (29, 642) (30, -27) (31, -166) (32, -819) (33, 912) (34, 306) (35, 989) (36, 124) (37, 19) (38, -231) (39, 321) (40, -682) (41, 517) (42, -1150) (43, 248) (44, -186) (45, 1046) (46, 347) (47, -158) (48, 315) (49, 25) (50, -1172) (51, 1116) (52, -697) (53, 709) (54, -84) (55, 1017) (56, 773) (57, 1117) (58, 655) (59, 682) (60, 490) (61, -625) (62, -740) (63, 920) (64, -922) (65, 793) (66, 670) (67, 422) (68, -490) (69, -781) (70, -473) (71, 96) (0, 1007) (1, -365) (2, -918) (3, -379) (4, -542) (5, 686) (6, 719) (7, 1029) (8, -528) (9, 786) (10, 904) (11, 41) (12, 273) (13, -392) (14, -151) (15, -268) (16, -494) (17, -724) (18, -705) (19, -1247) (20, -85) (21, -296) (22, 930) (23, 229) (24, -665) (25, 404) (26, -498) (27, 98) (28, 840) (29, 252) (30, -1084) (31, 652) (32, 1217) (33, -645) (34, -903) (35, -616) (36, -1208) (37, 1039) (38, -782) (39, -521) (40, 614) (41, -1091) (42, 786) (43, -420) (44, -376) (45, -564) (46, 645) (47, 383) (48, 57) (49, 1105) (50, 375) (51, -1192) (52, -328) (53, 88) (54, 285) (55, 204) (56, -710) (57, 1100) (58, -884) (59, -1039) (60, 190) (61, -718) (62, 843) (63, 45) (64, -137) (65, 1226) (66, 691) (67, -118) (68, 1062) (69, 1086) (70, 552) (71, 356) (0, 1097) (1, 208) (2, 1130) (3, -307) (4, 807) (5, 736) (6, 1282) (7, -302) (8, 460) (9, 456) (10, -326) (11, -1017) (12, -691) (13, 1134) (14, 392) (15, -239) (16, 1087) (17, 718) (18, -43) (19, -140) (20, 1129) (21, -494) (22, 1236) (23, -283) (24, -527) (25, 666) (26, 744) (27, -780) (28, 513) (29, 69) (30, 744) (31, 378) (32, -1009) (33, 787) (34, -1231) (35, 972) (36, 84) (37, 1345) (38, -590) (39, -664) (40, 314) (41, 99) (42, -614) (43, 750) (44, 164) (45, 883) (46, -683) (47, 27) (48, 316) (49, 325) (50, 1131) (51, 233) (52, -1263) (53, 1106) (54, 1135) (55, -555) (56, 499) (57, 579) (58, -66) (59, -172) (60, -564) (61, -569) (62, -1020) (63, -121) (64, -1098) (65, -1032) (66, -589) (67, 269) (68, -1074) (69, -94) (70, 796) (71, 594) (0, -1012) (1, -961) (2, 163) (3, 364) (4, -1232) (5, 693) (6, -883) (7, 362) (8, -12) (9, -952) (10, -651) (11, -30) (12, -1069) (13, -744) (14, 655) (15, 713) (16, 1126) (17, -626) (18, -663) (19, -605) (20, 94) (21, -424) (22, 289) (23, 334) (24, -152) (25, 930) (26, -577) (27, 76) (28, -324) (29, -949) (30, -578) (31, -92) (32, -669) (33, 817) (34, -909) (35, -652) (36, 322) (37, -635) (38, 815) (39, -946) (40, -133) (41, -845) (42, 358) (43, 75) (44, -386) (45, -280) (46, -462) (47, -576) (48, 451) (49, 96) (50, 162) (51, -769) (52, 965) (53, -854) (54, 873) (55, -494) (56, -1134) (57, -925) (58, 825) (59, -176) (60, -584) (61, -921) (62, 988) (63, -174) (64, 1072) (65, -1219) (66, 471) (67, 207) (68, -386) (69, 282) (70, 524) (71, 526) (0, 517) (1, -467) (2, -669) (3, -1147) (4, 543) (5, 57) (6, -432) (7, -277) (8, -1072) (9, 931) (10, 252) (11, 1057) (12, -1123) (13, -88) (14, -631) (15, -992) (16, 209) (17, -1109) (18, 32) (19, 784) (20, -783) (21, -260) (22, -536) (23, -988) (24, -235) (25, 1188) (26, 444) (27, 524) (28, 169) (29, -315) (30, -147) (31, -549) (32, 464) (33, 431) (34, -448) (35, -221) (36, -727) (37, 383) (38, 728) (39, -595) (40, 62) (41, -288) (42, -724) (43, 140) (44, 890) (45, -174) (46, 410) (47, -193) (48, 29) (49, -788) (50, -604) (51, 432) (52, 171) (53, 186) (54, 773) (55, 1136) (56, 20) (57, -29) (58, 451) (59, -1030) (60, 894) (61, -917) (62, -332) (63, 112) (64, 717) (65, 430) (66, 1120) (67, -1237) (68, -435) (69, 646) (70, -548) (71, 893) (0, -833) (1, -39) (2, -171) (3, -1171) (4, 998) (5, -982) (6, -83) (7, -127) (8, -541) (9, 558) (10, -907) (11, 872) (12, -584) (13, 1147) (14, 845) (15, 719) (16, -84) (17, 67) (18, 920) (19, -435) (20, 375) (21, -647) (22, 943) (23, -114) (24, 1032) (25, 839) (26, -107) (27, -616) (28, 270) (29, 601) (30, -969) (31, 654) (32, -678) (33, 129) (34, 737) (35, -873) (36, 370) (37, -565) (38, 226) (39, 1022) (40, 1229) (41, 576) (42, 695) (43, -613) (44, 515) (45, 307) (46, -1130) (47, -856) (48, -936) (49, 1028) (50, -36) (51, 589) (52, -887) (53, -296) (54, -674) (55, -1107) (56, -739) (57, 444) (58, -468) (59, 726) (60, -207) (61, -160) (62, 189) (63, 327) (64, 1141) (65, -300) (66, 679) (67, 270) (68, 314) (69, -288) (70, 157) (71, 290) (0, -925) (1, -393) (2, 987) (3, 782) (4, 1110) (5, 1082) (6, 1173) (7, -1065) (8, 824) (9, -160) (10, 848) (11, 1173) (12, 716) (13, -1050) (14, -1114) (15, 1199) (16, 572) (17, -348) (18, 634) (19, -819) (20, 702) (21, -373) (22, 715) (23, 630) (24, 491) (25, 168) (26, -336) (27, -414) (28, 1106) (29, 1052) (30, 1170) (31, -1073) (32, -655) (33, 807) (34, 876) (35, -750) (36, 659) (37, 712) (38, -638) (39, 309) (40, -600) (41, -921) (42, 210) (43, -1160) (44, -760) (45, 402) (46, -1207) (47, 1002) (48, 1188) (49, 592) (50, -1030) (51, 541) (52, -886) (53, 898) (54, 6) (55, 780) (56, -181) (57, 823) (58, -831) (59, -320) (60, 563) (61, -915) (62, -193) (63, 1262) (64, 1160) (65, -564) (66, -743) (67, 584) (68, -969) (69, 0) (70, -372) (71, -436) (0, 191) (1, 983) (2, -289) (3, 572) (4, 25) (5, -310) (6, 374) (7, -90) (8, -779) (9, 525) (10, -760) (11, -499) (12, 178) (13, 399) (14, -923) (15, -1221) (16, -29) (17, -501) (18, -351) (19, -638) (20, -203) (21, 702) (22, -658) (23, -280) (24, -1116) (25, -188) (26, -947) (27, -906) (28, 952) (29, -123) (30, -60) (31, -99) (32, -390) (33, 821) (34, -756) (35, 899) (36, -657) (37, 950) (38, -1131) (39, -227) (40, 156) (41, 98) (42, 545) (43, -818) (44, -749) (45, 916) (46, -877) (47, 482) (48, -815) (49, 24) (50, 1038) (51, 239) (52, -512) (53, -900) (54, 1185) (55, -398) (56, 179) (57, -1008) (58, -67) (59, -76) (60, 98) (61, 1088) (62, 1031) (63, 320) (64, 740) (65, -4497) (66, 630) (67, -1192) (68, 1141) (69, -1015) (70, -169) (71, 107) (0, 306) (1, -815) (2, 454) (3, 792) (4, -1162) (5, 849) (6, 4) (7, -726) (8, -375) (9, -148) (10, 726) (11, 367) (12, 241) (13, 654) (14, 1207) (15, -791) (16, 904) (17, -87) (18, 392) (19, -235) (20, -227) (21, 193) (22, -499) (23, -760) (24, 490) (25, -1101) (26, -720) (27, 400) (28, -872) (29, 368) (30, -743) (31, 660) (32, 747) (33, 927) (34, 206) (35, 831) (36, 518) (37, -1015) (38, -1172) (39, -1086) (40, 50) (41, 788) (42, 489) (43, -971) (44, 282) (45, 495) (46, -431) (47, -84) (48, -863) (49, 1136) (50, 971) (51, 91) (52, 182) (53, -792) (54, 632) (55, -551) (56, -614) (57, 1143) (58, 1078) (59, -290) (60, 195) (61, -912) (62, -860) (63, -223) (64, -1195) (65, 603) (66, -640) (67, 531) (68, 760) (69, -554) (70, 682) (71, -363) (0, -958) (1, -96) (2, -21) (3, 516) (4, -861) (5, 767) (6, -747) (7, -483) (8, 747) (9, -1031) (10, 880) (11, -322) (12, -558) (13, 325) (14, 410) (15, 89) (16, 194) (17, 201) (18, 991) (19, -820) (20, 527) (21, -1080) (22, 169) (23, 523) (24, 701) (25, 717) (26, -193) (27, 271) (28, -1053) (29, -720) (30, 1152) (31, -797) (32, 421) (33, -99) (34, 985) (35, 819) (36, -552) (37, -1044) (38, -903) (39, -1005) (40, -742) (41, -1193) (42, -95) (43, -128) (44, 320) (45, -1051) (46, 1197) (47, -726) (48, 480) (49, 953) (50, -379) (51, -309) (52, 1126) (53, 990) (54, -966) (55, 559) (56, 474) (57, 4) (58, -409) (59, 592) (60, 463) (61, -474) (62, 1066) (63, -339) (64, 656) (65, 814) (66, -715) (67, -1123) (68, 1064) (69, -308) (70, -894) (71, -988) (0, -400) (1, 50) (2, 168) (3, 1006) (4, 408) (5, 34) (6, -991) (7, -493) (8, -146) (9, -125) (10, 461) (11, -358) (12, -390) (13, 747) (14, -1103) (15, -1141) (16, -569) (17, -302) (18, 718) (19, 1144) (20, 482) (21, 489) (22, -464) (23, -125) (24, 58) (25, -9) (26, 25) (27, -141) (28, 806) (29, 279) (30, 111) (31, -814) (32, -751) (33, -903) (34, -888) (35, 853) (36, 455) (37, -477) (38, -743) (39, -1015) (40, 621) (41, 935) (42, -29) (43, -924) (44, 242) (45, 24) (46, -830) (47, 929) (48, -1186) (49, 1046) (50, 732) (51, 550) (52, 389) (53, -799) (54, -701) (55, -769) (56, 255) (57, 584) (58, 289) (59, -150) (60, -292) (61, -812) (62, 273) (63, 21) (64, -564) (65, 588) (66, -317) (67, 1177) (68, -1117) (69, 161) (70, -985) (71, 777) (0, -189) (1, 319) (2, 1064) (3, -1123) (4, -725) (5, -962) (6, 1025) (7, -633) (8, -1118) (9, 547) (10, 1180) (11, 513) (12, 837) (13, -743) (14, 959) (15, -178) (16, 1117) (17, 40) (18, 960) (19, -484) (20, 440) (21, 9) (22, 892) (23, 1186) (24, -555) (25, -605) (26, 1123) (27, -447) (28, 807) (29, -1066) (30, -922) (31, -632) (32, 431) (33, -1110) (34, -548) (35, 956) (36, -868) (37, -792) (38, -932) (39, -772) (40, 960) (41, -1013) (42, 962) (43, 596) (44, -473) (45, 731) (46, -809) (47, -673) (48, -574) (49, -1076) (50, 154) (51, 1013) (52, 192) (53, -217) (54, 987) (55, 807) (56, 424) (57, 883) (58, -781) (59, -26) (60, 1058) (61, -491) (62, 553) (63, 353) (64, -341) (65, -1208) (66, -11) (67, -11) (68, -777) (69, 284) (70, 476) (71, -1000) (0, 574) (1, 208) (2, 833) (3, -1219) (4, -309) (5, -1257) (6, -584) (7, 334) (8, -1012) (9, 809) (10, 224) (11, 397) (12, -622) (13, -5) (14, 4) (15, 1036) (16, -336) (17, 456) (18, -190) (19, -457) (20, -1207) (21, -850) (22, 1036) (23, -322) (24, -807) (25, -164) (26, 972) (27, -331) (28, -1093) (29, 220) (30, -76) (31, 720) (32, -777) (33, -522) (34, 792) (35, 152) (36, -471) (37, -1039) (38, -836) (39, -249) (40, 1157) (41, 752) (42, -1016) (43, -700) (44, -445) (45, 228) (46, -795) (47, 525) (48, -409) (49, 282) (50, -1184) (51, -270) (52, 590) (53, 1000) (54, 625) (55, 1021) (56, -314) (57, 384) (58, -503) (59, -120) (60, -567) (61, 655) (62, -671) (63, -163) (64, -1045) (65, -1092) (66, 1234) (67, -332) (68, -847) (69, -748) (70, 617) (71, -1008) (0, -1227) (1, 774) (2, -431) (3, -478) (4, -162) (5, -55) (6, 1217) (7, 682) (8, -1060) (9, -1227) (10, -878) (11, 779) (12, 1086) (13, 994) (14, 580) (15, -465) (16, 183) (17, -1181) (18, 617) (19, 744) (20, 686) (21, 1146) (22, -616) (23, 797) (24, -1213) (25, -638) (26, -780) (27, -845) (28, -120) (29, 1081) (30, -588) (31, -125) (32, 664) (33, 224) (34, 644) (35, -706) (36, -1052) (37, 778) (38, 1326) (39, -953) (40, 613) (41, -900) (42, 1104) (43, 431) (44, -1108) (45, 475) (46, -1228) (47, 258) (48, 536) (49, 679) (50, -219) (51, 3) (52, 557) (53, 440) (54, -416) (55, 562) (56, 957) (57, 7) (58, 920) (59, -422) (60, -139) (61, -872) (62, 714) (63, -604) (64, 587) (65, 122) (66, -167) (67, 772) (68, -478) (69, -175) (70, 1134) (71, -979) (0, 275) (1, 1096) (2, 763) (3, 430) (4, 340) (5, 786) (6, -509) (7, -321) (8, 221) (9, 499) (10, 944) (11, -439) (12, -322) (13, -664) (14, -1002) (15, -517) (16, 596) (17, 1236) (18, 277) (19, -665) (20, -831) (21, -127) (22, -113) (23, 1039) (24, 1224) (25, 996) (26, 576) (27, -439) (28, -338) (29, 544) (30, -182) (31, 1137) (32, 312) (33, -764) (34, 251) (35, -541) (36, -1178) (37, 819) (38, 268) (39, 311) (40, 221) (41, 162) (42, 1124) (43, 1153) (44, 720) (45, -1087) (46, -659) (47, 98) (48, 1243) (49, 922) (50, 663) (51, -892) (52, -516) (53, -833) (54, -1096) (55, -652) (56, -954) (57, 697) (58, 253) (59, -57) (60, -15) (61, -1168) (62, -187) (63, -983) (64, -631) (65, -1157) (66, -151) (67, -614) (68, 988) (69, -1076) (70, 897) (71, -151) (0, 248) (1, 697) (2, -223) (3, -312) (4, 730) (5, 407) (6, 971) (7, 699) (8, -102) (9, 336) (10, 1042) (11, 631) (12, 833) (13, 1157) (14, -1105) (15, 1125) (16, 650) (17, 343) (18, -261) (19, -691) (20, 336) (21, 783) (22, -365) (23, 847) (24, 770) (25, 571) (26, -1103) (27, 477) (28, 740) (29, 1024) (30, -828) (31, -285) (32, 418) (33, 115) (34, 579) (35, -67) (36, -811) (37, 47) (38, -940) (39, 407) (40, -574) (41, -775) (42, -308) (43, -1015) (44, -800) (45, -318) (46, -1087) (47, 927) (48, 1156) (49, -174) (50, -915) (51, 149) (52, -596) (53, -328) (54, -234) (55, -1147) (56, -818) (57, -143) (58, 650) (59, 1100) (60, -396) (61, 1032) (62, -406) (63, -1115) (64, -87) (65, -1070) (66, 44) (67, 371) (68, 438) (69, 662) (70, -530) (71, 954) (0, 1058) (1, 360) (2, -1219) (3, -977) (4, 1259) (5, -1037) (6, 1210) (7, 1158) (8, -59) (9, -1062) (10, 111) (11, 597) (12, -6) (13, 999) (14, 722) (15, 291) (16, -366) (17, 87) (18, 191) (19, 464) (20, -141) (21, 935) (22, 504) (23, 987) (24, 1086) (25, -737) (26, 80) (27, 268) (28, 1084) (29, 710) (30, 68) (31, 935) (32, -196) (33, 105) (34, 1137) (35, -229) (36, 199) (37, 843) (38, -577) (39, -1004) (40, 1215) (41, 992) (42, 721) (43, -141) (44, 774) (45, 208) (46, -970) (47, -817) (48, -1033) (49, 313) (50, 950) (51, 58) (52, 180) (53, 89) (54, -208) (55, 10) (56, 733) (57, 1128) (58, -935) (59, 555) (60, 569) (61, 363) (62, 313) (63, -860) (64, -764) (65, 217) (66, 174) (67, 629) (68, -6) (69, 1071) (70, 808) (71, -143) (0, 806) (1, 194) (2, 1070) (3, 248) (4, -867) (5, -1268) (6, 677) (7, -728) (8, 424) (9, 318) (10, 570) (11, -729) (12, -722) (13, -905) (14, 479) (15, 1233) (16, -1061) (17, 735) (18, 505) (19, 784) (20, -132) (21, -403) (22, 1142) (23, 294) (24, 971) (25, 64) (26, -300) (27, -279) (28, -131) (29, -786) (30, 900) (31, -551) (32, 643) (33, 628) (34, 939) (35, 1021) (36, 683) (37, 461) (38, -883) (39, -220) (40, -422) (41, 944) (42, 435) (43, 75) (44, 1208) (45, -290) (46, 106) (47, -976) (48, -727) (49, -592) (50, 944) (51, 405) (52, 177) (53, 819) (54, -582) (55, -67) (56, -315) (57, 367) (58, 889) (59, 826) (60, 925) (61, 544) (62, -949) (63, 230) (64, -177) (65, 1081) (66, 30) (67, -605) (68, 366) (69, 412) (70, 515) (71, 1156) (0, 109) (1, -323) (2, 15) (3, 135) (4, 641) (5, -1084) (6, 306) (7, 1117) (8, -586) (9, 28) (10, 292) (11, 864) (12, -321) (13, 1008) (14, -369) (15, 649) (16, 164) (17, -716) (18, 200) (19, -202) (20, 964) (21, 517) (22, -1131) (23, -326) (24, 445) (25, 156) (26, 196) (27, -427) (28, -610) (29, -482) (30, -480) (31, 678) (32, 308) (33, 648) (34, -527) (35, -260) (36, 727) (37, 973) (38, -415) (39, -991) (40, -245) (41, 1179) (42, 965) (43, 764) (44, 980) (45, -687) (46, -20) (47, -286) (48, -305) (49, -1052) (50, 868) (51, -810) (52, 795) (53, 735) (54, 102) (55, -47) (56, -238) (57, -1024) (58, 744) (59, 276) (60, -407) (61, -954) (62, -251) (63, -1209) (64, 945) (65, 480) (66, -170) (67, 457) (68, 195) (69, 684) (70, 643) (71, 1110) (0, 571) (1, 340) (2, 583) (3, 196) (4, 774) (5, -570) (6, -1204) (7, -818) (8, -304) (9, 808) (10, -344) (11, -739) (12, 449) (13, 994) (14, 464) (15, -942) (16, 1209) (17, 71) (18, 578) (19, -305) (20, 334) (21, -878) (22, -275) (23, 98) (24, 778) (25, 743) (26, -671) (27, -255) (28, 159) (29, 1166) (30, -327) (31, -496) (32, 281) (33, -958) (34, 985) (35, -158) (36, -325) (37, 1021) (38, 451) (39, 578) (40, 670) (41, 1235) (42, 1086) (43, -15) (44, 824) (45, 323) (46, 132) (47, 1005) (48, -859) (49, -469) (50, -740) (51, 776) (52, -261) (53, 323) (54, -368) (55, -687) (56, -267) (57, 143) (58, 285) (59, 1203) (60, 184) (61, 1229) (62, -558) (63, -897) (64, -879) (65, -681) (66, 222) (67, -71) (68, -919) (69, -729) (70, -785) (71, 871) (0, -899) (1, -874) (2, -579) (3, -1228) (4, 685) (5, 772) (6, 865) (7, 1056) (8, -1078) (9, -1067) (10, 544) (11, -88) (12, 423) (13, -1160) (14, 390) (15, -1093) (16, 227) (17, -619) (18, -1113) (19, -951) (20, -682) (21, -498) (22, -590) (23, -500) (24, -45) (25, 847) (26, 628) (27, 166) (28, -1218) (29, 1067) (30, -255) (31, -840) (32, -1013) (33, 478) (34, -811) (35, 841) (36, -32) (37, -1182) (38, 531) (39, 129) (40, -1036) (41, -106) (42, -1225) (43, 561) (44, -21) (45, 429) (46, 797) (47, -969) (48, 1025) (49, 782) (50, -708) (51, -850) (52, -882) (53, 4) (54, -113) (55, 363) (56, -431) (57, -683) (58, -707) (59, -374) (60, -807) (61, 284) (62, 21) (63, -604) (64, -566) (65, 380) (66, -1069) (67, 679) (68, 492) (69, 811) (70, -436) (71, 706) (0, -479) (1, -356) (2, 73) (3, 761) (4, -1225) (5, -380) (6, 985) (7, 1092) (8, -755) (9, -956) (10, -1009) (11, -355) (12, 227) (13, 123) (14, 1253) (15, 984) (16, 681) (17, -705) (18, -596) (19, 1076) (20, 805) (21, 659) (22, -775) (23, -926) (24, -95) (25, -570) (26, 1000) (27, -816) (28, -958) (29, -624) (30, 1113) (31, -206) (32, 214) (33, -42) (34, -682) (35, 235) (36, 802) (37, -875) (38, 281) (39, -1175) (40, -645) (41, 343) (42, -329) (43, 893) (44, -850) (45, -355) (46, 604) (47, 1122) (48, 174) (49, 1301) (50, 902) (51, -239) (52, 612) (53, -974) (54, 64) (55, -666) (56, -408) (57, -204) (58, -240) (59, -97) (60, 444) (61, -361) (62, 877) (63, -556) (64, 889) (65, -930) (66, 893) (67, 413) (68, -645) (69, -288) (70, 395) (71, -104) (0, 1226) (1, -1133) (2, -576) (3, -773) (4, -222) (5, 1212) (6, -822) (7, 1185) (8, 1191) (9, 1249) (10, -315) (11, 600) (12, -1003) (13, 974) (14, 1254) (15, -218) (16, -472) (17, -275) (18, 848) (19, 1157) (20, 571) (21, 548) (22, -707) (23, 126) (24, 745) (25, -1116) (26, -771) (27, -1207) (28, -181) (29, 926) (30, -106) (31, -211) (32, 975) (33, 505) (34, 181) (35, -458) (36, 502) (37, 296) (38, -695) (39, 568) (40, 493) (41, 395) (42, -122) (43, 657) (44, 204) (45, -174) (46, -838) (47, 838) (48, 668) (49, -1207) (50, 871) (51, -68) (52, 579) (53, -1084) (54, -1172) (55, 86) (56, -919) (57, -653) (58, 171) (59, 72) (60, -1074) (61, 1205) (62, 1049) (63, 1292) (64, 528) (65, 55) (66, -454) (67, -215) (68, -806) (69, 198) (70, -977) (71, 814) (0, -623) (1, 49) (2, 250) (3, 791) (4, 1057) (5, 648) (6, 495) (7, 466) (8, 629) (9, 35) (10, -813) (11, -57) (12, 143) (13, -777) (14, 1271) (15, 335) (16, -320) (17, 93) (18, -909) (19, -166) (20, 39) (21, -1125) (22, -288) (23, -731) (24, 58) (25, 383) (26, 224) (27, 475) (28, -685) (29, 423) (30, 109) (31, -66) (32, -774) (33, -871) (34, -530) (35, -978) (36, 986) (37, 1080) (38, 577) (39, 418) (40, -66) (41, 1129) (42, -910) (43, -1155) (44, -926) (45, -894) (46, 383) (47, -41) (48, 337) (49, 751) (50, 1037) (51, -889) (52, 785) (53, -449) (54, -368) (55, -321) (56, 1135) (57, 1050) (58, -1152) (59, -773) (60, 242) (61, 191) (62, 385) (63, 783) (64, 549) (65, 1077) (66, 959) (67, 309) (68, 999) (69, 429) (70, -543) (71, -294) (0, 338) (1, -213) (2, -221) (3, 673) (4, -1) (5, -1028) (6, -574) (7, -835) (8, 806) (9, -811) (10, -525) (11, 395) (12, -61) (13, 328) (14, 1352) (15, -134) (16, 154) (17, -1079) (18, 237) (19, -832) (20, 347) (21, -534) (22, 1104) (23, -356) (24, -720) (25, 807) (26, 1120) (27, -947) (28, 37) (29, -602) (30, 20) (31, -892) (32, 315) (33, 945) (34, 924) (35, -831) (36, 1089) (37, -1069) (38, -530) (39, 765) (40, -522) (41, 305) (42, -202) (43, 752) (44, -532) (45, -168) (46, -760) (47, 683) (48, -132) (49, 668) (50, 1244) (51, -1097) (52, -1113) (53, 991) (54, -274) (55, -565) (56, 722) (57, -450) (58, -290) (59, -523) (60, 128) (61, 930) (62, -296) (63, -692) (64, 732) (65, -523) (66, -286) (67, 581) (68, -258) (69, 438) (70, -34) (71, 322) (0, -537) (1, 956) (2, -282) (3, 208) (4, -513) (5, 259) (6, -250) (7, 527) (8, -392) (9, -288) (10, 598) (11, -217) (12, -488) (13, -1075) (14, 352) (15, -1141) (16, -220) (17, -1190) (18, -493) (19, 1020) (20, 908) (21, 405) (22, -955) (23, 324) (24, 1044) (25, -127) (26, -418) (27, -513) (28, -939) (29, 743) (30, 1070) (31, -256) (32, 470) (33, -370) (34, 1138) (35, 1142) (36, 998) (37, -336) (38, 331) (39, -584) (40, 489) (41, -327) (42, 322) (43, 1211) (44, 43) (45, -584) (46, -1210) (47, 979) (48, -552) (49, -472) (50, 787) (51, -876) (52, 1237) (53, 1011) (54, 682) (55, 952) (56, -344) (57, -989) (58, -750) (59, -98) (60, 922) (61, -887) (62, 936) (63, 200) (64, -137) (65, 832) (66, 201) (67, -241) (68, -809) (69, -730) (70, 358) (71, 908) (0, 331) (1, -629) (2, 970) (3, -1056) (4, 72) (5, 890) (6, 1167) (7, 710) (8, -690) (9, 619) (10, 1083) (11, -806) (12, 433) (13, 627) (14, -958) (15, -1096) (16, 832) (17, -571) (18, -18) (19, 626) (20, -73) (21, -229) (22, -431) (23, 1065) (24, -672) (25, 875) (26, -395) (27, -227) (28, -1042) (29, 1207) (30, -461) (31, 502) (32, -675) (33, -874) (34, 695) (35, 700) (36, -1069) (37, 620) (38, 267) (39, -554) (40, 92) (41, 124) (42, -19) (43, -610) (44, -478) (45, 128) (46, -660) (47, -936) (48, 1064) (49, 585) (50, 840) (51, -285) (52, -821) (53, -889) (54, -424) (55, -327) (56, 1229) (57, 423) (58, 725) (59, -1075) (60, 356) (61, -992) (62, 634) (63, 885) (64, -578) (65, 78) (66, 449) (67, -456) (68, -567) (69, -577) (70, 262) (71, 743) (0, 741) (1, -1015) (2, -1218) (3, -1055) (4, 471) (5, -630) (6, -846) (7, 294) (8, -1126) (9, -1186) (10, 1215) (11, -760) (12, -868) (13, -447) (14, 24) (15, -875) (16, 1217) (17, -365) (18, -646) (19, 317) (20, -191) (21, 1117) (22, 62) (23, 501) (24, -5) (25, -713) (26, -1111) (27, 689) (28, -70) (29, 341) (30, 179) (31, -536) (32, 669) (33, 331) (34, -262) (35, -123) (36, 971) (37, 284) (38, -1061) (39, 1043) (40, 259) (41, -1144) (42, -897) (43, 618) (44, -271) (45, 509) (46, 1056) (47, -245) (48, -983) (49, -845) (50, -1199) (51, 229) (52, -953) (53, 104) (54, -463) (55, 277) (56, 607) (57, -331) (58, -265) (59, -586) (60, -1130) (61, 1191) (62, 122) (63, 601) (64, 205) (65, 1016) (66, -697) (67, -27) (68, 22) (69, -499) (70, -191) (71, -880) (0, -294) (1, 83) (2, 1051) (3, 512) (4, -522) (5, 679) (6, -965) (7, -271) (8, 1179) (9, -934) (10, -1243) (11, -1116) (12, 463) (13, -355) (14, 366) (15, -88) (16, 529) (17, -1078) (18, 505) (19, 643) (20, -1134) (21, -553) (22, 87) (23, 364) (24, -703) (25, 640) (26, -898) (27, 610) (28, -1046) (29, 166) (30, 995) (31, -142) (32, -958) (33, 676) (34, -807) (35, -174) (36, 308) (37, -421) (38, 901) (39, 161) (40, -153) (41, 890) (42, 413) (43, -983) (44, -814) (45, -380) (46, 301) (47, 896) (48, -174) (49, -365) (50, 276) (51, -76) (52, 268) (53, -788) (54, -877) (55, 960) (56, 994) (57, -506) (58, 211) (59, 1119) (60, 856) (61, -94) (62, -270) (63, 1071) (64, -588) (65, 192) (66, -237) (67, 935) (68, 891) (69, -619) (70, -51) (71, -338) (0, -872) (1, -766) (2, 52) (3, -467) (4, 206) (5, -866) (6, -696) (7, -1163) (8, 12) (9, 854) (10, 147) (11, -904) (12, -1191) (13, 558) (14, 1180) (15, 1124) (16, -1255) (17, 220) (18, 1038) (19, 998) (20, -1062) (21, -348) (22, 923) (23, -366) (24, 1063) (25, -450) (26, -633) (27, 781) (28, 232) (29, 627) (30, -794) (31, 588) (32, 1027) (33, 371) (34, -1127) (35, 11) (36, 762) (37, -620) (38, -53) (39, -443) (40, -953) (41, -1061) (42, -121) (43, -871) (44, 823) (45, -254) (46, -1009) (47, 811) (48, -1147) (49, -1215) (50, 643) (51, -1090) (52, -315) (53, 256) (54, -237) (55, -465) (56, 1145) (57, 441) (58, -915) (59, 86) (60, -245) (61, -501) (62, -578) (63, -399) (64, 1047) (65, -534) (66, 808) (67, 582) (68, 99) (69, -247) (70, -997) (71, 425) (0, 6) (1, 104) (2, 871) (3, -451) (4, 1191) (5, 1170) (6, -809) (7, 1210) (8, 1152) (9, 959) (10, -1014) (11, -339) (12, 69) (13, 43) (14, 498) (15, -40) (16, -696) (17, 871) (18, -1230) (19, 279) (20, -941) (21, -503) (22, 1180) (23, -1011) (24, 223) (25, 759) (26, 795) (27, -827) (28, -715) (29, 1025) (30, 917) (31, 501) (32, -197) (33, 440) (34, 1210) (35, -233) (36, 313) (37, -795) (38, -233) (39, 264) (40, -1188) (41, -25) (42, 1054) (43, 70) (44, 1150) (45, 387) (46, -1188) (47, -756) (48, -297) (49, -1245) (50, 663) (51, 10) (52, -470) (53, 468) (54, 45) (55, 1014) (56, 90) (57, -376) (58, -1011) (59, 576) (60, -642) (61, 1032) (62, -209) (63, 560) (64, 284) (65, -253) (66, -1062) (67, -668) (68, 108) (69, -56) (70, 816) (71, 250) (0, 1143) (1, 757) (2, -919) (3, 1210) (4, -260) (5, -783) (6, -827) (7, 723) (8, -758) (9, 1093) (10, -560) (11, 81) (12, 436) (13, 673) (14, -141) (15, -751) (16, -910) (17, 44) (18, 1119) (19, -289) (20, -144) (21, -321) (22, -1048) (23, -1067) (24, 739) (25, -786) (26, -450) (27, -346) (28, 409) (29, -840) (30, 1081) (31, 338) (32, 1122) (33, -1015) (34, 266) (35, -415) (36, -650) (37, 633) (38, -952) (39, -143) (40, 427) (41, -358) (42, 1069) (43, -382) (44, -883) (45, -280) (46, 116) (47, -525) (48, 917) (49, 24) (50, 466) (51, -451) (52, 874) (53, 694) (54, -276) (55, 397) (56, 1111) (57, 461) (58, -1217) (59, 300) (60, 844) (61, 1129) (62, -559) (63, 767) (64, -1157) (65, 922) (66, -920) (67, -554) (68, 319) (69, -632) (70, 522) (71, -463) (0, 254) (1, 266) (2, 336) (3, 570) (4, -1221) (5, -962) (6, -1157) (7, 930) (8, 389) (9, 572) (10, -755) (11, -44) (12, 23) (13, 257) (14, -935) (15, -16) (16, -578) (17, -824) (18, -952) (19, -886) (20, -926) (21, -268) (22, 1051) (23, -779) (24, -570) (25, -1066) (26, -50) (27, 991) (28, -476) (29, -765) (30, -732) (31, 1015) (32, 868) (33, 864) (34, 437) (35, 925) (36, -1177) (37, 614) (38, 844) (39, 331) (40, -73) (41, 1134) (42, -787) (43, -1162) (44, 192) (45, -432) (46, -105) (47, 889) (48, 136) (49, 269) (50, 1187) (51, 499) (52, 1155) (53, 894) (54, 986) (55, -544) (56, 1271) (57, -186) (58, -811) (59, -470) (60, 248) (61, -411) (62, -729) (63, -107) (64, -540) (65, 1100) (66, -336) (67, -569) (68, 378) (69, -992) (70, 978) (71, -919) (0, -1021) (1, -940) (2, -956) (3, 444) (4, -41) (5, 294) (6, 82) (7, -1093) (8, -741) (9, 88) (10, 681) (11, -758) (12, -94) (13, 468) (14, -181) (15, -148) (16, -977) (17, 212) (18, 667) (19, 484) (20, 1066) (21, 1164) (22, -866) (23, -886) (24, 947) (25, -62) (26, -326) (27, 45) (28, 175) (29, -573) (30, 305) (31, 399) (32, -281) (33, 635) (34, -388) (35, 883) (36, -357) (37, 982) (38, 1106) (39, 123) (40, -240) (41, 445) (42, 553) (43, 930) (44, -371) (45, -708) (46, -448) (47, -46) (48, 563) (49, -987) (50, -848) (51, 496) (52, -1085) (53, -379) (54, 772) (55, 1125) (56, 725) (57, -754) (58, -82) (59, -320) (60, -80) (61, -997) (62, -1146) (63, 897) (64, 884) (65, -255) (66, 522) (67, -708) (68, -563) (69, 251) (70, 593) (71, 457) (0, -547) (1, -25) (2, 68) (3, 398) (4, 389) (5, 879) (6, -940) (7, -215) (8, 1086) (9, -486) (10, -994) (11, -1197) (12, 294) (13, 1042) (14, 1162) (15, -221) (16, -915) (17, -129) (18, 735) (19, 221) (20, 88) (21, 811) (22, -131) (23, -270) (24, -685) (25, -856) (26, 224) (27, -42) (28, 652) (29, -347) (30, -871) (31, -1132) (32, 881) (33, 475) (34, 492) (35, 43) (36, 104) (37, 799) (38, 1009) (39, -11) (40, -966) (41, -1217) (42, 