FANN_FLO_2.1
num_layers=6
learning_rate=0.500000
connection_rate=1.000000
network_type=0
learning_momentum=0.000000
training_algorithm=3
train_error_function=1
train_stop_function=0
cascade_output_change_fraction=0.010000
quickprop_decay=-0.000100
quickprop_mu=1.750000
rprop_increase_factor=1.200000
rprop_decrease_factor=0.500000
rprop_delta_min=0.000000
rprop_delta_max=50.000000
rprop_delta_zero=0.100000
cascade_output_stagnation_epochs=12
cascade_candidate_change_fraction=0.010000
cascade_candidate_stagnation_epochs=12
cascade_max_out_epochs=150
cascade_min_out_epochs=50
cascade_max_cand_epochs=150
cascade_min_cand_epochs=50
cascade_num_candidate_groups=2
bit_fail_limit=3.49999994039535522461e-01
cascade_candidate_limit=1.00000000000000000000e+03
cascade_weight_multiplier=4.00000005960464477539e-01
cascade_activation_functions_count=10
cascade_activation_functions=3 5 7 8 10 11 14 15 16 17 
cascade_activation_steepnesses_count=4
cascade_activation_steepnesses=2.50000000000000000000e-01 5.00000000000000000000e-01 7.50000000000000000000e-01 1.00000000000000000000e+00 
layer_sizes=84 501 129 65 13 2 
scale_included=0
neurons (num_inputs, activation_function, activation_steepness)=(0, 0, 0.00000000000000000000e+00) (0, 0, 0.00000000000000000000e+00) (0, 0, 0.00000000000000000000e+00) (0, 0, 0.00000000000000000000e+00) (0, 0, 0.00000000000000000000e+00) (0, 0, 0.00000000000000000000e+00) (0, 0, 0.00000000000000000000e+00) (0, 0, 0.00000000000000000000e+00) (0, 0, 0.00000000000000000000e+00) (0, 0, 0.00000000000000000000e+00) (0, 0, 0.00000000000000000000e+00) (0, 0, 0.00000000000000000000e+00) (0, 0, 0.00000000000000000000e+00) (0, 0, 0.00000000000000000000e+00) (0, 0, 0.00000000000000000000e+00) (0, 0, 0.00000000000000000000e+00) (0, 0, 0.00000000000000000000e+00) (0, 0, 0.00000000000000000000e+00) (0, 0, 0.00000000000000000000e+00) (0, 0, 0.00000000000000000000e+00) (0, 0, 0.00000000000000000000e+00) (0, 0, 0.00000000000000000000e+00) (0, 0, 0.00000000000000000000e+00) (0, 0, 0.00000000000000000000e+00) (0, 0, 0.00000000000000000000e+00) (0, 0, 0.00000000000000000000e+00) (0, 0, 0.00000000000000000000e+00) (0, 0, 0.00000000000000000000e+00) (0, 0, 0.00000000000000000000e+00) (0, 0, 0.00000000000000000000e+00) (0, 0, 0.00000000000000000000e+00) (0, 0, 0.00000000000000000000e+00) (0, 0, 0.00000000000000000000e+00) (0, 0, 0.00000000000000000000e+00) (0, 0, 0.00000000000000000000e+00) (0, 0, 0.00000000000000000000e+00) (0, 0, 0.00000000000000000000e+00) (0, 0, 0.00000000000000000000e+00) (0, 0, 0.00000000000000000000e+00) (0, 0, 0.00000000000000000000e+00) (0, 0, 0.00000000000000000000e+00) (0, 0, 0.00000000000000000000e+00) (0, 0, 0.00000000000000000000e+00) (0, 0, 0.00000000000000000000e+00) (0, 0, 0.00000000000000000000e+00) (0, 0, 0.00000000000000000000e+00) (0, 0, 0.00000000000000000000e+00) (0, 0, 0.00000000000000000000e+00) (0, 0, 0.00000000000000000000e+00) (0, 0, 0.00000000000000000000e+00) (0, 0, 0.00000000000000000000e+00) (0, 0, 0.00000000000000000000e+00) (0, 0, 0.00000000000000000000e+00) (0, 0, 0.00000000000000000000e+00) (0, 0, 0.00000000000000000000e+00) (0, 0, 0.00000000000000000000e+00) (0, 0, 0.00000000000000000000e+00) (0, 0, 0.00000000000000000000e+00) (0, 0, 0.00000000000000000000e+00) (0, 0, 0.00000000000000000000e+00) (0, 0, 0.00000000000000000000e+00) (0, 0, 0.00000000000000000000e+00) (0, 0, 0.00000000000000000000e+00) (0, 0, 0.00000000000000000000e+00) (0, 0, 0.00000000000000000000e+00) (0, 0, 0.00000000000000000000e+00) (0, 0, 0.00000000000000000000e+00) (0, 0, 0.00000000000000000000e+00) (0, 0, 0.00000000000000000000e+00) (0, 0, 0.00000000000000000000e+00) (0, 0, 0.00000000000000000000e+00) (0, 0, 0.00000000000000000000e+00) (0, 0, 0.00000000000000000000e+00) (0, 0, 0.00000000000000000000e+00) (0, 0, 0.00000000000000000000e+00) (0, 0, 0.00000000000000000000e+00) (0, 0, 0.00000000000000000000e+00) (0, 0, 0.00000000000000000000e+00) (0, 0, 0.00000000000000000000e+00) (0, 0, 0.00000000000000000000e+00) (0, 0, 0.00000000000000000000e+00) (0, 0, 0.00000000000000000000e+00) (0, 0, 0.00000000000000000000e+00) (0, 0, 0.00000000000000000000e+00) (84, 5, 1.00000000000000000000e+00) (84, 5, 1.00000000000000000000e+00) (84, 5, 1.00000000000000000000e+00) (84, 5, 1.00000000000000000000e+00) (84, 5, 1.00000000000000000000e+00) (84, 5, 1.00000000000000000000e+00) (84, 5, 1.00000000000000000000e+00) (84, 5, 1.00000000000000000000e+00) (84, 5, 1.00000000000000000000e+00) (84, 5, 1.00000000000000000000e+00) (84, 5, 1.00000000000000000000e+00) (84, 5, 1.00000000000000000000e+00) (84, 5, 1.00000000000000000000e+00) (84, 5, 1.00000000000000000000e+00) (84, 5, 1.00000000000000000000e+00) (84, 5, 1.00000000000000000000e+00) (84, 5, 1.00000000000000000000e+00) (84, 5, 1.00000000000000000000e+00) (84, 5, 1.00000000000000000000e+00) (84, 5, 1.00000000000000000000e+00) (84, 5, 1.00000000000000000000e+00) (84, 5, 1.00000000000000000000e+00) (84, 5, 1.00000000000000000000e+00) (84, 5, 1.00000000000000000000e+00) (84, 5, 1.00000000000000000000e+00) (84, 5, 1.00000000000000000000e+00) (84, 5, 1.00000000000000000000e+00) (84, 5, 1.00000000000000000000e+00) (84, 5, 1.00000000000000000000e+00) (84, 5, 1.00000000000000000000e+00) (84, 5, 1.00000000000000000000e+00) (84, 5, 1.00000000000000000000e+00) (84, 5, 1.00000000000000000000e+00) (84, 5, 1.00000000000000000000e+00) (84, 5, 1.00000000000000000000e+00) (84, 5, 1.00000000000000000000e+00) (84, 5, 1.00000000000000000000e+00) (84, 5, 1.00000000000000000000e+00) (84, 5, 1.00000000000000000000e+00) (84, 5, 1.00000000000000000000e+00) (84, 5, 1.00000000000000000000e+00) (84, 5, 1.00000000000000000000e+00) (84, 5, 1.00000000000000000000e+00) (84, 5, 1.00000000000000000000e+00) (84, 5, 1.00000000000000000000e+00) (84, 5, 1.00000000000000000000e+00) (84, 5, 1.00000000000000000000e+00) (84, 5, 1.00000000000000000000e+00) (84, 5, 1.00000000000000000000e+00) (84, 5, 1.00000000000000000000e+00) (84, 5, 1.00000000000000000000e+00) (84, 5, 1.00000000000000000000e+00) (84, 5, 1.00000000000000000000e+00) (84, 5, 1.00000000000000000000e+00) (84, 5, 1.00000000000000000000e+00) (84, 5, 1.00000000000000000000e+00) (84, 5, 1.00000000000000000000e+00) (84, 5, 1.00000000000000000000e+00) (84, 5, 1.00000000000000000000e+00) (84, 5, 1.00000000000000000000e+00) (84, 5, 1.00000000000000000000e+00) (84, 5, 1.00000000000000000000e+00) (84, 5, 1.00000000000000000000e+00) (84, 5, 1.00000000000000000000e+00) (84, 5, 1.00000000000000000000e+00) (84, 5, 1.00000000000000000000e+00) (84, 5, 1.00000000000000000000e+00) (84, 5, 1.00000000000000000000e+00) (84, 5, 1.00000000000000000000e+00) (84, 5, 1.00000000000000000000e+00) (84, 5, 1.00000000000000000000e+00) (84, 5, 1.00000000000000000000e+00) (84, 5, 1.00000000000000000000e+00) (84, 5, 1.00000000000000000000e+00) (84, 5, 1.00000000000000000000e+00) (84, 5, 1.00000000000000000000e+00) (84, 5, 1.00000000000000000000e+00) (84, 5, 1.00000000000000000000e+00) (84, 5, 1.00000000000000000000e+00) (84, 5, 1.00000000000000000000e+00) (84, 5, 1.00000000000000000000e+00) (84, 5, 1.00000000000000000000e+00) (84, 5, 1.00000000000000000000e+00) (84, 5, 1.00000000000000000000e+00) (84, 5, 1.00000000000000000000e+00) (84, 5, 1.00000000000000000000e+00) (84, 5, 1.00000000000000000000e+00) (84, 5, 1.00000000000000000000e+00) (84, 5, 1.00000000000000000000e+00) (84, 5, 1.00000000000000000000e+00) (84, 5, 1.00000000000000000000e+00) (84, 5, 1.00000000000000000000e+00) (84, 5, 1.00000000000000000000e+00) (84, 5, 1.00000000000000000000e+00) (84, 5, 1.00000000000000000000e+00) (84, 5, 1.00000000000000000000e+00) (84, 5, 1.00000000000000000000e+00) (84, 5, 1.00000000000000000000e+00) (84, 5, 1.00000000000000000000e+00) (84, 5, 1.00000000000000000000e+00) (84, 5, 1.00000000000000000000e+00) (84, 5, 1.00000000000000000000e+00) (84, 5, 1.00000000000000000000e+00) (84, 5, 1.00000000000000000000e+00) (84, 5, 1.00000000000000000000e+00) (84, 5, 1.00000000000000000000e+00) (84, 5, 1.00000000000000000000e+00) (84, 5, 1.00000000000000000000e+00) (84, 5, 1.00000000000000000000e+00) (84, 5, 1.00000000000000000000e+00) (84, 5, 1.00000000000000000000e+00) (84, 5, 1.00000000000000000000e+00) (84, 5, 1.00000000000000000000e+00) (84, 5, 1.00000000000000000000e+00) (84, 5, 1.00000000000000000000e+00) (84, 5, 1.00000000000000000000e+00) (84, 5, 1.00000000000000000000e+00) (84, 5, 1.00000000000000000000e+00) (84, 5, 1.00000000000000000000e+00) (84, 5, 1.00000000000000000000e+00) (84, 5, 1.00000000000000000000e+00) (84, 5, 1.00000000000000000000e+00) (84, 5, 1.00000000000000000000e+00) (84, 5, 1.00000000000000000000e+00) (84, 5, 1.00000000000000000000e+00) (84, 5, 1.00000000000000000000e+00) (84, 5, 1.00000000000000000000e+00) (84, 5, 1.00000000000000000000e+00) (84, 5, 1.00000000000000000000e+00) (84, 5, 1.00000000000000000000e+00) (84, 5, 1.00000000000000000000e+00) (84, 5, 1.00000000000000000000e+00) (84, 5, 1.00000000000000000000e+00) (84, 5, 1.00000000000000000000e+00) (84, 5, 1.00000000000000000000e+00) (84, 5, 1.00000000000000000000e+00) (84, 5, 1.00000000000000000000e+00) (84, 5, 1.00000000000000000000e+00) (84, 5, 1.00000000000000000000e+00) (84, 5, 1.00000000000000000000e+00) (84, 5, 1.00000000000000000000e+00) (84, 5, 1.00000000000000000000e+00) (84, 5, 1.00000000000000000000e+00) (84, 5, 1.00000000000000000000e+00) (84, 5, 1.00000000000000000000e+00) (84, 5, 1.00000000000000000000e+00) (84, 5, 1.00000000000000000000e+00) (84, 5, 1.00000000000000000000e+00) (84, 5, 1.00000000000000000000e+00) (84, 5, 1.00000000000000000000e+00) (84, 5, 1.00000000000000000000e+00) (84, 5, 1.00000000000000000000e+00) (84, 5, 1.00000000000000000000e+00) (84, 5, 1.00000000000000000000e+00) (84, 5, 1.00000000000000000000e+00) (84, 5, 1.00000000000000000000e+00) (84, 5, 1.00000000000000000000e+00) (84, 5, 1.00000000000000000000e+00) (84, 5, 1.00000000000000000000e+00) (84, 5, 1.00000000000000000000e+00) (84, 5, 1.00000000000000000000e+00) (84, 5, 1.00000000000000000000e+00) (84, 5, 1.00000000000000000000e+00) (84, 5, 1.00000000000000000000e+00) (84, 5, 1.00000000000000000000e+00) (84, 5, 1.00000000000000000000e+00) (84, 5, 1.00000000000000000000e+00) (84, 5, 1.00000000000000000000e+00) (84, 5, 1.00000000000000000000e+00) (84, 5, 1.00000000000000000000e+00) (84, 5, 1.00000000000000000000e+00) (84, 5, 1.00000000000000000000e+00) (84, 5, 1.00000000000000000000e+00) (84, 5, 1.00000000000000000000e+00) (84, 5, 1.00000000000000000000e+00) (84, 5, 1.00000000000000000000e+00) (84, 5, 1.00000000000000000000e+00) (84, 5, 1.00000000000000000000e+00) (84, 5, 1.00000000000000000000e+00) (84, 5, 1.00000000000000000000e+00) (84, 5, 1.00000000000000000000e+00) (84, 5, 1.00000000000000000000e+00) (84, 5, 1.00000000000000000000e+00) (84, 5, 1.00000000000000000000e+00) (84, 5, 1.00000000000000000000e+00) (84, 5, 1.00000000000000000000e+00) (84, 5, 1.00000000000000000000e+00) (84, 5, 1.00000000000000000000e+00) (84, 5, 1.00000000000000000000e+00) (84, 5, 1.00000000000000000000e+00) (84, 5, 1.00000000000000000000e+00) (84, 5, 1.00000000000000000000e+00) (84, 5, 1.00000000000000000000e+00) (84, 5, 1.00000000000000000000e+00) (84, 5, 1.00000000000000000000e+00) (84, 5, 1.00000000000000000000e+00) (84, 5, 1.00000000000000000000e+00) (84, 5, 1.00000000000000000000e+00) (84, 5, 1.00000000000000000000e+00) (84, 5, 1.00000000000000000000e+00) (84, 5, 1.00000000000000000000e+00) (84, 5, 1.00000000000000000000e+00) (84, 5, 1.00000000000000000000e+00) (84, 5, 1.00000000000000000000e+00) (84, 5, 1.00000000000000000000e+00) (84, 5, 1.00000000000000000000e+00) (84, 5, 1.00000000000000000000e+00) (84, 5, 1.00000000000000000000e+00) (84, 5, 1.00000000000000000000e+00) (84, 5, 1.00000000000000000000e+00) (84, 5, 1.00000000000000000000e+00) (84, 5, 1.00000000000000000000e+00) (84, 5, 1.00000000000000000000e+00) (84, 5, 1.00000000000000000000e+00) (84, 5, 1.00000000000000000000e+00) (84, 5, 1.00000000000000000000e+00) (84, 5, 1.00000000000000000000e+00) (84, 5, 1.00000000000000000000e+00) (84, 5, 1.00000000000000000000e+00) (84, 5, 1.00000000000000000000e+00) (84, 5, 1.00000000000000000000e+00) (84, 5, 1.00000000000000000000e+00) (84, 5, 1.00000000000000000000e+00) (84, 5, 1.00000000000000000000e+00) (84, 5, 1.00000000000000000000e+00) (84, 5, 1.00000000000000000000e+00) (84, 5, 1.00000000000000000000e+00) (84, 5, 1.00000000000000000000e+00) (84, 5, 1.00000000000000000000e+00) (84, 5, 1.00000000000000000000e+00) (84, 5, 1.00000000000000000000e+00) (84, 5, 1.00000000000000000000e+00) (84, 5, 1.00000000000000000000e+00) (84, 5, 1.00000000000000000000e+00) (84, 5, 1.00000000000000000000e+00) (84, 5, 1.00000000000000000000e+00) (84, 5, 1.00000000000000000000e+00) (84, 5, 1.00000000000000000000e+00) (84, 5, 1.00000000000000000000e+00) (84, 5, 1.00000000000000000000e+00) (84, 5, 1.00000000000000000000e+00) (84, 5, 1.00000000000000000000e+00) (84, 5, 1.00000000000000000000e+00) (84, 5, 1.00000000000000000000e+00) (84, 5, 1.00000000000000000000e+00) (84, 5, 1.00000000000000000000e+00) (84, 5, 1.00000000000000000000e+00) (84, 5, 1.00000000000000000000e+00) (84, 5, 1.00000000000000000000e+00) (84, 5, 1.00000000000000000000e+00) (84, 5, 1.00000000000000000000e+00) (84, 5, 1.00000000000000000000e+00) (84, 5, 1.00000000000000000000e+00) (84, 5, 1.00000000000000000000e+00) (84, 5, 1.00000000000000000000e+00) (84, 5, 1.00000000000000000000e+00) (84, 5, 1.00000000000000000000e+00) (84, 5, 1.00000000000000000000e+00) (84, 5, 1.00000000000000000000e+00) (84, 5, 1.00000000000000000000e+00) (84, 5, 1.00000000000000000000e+00) (84, 5, 1.00000000000000000000e+00) (84, 5, 1.00000000000000000000e+00) (84, 5, 1.00000000000000000000e+00) (84, 5, 1.00000000000000000000e+00) (84, 5, 1.00000000000000000000e+00) (84, 5, 1.00000000000000000000e+00) (84, 5, 1.00000000000000000000e+00) (84, 5, 1.00000000000000000000e+00) (84, 5, 1.00000000000000000000e+00) (84, 5, 1.00000000000000000000e+00) (84, 5, 1.00000000000000000000e+00) (84, 5, 1.00000000000000000000e+00) (84, 5, 1.00000000000000000000e+00) (84, 5, 1.00000000000000000000e+00) (84, 5, 1.00000000000000000000e+00) (84, 5, 1.00000000000000000000e+00) (84, 5, 1.00000000000000000000e+00) (84, 5, 1.00000000000000000000e+00) (84, 5, 1.00000000000000000000e+00) (84, 5, 1.00000000000000000000e+00) (84, 5, 1.00000000000000000000e+00) (84, 5, 1.00000000000000000000e+00) (84, 5, 1.00000000000000000000e+00) (84, 5, 1.00000000000000000000e+00) (84, 5, 1.00000000000000000000e+00) (84, 5, 1.00000000000000000000e+00) (84, 5, 1.00000000000000000000e+00) (84, 5, 1.00000000000000000000e+00) (84, 5, 1.00000000000000000000e+00) (84, 5, 1.00000000000000000000e+00) (84, 5, 1.00000000000000000000e+00) (84, 5, 1.00000000000000000000e+00) (84, 5, 1.00000000000000000000e+00) (84, 5, 1.00000000000000000000e+00) (84, 5, 1.00000000000000000000e+00) (84, 5, 1.00000000000000000000e+00) (84, 5, 1.00000000000000000000e+00) (84, 5, 1.00000000000000000000e+00) (84, 5, 1.00000000000000000000e+00) (84, 5, 1.00000000000000000000e+00) (84, 5, 1.00000000000000000000e+00) (84, 5, 1.00000000000000000000e+00) (84, 5, 1.00000000000000000000e+00) (84, 5, 1.00000000000000000000e+00) (84, 5, 1.00000000000000000000e+00) (84, 5, 1.00000000000000000000e+00) (84, 5, 1.00000000000000000000e+00) (84, 5, 1.00000000000000000000e+00) (84, 5, 1.00000000000000000000e+00) (84, 5, 1.00000000000000000000e+00) (84, 5, 1.00000000000000000000e+00) (84, 5, 1.00000000000000000000e+00) (84, 5, 1.00000000000000000000e+00) (84, 5, 1.00000000000000000000e+00) (84, 5, 1.00000000000000000000e+00) (84, 5, 1.00000000000000000000e+00) (84, 5, 1.00000000000000000000e+00) (84, 5, 1.00000000000000000000e+00) (84, 5, 1.00000000000000000000e+00) (84, 5, 1.00000000000000000000e+00) (84, 5, 1.00000000000000000000e+00) (84, 5, 1.00000000000000000000e+00) (84, 5, 1.00000000000000000000e+00) (84, 5, 1.00000000000000000000e+00) (84, 5, 1.00000000000000000000e+00) (84, 5, 1.00000000000000000000e+00) (84, 5, 1.00000000000000000000e+00) (84, 5, 1.00000000000000000000e+00) (84, 5, 1.00000000000000000000e+00) (84, 5, 1.00000000000000000000e+00) (84, 5, 1.00000000000000000000e+00) (84, 5, 1.00000000000000000000e+00) (84, 5, 1.00000000000000000000e+00) (84, 5, 1.00000000000000000000e+00) (84, 5, 1.00000000000000000000e+00) (84, 5, 1.00000000000000000000e+00) (84, 5, 1.00000000000000000000e+00) (84, 5, 1.00000000000000000000e+00) (84, 5, 1.00000000000000000000e+00) (84, 5, 1.00000000000000000000e+00) (84, 5, 1.00000000000000000000e+00) (84, 5, 1.00000000000000000000e+00) (84, 5, 1.00000000000000000000e+00) (84, 5, 1.00000000000000000000e+00) (84, 5, 1.00000000000000000000e+00) (84, 5, 1.00000000000000000000e+00) (84, 5, 1.00000000000000000000e+00) (84, 5, 1.00000000000000000000e+00) (84, 5, 1.00000000000000000000e+00) (84, 5, 1.00000000000000000000e+00) (84, 5, 1.00000000000000000000e+00) (84, 5, 1.00000000000000000000e+00) (84, 5, 1.00000000000000000000e+00) (84, 5, 1.00000000000000000000e+00) (84, 5, 1.00000000000000000000e+00) (84, 5, 1.00000000000000000000e+00) (84, 5, 1.00000000000000000000e+00) (84, 5, 1.00000000000000000000e+00) (84, 5, 1.00000000000000000000e+00) (84, 5, 1.00000000000000000000e+00) (84, 5, 1.00000000000000000000e+00) (84, 5, 1.00000000000000000000e+00) (84, 5, 1.00000000000000000000e+00) (84, 5, 1.00000000000000000000e+00) (84, 5, 1.00000000000000000000e+00) (84, 5, 1.00000000000000000000e+00) (84, 5, 1.00000000000000000000e+00) (84, 5, 1.00000000000000000000e+00) (84, 5, 1.00000000000000000000e+00) (84, 5, 1.00000000000000000000e+00) (84, 5, 1.00000000000000000000e+00) (84, 5, 1.00000000000000000000e+00) (84, 5, 1.00000000000000000000e+00) (84, 5, 1.00000000000000000000e+00) (84, 5, 1.00000000000000000000e+00) (84, 5, 1.00000000000000000000e+00) (84, 5, 1.00000000000000000000e+00) (84, 5, 1.00000000000000000000e+00) (84, 5, 1.00000000000000000000e+00) (84, 5, 1.00000000000000000000e+00) (84, 5, 1.00000000000000000000e+00) (84, 5, 1.00000000000000000000e+00) (84, 5, 1.00000000000000000000e+00) (84, 5, 1.00000000000000000000e+00) (84, 5, 1.00000000000000000000e+00) (84, 5, 1.00000000000000000000e+00) (84, 5, 1.00000000000000000000e+00) (84, 5, 1.00000000000000000000e+00) (84, 5, 1.00000000000000000000e+00) (84, 5, 1.00000000000000000000e+00) (84, 5, 1.00000000000000000000e+00) (84, 5, 1.00000000000000000000e+00) (84, 5, 1.00000000000000000000e+00) (84, 5, 1.00000000000000000000e+00) (84, 5, 1.00000000000000000000e+00) (84, 5, 1.00000000000000000000e+00) (84, 5, 1.00000000000000000000e+00) (84, 5, 1.00000000000000000000e+00) (84, 5, 1.00000000000000000000e+00) (84, 5, 1.00000000000000000000e+00) (84, 5, 1.00000000000000000000e+00) (84, 5, 1.00000000000000000000e+00) (84, 5, 1.00000000000000000000e+00) (84, 5, 1.00000000000000000000e+00) (84, 5, 1.00000000000000000000e+00) (84, 5, 1.00000000000000000000e+00) (84, 5, 1.00000000000000000000e+00) (84, 5, 1.00000000000000000000e+00) (84, 5, 1.00000000000000000000e+00) (84, 5, 1.00000000000000000000e+00) (84, 5, 1.00000000000000000000e+00) (84, 5, 1.00000000000000000000e+00) (84, 5, 1.00000000000000000000e+00) (84, 5, 1.00000000000000000000e+00) (84, 5, 1.00000000000000000000e+00) (84, 5, 1.00000000000000000000e+00) (84, 5, 1.00000000000000000000e+00) (84, 5, 1.00000000000000000000e+00) (84, 5, 1.00000000000000000000e+00) (84, 5, 1.00000000000000000000e+00) (84, 5, 1.00000000000000000000e+00) (84, 5, 1.00000000000000000000e+00) (84, 5, 1.00000000000000000000e+00) (84, 5, 1.00000000000000000000e+00) (84, 5, 1.00000000000000000000e+00) (84, 5, 1.00000000000000000000e+00) (84, 5, 1.00000000000000000000e+00) (84, 5, 1.00000000000000000000e+00) (84, 5, 1.00000000000000000000e+00) (84, 5, 1.00000000000000000000e+00) (84, 5, 1.00000000000000000000e+00) (84, 5, 1.00000000000000000000e+00) (84, 5, 1.00000000000000000000e+00) (84, 5, 1.00000000000000000000e+00) (84, 5, 1.00000000000000000000e+00) (84, 5, 1.00000000000000000000e+00) (84, 5, 1.00000000000000000000e+00) (84, 5, 1.00000000000000000000e+00) (84, 5, 1.00000000000000000000e+00) (84, 5, 1.00000000000000000000e+00) (84, 5, 1.00000000000000000000e+00) (84, 5, 1.00000000000000000000e+00) (84, 5, 1.00000000000000000000e+00) (84, 5, 1.00000000000000000000e+00) (84, 5, 1.00000000000000000000e+00) (84, 5, 1.00000000000000000000e+00) (84, 5, 1.00000000000000000000e+00) (84, 5, 1.00000000000000000000e+00) (84, 5, 1.00000000000000000000e+00) (84, 5, 1.00000000000000000000e+00) (84, 5, 1.00000000000000000000e+00) (84, 5, 1.00000000000000000000e+00) (84, 5, 1.00000000000000000000e+00) (84, 5, 1.00000000000000000000e+00) (84, 5, 1.00000000000000000000e+00) (84, 5, 1.00000000000000000000e+00) (84, 5, 1.00000000000000000000e+00) (84, 5, 1.00000000000000000000e+00) (84, 5, 1.00000000000000000000e+00) (84, 5, 1.00000000000000000000e+00) (84, 5, 1.00000000000000000000e+00) (84, 5, 1.00000000000000000000e+00) (84, 5, 1.00000000000000000000e+00) (84, 5, 1.00000000000000000000e+00) (84, 5, 1.00000000000000000000e+00) (84, 5, 1.00000000000000000000e+00) (84, 5, 1.00000000000000000000e+00) (84, 5, 1.00000000000000000000e+00) (84, 5, 1.00000000000000000000e+00) (84, 5, 1.00000000000000000000e+00) (84, 5, 1.00000000000000000000e+00) (84, 5, 1.00000000000000000000e+00) (84, 5, 1.00000000000000000000e+00) (84, 5, 1.00000000000000000000e+00) (84, 5, 1.00000000000000000000e+00) (84, 5, 1.00000000000000000000e+00) (84, 5, 1.00000000000000000000e+00) (84, 5, 1.00000000000000000000e+00) (84, 5, 1.00000000000000000000e+00) (84, 5, 1.00000000000000000000e+00) (84, 5, 1.00000000000000000000e+00) (84, 5, 1.00000000000000000000e+00) (84, 5, 1.00000000000000000000e+00) (84, 5, 1.00000000000000000000e+00) (84, 5, 1.00000000000000000000e+00) (84, 5, 1.00000000000000000000e+00) (84, 5, 1.00000000000000000000e+00) (84, 5, 1.00000000000000000000e+00) (84, 5, 1.00000000000000000000e+00) (84, 5, 1.00000000000000000000e+00) (84, 5, 1.00000000000000000000e+00) (84, 5, 1.00000000000000000000e+00) (84, 5, 1.00000000000000000000e+00) (84, 5, 1.00000000000000000000e+00) (84, 5, 1.00000000000000000000e+00) (84, 5, 1.00000000000000000000e+00) (84, 5, 1.00000000000000000000e+00) (84, 5, 1.00000000000000000000e+00) (84, 5, 1.00000000000000000000e+00) (0, 5, 1.00000000000000000000e+00) (501, 5, 1.00000000000000000000e+00) (501, 5, 1.00000000000000000000e+00) (501, 5, 1.00000000000000000000e+00) (501, 5, 1.00000000000000000000e+00) (501, 5, 1.00000000000000000000e+00) (501, 5, 1.00000000000000000000e+00) (501, 5, 1.00000000000000000000e+00) (501, 5, 1.00000000000000000000e+00) (501, 5, 1.00000000000000000000e+00) (501, 5, 1.00000000000000000000e+00) (501, 5, 1.00000000000000000000e+00) (501, 5, 1.00000000000000000000e+00) (501, 5, 1.00000000000000000000e+00) (501, 5, 1.00000000000000000000e+00) (501, 5, 1.00000000000000000000e+00) (501, 5, 1.00000000000000000000e+00) (501, 5, 1.00000000000000000000e+00) (501, 5, 1.00000000000000000000e+00) (501, 5, 1.00000000000000000000e+00) (501, 5, 1.00000000000000000000e+00) (501, 5, 1.00000000000000000000e+00) (501, 5, 1.00000000000000000000e+00) (501, 5, 1.00000000000000000000e+00) (501, 5, 1.00000000000000000000e+00) (501, 5, 1.00000000000000000000e+00) (501, 5, 1.00000000000000000000e+00) (501, 5, 1.00000000000000000000e+00) (501, 5, 1.00000000000000000000e+00) (501, 5, 1.00000000000000000000e+00) (501, 5, 1.00000000000000000000e+00) (501, 5, 1.00000000000000000000e+00) (501, 5, 1.00000000000000000000e+00) (501, 5, 1.00000000000000000000e+00) (501, 5, 1.00000000000000000000e+00) (501, 5, 1.00000000000000000000e+00) (501, 5, 1.00000000000000000000e+00) (501, 5, 1.00000000000000000000e+00) (501, 5, 1.00000000000000000000e+00) (501, 5, 1.00000000000000000000e+00) (501, 5, 1.00000000000000000000e+00) (501, 5, 1.00000000000000000000e+00) (501, 5, 1.00000000000000000000e+00) (501, 5, 1.00000000000000000000e+00) (501, 5, 1.00000000000000000000e+00) (501, 5, 1.00000000000000000000e+00) (501, 5, 1.00000000000000000000e+00) (501, 5, 1.00000000000000000000e+00) (501, 5, 1.00000000000000000000e+00) (501, 5, 1.00000000000000000000e+00) (501, 5, 1.00000000000000000000e+00) (501, 5, 1.00000000000000000000e+00) (501, 5, 1.00000000000000000000e+00) (501, 5, 1.00000000000000000000e+00) (501, 5, 1.00000000000000000000e+00) (501, 5, 1.00000000000000000000e+00) (501, 5, 1.00000000000000000000e+00) (501, 5, 1.00000000000000000000e+00) (501, 5, 1.00000000000000000000e+00) (501, 5, 1.00000000000000000000e+00) (501, 5, 1.00000000000000000000e+00) (501, 5, 1.00000000000000000000e+00) (501, 5, 1.00000000000000000000e+00) (501, 5, 1.00000000000000000000e+00) (501, 5, 1.00000000000000000000e+00) (501, 5, 1.00000000000000000000e+00) (501, 5, 1.00000000000000000000e+00) (501, 5, 1.00000000000000000000e+00) (501, 5, 1.00000000000000000000e+00) (501, 5, 1.00000000000000000000e+00) (501, 5, 1.00000000000000000000e+00) (501, 5, 1.00000000000000000000e+00) (501, 5, 1.00000000000000000000e+00) (501, 5, 1.00000000000000000000e+00) (501, 5, 1.00000000000000000000e+00) (501, 5, 1.00000000000000000000e+00) (501, 5, 1.00000000000000000000e+00) (501, 5, 1.00000000000000000000e+00) (501, 5, 1.00000000000000000000e+00) (501, 5, 1.00000000000000000000e+00) (501, 5, 1.00000000000000000000e+00) (501, 5, 1.00000000000000000000e+00) (501, 5, 1.00000000000000000000e+00) (501, 5, 1.00000000000000000000e+00) (501, 5, 1.00000000000000000000e+00) (501, 5, 1.00000000000000000000e+00) (501, 5, 1.00000000000000000000e+00) (501, 5, 1.00000000000000000000e+00) (501, 5, 1.00000000000000000000e+00) (501, 5, 1.00000000000000000000e+00) (501, 5, 1.00000000000000000000e+00) (501, 5, 1.00000000000000000000e+00) (501, 5, 1.00000000000000000000e+00) (501, 5, 1.00000000000000000000e+00) (501, 5, 1.00000000000000000000e+00) (501, 5, 1.00000000000000000000e+00) (501, 5, 1.00000000000000000000e+00) (501, 5, 1.00000000000000000000e+00) (501, 5, 1.00000000000000000000e+00) (501, 5, 1.00000000000000000000e+00) (501, 5, 1.00000000000000000000e+00) (501, 5, 1.00000000000000000000e+00) (501, 5, 1.00000000000000000000e+00) (501, 5, 1.00000000000000000000e+00) (501, 5, 1.00000000000000000000e+00) (501, 5, 1.00000000000000000000e+00) (501, 5, 1.00000000000000000000e+00) (501, 5, 1.00000000000000000000e+00) (501, 5, 1.00000000000000000000e+00) (501, 5, 1.00000000000000000000e+00) (501, 5, 1.00000000000000000000e+00) (501, 5, 1.00000000000000000000e+00) (501, 5, 1.00000000000000000000e+00) (501, 5, 1.00000000000000000000e+00) (501, 5, 1.00000000000000000000e+00) (501, 5, 1.00000000000000000000e+00) (501, 5, 1.00000000000000000000e+00) (501, 5, 1.00000000000000000000e+00) (501, 5, 1.00000000000000000000e+00) (501, 5, 1.00000000000000000000e+00) (501, 5, 1.00000000000000000000e+00) (501, 5, 1.00000000000000000000e+00) (501, 5, 1.00000000000000000000e+00) (501, 5, 1.00000000000000000000e+00) (501, 5, 1.00000000000000000000e+00) (501, 5, 1.00000000000000000000e+00) (501, 5, 1.00000000000000000000e+00) (501, 5, 1.00000000000000000000e+00) (501, 5, 1.00000000000000000000e+00) (0, 5, 1.00000000000000000000e+00) (129, 5, 1.00000000000000000000e+00) (129, 5, 1.00000000000000000000e+00) (129, 5, 1.00000000000000000000e+00) (129, 5, 1.00000000000000000000e+00) (129, 5, 1.00000000000000000000e+00) (129, 5, 1.00000000000000000000e+00) (129, 5, 1.00000000000000000000e+00) (129, 5, 1.00000000000000000000e+00) (129, 5, 1.00000000000000000000e+00) (129, 5, 1.00000000000000000000e+00) (129, 5, 1.00000000000000000000e+00) (129, 5, 1.00000000000000000000e+00) (129, 5, 1.00000000000000000000e+00) (129, 5, 1.00000000000000000000e+00) (129, 5, 1.00000000000000000000e+00) (129, 5, 1.00000000000000000000e+00) (129, 5, 1.00000000000000000000e+00) (129, 5, 1.00000000000000000000e+00) (129, 5, 1.00000000000000000000e+00) (129, 5, 1.00000000000000000000e+00) (129, 5, 1.00000000000000000000e+00) (129, 5, 1.00000000000000000000e+00) (129, 5, 1.00000000000000000000e+00) (129, 5, 1.00000000000000000000e+00) (129, 5, 1.00000000000000000000e+00) (129, 5, 1.00000000000000000000e+00) (129, 5, 1.00000000000000000000e+00) (129, 5, 1.00000000000000000000e+00) (129, 5, 1.00000000000000000000e+00) (129, 5, 1.00000000000000000000e+00) (129, 5, 1.00000000000000000000e+00) (129, 5, 1.00000000000000000000e+00) (129, 5, 1.00000000000000000000e+00) (129, 5, 1.00000000000000000000e+00) (129, 5, 1.00000000000000000000e+00) (129, 5, 1.00000000000000000000e+00) (129, 5, 1.00000000000000000000e+00) (129, 5, 1.00000000000000000000e+00) (129, 5, 1.00000000000000000000e+00) (129, 5, 1.00000000000000000000e+00) (129, 5, 1.00000000000000000000e+00) (129, 5, 1.00000000000000000000e+00) (129, 5, 1.00000000000000000000e+00) (129, 5, 1.00000000000000000000e+00) (129, 5, 1.00000000000000000000e+00) (129, 5, 1.00000000000000000000e+00) (129, 5, 1.00000000000000000000e+00) (129, 5, 1.00000000000000000000e+00) (129, 5, 1.00000000000000000000e+00) (129, 5, 1.00000000000000000000e+00) (129, 5, 1.00000000000000000000e+00) (129, 5, 1.00000000000000000000e+00) (129, 5, 1.00000000000000000000e+00) (129, 5, 1.00000000000000000000e+00) (129, 5, 1.00000000000000000000e+00) (129, 5, 1.00000000000000000000e+00) (129, 5, 1.00000000000000000000e+00) (129, 5, 1.00000000000000000000e+00) (129, 5, 1.00000000000000000000e+00) (129, 5, 1.00000000000000000000e+00) (129, 5, 1.00000000000000000000e+00) (129, 5, 1.00000000000000000000e+00) (129, 5, 1.00000000000000000000e+00) (129, 5, 1.00000000000000000000e+00) (0, 5, 1.00000000000000000000e+00) (65, 5, 1.00000000000000000000e+00) (65, 5, 1.00000000000000000000e+00) (65, 5, 1.00000000000000000000e+00) (65, 5, 1.00000000000000000000e+00) (65, 5, 1.00000000000000000000e+00) (65, 5, 1.00000000000000000000e+00) (65, 5, 1.00000000000000000000e+00) (65, 5, 1.00000000000000000000e+00) (65, 5, 1.00000000000000000000e+00) (65, 5, 1.00000000000000000000e+00) (65, 5, 1.00000000000000000000e+00) (65, 5, 1.00000000000000000000e+00) (0, 5, 1.00000000000000000000e+00) (13, 5, 1.00000000000000000000e+00) (0, 5, 1.00000000000000000000e+00) 
connections (connected_to_neuron, weight)=(0, 1.91219002008438110352e-01) (1, 8.96477103233337402344e-02) (2, 2.29222789406776428223e-01) (3, 2.54578858613967895508e-01) (4, -1.90013319253921508789e-01) (5, -1.28960207104682922363e-01) (6, 1.92472949624061584473e-01) (7, 2.89269387722015380859e-01) (8, -2.68738240003585815430e-01) (9, -4.64793518185615539551e-02) (10, 2.43784710764884948730e-01) (11, -1.55856639146804809570e-01) (12, -1.38909131288528442383e-01) (13, 2.13567316532135009766e-01) (14, -2.92988151311874389648e-01) (15, -3.77643443644046783447e-02) (16, -6.95282071828842163086e-02) (17, -1.01070702075958251953e-01) (18, -1.48166462779045104980e-01) (19, -2.60186314582824707031e-01) (20, 2.24039524793624877930e-01) (21, 1.91451683640480041504e-01) (22, -1.17755830287933349609e-01) (23, 1.58549621701240539551e-02) (24, -1.14034362137317657471e-01) (25, -1.02975606918334960938e-01) (26, -2.91357427835464477539e-01) (27, -4.72889877855777740479e-02) (28, 6.11679069697856903076e-02) (29, -1.34381905198097229004e-01) (30, 2.89540797472000122070e-01) (31, -6.45995512604713439941e-02) (32, 2.54676967859268188477e-01) (33, 2.23264530301094055176e-01) (34, -1.10382094979286193848e-01) (35, -2.26560801267623901367e-01) (36, -1.97543531656265258789e-01) (37, -2.05549970269203186035e-01) (38, -2.37403467297554016113e-01) (39, -1.65329009294509887695e-01) (40, 4.89960312843322753906e-02) (41, -2.95146256685256958008e-01) (42, -2.62880809605121612549e-02) (43, 2.05592602491378784180e-01) (44, 2.24365830421447753906e-01) (45, -7.22882105037569999695e-03) (46, -1.22014604508876800537e-01) (47, -1.48952633142471313477e-01) (48, 1.86683088541030883789e-01) (49, 2.92644891887903213501e-02) (50, -1.13975867629051208496e-01) (51, 9.50047224760055541992e-02) (52, -9.45193320512771606445e-02) (53, 4.36628274619579315186e-02) (54, -2.00743868947029113770e-01) (55, 1.05320915579795837402e-01) (56, 2.34895408153533935547e-01) (57, -1.79352164268493652344e-01) (58, -2.43547573685646057129e-01) (59, -7.02645676210522651672e-03) (60, -3.34214419126510620117e-02) (61, -2.64285951852798461914e-01) (62, 2.38590374588966369629e-01) (63, -6.72075524926185607910e-02) (64, 2.51429259777069091797e-01) (65, -1.78515449166297912598e-01) (66, 9.86888259649276733398e-03) (67, -2.29683592915534973145e-01) (68, -7.36203789710998535156e-02) (69, 7.66685530543327331543e-02) (70, -9.99466106295585632324e-02) (71, 2.74322181940078735352e-01) (72, 7.85939469933509826660e-02) (73, 1.92966401576995849609e-01) (74, 1.84419542551040649414e-01) (75, -9.51639190316200256348e-03) (76, -1.41978397965431213379e-01) (77, -2.52344369888305664062e-01) (78, 1.48398771882057189941e-01) (79, -2.61592090129852294922e-01) (80, 6.60126879811286926270e-02) (81, -2.84554570913314819336e-01) (82, 1.49551436305046081543e-01) (83, 2.97819912433624267578e-01) (0, 9.43917557597160339355e-02) (1, 2.52392292022705078125e-01) (2, 9.14694070816040039062e-02) (3, -1.38914268463850021362e-02) (4, -2.24637433886528015137e-01) (5, 1.24064587056636810303e-01) (6, -2.75695472955703735352e-01) (7, 6.33147954940795898438e-02) (8, 1.84770911931991577148e-01) (9, 2.59773254394531250000e-01) (10, -2.99871176481246948242e-01) (11, 1.48269981145858764648e-01) (12, -2.11230978369712829590e-01) (13, 1.30470851436257362366e-02) (14, 2.14572817087173461914e-01) (15, 1.58377755433320999146e-02) (16, -2.12949961423873901367e-01) (17, -1.85802832245826721191e-01) (18, -9.09822992980480194092e-03) (19, 1.23370312154293060303e-01) (20, 2.93707102537155151367e-01) (21, -1.19134701788425445557e-01) (22, -1.36912494897842407227e-01) (23, -1.47235542535781860352e-01) (24, -6.45129829645156860352e-02) (25, -2.88314461708068847656e-01) (26, -8.38956683874130249023e-02) (27, -2.82009094953536987305e-01) (28, -2.65228629112243652344e-01) (29, -2.31594592332839965820e-01) (30, -2.90680050849914550781e-01) (31, 1.05040624737739562988e-01) (32, -2.70831286907196044922e-01) (33, 1.01193241775035858154e-01) (34, -1.82943791151046752930e-01) (35, -1.91663697361946105957e-01) (36, -5.60005642473697662354e-02) (37, -1.64462342858314514160e-01) (38, 1.73191115260124206543e-01) (39, -1.71028941869735717773e-01) (40, -2.06260874867439270020e-01) (41, 1.73206329345703125000e-01) (42, 2.77427196502685546875e-01) (43, -1.16154640913009643555e-01) (44, -1.14931821823120117188e-01) (45, 1.90266117453575134277e-01) (46, 1.99758082628250122070e-01) (47, -2.66825761646032333374e-02) (48, -2.96059250831604003906e-01) (49, -1.14890970289707183838e-01) (50, -1.59723758697509765625e-01) (51, -2.98632234334945678711e-01) (52, 7.68549591302871704102e-02) (53, 2.55212485790252685547e-02) (54, -1.35233193635940551758e-01) (55, -2.83733636140823364258e-01) (56, 1.63128878921270370483e-02) (57, 7.54140838980674743652e-02) (58, -2.80770212411880493164e-01) (59, 8.84258151054382324219e-02) (60, 1.48929417133331298828e-01) (61, -2.62190669775009155273e-01) (62, -1.44753366708755493164e-01) (63, 1.82968035340309143066e-01) (64, 1.30515873432159423828e-01) (65, -1.54202496632933616638e-02) (66, 2.99817413091659545898e-01) (67, -2.22090378403663635254e-01) (68, 1.16716183722019195557e-01) (69, 1.58781692385673522949e-01) (70, -8.91951918601989746094e-02) (71, 2.20294579863548278809e-01) (72, 4.18775938451290130615e-02) (73, -1.14142380654811859131e-01) (74, -2.08722874522209167480e-01) (75, 2.21303418278694152832e-01) (76, -2.16361939907073974609e-01) (77, 2.98648297786712646484e-01) (78, -1.05511322617530822754e-01) (79, -2.22905099391937255859e-01) (80, -1.16092801094055175781e-01) (81, 4.51272130012512207031e-02) (82, -2.16891989111900329590e-01) (83, 2.48104259371757507324e-01) (0, -2.69231736660003662109e-01) (1, -3.94730716943740844727e-02) (2, 2.53370493650436401367e-01) (3, 5.32530471682548522949e-02) (4, -2.73139119148254394531e-01) (5, 2.74176090955734252930e-01) (6, -1.95573180913925170898e-01) (7, 1.67676806449890136719e-01) (8, -2.97671616077423095703e-01) (9, -2.67237182706594467163e-02) (10, 4.55644279718399047852e-02) (11, 1.36481791734695434570e-01) (12, 2.50883698463439941406e-01) (13, 3.32985557615756988525e-02) (14, 2.13719800114631652832e-01) (15, 6.26342445611953735352e-02) (16, -1.07659451663494110107e-01) (17, -1.81927621364593505859e-01) (18, -3.06749381124973297119e-02) (19, 2.18413099646568298340e-01) (20, 1.22250069398432970047e-03) (21, 5.74916116893291473389e-02) (22, 1.57624125480651855469e-01) (23, 5.52588216960430145264e-02) (24, 5.24425320327281951904e-02) (25, -2.65754818916320800781e-01) (26, 1.48690879344940185547e-01) (27, 2.31144398450851440430e-01) (28, 6.80897608399391174316e-02) (29, 2.25560739636421203613e-01) (30, 1.78654715418815612793e-01) (31, 1.08449190855026245117e-01) (32, -1.36001616716384887695e-01) (33, 1.28396481275558471680e-01) (34, -1.33061021566390991211e-01) (35, -1.17945261299610137939e-01) (36, 1.00583352148532867432e-01) (37, -1.90288107842206954956e-02) (38, -2.50726610422134399414e-01) (39, 1.02554582059383392334e-01) (40, 2.55410373210906982422e-01) (41, 9.63098257780075073242e-02) (42, -5.84965348243713378906e-02) (43, 2.07930073142051696777e-01) (44, -1.73399120569229125977e-01) (45, -1.50450244545936584473e-01) (46, -3.51322554051876068115e-02) (47, 2.10269577801227569580e-02) (48, -2.91281044483184814453e-02) (49, 2.36046090722084045410e-01) (50, -5.51845356822013854980e-02) (51, 2.55262434482574462891e-01) (52, -4.22676466405391693115e-03) (53, -2.05222100019454956055e-01) (54, 6.01678751409053802490e-02) (55, -2.53257840871810913086e-01) (56, -1.79828673601150512695e-01) (57, -1.02629907429218292236e-01) (58, 2.75965213775634765625e-01) (59, 2.04739645123481750488e-01) (60, -1.95804104208946228027e-01) (61, 1.55937075614929199219e-01) (62, 1.10419206321239471436e-02) (63, -1.37649616226553916931e-02) (64, -1.52831561863422393799e-02) (65, 1.79453119635581970215e-01) (66, 1.52670532464981079102e-01) (67, -2.20722183585166931152e-01) (68, -1.59658268094062805176e-01) (69, 2.06990793347358703613e-01) (70, 1.74649760127067565918e-01) (71, -1.92665681242942810059e-01) (72, 1.37010514736175537109e-02) (73, -1.70214906334877014160e-01) (74, -2.89884477853775024414e-01) (75, 1.32994025945663452148e-01) (76, -2.85549163818359375000e-02) (77, -2.63284053653478622437e-02) (78, -1.48159474134445190430e-01) (79, 2.34972298145294189453e-01) (80, -6.77548646926879882812e-02) (81, 1.04358687996864318848e-01) (82, 2.22445040941238403320e-01) (83, 2.09963604807853698730e-01) (0, 1.69440135359764099121e-01) (1, -2.47480049729347229004e-02) (2, 2.64757037162780761719e-01) (3, -2.73864954710006713867e-01) (4, 1.64027705788612365723e-01) (5, 2.40682408213615417480e-01) (6, 2.00943812727928161621e-01) (7, 2.69803911447525024414e-01) (8, 8.97424891591072082520e-02) (9, -7.70496651530265808105e-02) (10, -5.10092340409755706787e-02) (11, -2.28160962462425231934e-01) (12, -2.07440227270126342773e-01) (13, -1.87748983502388000488e-01) (14, -1.44825071096420288086e-01) (15, -5.53224086761474609375e-02) (16, -2.74063587188720703125e-01) (17, -2.59610235691070556641e-01) (18, 5.15038929879665374756e-02) (19, 3.32522504031658172607e-02) (20, -1.50993585586547851562e-01) (21, 3.71693484485149383545e-02) (22, -1.36012330651283264160e-01) (23, 1.62981733679771423340e-01) (24, -2.53683060407638549805e-01) (25, 3.93106266856193542480e-02) (26, 9.41268950700759887695e-02) (27, -4.34234216809272766113e-02) (28, -1.51394024491310119629e-01) (29, 1.38418497517704963684e-02) (30, -1.32367417216300964355e-01) (31, -2.51708686351776123047e-01) (32, 2.76976048946380615234e-01) (33, -1.74125254154205322266e-01) (34, -2.24673718214035034180e-01) (35, 1.31090715527534484863e-01) (36, -2.39912629127502441406e-01) (37, 2.98148989677429199219e-01) (38, 9.85769778490066528320e-02) (39, 1.50595426559448242188e-01) (40, -8.01723599433898925781e-02) (41, -2.51568317413330078125e-01) (42, 2.29533746838569641113e-01) (43, 1.92204285413026809692e-02) (44, -1.45208448171615600586e-01) (45, -2.28306174278259277344e-01) (46, 2.53138035535812377930e-01) (47, -1.15245610475540161133e-01) (48, -1.80623441934585571289e-01) (49, 1.35380988940596580505e-02) (50, 2.35268577933311462402e-01) (51, -1.92681476473808288574e-02) (52, -2.52774298191070556641e-01) (53, -1.97461351752281188965e-01) (54, -1.69060766696929931641e-01) (55, -1.90966174006462097168e-01) (56, 1.60056978464126586914e-01) (57, 2.33842104673385620117e-01) (58, 5.82161210477352142334e-02) (59, 2.88600265979766845703e-01) (60, -6.39420300722122192383e-02) (61, 2.44086176156997680664e-01) (62, -2.54929691553115844727e-01) (63, -7.52316713333129882812e-02) (64, -2.11699917912483215332e-01) (65, -2.05175489187240600586e-01) (66, -2.10489243268966674805e-01) (67, -1.76292493939399719238e-01) (68, -1.82737514376640319824e-01) (69, 1.57186582684516906738e-01) (70, 2.76840180158615112305e-01) (71, 3.26285734772682189941e-02) (72, 1.89158588647842407227e-01) (73, 2.02437728643417358398e-01) (74, -2.43580833077430725098e-01) (75, -2.37767085433006286621e-01) (76, 2.72548854351043701172e-01) (77, -3.02095353603363037109e-01) (78, -5.55403791368007659912e-02) (79, -1.75326019525527954102e-01) (80, 7.16745108366012573242e-03) (81, -1.02554678916931152344e-01) (82, 9.81155559420585632324e-02) (83, 7.95967727899551391602e-02) (0, -1.30429826676845550537e-02) (1, 2.06374362111091613770e-01) (2, 1.90485030412673950195e-01) (3, -1.67066574096679687500e-01) (4, 1.31294056773185729980e-01) (5, -2.39615421742200851440e-02) (6, -1.92586705088615417480e-01) (7, -2.20104306936264038086e-01) (8, -9.35977026820182800293e-02) (9, -1.59957617521286010742e-01) (10, -3.67244333028793334961e-03) (11, -2.93864756822586059570e-02) (12, -4.39381077885627746582e-02) (13, 4.16461639106273651123e-02) (14, 9.59611386060714721680e-02) (15, 6.84721991419792175293e-02) (16, -1.14441446959972381592e-01) (17, 7.12838247418403625488e-02) (18, -2.00360655784606933594e-01) (19, -2.09683954715728759766e-01) (20, -1.28748528659343719482e-02) (21, -1.57370865345001220703e-01) (22, -1.76232710480690002441e-01) (23, -5.53486198186874389648e-02) (24, -1.60458818078041076660e-01) (25, 7.49522671103477478027e-02) (26, 4.19257692992687225342e-02) (27, 1.62530273199081420898e-01) (28, 2.42784395813941955566e-01) (29, -1.75182327628135681152e-01) (30, -5.28950840234756469727e-02) (31, -8.90360921621322631836e-02) (32, -2.60151386260986328125e-01) (33, -1.54668986797332763672e-01) (34, 2.16567572206258773804e-02) (35, 1.82013094425201416016e-01) (36, 1.15063183009624481201e-01) (37, 1.23455122113227844238e-01) (38, 2.63640195131301879883e-01) (39, -2.79083192348480224609e-01) (40, 2.64043062925338745117e-01) (41, -4.19370122253894805908e-02) (42, -1.70432049781084060669e-02) (43, -8.96689593791961669922e-02) (44, -2.92129248380661010742e-01) (45, -2.04331606626510620117e-01) (46, 2.97470986843109130859e-01) (47, -1.10074959695339202881e-01) (48, 1.58928632736206054688e-01) (49, -2.13148817420005798340e-01) (50, -3.50467413663864135742e-02) (51, -1.70122638344764709473e-01) (52, -7.25544467568397521973e-02) (53, 8.12717750668525695801e-02) (54, 6.86906278133392333984e-02) (55, 7.30070397257804870605e-02) (56, -1.44596174359321594238e-01) (57, -1.94867014884948730469e-01) (58, -5.43241538107395172119e-02) (59, -1.94993734359741210938e-01) (60, -7.01138526201248168945e-02) (61, 1.77987441420555114746e-01) (62, 1.62964817136526107788e-02) (63, -1.77649036049842834473e-02) (64, -2.70235627889633178711e-01) (65, -2.55233824253082275391e-01) (66, -1.38629540801048278809e-01) (67, 1.53304189443588256836e-01) (68, 1.70306578278541564941e-01) (69, -1.74862787127494812012e-01) (70, 1.66273936629295349121e-01) (71, 1.23826928436756134033e-01) (72, 7.64825940132141113281e-02) (73, -1.48408293724060058594e-01) (74, -2.68425375223159790039e-01) (75, 9.03509110212326049805e-02) (76, -4.69841696321964263916e-02) (77, -2.59944736957550048828e-01) (78, 2.60635077953338623047e-01) (79, -1.95338547229766845703e-01) (80, -1.77144184708595275879e-01) (81, -8.13391208648681640625e-02) (82, -7.83313512802124023438e-02) (83, 7.04553201794624328613e-02) (0, -2.54134625196456909180e-01) (1, -2.97307103872299194336e-01) (2, -1.52518644928932189941e-01) (3, -7.75197818875312805176e-02) (4, -1.75990059971809387207e-01) (5, 1.28933697938919067383e-01) (6, 2.19473633915185928345e-02) (7, 6.54928758740425109863e-02) (8, -2.10205111652612686157e-02) (9, -2.58120208978652954102e-01) (10, -2.55318850278854370117e-01) (11, 1.60900577902793884277e-02) (12, -2.10914179682731628418e-01) (13, -9.18668434023857116699e-02) (14, -1.32463216781616210938e-01) (15, 2.60482102632522583008e-01) (16, 3.32171767950057983398e-02) (17, -2.60021001100540161133e-01) (18, 9.30089429020881652832e-02) (19, -2.03374281525611877441e-01) (20, -9.21714156866073608398e-02) (21, 1.25592067837715148926e-01) (22, 2.15468913316726684570e-01) (23, 1.64842054247856140137e-01) (24, 1.90500140190124511719e-01) (25, 1.69543385505676269531e-01) (26, 2.68887132406234741211e-01) (27, -2.87256121635437011719e-01) (28, -1.97984904050827026367e-01) (29, -9.43400114774703979492e-02) (30, 7.51782804727554321289e-02) (31, -1.66348040103912353516e-01) (32, -8.36478993296623229980e-02) (33, 2.19522774219512939453e-01) (34, 3.80405969917774200439e-02) (35, 4.22194190323352813721e-02) (36, 6.13112188875675201416e-03) (37, -2.45205685496330261230e-01) (38, -1.94361776113510131836e-01) (39, 2.85401284694671630859e-01) (40, -2.01930612325668334961e-01) (41, -1.47306561470031738281e-01) (42, 6.13250397145748138428e-03) (43, -1.07552953064441680908e-01) (44, 5.72426281869411468506e-02) (45, 1.65897324681282043457e-01) (46, -1.56821310520172119141e-01) (47, -2.08288982510566711426e-01) (48, 2.11206674575805664062e-01) (49, 2.41290509700775146484e-01) (50, -9.07573923468589782715e-02) (51, -1.76299169659614562988e-01) (52, 9.21703875064849853516e-02) (53, -2.01508224010467529297e-01) (54, 2.68229573965072631836e-01) (55, -5.31880930066108703613e-02) (56, 2.77034133672714233398e-01) (57, 2.42022439837455749512e-01) (58, -2.09261942654848098755e-02) (59, -2.04084411263465881348e-01) (60, -1.40903487801551818848e-01) (61, -2.41398915648460388184e-01) (62, -8.08305442333221435547e-02) (63, 7.75422379374504089355e-02) (64, 2.88525938987731933594e-01) (65, 2.50972479581832885742e-01) (66, -1.79156944155693054199e-01) (67, -1.01407542824745178223e-02) (68, -3.01099479198455810547e-01) (69, -9.41378027200698852539e-02) (70, -3.40696200728416442871e-02) (71, -1.90771222114562988281e-01) (72, 7.06257373094558715820e-02) (73, 2.70152956247329711914e-01) (74, 9.33027185965329408646e-04) (75, -1.81584313511848449707e-01) (76, 1.41112670302391052246e-01) (77, 1.41952887177467346191e-01) (78, -7.76086151599884033203e-02) (79, 5.84742166101932525635e-02) (80, 9.77337136864662170410e-02) (81, 1.43652290105819702148e-01) (82, 1.72981441020965576172e-01) (83, -1.32910966873168945312e-01) (0, 2.19399526715278625488e-01) (1, 1.29134222865104675293e-01) (2, 1.47944808006286621094e-01) (3, 2.24467143416404724121e-01) (4, 8.36258158087730407715e-02) (5, -1.88680395483970642090e-01) (6, -2.83802598714828491211e-01) (7, 2.31510624289512634277e-01) (8, -1.11572898924350738525e-01) (9, -7.81508237123489379883e-02) (10, -4.95214574038982391357e-03) (11, -1.32848888635635375977e-01) (12, -1.23988494277000427246e-01) (13, 1.01172938942909240723e-01) (14, 1.53058230876922607422e-01) (15, -1.13888122141361236572e-01) (16, -2.86788254976272583008e-01) (17, -1.77277699112892150879e-01) (18, -5.01458486542105674744e-03) (19, 6.74987137317657470703e-02) (20, -2.13930115103721618652e-01) (21, 2.87043094635009765625e-01) (22, 1.98431864380836486816e-01) (23, 2.37893238663673400879e-01) (24, 1.41322836279869079590e-01) (25, -1.69635668396949768066e-01) (26, -1.02851772680878639221e-02) (27, -7.75499418377876281738e-02) (28, 2.65014380216598510742e-01) (29, -1.42497539520263671875e-01) (30, 9.48941037058830261230e-02) (31, 2.08931282162666320801e-01) (32, 3.00853401422500610352e-01) (33, -6.21010139584541320801e-02) (34, 1.31783261895179748535e-01) (35, 8.31312015652656555176e-02) (36, 6.69138878583908081055e-02) (37, 1.37472942471504211426e-01) (38, 1.41263417899608612061e-02) (39, 2.56693482398986816406e-01) (40, -2.41697251796722412109e-01) (41, -2.92782932519912719727e-01) (42, -1.73468559980392456055e-01) (43, -6.05800040066242218018e-02) (44, 1.05804577469825744629e-01) (45, 2.72679358720779418945e-01) (46, 1.18561737239360809326e-01) (47, 1.22770227491855621338e-01) (48, -2.01829880475997924805e-01) (49, -1.89681425690650939941e-01) (50, -9.68421995639801025391e-02) (51, -9.72886458039283752441e-02) (52, -1.88878089189529418945e-01) (53, -1.84729188680648803711e-01) (54, -1.65622219443321228027e-01) (55, 2.59386599063873291016e-01) (56, -5.88454231619834899902e-02) (57, 1.15880608558654785156e-01) (58, -1.30819335579872131348e-01) (59, -8.10926929116249084473e-02) (60, 2.88729578256607055664e-01) (61, 2.72435128688812255859e-01) (62, -1.82264223694801330566e-01) (63, 2.88539230823516845703e-01) (64, -9.73465070128440856934e-02) (65, 2.53997087478637695312e-01) (66, 4.89400289952754974365e-02) (67, 2.67195135354995727539e-01) (68, 8.98887515068054199219e-02) (69, -2.16683045029640197754e-01) (70, 2.28074908256530761719e-01) (71, 1.51043668389320373535e-01) (72, -2.03394591808319091797e-01) (73, -2.44130745530128479004e-01) (74, -2.18639716506004333496e-01) (75, 2.04512774944305419922e-01) (76, -2.76799917221069335938e-01) (77, 2.10844129323959350586e-01) (78, 2.73456871509552001953e-02) (79, -1.83857098221778869629e-01) (80, -2.78469294309616088867e-01) (81, 2.17362150549888610840e-01) (82, 1.55089944601058959961e-02) (83, -1.77303612232208251953e-01) (0, -3.20552468299865722656e-01) (1, 1.50399014353752136230e-01) (2, -2.28268459439277648926e-01) (3, -1.89427640289068222046e-02) (4, -3.51393371820449829102e-02) (5, -2.63268109411001205444e-02) (6, 1.71625658869743347168e-01) (7, -5.28961271047592163086e-02) (8, -9.53193604946136474609e-02) (9, -3.00021141767501831055e-01) (10, -7.39156454801559448242e-02) (11, 1.06568276882171630859e-01) (12, 2.48947218060493469238e-01) (13, 2.89735466241836547852e-01) (14, 7.45545998215675354004e-02) (15, 3.23397107422351837158e-02) (16, -2.36161112785339355469e-01) (17, -2.30162753723561763763e-03) (18, -1.24806694686412811279e-01) (19, -1.53651386499404907227e-01) (20, 3.95660661160945892334e-02) (21, -6.21134340763092041016e-02) (22, -2.69704371690750122070e-01) (23, 4.21134904026985168457e-02) (24, -1.45503208041191101074e-01) (25, 6.08975850045680999756e-02) (26, 1.89575120806694030762e-01) (27, -1.26419231295585632324e-01) (28, -1.76647678017616271973e-02) (29, -9.56286117434501647949e-02) (30, 1.12354510929435491562e-03) (31, 1.68584100902080535889e-02) (32, -2.49359875917434692383e-01) (33, 7.45307877659797668457e-02) (34, 2.95532703399658203125e-01) (35, 1.97936799377202987671e-02) (36, -2.84901827573776245117e-01) (37, 1.80664852261543273926e-01) (38, 2.67640471458435058594e-01) (39, -7.91086927056312561035e-02) (40, 1.81605339050292968750e-01) (41, -1.06872357428073883057e-01) (42, -2.74239778518676757812e-01) (43, 1.28466919064521789551e-01) (44, -1.17608129978179931641e-01) (45, 1.02749712765216827393e-01) (46, -1.38841524720191955566e-01) (47, -5.31206317245960235596e-02) (48, -2.00820118188858032227e-01) (49, 4.00033816695213317871e-02) (50, 9.74261313676834106445e-02) (51, 1.44860088825225830078e-01) (52, 2.79175072908401489258e-01) (53, 1.37919113039970397949e-01) (54, -8.76899361610412597656e-02) (55, -1.75911113619804382324e-01) (56, -9.08941179513931274414e-02) (57, -1.85205742716789245605e-01) (58, 1.59970074892044067383e-02) (59, 1.82790398597717285156e-01) (60, 6.66642235592007637024e-03) (61, -2.75635212659835815430e-01) (62, -1.03170879185199737549e-01) (63, 6.75412937998771667480e-02) (64, 1.00530363619327545166e-01) (65, -9.48263555765151977539e-02) (66, -2.14599072933197021484e-01) (67, 1.12201489508152008057e-01) (68, -2.18442812561988830566e-01) (69, -2.58272171020507812500e-01) (70, -2.71366506814956665039e-01) (71, 2.45835751295089721680e-01) (72, -6.65314495563507080078e-02) (73, -2.54266232252120971680e-01) (74, 7.90037140250205993652e-02) (75, 1.22609384357929229736e-01) (76, 1.61798685789108276367e-01) (77, 2.38816186785697937012e-01) (78, -2.35027626156806945801e-01) (79, 2.62087702751159667969e-01) (80, -2.82333064824342727661e-02) (81, 1.61692753434181213379e-01) (82, 1.10945835709571838379e-01) (83, -2.88137663155794143677e-02) (0, 7.02177733182907104492e-03) (1, -2.71711617708206176758e-01) (2, 1.33320674300193786621e-01) (3, 1.93118199706077575684e-01) (4, -1.73525467514991760254e-01) (5, -1.41109988093376159668e-01) (6, 8.09791013598442077637e-02) (7, 1.26159861683845520020e-01) (8, -1.41136333346366882324e-01) (9, 2.82390773296356201172e-01) (10, -1.17633029818534851074e-01) (11, 2.56027430295944213867e-01) (12, -1.26023665070533752441e-01) (13, -4.02415841817855834961e-02) (14, 6.74309656023979187012e-02) (15, -5.27962222695350646973e-02) (16, 3.93460597842931747437e-03) (17, 1.00688278675079345703e-01) (18, -9.94186475872993469238e-02) (19, 2.46748581528663635254e-01) (20, 1.70976743102073669434e-01) (21, 2.86723226308822631836e-01) (22, 7.80022740364074707031e-02) (23, 3.68262268602848052979e-02) (24, 2.42447271943092346191e-01) (25, 1.27075552940368652344e-01) (26, -1.56152825802564620972e-02) (27, -9.49350148439407348633e-02) (28, -1.16077996790409088135e-02) (29, -2.09787532687187194824e-01) (30, 1.76671713590621948242e-01) (31, 2.90874928236007690430e-01) (32, -1.90427601337432861328e-01) (33, -6.69047469273209571838e-03) (34, 1.91362068057060241699e-01) (35, -6.99412524700164794922e-02) (36, 1.31622225046157836914e-01) (37, -2.81118638813495635986e-02) (38, -2.45722651481628417969e-01) (39, 2.89036393165588378906e-01) (40, -4.50483821332454681396e-02) (41, -6.12023696303367614746e-02) (42, 2.62700796127319335938e-01) (43, 1.45718365907669067383e-01) (44, 1.84409677982330322266e-01) (45, -2.01884447596967220306e-03) (46, -2.39365488290786743164e-01) (47, -1.04697890579700469971e-01) (48, -1.86712235212326049805e-01) (49, -2.67482642084360122681e-02) (50, -1.65295034646987915039e-01) (51, 2.77847588062286376953e-01) (52, -2.80392058193683624268e-02) (53, 2.18159809708595275879e-01) (54, 1.05299334973096847534e-02) (55, -1.21081136167049407959e-01) (56, 4.28796187043190002441e-02) (57, 2.92716950178146362305e-01) (58, 9.11841839551925659180e-02) (59, -2.75526642799377441406e-01) (60, -2.28748068213462829590e-01) (61, -2.94696483761072158813e-02) (62, -2.72177129983901977539e-01) (63, -1.13145850598812103271e-01) (64, 2.55830913782119750977e-01) (65, 1.97565466165542602539e-01) (66, 1.03438243269920349121e-01) (67, 9.53548848628997802734e-02) (68, -1.16224482655525207520e-01) (69, 1.77969560027122497559e-01) (70, 1.04615122079849243164e-01) (71, 1.32338836789131164551e-01) (72, -1.75525709986686706543e-01) (73, 4.63706180453300476074e-02) (74, -2.53872424364089965820e-02) (75, -2.97933191061019897461e-01) (76, -2.47057318687438964844e-01) (77, 4.71271239221096038818e-02) (78, -7.74160251021385192871e-02) (79, -1.41004428267478942871e-01) (80, -2.76527881622314453125e-01) (81, 6.25436529517173767090e-02) (82, -1.54096186161041259766e-01) (83, -4.00576367974281311035e-02) (0, -5.26035465300083160400e-02) (1, 1.30153596401214599609e-01) (2, 1.62816330790519714355e-01) (3, 2.81815230846405029297e-01) (4, 1.13577112555503845215e-01) (5, -2.89263557642698287964e-02) (6, -2.78440088033676147461e-01) (7, 1.85039088129997253418e-01) (8, 2.24473729729652404785e-01) (9, -2.75139689445495605469e-01) (10, -2.33098343014717102051e-01) (11, 1.86511263251304626465e-01) (12, 2.28120028972625732422e-01) (13, 1.81547030806541442871e-01) (14, -2.04389914870262145996e-02) (15, -1.97728425264358520508e-01) (16, 5.10501973330974578857e-02) (17, -2.36546114087104797363e-01) (18, 2.34136119484901428223e-01) (19, 1.57471612095832824707e-01) (20, 8.50228741765022277832e-02) (21, -1.05161085724830627441e-01) (22, 1.74797311425209045410e-01) (23, 1.40529975295066833496e-01) (24, 2.30882465839385986328e-01) (25, -2.20155850052833557129e-01) (26, 2.98245489597320556641e-01) (27, 2.46099174022674560547e-01) (28, 1.37250989675521850586e-01) (29, -1.70577242970466613770e-01) (30, -7.93354213237762451172e-02) (31, -2.01916113495826721191e-01) (32, 2.60559558868408203125e-01) (33, -2.17020317912101745605e-01) (34, -2.08533957600593566895e-01) (35, 7.13027268648147583008e-02) (36, 3.89878191053867340088e-02) (37, -1.93489000201225280762e-01) (38, -4.45977747440338134766e-02) (39, -3.79879996180534362793e-02) (40, -1.68063938617706298828e-01) (41, 2.40968354046344757080e-02) (42, -1.52589127421379089355e-01) (43, -2.40919053554534912109e-01) (44, -9.53333452343940734863e-02) (45, 1.28402948379516601562e-01) (46, -1.37200668454170227051e-01) (47, 2.56882518529891967773e-01) (48, 1.92424237728118896484e-01) (49, -2.10150286555290222168e-01) (50, 1.16893514990806579590e-01) (51, -1.75641737878322601318e-02) (52, -2.58781202137470245361e-02) (53, -1.23775023967027664185e-02) (54, -1.82546734809875488281e-01) (55, -9.54057499766349792480e-02) (56, 6.35874196887016296387e-02) (57, -1.81568533182144165039e-01) (58, -1.48411408066749572754e-01) (59, -1.04987256228923797607e-01) (60, -3.59233133494853973389e-02) (61, 8.84478166699409484863e-02) (62, 5.34122902899980545044e-03) (63, -9.73815619945526123047e-02) (64, 1.73723712563514709473e-01) (65, 8.35036709904670715332e-02) (66, 2.98073142766952514648e-01) (67, -9.67602431774139404297e-02) (68, 2.01799109578132629395e-01) (69, -5.78258149325847625732e-02) (70, 1.74516871571540832520e-01) (71, -2.82377034425735473633e-01) (72, 2.61513143777847290039e-01) (73, -2.82345861196517944336e-01) (74, -2.10527971386909484863e-01) (75, -1.38477325439453125000e-01) (76, 1.48602500557899475098e-01) (77, -4.64041493833065032959e-02) (78, -1.76702067255973815918e-01) (79, 3.55493165552616119385e-02) (80, 5.12327104806900024414e-02) (81, 2.26049035787582397461e-01) (82, -2.71833002567291259766e-01) (83, -2.60155677795410156250e-01) (0, -8.83068442344665527344e-02) (1, -1.39553114771842956543e-01) (2, -2.54182703793048858643e-02) (3, 2.91639387607574462891e-01) (4, -2.02770959585905075073e-02) (5, 1.20388306677341461182e-01) (6, -1.21768109500408172607e-01) (7, 2.25456133484840393066e-01) (8, -8.86321887373924255371e-02) (9, 1.90363228321075439453e-01) (10, -1.63773402571678161621e-01) (11, -2.19419181346893310547e-01) (12, -1.82626526802778244019e-02) (13, -1.79596588015556335449e-01) (14, -1.04562416672706604004e-02) (15, -1.19742363691329956055e-01) (16, 6.08060844242572784424e-02) (17, -1.41241997480392456055e-01) (18, -8.80835130810737609863e-02) (19, 4.11145761609077453613e-02) (20, -1.14326432347297668457e-01) (21, -1.08637278899550437927e-02) (22, 1.98226317763328552246e-01) (23, -2.78385132551193237305e-01) (24, 2.73386389017105102539e-01) (25, -2.85698831081390380859e-01) (26, 6.19056969881057739258e-02) (27, 9.26227401942014694214e-03) (28, 2.55100578069686889648e-01) (29, 8.64199101924896240234e-02) (30, 4.95895035564899444580e-02) (31, -1.22169479727745056152e-01) (32, 2.36713021993637084961e-01) (33, -2.90561705827713012695e-01) (34, -1.34060233831405639648e-01) (35, -9.18730422854423522949e-02) (36, 1.36136367917060852051e-01) (37, 5.58500774204730987549e-02) (38, -1.68320402503013610840e-01) (39, -2.55428194999694824219e-01) (40, -5.36215491592884063721e-02) (41, -2.92332507669925689697e-02) (42, -1.57444596290588378906e-01) (43, 2.43097022175788879395e-01) (44, 7.81068950891494750977e-02) (45, 1.04352347552776336670e-01) (46, -2.06048071384429931641e-01) (47, -1.54741361737251281738e-01) (48, 2.78721868991851806641e-01) (49, 2.01049428433179855347e-02) (50, 1.67968064546585083008e-01) (51, -1.45809128880500793457e-01) (52, -2.91262507438659667969e-01) (53, 7.09391906857490539551e-02) (54, -1.09441287815570831299e-01) (55, 2.89171218872070312500e-01) (56, 9.33441817760467529297e-02) (57, 2.55072653293609619141e-01) (58, -1.39503681566566228867e-03) (59, 2.86557134240865707397e-02) (60, 4.28635589778423309326e-02) (61, -2.61994212865829467773e-01) (62, 2.32365295290946960449e-01) (63, -3.13020050525665283203e-02) (64, -2.20231622457504272461e-01) (65, -2.14651286602020263672e-01) (66, 1.88972517848014831543e-01) (67, 1.92546457052230834961e-01) (68, 1.37666642665863037109e-01) (69, -2.95382469892501831055e-01) (70, 2.22510620951652526855e-01) (71, -2.05773279070854187012e-01) (72, -9.28701087832450866699e-03) (73, -2.21152082085609436035e-01) (74, -2.70532697439193725586e-01) (75, -2.30286836624145507812e-01) (76, 1.87549948692321777344e-01) (77, -1.74848958849906921387e-01) (78, -7.62366354465484619141e-02) (79, 1.63134500384330749512e-01) (80, 1.51897266507148742676e-01) (81, -1.82675912976264953613e-01) (82, -2.68221676349639892578e-01) (83, 1.54574215412139892578e-01) (0, 1.58527284860610961914e-01) (1, -1.08577989041805267334e-01) (2, 1.55631229281425476074e-01) (3, -6.80795386433601379395e-02) (4, -1.58547133207321166992e-01) (5, -1.53001993894577026367e-01) (6, 3.06006997823715209961e-01) (7, 1.64627373218536376953e-01) (8, -1.15223631262779235840e-01) (9, 2.06195369362831115723e-01) (10, -1.73008337616920471191e-01) (11, -6.32676035165786743164e-02) (12, 2.89282053709030151367e-01) (13, 3.01016181707382202148e-01) (14, -1.76253035664558410645e-01) (15, 1.28266483545303344727e-01) (16, -2.95184373855590820312e-01) (17, -2.41882652044296264648e-01) (18, 2.13966578245162963867e-01) (19, -2.66016628593206405640e-02) (20, -1.74704566597938537598e-01) (21, 2.31035798788070678711e-01) (22, 6.66774883866310119629e-02) (23, -2.85000145435333251953e-01) (24, -2.47553601861000061035e-01) (25, 2.74119853973388671875e-01) (26, 1.65100529789924621582e-01) (27, 1.93574294447898864746e-01) (28, -2.29562938213348388672e-01) (29, 1.80654227733612060547e-01) (30, 6.14400617778301239014e-02) (31, 2.38868489861488342285e-01) (32, -2.25648149847984313965e-01) (33, -8.77423360943794250488e-02) (34, -1.11704468727111816406e-01) (35, -8.84858369827270507812e-02) (36, 5.64009062945842742920e-02) (37, -1.23423792421817779541e-01) (38, -2.25290089845657348633e-01) (39, 2.41352960467338562012e-01) (40, -2.17428356409072875977e-01) (41, -9.66971293091773986816e-02) (42, -1.18404664099216461182e-01) (43, -2.25650101900100708008e-01) (44, -1.00677162408828735352e-01) (45, -1.28797686193138360977e-03) (46, 1.95993304252624511719e-01) (47, -9.29216071963310241699e-02) (48, 6.18976652622222900391e-02) (49, 1.09555840492248535156e-01) (50, 1.90969929099082946777e-01) (51, 1.87812536954879760742e-01) (52, 3.80514599382877349854e-02) (53, -4.28182631731033325195e-02) (54, 1.97982832789421081543e-01) (55, 8.74830037355422973633e-02) (56, -7.05799013376235961914e-02) (57, 3.94610650837421417236e-02) (58, -2.04166509211063385010e-02) (59, -2.15253396891057491302e-03) (60, -7.07834735512733459473e-02) (61, -2.60546863079071044922e-01) (62, -7.12661445140838623047e-02) (63, 9.16909892112016677856e-03) (64, -4.14261929690837860107e-02) (65, 1.11160829663276672363e-01) (66, 2.43469759821891784668e-01) (67, -2.86521941423416137695e-01) (68, 2.87149250507354736328e-01) (69, 2.90825784206390380859e-01) (70, 2.55336910486221313477e-01) (71, -2.23795622587203979492e-01) (72, -1.02516345679759979248e-01) (73, -1.63336560130119323730e-01) (74, -1.43992125988006591797e-01) (75, 9.72622409462928771973e-02) (76, 1.22416272759437561035e-01) (77, -2.70660936832427978516e-01) (78, -2.89923876523971557617e-01) (79, -9.57547053694725036621e-02) (80, 1.61524444818496704102e-01) (81, 2.12093815207481384277e-01) (82, -2.14202195405960083008e-01) (83, -1.06432341039180755615e-01) (0, -1.49199098348617553711e-01) (1, 2.44415566325187683105e-01) (2, 2.92105019092559814453e-01) (3, 5.33745549619197845459e-02) (4, 2.84806117415428161621e-02) (5, -6.44255951046943664551e-02) (6, -2.55879133939743041992e-01) (7, 2.58669883012771606445e-01) (8, 1.19231529533863067627e-02) (9, -2.06918120384216308594e-02) (10, -3.31208929419517517090e-02) (11, 2.68849939107894897461e-01) (12, -2.06422835588455200195e-01) (13, -1.12739704549312591553e-01) (14, 2.81028300523757934570e-01) (15, -2.13987931609153747559e-01) (16, -1.16161100566387176514e-01) (17, 2.33887866139411926270e-01) (18, -1.38846427202224731445e-01) (19, 7.82878994941711425781e-02) (20, -2.19831392168998718262e-01) (21, 2.34215576201677322388e-02) (22, -1.16506464779376983643e-01) (23, 2.09807232022285461426e-01) (24, 5.87413907051086425781e-02) (25, -9.99537110328674316406e-02) (26, -2.06905841827392578125e-01) (27, -8.81475433707237243652e-02) (28, -1.95453137159347534180e-01) (29, -1.26450866460800170898e-01) (30, 1.10312439501285552979e-01) (31, -4.68609035015106201172e-02) (32, -1.56819015741348266602e-01) (33, 9.69859659671783447266e-02) (34, -2.83526659011840820312e-01) (35, 1.68085321784019470215e-01) (36, -2.34689980745315551758e-01) (37, -2.30217233300209045410e-01) (38, 1.25789225101470947266e-01) (39, 7.75333344936370849609e-02) (40, 4.99451197683811187744e-02) (41, -2.07449346780776977539e-01) (42, 4.96968552470207214355e-02) (43, 1.49313703179359436035e-01) (44, -2.45938356965780258179e-02) (45, 2.04329863190650939941e-02) (46, 2.27371498942375183105e-01) (47, 1.62552773952484130859e-01) (48, -4.23834621906280517578e-02) (49, -2.13685140013694763184e-01) (50, -5.35469204187393188477e-02) (51, 4.14058044552803039551e-02) (52, 1.00561812520027160645e-01) (53, 1.43450498580932617188e-01) (54, -7.74287506937980651855e-02) (55, -1.17222972214221954346e-01) (56, -2.54654526710510253906e-01) (57, 1.90687999129295349121e-02) (58, 6.84891492128372192383e-02) (59, -1.50799319148063659668e-01) (60, 1.89342886209487915039e-01) (61, -1.34013950824737548828e-01) (62, 9.95832830667495727539e-02) (63, -2.80004948377609252930e-01) (64, 2.71254628896713256836e-01) (65, 1.10331736505031585693e-01) (66, 1.96476265788078308105e-01) (67, -2.61831194162368774414e-01) (68, 1.84640482068061828613e-01) (69, 1.96994785219430923462e-02) (70, 1.33512660861015319824e-01) (71, -7.15396106243133544922e-02) (72, 1.26032337546348571777e-01) (73, -1.21921129524707794189e-01) (74, -2.15685501694679260254e-01) (75, -2.01019778847694396973e-01) (76, 2.00668215751647949219e-01) (77, -2.78897345066070556641e-01) (78, 2.62218415737152099609e-01) (79, -1.59962385892868041992e-01) (80, -1.88276410102844238281e-01) (81, -8.52705538272857666016e-02) (82, 1.80381596088409423828e-01) (83, 1.99109807610511779785e-01) (0, -2.56615310907363891602e-01) (1, -2.26437672972679138184e-01) (2, -2.36954018473625183105e-01) (3, -2.28039190173149108887e-01) (4, 1.00595243275165557861e-01) (5, 1.28679439425468444824e-01) (6, -7.16823488473892211914e-02) (7, -1.00535638630390167236e-02) (8, -2.96979427337646484375e-01) (9, -2.82739639282226562500e-01) (10, 2.18874644488096237183e-02) (11, 2.79478549957275390625e-01) (12, 1.30885422229766845703e-01) (13, -7.88818225264549255371e-02) (14, -2.82480746507644653320e-01) (15, 1.34976552799344062805e-02) (16, 2.46967509388923645020e-01) (17, 1.36038959026336669922e-01) (18, 2.47182220220565795898e-01) (19, 6.92551434040069580078e-02) (20, 3.22241961956024169922e-01) (21, -2.75208264589309692383e-01) (22, 1.63954049348831176758e-01) (23, 1.85117080807685852051e-01) (24, -2.63167083263397216797e-01) (25, 1.21150560677051544189e-01) (26, -2.71263092756271362305e-01) (27, -1.66782408952713012695e-01) (28, -2.70724236965179443359e-01) (29, 1.97375789284706115723e-01) (30, -2.64254957437515258789e-01) (31, -2.24748238921165466309e-01) (32, 2.85019487142562866211e-01) (33, -2.05691024661064147949e-01) (34, -1.42267957329750061035e-01) (35, 8.56410786509513854980e-02) (36, 2.22104191780090332031e-01) (37, 8.15434455871582031250e-02) (38, -2.25297540426254272461e-01) (39, 2.25517302751541137695e-01) (40, 1.00422412157058715820e-01) (41, 9.74262580275535583496e-02) (42, 2.10110589861869812012e-01) (43, -6.43690675497055053711e-02) (44, -2.87380039691925048828e-01) (45, 2.17822730541229248047e-01) (46, 2.39251002669334411621e-01) (47, 2.63321131467819213867e-01) (48, 5.83229660987854003906e-02) (49, 1.90778210759162902832e-01) (50, 2.60484199970960617065e-02) (51, 6.66439086198806762695e-02) (52, 2.25311070680618286133e-01) (53, -1.03904858231544494629e-01) (54, -5.48568926751613616943e-02) (55, 2.48526722192764282227e-01) (56, -2.84604132175445556641e-01) (57, -3.10060773044824600220e-02) (58, -2.07875311374664306641e-01) (59, -2.60830640792846679688e-01) (60, -1.35630071163177490234e-01) (61, -1.94758981466293334961e-01) (62, -1.83550775051116943359e-01) (63, -1.46160200238227844238e-01) (64, -7.97890350222587585449e-02) (65, -2.08244100213050842285e-02) (66, 2.44343385100364685059e-01) (67, -1.63803130388259887695e-01) (68, -2.45551899075508117676e-01) (69, -2.89756506681442260742e-01) (70, -2.36201494932174682617e-01) (71, 1.66065976023674011230e-01) (72, 1.10697127878665924072e-01) (73, 2.65345633029937744141e-01) (74, -2.10255056619644165039e-01) (75, 1.31565377116203308105e-01) (76, 1.93758681416511535645e-01) (77, -2.58950084447860717773e-01) (78, 1.00273452699184417725e-01) (79, -6.00808709859848022461e-02) (80, 2.12745308876037597656e-01) (81, -1.73634514212608337402e-01) (82, 3.01311165094375610352e-01) (83, 1.28955245018005371094e-01) (0, 1.56017374247312545776e-02) (1, -5.55132813751697540283e-02) (2, 8.02869796752929687500e-02) (3, 1.43209276720881462097e-02) (4, 1.99979394674301147461e-01) (5, 1.50134399533271789551e-01) (6, 8.77704694867134094238e-02) (7, -2.21865281462669372559e-01) (8, 2.78353035449981689453e-01) (9, 1.74316883087158203125e-01) (10, -6.95988461375236511230e-02) (11, -1.10858537256717681885e-01) (12, -1.53639331459999084473e-01) (13, -1.32584497332572937012e-01) (14, 2.28587072342634201050e-02) (15, -9.80499908328056335449e-02) (16, -1.19615241885185241699e-01) (17, 8.21848735213279724121e-02) (18, -2.43338644504547119141e-01) (19, 3.11467140913009643555e-01) (20, 2.65652835369110107422e-02) (21, -1.43346115946769714355e-01) (22, 1.14238530397415161133e-01) (23, -3.61486449837684631348e-02) (24, -1.28029316663742065430e-01) (25, -8.56612846255302429199e-02) (26, 1.74172401428222656250e-01) (27, -2.08308473229408264160e-01) (28, 3.70661914348602294922e-02) (29, 1.73362389206886291504e-01) (30, 2.27181121706962585449e-01) (31, -2.52642065286636352539e-01) (32, -1.86835780739784240723e-01) (33, 6.62213983014225959778e-03) (34, 6.72246888279914855957e-02) (35, -2.75711447000503540039e-01) (36, -1.32962137460708618164e-01) (37, -1.75680443644523620605e-01) (38, -1.96893781423568725586e-01) (39, -1.56677827239036560059e-01) (40, 3.00395131111145019531e-01) (41, 3.47455367445945739746e-02) (42, 3.39950956404209136963e-02) (43, -1.54375016689300537109e-01) (44, 2.03350484371185302734e-01) (45, -2.43428587913513183594e-01) (46, 4.91943955421447753906e-02) (47, -2.17477977275848388672e-01) (48, 1.39234125614166259766e-01) (49, 1.08036033809185028076e-01) (50, -2.30695366859436035156e-01) (51, -1.15253940224647521973e-01) (52, 2.44088917970657348633e-01) (53, 1.98590904474258422852e-01) (54, 1.12024411559104919434e-01) (55, -1.70104131102561950684e-01) (56, -1.92575633525848388672e-01) (57, -2.65537239611148834229e-02) (58, -9.52635779976844787598e-02) (59, 1.34164795279502868652e-01) (60, -1.43709346652030944824e-01) (61, -1.49137794971466064453e-01) (62, 1.93967565894126892090e-01) (63, -3.13675962388515472412e-02) (64, 1.38598769903182983398e-01) (65, -5.97419366240501403809e-02) (66, -1.69328246265649795532e-02) (67, -2.80698150396347045898e-01) (68, 8.30803662538528442383e-02) (69, 1.01844206452369689941e-01) (70, -1.41940936446189880371e-01) (71, 8.20328593254089355469e-02) (72, -1.61313533782958984375e-01) (73, 1.96246504783630371094e-01) (74, 2.34913155436515808105e-01) (75, -2.56735205650329589844e-01) (76, 2.46920958161354064941e-01) (77, -2.75844763964414596558e-02) (78, -1.98091253638267517090e-01) (79, 7.45418965816497802734e-02) (80, -2.13210523128509521484e-01) (81, -1.05702541768550872803e-01) (82, 2.74609118700027465820e-01) (83, -2.63427913188934326172e-01) (0, -2.26043865084648132324e-01) (1, 8.92843976616859436035e-02) (2, -1.41010880470275878906e-01) (3, -8.49550664424896240234e-02) (4, -2.31739237904548645020e-01) (5, 5.19310384988784790039e-02) (6, -2.30113565921783447266e-01) (7, -6.67205229401588439941e-02) (8, 2.15566724538803100586e-01) (9, 2.41632327437400817871e-01) (10, 2.08160996437072753906e-01) (11, 6.30219131708145141602e-02) (12, -9.80478525161743164062e-02) (13, -9.47012230753898620605e-02) (14, 7.79087394475936889648e-02) (15, 2.90291219949722290039e-01) (16, -2.92959094047546386719e-01) (17, 2.38410964608192443848e-01) (18, 7.59260952472686767578e-02) (19, -1.26208409667015075684e-01) (20, 1.39480143785476684570e-01) (21, 3.13463136553764343262e-02) (22, -1.23354867100715637207e-01) (23, 9.09636989235877990723e-02) (24, 2.91159182786941528320e-01) (25, 6.42061512917280197144e-03) (26, -1.27780914306640625000e-01) (27, -2.23162636160850524902e-01) (28, 2.03523114323616027832e-01) (29, -1.54685094952583312988e-01) (30, -1.85790687799453735352e-01) (31, 2.95297890901565551758e-01) (32, 2.33449667692184448242e-01) (33, -2.61519309133291244507e-02) (34, -1.05963326990604400635e-01) (35, -2.94809788465499877930e-01) (36, -2.52990007400512695312e-01) (37, -5.99733181297779083252e-02) (38, -6.01277425885200500488e-02) (39, 2.63038277626037597656e-01) (40, -1.17961131036281585693e-01) (41, -1.54373556375503540039e-01) (42, 2.57167555391788482666e-02) (43, 8.49770456552505493164e-02) (44, 5.22330254316329956055e-02) (45, -1.97699472308158874512e-01) (46, 7.37623199820518493652e-02) (47, 6.04057833552360534668e-02) (48, -2.60025888681411743164e-01) (49, -1.51378333568572998047e-01) (50, 2.00942203402519226074e-01) (51, 1.80048570036888122559e-01) (52, 1.60619705915451049805e-01) (53, -2.16311976313591003418e-01) (54, -5.17495945096015930176e-02) (55, 1.63991510868072509766e-01) (56, 1.01597175002098083496e-01) (57, 1.15635931491851806641e-01) (58, 2.33415111899375915527e-01) (59, -1.24095473438501358032e-02) (60, 2.60470777750015258789e-01) (61, -2.60975420475006103516e-01) (62, -1.15789510309696197510e-02) (63, 1.99958890676498413086e-01) (64, 1.33923711255192756653e-02) (65, 1.84846043586730957031e-01) (66, 1.93647280335426330566e-01) (67, 6.31649345159530639648e-02) (68, -1.71031579375267028809e-01) (69, -1.34459108114242553711e-01) (70, 3.06605678051710128784e-02) (71, 2.63974852859973907471e-02) (72, 1.05875581502914428711e-02) (73, -2.45460569858551025391e-01) (74, -1.99988350272178649902e-01) (75, -2.43057280778884887695e-01) (76, -1.47753059864044189453e-01) (77, 1.66816696524620056152e-01) (78, 1.07174858450889587402e-01) (79, -1.31128713488578796387e-01) (80, -2.89861589670181274414e-01) (81, 1.62235070019960403442e-02) (82, -2.36475363373756408691e-01) (83, 1.77170053124427795410e-01) (0, 1.16999089717864990234e-01) (1, 3.72327864170074462891e-02) (2, 2.10426319390535354614e-02) (3, -8.89969468116760253906e-02) (4, -1.31485030055046081543e-01) (5, -3.21124494075775146484e-02) (6, 2.00323417782783508301e-01) (7, -1.76227986812591552734e-01) (8, -9.47985798120498657227e-03) (9, -1.04413628578186035156e-01) (10, -2.69802540540695190430e-01) (11, -2.96175658702850341797e-01) (12, -2.16838598251342773438e-01) (13, 2.44850665330886840820e-01) (14, 6.71725869178771972656e-02) (15, -8.70958566665649414062e-02) (16, -2.03985646367073059082e-01) (17, -2.08349928259849548340e-01) (18, 2.25261971354484558105e-01) (19, 1.04023985564708709717e-01) (20, -1.56833216547966003418e-01) (21, -2.90574610233306884766e-01) (22, 1.62670373916625976562e-01) (23, -3.12286615371704101562e-02) (24, 1.86784327030181884766e-01) (25, -4.06402908265590667725e-02) (26, 1.91085293889045715332e-01) (27, 2.09622293710708618164e-01) (28, 2.77484923601150512695e-01) (29, 2.58313119411468505859e-01) (30, 8.59583690762519836426e-02) (31, 8.36668759584426879883e-02) (32, -2.02923491597175598145e-02) (33, -1.90051436424255371094e-01) (34, 2.87033617496490478516e-01) (35, 1.30030438303947448730e-01) (36, 6.08336776494979858398e-02) (37, 1.89587667584419250488e-01) (38, 2.55060225725173950195e-01) (39, -2.49824836850166320801e-01) (40, -2.16397240757942199707e-01) (41, 2.87361830472946166992e-01) (42, -2.48622089624404907227e-01) (43, -1.35724604129791259766e-01) (44, 2.34362557530403137207e-01) (45, 1.27098411321640014648e-01) (46, 8.54662582278251647949e-02) (47, -2.72504150867462158203e-01) (48, 2.15834856033325195312e-01) (49, 5.76037121936678886414e-03) (50, 1.14719845354557037354e-01) (51, -2.50085741281509399414e-01) (52, 1.30262300372123718262e-02) (53, -3.76727096736431121826e-02) (54, 5.67073374986648559570e-02) (55, -9.80669781565666198730e-02) (56, 2.21702516078948974609e-01) (57, -5.24834357202053070068e-02) (58, -1.87122941017150878906e-01) (59, 1.92714035511016845703e-01) (60, -8.66416245698928833008e-02) (61, 2.07857131958007812500e-01) (62, -1.07660591602325439453e-02) (63, 1.80544599890708923340e-01) (64, -2.77114510536193847656e-01) (65, -7.98134598881006240845e-03) (66, 3.74654628103598952293e-05) (67, 6.60418942570686340332e-02) (68, -1.37254327535629272461e-01) (69, -2.92186718434095382690e-02) (70, 1.32364615797996520996e-01) (71, -6.53521418571472167969e-02) (72, -6.28392547369003295898e-02) (73, 1.79113432765007019043e-01) (74, 1.14682443439960479736e-01) (75, -1.34052082896232604980e-01) (76, -1.75104429945349693298e-03) (77, -1.07987985014915466309e-01) (78, -7.86680653691291809082e-02) (79, -7.50831887125968933105e-02) (80, 2.05942943692207336426e-01) (81, -2.82700240612030029297e-01) (82, -1.26935467123985290527e-02) (83, -6.57436996698379516602e-02) (0, -5.25014055892825126648e-03) (1, -2.69194453954696655273e-01) (2, 1.41159072518348693848e-01) (3, -5.94356134533882141113e-02) (4, -3.08447834104299545288e-02) (5, 2.94437378644943237305e-01) (6, -1.59490376710891723633e-01) (7, 1.83408856391906738281e-01) (8, 1.83024272322654724121e-01) (9, 1.25876203179359436035e-01) (10, 6.45658746361732482910e-02) (11, 2.03803122043609619141e-01) (12, -1.99654385447502136230e-01) (13, -2.25479766726493835449e-01) (14, -1.55022721737623214722e-02) (15, -3.49030531942844390869e-02) (16, 4.09743301570415496826e-02) (17, -1.83874577283859252930e-01) (18, 2.14721634984016418457e-01) (19, 2.76804476976394653320e-01) (20, -3.04696857929229736328e-01) (21, -7.83749483525753021240e-03) (22, -1.38023585081100463867e-01) (23, 6.74023479223251342773e-03) (24, 2.24075868725776672363e-01) (25, 8.22676867246627807617e-02) (26, 2.43173480033874511719e-01) (27, 1.34835451841354370117e-01) (28, 1.13476671278476715088e-01) (29, -7.39191100001335144043e-02) (30, -2.35828548669815063477e-01) (31, -1.87322348356246948242e-01) (32, -3.66316027939319610596e-02) (33, 2.12726294994354248047e-01) (34, 4.33426089584827423096e-02) (35, 2.46346816420555114746e-01) (36, 1.84374138712882995605e-01) (37, 1.81289985775947570801e-01) (38, 1.28661125898361206055e-01) (39, 6.78441151976585388184e-02) (40, 4.75817127153277397156e-03) (41, -1.07705436646938323975e-01) (42, -3.71759198606014251709e-02) (43, 9.99572128057479858398e-02) (44, -2.68933996558189392090e-02) (45, 2.60695815086364746094e-01) (46, -2.23438397049903869629e-01) (47, -2.90098279714584350586e-01) (48, -2.30369150638580322266e-01) (49, 2.84843236207962036133e-01) (50, -2.95719861984252929688e-01) (51, -2.22707435488700866699e-01) (52, -7.52039719372987747192e-03) (53, -1.38843566179275512695e-01) (54, 8.66276770830154418945e-02) (55, -6.95200487971305847168e-02) (56, 2.52625554800033569336e-01) (57, 2.47005056589841842651e-02) (58, -2.35335409641265869141e-01) (59, 6.95785656571388244629e-02) (60, 2.53416717052459716797e-01) (61, -1.56090155243873596191e-01) (62, 1.77322864532470703125e-01) (63, -5.93683533370494842529e-02) (64, -2.41033717989921569824e-01) (65, -7.62114971876144409180e-02) (66, -1.21256634593009948730e-01) (67, 2.45371222496032714844e-01) (68, -1.97012007236480712891e-01) (69, 3.03455173969268798828e-01) (70, 1.69211868196725845337e-02) (71, 1.00353471934795379639e-01) (72, -1.08150057494640350342e-01) (73, 2.66566485166549682617e-01) (74, -8.87330546975135803223e-02) (75, 1.57531201839447021484e-01) (76, 2.24595755338668823242e-01) (77, -1.38237113133072853088e-02) (78, 1.61492705345153808594e-01) (79, 3.12491238117218017578e-01) (80, -2.62012798339128494263e-02) (81, 1.80078104138374328613e-01) (82, -2.22208544611930847168e-01) (83, 2.93702065944671630859e-01) (0, -2.60447561740875244141e-01) (1, 1.32867261767387390137e-01) (2, -6.44491165876388549805e-02) (3, 3.13213199377059936523e-01) (4, -8.51624980568885803223e-02) (5, 1.62055026739835739136e-02) (6, 5.45807406306266784668e-02) (7, -1.41418039798736572266e-01) (8, 1.56664744019508361816e-01) (9, -5.74581250548362731934e-02) (10, 8.22844579815864562988e-02) (11, 2.13133454322814941406e-01) (12, 1.67901247739791870117e-01) (13, 2.51445978879928588867e-01) (14, 1.52976214885711669922e-01) (15, 2.72181183099746704102e-01) (16, 2.47968122363090515137e-01) (17, -1.42423599958419799805e-01) (18, 8.01945924758911132812e-02) (19, -1.57510936260223388672e-01) (20, -1.57568588852882385254e-01) (21, 2.76503056287765502930e-01) (22, 2.99911379814147949219e-01) (23, -2.49558299779891967773e-01) (24, -1.64944231510162353516e-02) (25, 1.54393523931503295898e-01) (26, -2.40066185593605041504e-01) (27, 2.51282721757888793945e-01) (28, 1.71140898019075393677e-02) (29, -1.65564671158790588379e-01) (30, 2.37687826156616210938e-01) (31, 5.46498559415340423584e-02) (32, -3.00417661666870117188e-01) (33, -1.31352633237838745117e-01) (34, 4.77139949798583984375e-02) (35, -1.00947424769401550293e-01) (36, 1.81200191378593444824e-01) (37, -1.91749155521392822266e-01) (38, 5.84470741450786590576e-02) (39, 3.62147465348243713379e-02) (40, 5.23425601422786712646e-02) (41, -1.59853532910346984863e-01) (42, -4.70783598721027374268e-02) (43, -7.70195648074150085449e-02) (44, -2.12632998824119567871e-01) (45, -2.02622264623641967773e-01) (46, -1.13206155598163604736e-01) (47, -2.63773173093795776367e-01) (48, -4.02384400367736816406e-02) (49, 2.68318027257919311523e-01) (50, -1.25791549682617187500e-01) (51, 1.13813854753971099854e-01) (52, 2.65429526567459106445e-01) (53, -1.44837573170661926270e-01) (54, 1.52832210063934326172e-01) (55, -5.55328465998172760010e-02) (56, -2.78507024049758911133e-01) (57, 2.24958896636962890625e-01) (58, -1.13812357187271118164e-01) (59, 3.12828011810779571533e-02) (60, -2.48611554503440856934e-01) (61, -1.73393756151199340820e-01) (62, -1.99879035353660583496e-01) (63, -2.38853693008422851562e-01) (64, 2.97454476822167634964e-04) (65, 1.42987325787544250488e-01) (66, -5.95371574163436889648e-02) (67, -1.25604197382926940918e-01) (68, 2.48096898198127746582e-01) (69, -2.89200484752655029297e-01) (70, 2.22197383642196655273e-01) (71, -4.96614025905728340149e-04) (72, -1.49100363254547119141e-01) (73, -1.31242915987968444824e-01) (74, 2.23397925496101379395e-01) (75, -6.26313313841819763184e-02) (76, -3.24622802436351776123e-02) (77, -1.87859743833541870117e-01) (78, -2.30339113622903823853e-02) (79, 2.23413348197937011719e-01) (80, -2.09621325135231018066e-01) (81, 1.59667417407035827637e-01) (82, 2.22918745130300521851e-02) (83, -2.58290767669677734375e-01) (0, -2.56946891546249389648e-01) (1, -1.15304730832576751709e-01) (2, 3.16060590557754039764e-03) (3, -2.70941734313964843750e-01) (4, -2.01014637947082519531e-01) (5, 1.97494819760322570801e-01) (6, 7.49016404151916503906e-02) (7, -1.56846985220909118652e-01) (8, -2.82079547643661499023e-01) (9, 1.68089732527732849121e-01) (10, -1.05630233883857727051e-01) (11, 2.03136447817087173462e-02) (12, 6.16140896454453468323e-03) (13, 1.46225944161415100098e-01) (14, 2.03021556138992309570e-01) (15, -4.59428876638412475586e-02) (16, 1.56018495559692382812e-01) (17, 1.22087396681308746338e-01) (18, 2.54888743162155151367e-01) (19, -2.93122351169586181641e-01) (20, 3.17876994609832763672e-01) (21, 2.00662419199943542480e-01) (22, -3.75108681619167327881e-02) (23, -4.04906906187534332275e-02) (24, 2.96801090240478515625e-01) (25, 2.30723366141319274902e-01) (26, -1.10654689371585845947e-01) (27, -2.36043423414230346680e-01) (28, 8.56106281280517578125e-02) (29, 2.13450148701667785645e-01) (30, -1.89456775784492492676e-01) (31, 1.06896959245204925537e-01) (32, -2.09882631897926330566e-01) (33, 1.02411657571792602539e-01) (34, 1.47279277443885803223e-01) (35, -1.16729550063610076904e-01) (36, -1.13386092707514762878e-02) (37, -7.83512517809867858887e-02) (38, 2.74171642959117889404e-02) (39, 6.22664345428347587585e-03) (40, -2.10054039955139160156e-01) (41, 2.22473755478858947754e-01) (42, -2.60463744401931762695e-01) (43, 1.09281487762928009033e-01) (44, 5.67756406962871551514e-02) (45, 2.19704240560531616211e-01) (46, -2.61717081069946289062e-01) (47, -8.26005414128303527832e-02) (48, 5.25053143501281738281e-02) (49, -2.99942702054977416992e-01) (50, -7.57536739110946655273e-02) (51, 4.05971296131610870361e-02) (52, 1.91889703273773193359e-01) (53, 1.93247511982917785645e-01) (54, -2.75910705327987670898e-01) (55, 1.67125016450881958008e-01) (56, 1.25044047832489013672e-01) (57, -1.02559357881546020508e-01) (58, 2.40941882133483886719e-01) (59, -1.01545885205268859863e-01) (60, -1.82001307606697082520e-01) (61, -2.70773440599441528320e-01) (62, -2.90709972381591796875e-01) (63, -1.12207956612110137939e-01) (64, 1.42775461077690124512e-01) (65, 1.59391537308692932129e-01) (66, 7.33558535575866699219e-02) (67, -1.69221416115760803223e-01) (68, -2.29299440979957580566e-01) (69, -1.83921515941619873047e-01) (70, 1.50112971663475036621e-01) (71, -1.23868599534034729004e-01) (72, -2.53836601972579956055e-01) (73, 1.83381617069244384766e-01) (74, 2.69227385520935058594e-01) (75, 9.60321947932243347168e-02) (76, 9.65631902217864990234e-02) (77, -2.83952802419662475586e-01) (78, -2.66546905040740966797e-01) (79, -1.36154577136039733887e-01) (80, -2.71671861410140991211e-01) (81, -4.27202433347702026367e-02) (82, 2.01767936348915100098e-01) (83, 1.82991445064544677734e-01) (0, -1.74743518233299255371e-01) (1, 2.09186568856239318848e-01) (2, 4.60266284644603729248e-02) (3, 2.26387545466423034668e-01) (4, -2.30630800127983093262e-01) (5, -7.88769405335187911987e-03) (6, -1.82843342423439025879e-01) (7, -1.08911775052547454834e-01) (8, 2.34858226031064987183e-02) (9, -1.63181006908416748047e-01) (10, 8.82209539413452148438e-02) (11, -1.35764285922050476074e-01) (12, 2.86510884761810302734e-01) (13, -1.33377686142921447754e-01) (14, -4.70915110781788825989e-03) (15, -2.43546277284622192383e-01) (16, -2.54857651889324188232e-02) (17, -1.66963502764701843262e-01) (18, -8.04741904139518737793e-02) (19, 2.15244647115468978882e-02) (20, -3.02924484014511108398e-01) (21, -1.17677368223667144775e-01) (22, -2.25659549236297607422e-01) (23, 9.59311649203300476074e-02) (24, -1.21550343930721282959e-01) (25, -1.74162611365318298340e-01) (26, 2.50390619039535522461e-01) (27, -9.47898924350738525391e-02) (28, 8.01985114812850952148e-02) (29, 1.42538785934448242188e-01) (30, -2.00738638639450073242e-01) (31, 2.12045177817344665527e-01) (32, 3.66296879947185516357e-02) (33, 1.57156661152839660645e-01) (34, 1.52490690350532531738e-01) (35, 1.23781010508537292480e-01) (36, -1.59420087933540344238e-01) (37, 2.89494872093200683594e-01) (38, -2.85211771726608276367e-01) (39, 1.66625857353210449219e-01) (40, -1.75587490200996398926e-01) (41, 1.02430164813995361328e-01) (42, -2.82818585634231567383e-01) (43, -2.01253563165664672852e-01) (44, 2.81049787998199462891e-01) (45, 3.54131646454334259033e-02) (46, -1.21890455484390258789e-01) (47, -5.10029904544353485107e-02) (48, 1.58775478601455688477e-01) (49, 8.77087712287902832031e-02) (50, 2.55308628082275390625e-01) (51, 1.46819993853569030762e-01) (52, 2.41804689168930053711e-01) (53, -2.39697188138961791992e-01) (54, -3.95447276532649993896e-02) (55, -1.56929999589920043945e-01) (56, -1.37916833162307739258e-01) (57, -8.33372324705123901367e-02) (58, 5.02378046512603759766e-02) (59, 2.40920439362525939941e-01) (60, -2.60245114564895629883e-01) (61, 1.58960431814193725586e-01) (62, 1.59157752990722656250e-01) (63, 7.98026695847511291504e-02) (64, 3.77922691404819488525e-03) (65, 2.21899785101413726807e-02) (66, -1.06645397841930389404e-01) (67, 1.65265485644340515137e-01) (68, 1.00208697840571403503e-02) (69, -6.82082995772361755371e-02) (70, 2.40969508886337280273e-02) (71, 1.34826123714447021484e-01) (72, -2.75437593460083007812e-01) (73, 4.27950359880924224854e-02) (74, 2.34214648604393005371e-01) (75, 3.15858632326126098633e-01) (76, -2.05124199390411376953e-01) (77, -1.83164998888969421387e-01) (78, -7.05787613987922668457e-02) (79, 2.22557574510574340820e-01) (80, 1.88852876424789428711e-01) (81, -1.21366396546363830566e-01) (82, 8.30163955688476562500e-02) (83, 1.77506089210510253906e-01) (0, -6.25674948096275329590e-02) (1, -2.33951553702354431152e-01) (2, -2.68495768308639526367e-01) (3, 1.33163750171661376953e-01) (4, -2.04361863434314727783e-02) (5, 7.60363340377807617188e-02) (6, 7.47797489166259765625e-02) (7, 1.09995128586888313293e-02) (8, -5.46866357326507568359e-02) (9, -5.33312335610389709473e-02) (10, -2.03708171844482421875e-01) (11, 2.64650553464889526367e-01) (12, 2.69360870122909545898e-01) (13, 7.34022911638021469116e-03) (14, 1.23498454689979553223e-01) (15, -2.20883991569280624390e-02) (16, 2.32713803648948669434e-01) (17, -1.53459653258323669434e-01) (18, -1.88185304403305053711e-01) (19, 2.63119727373123168945e-01) (20, 2.00503751635551452637e-01) (21, -2.26648017764091491699e-01) (22, 2.67515331506729125977e-01) (23, 2.86604881286621093750e-01) (24, -1.20813392102718353271e-01) (25, -1.06439001858234405518e-01) (26, 2.12831318378448486328e-01) (27, -2.32075124979019165039e-01) (28, 8.20141285657882690430e-02) (29, 6.63474202156066894531e-03) (30, 2.35555738210678100586e-01) (31, -2.78016179800033569336e-01) (32, 6.02175742387771606445e-02) (33, 2.57843345403671264648e-01) (34, 1.42616227269172668457e-01) (35, -2.80207246541976928711e-01) (36, 4.10333760082721710205e-02) (37, -8.18138048052787780762e-02) (38, 3.10497116297483444214e-02) (39, 2.85216242074966430664e-01) (40, 1.67510449886322021484e-01) (41, 1.29543304443359375000e-01) (42, 2.61563926935195922852e-01) (43, 1.46006941795349121094e-01) (44, -1.73688530921936035156e-01) (45, 6.37759044766426086426e-02) (46, -1.97361186146736145020e-01) (47, -2.36772716045379638672e-01) (48, 2.21351623535156250000e-01) (49, -7.78135582804679870605e-02) (50, -2.80432760715484619141e-01) (51, 1.15538932383060455322e-01) (52, 2.28167558088898658752e-03) (53, 2.78859108686447143555e-01) (54, 1.04835063219070434570e-01) (55, 1.61718577146530151367e-01) (56, -1.20360180735588073730e-01) (57, 1.84788499027490615845e-02) (58, 2.21086964011192321777e-01) (59, 2.58176714181900024414e-01) (60, -2.79622048139572143555e-01) (61, 1.60803377628326416016e-01) (62, 2.92620271444320678711e-01) (63, 6.93633258342742919922e-02) (64, 1.10159374773502349854e-01) (65, 1.21628820896148681641e-01) (66, 8.05615633726119995117e-02) (67, -1.53153821825981140137e-01) (68, -2.58452057838439941406e-01) (69, -1.71794846653938293457e-01) (70, -1.59359410405158996582e-01) (71, 2.06213518977165222168e-01) (72, 2.59643644094467163086e-01) (73, -1.99473753571510314941e-01) (74, 5.66361322999000549316e-02) (75, -2.11149439215660095215e-01) (76, 1.61202028393745422363e-01) (77, 1.53809487819671630859e-01) (78, -1.40728533267974853516e-01) (79, 7.85852670669555664062e-02) (80, -2.13333874940872192383e-01) (81, -9.13456901907920837402e-02) (82, -8.21152850985527038574e-02) (83, 5.76721392571926116943e-02) (0, -1.35363385081291198730e-01) (1, -3.04075628519058227539e-01) (2, -8.73053595423698425293e-02) (3, 5.16289845108985900879e-02) (4, 6.61617796868085861206e-03) (5, -1.54899954795837402344e-01) (6, 2.80797807499766349792e-03) (7, 2.90832053869962692261e-02) (8, 2.98778384923934936523e-01) (9, -9.90399345755577087402e-03) (10, -1.95184826850891113281e-01) (11, 1.11477077007293701172e-01) (12, -1.87108099460601806641e-01) (13, 2.03097969293594360352e-01) (14, 2.66448974609375000000e-01) (15, -1.43808305263519287109e-01) (16, -2.69224464893341064453e-01) (17, -1.93492382764816284180e-01) (18, -2.34089806675910949707e-01) (19, 2.94481456279754638672e-01) (20, -9.16669964790344238281e-02) (21, 1.04264013469219207764e-01) (22, -2.20377951860427856445e-01) (23, -2.37854272127151489258e-01) (24, -3.65843549370765686035e-02) (25, -4.85251769423484802246e-02) (26, 1.50463730096817016602e-01) (27, 5.55106699466705322266e-02) (28, 1.44983351230621337891e-01) (29, -2.44399890303611755371e-01) (30, -1.77611649036407470703e-01) (31, -2.81696289777755737305e-01) (32, -2.40908905863761901855e-01) (33, 4.31337244808673858643e-02) (34, 6.96027651429176330566e-02) (35, 7.28896930813789367676e-02) (36, 1.85188859701156616211e-01) (37, -2.22037032246589660645e-01) (38, -1.98551923036575317383e-01) (39, 1.83786332607269287109e-01) (40, 6.78947195410728454590e-02) (41, -9.30568501353263854980e-02) (42, -1.38696823269128799438e-02) (43, 1.75231322646141052246e-01) (44, -1.84381753206253051758e-01) (45, -3.41461300849914550781e-02) (46, -2.55263388156890869141e-01) (47, -1.56246036291122436523e-01) (48, 6.58127069473266601562e-02) (49, -1.96069464087486267090e-01) (50, -1.66219189763069152832e-01) (51, 2.65580028295516967773e-01) (52, 2.05696225166320800781e-01) (53, -8.62449780106544494629e-02) (54, -2.75391757488250732422e-01) (55, -1.14171653985977172852e-01) (56, 1.63905575871467590332e-01) (57, 1.80867105722427368164e-01) (58, 2.31239467859268188477e-01) (59, 7.69873382523655891418e-03) (60, 2.25530087947845458984e-01) (61, -2.45045855641365051270e-01) (62, 2.62796394526958465576e-02) (63, 2.97005355358123779297e-01) (64, 1.00062519311904907227e-01) (65, -2.02477261424064636230e-01) (66, 6.17928989231586456299e-02) (67, -6.21949741616845130920e-03) (68, -1.19142480194568634033e-01) (69, 1.71225652098655700684e-01) (70, -1.32289707660675048828e-01) (71, 2.41987168788909912109e-01) (72, -2.34240978956222534180e-01) (73, 1.69191002845764160156e-01) (74, 1.31331279873847961426e-01) (75, -1.13231241703033447266e-01) (76, -1.69022634625434875488e-01) (77, 1.72301501035690307617e-01) (78, 2.63889227062463760376e-02) (79, 1.95885837078094482422e-01) (80, 2.73433417081832885742e-01) (81, 1.39752358198165893555e-01) (82, 1.55474171042442321777e-01) (83, 1.98516651988029479980e-01) (0, -2.36397281289100646973e-01) (1, 1.88466653227806091309e-01) (2, -2.33947440981864929199e-01) (3, 2.36212000250816345215e-01) (4, 6.78643435239791870117e-02) (5, -2.55588203668594360352e-01) (6, -3.82736437022686004639e-02) (7, -2.44093104265630245209e-03) (8, -2.13512182235717773438e-01) (9, 2.91919112205505371094e-01) (10, -8.24680645018815994263e-03) (11, 1.96378871798515319824e-01) (12, -2.07891449332237243652e-01) (13, -2.42403581738471984863e-01) (14, -1.11299782991409301758e-01) (15, -2.70506907254457473755e-02) (16, 2.27579340338706970215e-01) (17, 6.48823902010917663574e-02) (18, -7.88502097129821777344e-02) (19, -3.14295917749404907227e-01) (20, -7.97193795442581176758e-02) (21, -2.56744623184204101562e-01) (22, -1.14460751414299011230e-01) (23, 6.17909841239452362061e-02) (24, 2.09467187523841857910e-01) (25, 2.12181687355041503906e-01) (26, -4.59293834865093231201e-02) (27, 1.94921091198921203613e-01) (28, 6.84298500418663024902e-02) (29, -1.89216539263725280762e-01) (30, 8.52643698453903198242e-02) (31, 1.42534315586090087891e-01) (32, 2.97596991062164306641e-01) (33, 1.63715168833732604980e-01) (34, 8.65928307175636291504e-02) (35, 5.97966983914375305176e-02) (36, 1.85185357928276062012e-01) (37, -2.55113452672958374023e-01) (38, -2.43127048015594482422e-01) (39, 2.74188071489334106445e-01) (40, -2.65817195177078247070e-01) (41, 4.94354665279388427734e-02) (42, 1.56415894627571105957e-01) (43, -1.84205934405326843262e-01) (44, 1.19291841983795166016e-01) (45, -2.32610985636711120605e-01) (46, 1.12851791083812713623e-01) (47, 3.99533323943614959717e-02) (48, 1.21560841798782348633e-01) (49, -2.78489857912063598633e-01) (50, 3.76739613711833953857e-02) (51, -2.50282019376754760742e-01) (52, -2.32664361596107482910e-01) (53, 2.23444893956184387207e-01) (54, 1.14333070814609527588e-01) (55, 2.75113016366958618164e-01) (56, 1.12771511077880859375e-01) (57, -2.37729892134666442871e-01) (58, 1.73579886555671691895e-01) (59, -9.48406606912612915039e-02) (60, -1.10545739531517028809e-01) (61, -2.27476116269826889038e-02) (62, -2.69292324781417846680e-01) (63, -1.21001049876213073730e-01) (64, -1.65677964687347412109e-01) (65, 1.22394189238548278809e-01) (66, 2.26950272917747497559e-01) (67, -2.89270281791687011719e-01) (68, 1.67301148176193237305e-01) (69, 2.82323032617568969727e-01) (70, 2.79666334390640258789e-01) (71, 2.05229878425598144531e-01) (72, 2.82347481697797775269e-02) (73, 1.47763699293136596680e-01) (74, -2.71185696125030517578e-01) (75, -1.53755754232406616211e-01) (76, 2.17555850744247436523e-01) (77, 1.42357021570205688477e-01) (78, 1.83843031525611877441e-01) (79, 4.79821190237998962402e-02) (80, 1.61295995116233825684e-01) (81, -9.18805748224258422852e-02) (82, 8.28809067606925964355e-02) (83, 2.46964976191520690918e-01) (0, -1.90317437052726745605e-01) (1, -8.91542509198188781738e-02) (2, 2.28973940014839172363e-01) (3, 2.81894475221633911133e-01) (4, -2.58058365434408187866e-02) (5, 1.45316928625106811523e-01) (6, -1.18584387004375457764e-01) (7, 1.58396214246749877930e-01) (8, -2.10005640983581542969e-01) (9, -7.89444744586944580078e-02) (10, -2.65483468770980834961e-01) (11, -7.31184631586074829102e-02) (12, -2.49873816967010498047e-01) (13, 2.73640185594558715820e-01) (14, -5.18059879541397094727e-02) (15, 2.26000517606735229492e-01) (16, 2.67972350120544433594e-01) (17, -5.94184845685958862305e-02) (18, 1.35010987520217895508e-01) (19, 1.80599428713321685791e-02) (20, -1.88386023044586181641e-01) (21, 1.75927996635437011719e-01) (22, 1.57652288675308227539e-01) (23, -2.67398327589035034180e-01) (24, 9.58486553281545639038e-03) (25, 4.60092723369598388672e-02) (26, 5.60545586049556732178e-02) (27, -1.29546940326690673828e-01) (28, 2.67659932374954223633e-01) (29, -1.52247637510299682617e-01) (30, -1.95185542106628417969e-01) (31, -1.90580174326896667480e-01) (32, 5.63405379652976989746e-02) (33, -2.66492426395416259766e-01) (34, -2.13988736271858215332e-01) (35, -2.67604708671569824219e-01) (36, 1.52091518044471740723e-01) (37, -3.54953408241271972656e-02) (38, 1.91567987203598022461e-01) (39, 2.42601245641708374023e-01) (40, 1.86856195330619812012e-01) (41, 2.27370887994766235352e-01) (42, -1.31496697664260864258e-01) (43, 2.37137883901596069336e-01) (44, 2.00925111770629882812e-01) (45, 1.19054466485977172852e-01) (46, 1.63493961095809936523e-01) (47, 1.67861238121986389160e-01) (48, -2.41782397031784057617e-01) (49, -1.45258975680917501450e-03) (50, -1.24010220170021057129e-01) (51, -1.40596270561218261719e-01) (52, -1.59673765301704406738e-01) (53, -2.64440745115280151367e-01) (54, -1.20096631348133087158e-01) (55, 1.63037165999412536621e-01) (56, 8.52077156305313110352e-02) (57, 2.31256276369094848633e-01) (58, -2.62212127447128295898e-01) (59, 4.31803166866302490234e-02) (60, -2.18458190560340881348e-01) (61, -1.52452662587165832520e-01) (62, 1.60300195217132568359e-01) (63, 1.34725555777549743652e-01) (64, -1.07504785060882568359e-01) (65, 2.35356554388999938965e-01) (66, 1.72865256667137145996e-01) (67, -2.56117552518844604492e-01) (68, -9.41954702138900756836e-02) (69, 5.78001774847507476807e-02) (70, 2.84098058938980102539e-01) (71, -2.00061291456222534180e-01) (72, -1.27228256314992904663e-02) (73, -1.52030274271965026855e-01) (74, -2.71001517772674560547e-01) (75, -1.07929445803165435791e-01) (76, 2.70115375518798828125e-01) (77, 1.95350676774978637695e-01) (78, -2.51308143138885498047e-01) (79, -2.75465399026870727539e-01) (80, -1.12572245299816131592e-01) (81, -5.56033626198768615723e-02) (82, 