FANN_FLO_2.1
num_layers=5
learning_rate=0.700000
connection_rate=1.000000
network_type=0
learning_momentum=0.000000
training_algorithm=3
train_error_function=1
train_stop_function=0
cascade_output_change_fraction=0.010000
quickprop_decay=-0.000100
quickprop_mu=1.750000
rprop_increase_factor=1.200000
rprop_decrease_factor=0.500000
rprop_delta_min=0.000000
rprop_delta_max=50.000000
rprop_delta_zero=0.100000
cascade_output_stagnation_epochs=12
cascade_candidate_change_fraction=0.010000
cascade_candidate_stagnation_epochs=12
cascade_max_out_epochs=150
cascade_min_out_epochs=50
cascade_max_cand_epochs=150
cascade_min_cand_epochs=50
cascade_num_candidate_groups=2
bit_fail_limit=3.49999994039535522461e-01
cascade_candidate_limit=1.00000000000000000000e+03
cascade_weight_multiplier=4.00000005960464477539e-01
cascade_activation_functions_count=10
cascade_activation_functions=3 5 7 8 10 11 14 15 16 17 
cascade_activation_steepnesses_count=4
cascade_activation_steepnesses=2.50000000000000000000e-01 5.00000000000000000000e-01 7.50000000000000000000e-01 1.00000000000000000000e+00 
layer_sizes=72 201 41 13 2 
scale_included=0
neurons (num_inputs, activation_function, activation_steepness)=(0, 0, 0.00000000000000000000e+00) (0, 0, 0.00000000000000000000e+00) (0, 0, 0.00000000000000000000e+00) (0, 0, 0.00000000000000000000e+00) (0, 0, 0.00000000000000000000e+00) (0, 0, 0.00000000000000000000e+00) (0, 0, 0.00000000000000000000e+00) (0, 0, 0.00000000000000000000e+00) (0, 0, 0.00000000000000000000e+00) (0, 0, 0.00000000000000000000e+00) (0, 0, 0.00000000000000000000e+00) (0, 0, 0.00000000000000000000e+00) (0, 0, 0.00000000000000000000e+00) (0, 0, 0.00000000000000000000e+00) (0, 0, 0.00000000000000000000e+00) (0, 0, 0.00000000000000000000e+00) (0, 0, 0.00000000000000000000e+00) (0, 0, 0.00000000000000000000e+00) (0, 0, 0.00000000000000000000e+00) (0, 0, 0.00000000000000000000e+00) (0, 0, 0.00000000000000000000e+00) (0, 0, 0.00000000000000000000e+00) (0, 0, 0.00000000000000000000e+00) (0, 0, 0.00000000000000000000e+00) (0, 0, 0.00000000000000000000e+00) (0, 0, 0.00000000000000000000e+00) (0, 0, 0.00000000000000000000e+00) (0, 0, 0.00000000000000000000e+00) (0, 0, 0.00000000000000000000e+00) (0, 0, 0.00000000000000000000e+00) (0, 0, 0.00000000000000000000e+00) (0, 0, 0.00000000000000000000e+00) (0, 0, 0.00000000000000000000e+00) (0, 0, 0.00000000000000000000e+00) (0, 0, 0.00000000000000000000e+00) (0, 0, 0.00000000000000000000e+00) (0, 0, 0.00000000000000000000e+00) (0, 0, 0.00000000000000000000e+00) (0, 0, 0.00000000000000000000e+00) (0, 0, 0.00000000000000000000e+00) (0, 0, 0.00000000000000000000e+00) (0, 0, 0.00000000000000000000e+00) (0, 0, 0.00000000000000000000e+00) (0, 0, 0.00000000000000000000e+00) (0, 0, 0.00000000000000000000e+00) (0, 0, 0.00000000000000000000e+00) (0, 0, 0.00000000000000000000e+00) (0, 0, 0.00000000000000000000e+00) (0, 0, 0.00000000000000000000e+00) (0, 0, 0.00000000000000000000e+00) (0, 0, 0.00000000000000000000e+00) (0, 0, 0.00000000000000000000e+00) (0, 0, 0.00000000000000000000e+00) (0, 0, 0.00000000000000000000e+00) (0, 0, 0.00000000000000000000e+00) (0, 0, 0.00000000000000000000e+00) (0, 0, 0.00000000000000000000e+00) (0, 0, 0.00000000000000000000e+00) (0, 0, 0.00000000000000000000e+00) (0, 0, 0.00000000000000000000e+00) (0, 0, 0.00000000000000000000e+00) (0, 0, 0.00000000000000000000e+00) (0, 0, 0.00000000000000000000e+00) (0, 0, 0.00000000000000000000e+00) (0, 0, 0.00000000000000000000e+00) (0, 0, 0.00000000000000000000e+00) (0, 0, 0.00000000000000000000e+00) (0, 0, 0.00000000000000000000e+00) (0, 0, 0.00000000000000000000e+00) (0, 0, 0.00000000000000000000e+00) (0, 0, 0.00000000000000000000e+00) (0, 0, 0.00000000000000000000e+00) (72, 5, 1.00000000000000000000e+00) (72, 5, 1.00000000000000000000e+00) (72, 5, 1.00000000000000000000e+00) (72, 5, 1.00000000000000000000e+00) (72, 5, 1.00000000000000000000e+00) (72, 5, 1.00000000000000000000e+00) (72, 5, 1.00000000000000000000e+00) (72, 5, 1.00000000000000000000e+00) (72, 5, 1.00000000000000000000e+00) (72, 5, 1.00000000000000000000e+00) (72, 5, 1.00000000000000000000e+00) (72, 5, 1.00000000000000000000e+00) (72, 5, 1.00000000000000000000e+00) (72, 5, 1.00000000000000000000e+00) (72, 5, 1.00000000000000000000e+00) (72, 5, 1.00000000000000000000e+00) (72, 5, 1.00000000000000000000e+00) (72, 5, 1.00000000000000000000e+00) (72, 5, 1.00000000000000000000e+00) (72, 5, 1.00000000000000000000e+00) (72, 5, 1.00000000000000000000e+00) (72, 5, 1.00000000000000000000e+00) (72, 5, 1.00000000000000000000e+00) (72, 5, 1.00000000000000000000e+00) (72, 5, 1.00000000000000000000e+00) (72, 5, 1.00000000000000000000e+00) (72, 5, 1.00000000000000000000e+00) (72, 5, 1.00000000000000000000e+00) (72, 5, 1.00000000000000000000e+00) (72, 5, 1.00000000000000000000e+00) (72, 5, 1.00000000000000000000e+00) (72, 5, 1.00000000000000000000e+00) (72, 5, 1.00000000000000000000e+00) (72, 5, 1.00000000000000000000e+00) (72, 5, 1.00000000000000000000e+00) (72, 5, 1.00000000000000000000e+00) (72, 5, 1.00000000000000000000e+00) (72, 5, 1.00000000000000000000e+00) (72, 5, 1.00000000000000000000e+00) (72, 5, 1.00000000000000000000e+00) (72, 5, 1.00000000000000000000e+00) (72, 5, 1.00000000000000000000e+00) (72, 5, 1.00000000000000000000e+00) (72, 5, 1.00000000000000000000e+00) (72, 5, 1.00000000000000000000e+00) (72, 5, 1.00000000000000000000e+00) (72, 5, 1.00000000000000000000e+00) (72, 5, 1.00000000000000000000e+00) (72, 5, 1.00000000000000000000e+00) (72, 5, 1.00000000000000000000e+00) (72, 5, 1.00000000000000000000e+00) (72, 5, 1.00000000000000000000e+00) (72, 5, 1.00000000000000000000e+00) (72, 5, 1.00000000000000000000e+00) (72, 5, 1.00000000000000000000e+00) (72, 5, 1.00000000000000000000e+00) (72, 5, 1.00000000000000000000e+00) (72, 5, 1.00000000000000000000e+00) (72, 5, 1.00000000000000000000e+00) (72, 5, 1.00000000000000000000e+00) (72, 5, 1.00000000000000000000e+00) (72, 5, 1.00000000000000000000e+00) (72, 5, 1.00000000000000000000e+00) (72, 5, 1.00000000000000000000e+00) (72, 5, 1.00000000000000000000e+00) (72, 5, 1.00000000000000000000e+00) (72, 5, 1.00000000000000000000e+00) (72, 5, 1.00000000000000000000e+00) (72, 5, 1.00000000000000000000e+00) (72, 5, 1.00000000000000000000e+00) (72, 5, 1.00000000000000000000e+00) (72, 5, 1.00000000000000000000e+00) (72, 5, 1.00000000000000000000e+00) (72, 5, 1.00000000000000000000e+00) (72, 5, 1.00000000000000000000e+00) (72, 5, 1.00000000000000000000e+00) (72, 5, 1.00000000000000000000e+00) (72, 5, 1.00000000000000000000e+00) (72, 5, 1.00000000000000000000e+00) (72, 5, 1.00000000000000000000e+00) (72, 5, 1.00000000000000000000e+00) (72, 5, 1.00000000000000000000e+00) (72, 5, 1.00000000000000000000e+00) (72, 5, 1.00000000000000000000e+00) (72, 5, 1.00000000000000000000e+00) (72, 5, 1.00000000000000000000e+00) (72, 5, 1.00000000000000000000e+00) (72, 5, 1.00000000000000000000e+00) (72, 5, 1.00000000000000000000e+00) (72, 5, 1.00000000000000000000e+00) (72, 5, 1.00000000000000000000e+00) (72, 5, 1.00000000000000000000e+00) (72, 5, 1.00000000000000000000e+00) (72, 5, 1.00000000000000000000e+00) (72, 5, 1.00000000000000000000e+00) (72, 5, 1.00000000000000000000e+00) (72, 5, 1.00000000000000000000e+00) (72, 5, 1.00000000000000000000e+00) (72, 5, 1.00000000000000000000e+00) (72, 5, 1.00000000000000000000e+00) (72, 5, 1.00000000000000000000e+00) (72, 5, 1.00000000000000000000e+00) (72, 5, 1.00000000000000000000e+00) (72, 5, 1.00000000000000000000e+00) (72, 5, 1.00000000000000000000e+00) (72, 5, 1.00000000000000000000e+00) (72, 5, 1.00000000000000000000e+00) (72, 5, 1.00000000000000000000e+00) (72, 5, 1.00000000000000000000e+00) (72, 5, 1.00000000000000000000e+00) (72, 5, 1.00000000000000000000e+00) (72, 5, 1.00000000000000000000e+00) (72, 5, 1.00000000000000000000e+00) (72, 5, 1.00000000000000000000e+00) (72, 5, 1.00000000000000000000e+00) (72, 5, 1.00000000000000000000e+00) (72, 5, 1.00000000000000000000e+00) (72, 5, 1.00000000000000000000e+00) (72, 5, 1.00000000000000000000e+00) (72, 5, 1.00000000000000000000e+00) (72, 5, 1.00000000000000000000e+00) (72, 5, 1.00000000000000000000e+00) (72, 5, 1.00000000000000000000e+00) (72, 5, 1.00000000000000000000e+00) (72, 5, 1.00000000000000000000e+00) (72, 5, 1.00000000000000000000e+00) (72, 5, 1.00000000000000000000e+00) (72, 5, 1.00000000000000000000e+00) (72, 5, 1.00000000000000000000e+00) (72, 5, 1.00000000000000000000e+00) (72, 5, 1.00000000000000000000e+00) (72, 5, 1.00000000000000000000e+00) (72, 5, 1.00000000000000000000e+00) (72, 5, 1.00000000000000000000e+00) (72, 5, 1.00000000000000000000e+00) (72, 5, 1.00000000000000000000e+00) (72, 5, 1.00000000000000000000e+00) (72, 5, 1.00000000000000000000e+00) (72, 5, 1.00000000000000000000e+00) (72, 5, 1.00000000000000000000e+00) (72, 5, 1.00000000000000000000e+00) (72, 5, 1.00000000000000000000e+00) (72, 5, 1.00000000000000000000e+00) (72, 5, 1.00000000000000000000e+00) (72, 5, 1.00000000000000000000e+00) (72, 5, 1.00000000000000000000e+00) (72, 5, 1.00000000000000000000e+00) (72, 5, 1.00000000000000000000e+00) (72, 5, 1.00000000000000000000e+00) (72, 5, 1.00000000000000000000e+00) (72, 5, 1.00000000000000000000e+00) (72, 5, 1.00000000000000000000e+00) (72, 5, 1.00000000000000000000e+00) (72, 5, 1.00000000000000000000e+00) (72, 5, 1.00000000000000000000e+00) (72, 5, 1.00000000000000000000e+00) (72, 5, 1.00000000000000000000e+00) (72, 5, 1.00000000000000000000e+00) (72, 5, 1.00000000000000000000e+00) (72, 5, 1.00000000000000000000e+00) (72, 5, 1.00000000000000000000e+00) (72, 5, 1.00000000000000000000e+00) (72, 5, 1.00000000000000000000e+00) (72, 5, 1.00000000000000000000e+00) (72, 5, 1.00000000000000000000e+00) (72, 5, 1.00000000000000000000e+00) (72, 5, 1.00000000000000000000e+00) (72, 5, 1.00000000000000000000e+00) (72, 5, 1.00000000000000000000e+00) (72, 5, 1.00000000000000000000e+00) (72, 5, 1.00000000000000000000e+00) (72, 5, 1.00000000000000000000e+00) (72, 5, 1.00000000000000000000e+00) (72, 5, 1.00000000000000000000e+00) (72, 5, 1.00000000000000000000e+00) (72, 5, 1.00000000000000000000e+00) (72, 5, 1.00000000000000000000e+00) (72, 5, 1.00000000000000000000e+00) (72, 5, 1.00000000000000000000e+00) (72, 5, 1.00000000000000000000e+00) (72, 5, 1.00000000000000000000e+00) (72, 5, 1.00000000000000000000e+00) (72, 5, 1.00000000000000000000e+00) (72, 5, 1.00000000000000000000e+00) (72, 5, 1.00000000000000000000e+00) (72, 5, 1.00000000000000000000e+00) (72, 5, 1.00000000000000000000e+00) (72, 5, 1.00000000000000000000e+00) (72, 5, 1.00000000000000000000e+00) (72, 5, 1.00000000000000000000e+00) (72, 5, 1.00000000000000000000e+00) (72, 5, 1.00000000000000000000e+00) (72, 5, 1.00000000000000000000e+00) (72, 5, 1.00000000000000000000e+00) (72, 5, 1.00000000000000000000e+00) (72, 5, 1.00000000000000000000e+00) (72, 5, 1.00000000000000000000e+00) (72, 5, 1.00000000000000000000e+00) (72, 5, 1.00000000000000000000e+00) (72, 5, 1.00000000000000000000e+00) (0, 5, 1.00000000000000000000e+00) (201, 5, 1.00000000000000000000e+00) (201, 5, 1.00000000000000000000e+00) (201, 5, 1.00000000000000000000e+00) (201, 5, 1.00000000000000000000e+00) (201, 5, 1.00000000000000000000e+00) (201, 5, 1.00000000000000000000e+00) (201, 5, 1.00000000000000000000e+00) (201, 5, 1.00000000000000000000e+00) (201, 5, 1.00000000000000000000e+00) (201, 5, 1.00000000000000000000e+00) (201, 5, 1.00000000000000000000e+00) (201, 5, 1.00000000000000000000e+00) (201, 5, 1.00000000000000000000e+00) (201, 5, 1.00000000000000000000e+00) (201, 5, 1.00000000000000000000e+00) (201, 5, 1.00000000000000000000e+00) (201, 5, 1.00000000000000000000e+00) (201, 5, 1.00000000000000000000e+00) (201, 5, 1.00000000000000000000e+00) (201, 5, 1.00000000000000000000e+00) (201, 5, 1.00000000000000000000e+00) (201, 5, 1.00000000000000000000e+00) (201, 5, 1.00000000000000000000e+00) (201, 5, 1.00000000000000000000e+00) (201, 5, 1.00000000000000000000e+00) (201, 5, 1.00000000000000000000e+00) (201, 5, 1.00000000000000000000e+00) (201, 5, 1.00000000000000000000e+00) (201, 5, 1.00000000000000000000e+00) (201, 5, 1.00000000000000000000e+00) (201, 5, 1.00000000000000000000e+00) (201, 5, 1.00000000000000000000e+00) (201, 5, 1.00000000000000000000e+00) (201, 5, 1.00000000000000000000e+00) (201, 5, 1.00000000000000000000e+00) (201, 5, 1.00000000000000000000e+00) (201, 5, 1.00000000000000000000e+00) (201, 5, 1.00000000000000000000e+00) (201, 5, 1.00000000000000000000e+00) (201, 5, 1.00000000000000000000e+00) (0, 5, 1.00000000000000000000e+00) (41, 5, 1.00000000000000000000e+00) (41, 5, 1.00000000000000000000e+00) (41, 5, 1.00000000000000000000e+00) (41, 5, 1.00000000000000000000e+00) (41, 5, 1.00000000000000000000e+00) (41, 5, 1.00000000000000000000e+00) (41, 5, 1.00000000000000000000e+00) (41, 5, 1.00000000000000000000e+00) (41, 5, 1.00000000000000000000e+00) (41, 5, 1.00000000000000000000e+00) (41, 5, 1.00000000000000000000e+00) (41, 5, 1.00000000000000000000e+00) (0, 5, 1.00000000000000000000e+00) (13, 5, 1.00000000000000000000e+00) (0, 5, 1.00000000000000000000e+00) 
connections (connected_to_neuron, weight)=(0, -2.64851212501525878906e-01) (1, -1.40133976936340332031e-01) (2, -2.43975266814231872559e-01) (3, -1.97474464774131774902e-01) (4, -1.53199017047882080078e-01) (5, -1.64778426289558410645e-01) (6, 2.37867325544357299805e-01) (7, 2.64898464083671569824e-02) (8, 1.77872627973556518555e-01) (9, -6.80774673819541931152e-02) (10, 7.73925855755805969238e-02) (11, -2.33503907918930053711e-01) (12, -2.43358254432678222656e-01) (13, 3.95817719399929046631e-02) (14, 1.67075648903846740723e-01) (15, 1.44642859697341918945e-01) (16, -2.54153192043304443359e-01) (17, 1.42440691590309143066e-01) (18, 2.21011295914649963379e-01) (19, -2.75208763778209686279e-02) (20, 1.77282437682151794434e-01) (21, -1.25174298882484436035e-01) (22, -1.37599627487361431122e-03) (23, -2.78460621833801269531e-01) (24, -2.68408030271530151367e-01) (25, -2.55797415971755981445e-01) (26, -7.35928267240524291992e-02) (27, 9.54679585993289947510e-03) (28, -1.71136438846588134766e-01) (29, -7.95472338795661926270e-02) (30, 6.68571144342422485352e-02) (31, -1.41446813941001892090e-01) (32, 8.37494209408760070801e-02) (33, 1.17595545947551727295e-01) (34, -3.74135375022888183594e-02) (35, 2.33929857611656188965e-01) (36, 2.60981142520904541016e-01) (37, -1.11386679112911224365e-01) (38, -3.47178354859352111816e-02) (39, 1.41642481088638305664e-01) (40, 1.36588215827941894531e-01) (41, -2.53960490226745605469e-01) (42, 2.16469123959541320801e-01) (43, 1.95363819599151611328e-01) (44, 9.24516841769218444824e-02) (45, 6.65647611021995544434e-02) (46, 2.37840060144662857056e-02) (47, 1.05775989592075347900e-01) (48, -7.69251510500907897949e-02) (49, -4.87796515226364135742e-02) (50, -2.03667581081390380859e-01) (51, -1.97717174887657165527e-01) (52, 1.43668115139007568359e-01) (53, 8.18987935781478881836e-02) (54, -1.81311890482902526855e-01) (55, 1.65259122848510742188e-01) (56, 1.39568150043487548828e-01) (57, 3.98652404546737670898e-02) (58, -1.27084553241729736328e-01) (59, 2.54762262105941772461e-01) (60, 2.47166365385055541992e-01) (61, 2.42400825023651123047e-01) (62, -1.89797595143318176270e-01) (63, 3.79551090300083160400e-02) (64, 6.73929303884506225586e-02) (65, 8.55212584137916564941e-02) (66, -6.12784037366509437561e-03) (67, 4.06058318912982940674e-02) (68, 2.76532948017120361328e-01) (69, 2.41128876805305480957e-01) (70, -1.37923955917358398438e-01) (71, 9.51915830373764038086e-02) (0, 2.77189493179321289062e-01) (1, -2.36818730831146240234e-01) (2, -2.78602470643818378448e-03) (3, 7.60961323976516723633e-02) (4, 1.37081265449523925781e-01) (5, -2.39395022392272949219e-01) (6, -1.21086120605468750000e-01) (7, -2.58263349533081054688e-01) (8, -1.19773140177130699158e-02) (9, -2.51881647855043411255e-02) (10, -1.71116203069686889648e-01) (11, -1.66465446352958679199e-01) (12, -2.54490971565246582031e-01) (13, -7.87658989429473876953e-02) (14, 3.03069323301315307617e-01) (15, 1.79037302732467651367e-01) (16, 2.70455002784729003906e-01) (17, -1.33235767483711242676e-01) (18, 1.15303844213485717773e-01) (19, 2.00780004262924194336e-01) (20, -1.98945611715316772461e-01) (21, 2.26813942193984985352e-01) (22, -5.65795078873634338379e-02) (23, 1.54884651303291320801e-01) (24, -1.29167083650827407837e-02) (25, 1.99714034795761108398e-01) (26, -1.38333737850189208984e-01) (27, -4.56386320292949676514e-02) (28, 1.30112126469612121582e-01) (29, 1.93579588085412979126e-02) (30, -2.42889478802680969238e-01) (31, 1.05148665606975555420e-01) (32, 7.54539519548416137695e-02) (33, 5.19989766180515289307e-02) (34, -1.39362886548042297363e-01) (35, -9.19257849454879760742e-02) (36, 8.40757489204406738281e-02) (37, 7.49744921922683715820e-02) (38, -2.71544735878705978394e-02) (39, -2.20962047576904296875e-01) (40, -3.16258221864700317383e-01) (41, 5.04795163869857788086e-02) (42, -1.25966325402259826660e-01) (43, -2.58709818124771118164e-01) (44, -3.01356375217437744141e-01) (45, -1.01892858743667602539e-01) (46, 2.05945491790771484375e-01) (47, 2.33565539121627807617e-01) (48, 2.12773885577917098999e-02) (49, 1.93797498941421508789e-02) (50, 1.55436813831329345703e-01) (51, 1.03936187922954559326e-01) (52, -5.73191791772842407227e-02) (53, -2.37699344754219055176e-01) (54, -4.42092493176460266113e-02) (55, 2.14220359921455383301e-01) (56, 2.81092375516891479492e-01) (57, 1.00672475993633270264e-01) (58, -1.30290627479553222656e-01) (59, 1.01770646870136260986e-01) (60, -1.94611683487892150879e-01) (61, -7.20911547541618347168e-02) (62, -8.85122641921043395996e-02) (63, 2.28583589196205139160e-01) (64, -3.09203952550888061523e-01) (65, 8.02595168352127075195e-02) (66, -1.84989258646965026855e-01) (67, 7.13485777378082275391e-02) (68, -1.96088641881942749023e-01) (69, 4.90758083760738372803e-02) (70, 1.51022538542747497559e-01) (71, -1.70971885323524475098e-01) (0, -1.55628412961959838867e-01) (1, -2.72119790315628051758e-01) (2, -1.26561880111694335938e-01) (3, -1.83478280901908874512e-01) (4, -9.06487479805946350098e-02) (5, -2.46860608458518981934e-01) (6, -2.26864442229270935059e-01) (7, 2.27449640631675720215e-01) (8, 1.16876214742660522461e-01) (9, 2.41098329424858093262e-01) (10, 4.09195795655250549316e-02) (11, -2.52261579036712646484e-01) (12, -2.68918901681900024414e-01) (13, -2.87682414054870605469e-01) (14, -3.14588665962219238281e-01) (15, -2.58493721485137939453e-01) (16, 1.25019311904907226562e-01) (17, -1.19814798235893249512e-01) (18, 1.52678519487380981445e-01) (19, 2.63240337371826171875e-01) (20, 1.41157954931259155273e-01) (21, -2.17065215110778808594e-01) (22, 1.68037965893745422363e-01) (23, 1.44396603107452392578e-01) (24, 1.62842109799385070801e-01) (25, 2.83149898052215576172e-01) (26, -6.13117627799510955811e-02) (27, 2.84943759441375732422e-01) (28, 5.12388907372951507568e-02) (29, -1.96779027581214904785e-01) (30, -1.89739912748336791992e-01) (31, 1.94739833474159240723e-01) (32, -1.58357530832290649414e-01) (33, -2.84196771681308746338e-02) (34, -2.70170569419860839844e-01) (35, 6.45188838243484497070e-02) (36, 6.09985589981079101562e-02) (37, -1.74723193049430847168e-01) (38, 1.79949682205915451050e-02) (39, -1.26916483044624328613e-01) (40, -2.14606523513793945312e-01) (41, -2.31660217046737670898e-01) (42, -5.48139661550521850586e-02) (43, -1.66042596101760864258e-01) (44, -2.39688277244567871094e-01) (45, -5.15051670372486114502e-02) (46, -1.22632972896099090576e-01) (47, 1.86721906065940856934e-01) (48, 1.58631637692451477051e-01) (49, -2.49598160386085510254e-01) (50, 1.40789553523063659668e-01) (51, 8.83754342794418334961e-03) (52, -1.94668233394622802734e-01) (53, 3.19662280380725860596e-02) (54, -1.43848776817321777344e-01) (55, 2.72489577531814575195e-01) (56, -1.45323406904935836792e-02) (57, 9.17258262634277343750e-02) (58, 2.51242578029632568359e-01) (59, -2.52038449048995971680e-01) (60, 2.07443371415138244629e-01) (61, -2.37585514783859252930e-01) (62, 2.30876103043556213379e-01) (63, -2.54765301942825317383e-01) (64, 5.31627200543880462646e-02) (65, 2.53335773944854736328e-01) (66, 1.04681171476840972900e-01) (67, -2.02423974871635437012e-01) (68, -2.06081256270408630371e-01) (69, -1.97696089744567871094e-01) (70, -2.74316463619470596313e-02) (71, -1.25501736998558044434e-01) (0, -1.46245688199996948242e-01) (1, 2.34022364020347595215e-01) (2, -2.81048123724758625031e-03) (3, -4.68854270875453948975e-02) (4, -1.33267000317573547363e-01) (5, 2.01351299881935119629e-01) (6, -1.76744580268859863281e-01) (7, -2.70387351512908935547e-01) (8, 1.97656959295272827148e-01) (9, 2.74529993534088134766e-01) (10, 2.44580302387475967407e-02) (11, -2.80504226684570312500e-01) (12, -2.52915751188993453979e-02) (13, 1.67676508426666259766e-01) (14, 3.09651732444763183594e-01) (15, 2.64605939388275146484e-01) (16, -4.83297631144523620605e-02) (17, 2.42557376623153686523e-01) (18, 3.04345488548278808594e-01) (19, -1.50249451398849487305e-01) (20, 2.96210646629333496094e-01) (21, 2.29974046349525451660e-01) (22, -1.16003513336181640625e-01) (23, 1.91949829459190368652e-02) (24, 1.90430313348770141602e-01) (25, 2.96272039413452148438e-01) (26, 1.04172304272651672363e-01) (27, 2.79813975095748901367e-01) (28, -2.05035835504531860352e-01) (29, -2.23523333668708801270e-01) (30, -1.55365154147148132324e-01) (31, -4.52095046639442443848e-02) (32, 2.96680092811584472656e-01) (33, 1.63562789559364318848e-01) (34, 1.85603171586990356445e-01) (35, -1.45759508013725280762e-01) (36, 2.88508534431457519531e-02) (37, 3.06821495294570922852e-01) (38, -8.08064267039299011230e-02) (39, -3.81631962954998016357e-02) (40, 2.36483141779899597168e-01) (41, 1.85505539178848266602e-01) (42, -7.86991417407989501953e-02) (43, -4.99764643609523773193e-02) (44, 6.23325332999229431152e-02) (45, -9.18315947055816650391e-02) (46, -1.42560794949531555176e-01) (47, -2.47707515954971313477e-01) (48, -1.61345094442367553711e-01) (49, -1.38347059488296508789e-01) (50, -1.19815796613693237305e-01) (51, -2.04013422131538391113e-01) (52, -2.01631933450698852539e-01) (53, 9.17190015316009521484e-02) (54, 1.18764288723468780518e-01) (55, 2.62612462043762207031e-01) (56, 6.45665451884269714355e-02) (57, -9.25077497959136962891e-02) (58, 2.68443405628204345703e-01) (59, 1.49688184261322021484e-01) (60, -4.35971580445766448975e-02) (61, -2.03606545925140380859e-01) (62, -1.85108423233032226562e-01) (63, -3.35775092244148254395e-02) (64, 2.69199520349502563477e-01) (65, -2.80585139989852905273e-01) (66, 1.33884042501449584961e-01) (67, 7.65423895791172981262e-03) (68, -2.77289986610412597656e-01) (69, 2.91521430015563964844e-01) (70, 2.20875427126884460449e-01) (71, 2.52051442861557006836e-01) (0, 1.75699189305305480957e-01) (1, -1.36013865470886230469e-01) (2, -1.41366824507713317871e-01) (3, -4.61422875523567199707e-02) (4, 4.67874966561794281006e-02) (5, 5.57307265698909759521e-02) (6, -3.31116169691085815430e-02) (7, 1.74818009138107299805e-01) (8, 1.95538699626922607422e-01) (9, 1.46790504455566406250e-01) (10, 2.59620249271392822266e-01) (11, 3.03149342536926269531e-01) (12, -9.07326340675354003906e-02) (13, 5.15873953700065612793e-02) (14, 2.89177119731903076172e-01) (15, 2.69587665796279907227e-01) (16, 2.57592946290969848633e-01) (17, 2.55359679460525512695e-01) (18, 1.34035900235176086426e-01) (19, -6.55461773276329040527e-02) (20, -2.55394041538238525391e-01) (21, 2.52675682306289672852e-01) (22, 2.05064967274665832520e-01) (23, -2.84082114696502685547e-01) (24, 2.63401001691818237305e-01) (25, 3.02144158631563186646e-02) (26, -1.01008382625877857208e-03) (27, 2.68214881420135498047e-01) (28, 2.02787015587091445923e-02) (29, -7.63667896389961242676e-02) (30, 2.14440003037452697754e-01) (31, -1.02837353944778442383e-01) (32, 7.75582119822502136230e-02) (33, -2.10283592343330383301e-01) (34, 1.42791926860809326172e-01) (35, -1.81590557098388671875e-01) (36, 1.16938531398773193359e-01) (37, -2.00623944401741027832e-01) (38, 2.83248722553253173828e-01) (39, 2.28120591491460800171e-02) (40, 2.32023984193801879883e-01) (41, 2.30134561657905578613e-01) (42, -8.49539972841739654541e-03) (43, -1.49066746234893798828e-01) (44, -1.02198831737041473389e-02) (45, -1.21087590232491493225e-02) (46, -1.89211338758468627930e-01) (47, -3.99798341095447540283e-02) (48, -1.24615266919136047363e-01) (49, 2.18955889344215393066e-01) (50, 1.90879970788955688477e-01) (51, -5.87413273751735687256e-02) (52, 1.70986711978912353516e-01) (53, 1.17604807019233703613e-01) (54, -5.99491707980632781982e-02) (55, 1.38023883104324340820e-01) (56, -1.69206425547599792480e-01) (57, 2.20680579543113708496e-01) (58, 1.13235116004943847656e-01) (59, 1.55616968870162963867e-01) (60, -1.59668162465095520020e-01) (61, 2.61913631111383438110e-02) (62, -2.48066082596778869629e-01) (63, 2.46331155300140380859e-01) (64, 1.15863069891929626465e-01) (65, 2.04031139612197875977e-01) (66, -2.60340720415115356445e-01) (67, -6.39058649539947509766e-02) (68, -2.88235753774642944336e-01) (69, -2.80997931957244873047e-01) (70, 2.29676827788352966309e-01) (71, 2.53230512142181396484e-01) (0, 2.62249737977981567383e-01) (1, -6.02109394967555999756e-02) (2, -2.15676262974739074707e-01) (3, -4.28880378603935241699e-02) (4, 2.15289399027824401855e-01) (5, -1.12854972481727600098e-01) (6, 2.16289386153221130371e-01) (7, -2.04649493098258972168e-01) (8, -1.78067833185195922852e-01) (9, 1.14433042705059051514e-01) (10, 2.85571888089179992676e-02) (11, -2.94689208269119262695e-01) (12, -7.99979045987129211426e-02) (13, 2.54101753234863281250e-01) (14, 1.45082324743270874023e-01) (15, 5.30681572854518890381e-02) (16, 1.81465283036231994629e-01) (17, -3.38071212172508239746e-02) (18, -8.63540396094322204590e-02) (19, -2.70106971263885498047e-01) (20, -3.04122984409332275391e-01) (21, -2.54280492663383483887e-02) (22, 2.50478744506835937500e-01) (23, 1.19001917541027069092e-01) (24, -1.19956687092781066895e-01) (25, 2.91219562292098999023e-01) (26, -2.46137470006942749023e-01) (27, -1.13132484257221221924e-01) (28, -2.90604442358016967773e-01) (29, -3.02996277809143066406e-01) (30, -1.69130980968475341797e-01) (31, 2.74677604436874389648e-01) (32, -5.51033057272434234619e-02) (33, -8.67163985967636108398e-02) (34, -7.07396715879440307617e-02) (35, -1.44755840301513671875e-01) (36, 1.04267627000808715820e-01) (37, -1.53612375259399414062e-01) (38, -3.40897403657436370850e-02) (39, 2.21072942018508911133e-01) (40, 2.68648117780685424805e-01) (41, 2.95219361782073974609e-01) (42, 2.35336616635322570801e-01) (43, -1.21872738003730773926e-01) (44, 2.32447803020477294922e-01) (45, 8.59575197100639343262e-02) (46, 2.45992362499237060547e-01) (47, 1.42721146345138549805e-01) (48, -2.27079644799232482910e-01) (49, -1.29941448569297790527e-01) (50, 1.47308617830276489258e-01) (51, -2.32932060956954956055e-01) (52, 1.21471121907234191895e-01) (53, 1.14303089678287506104e-01) (54, 1.87671229243278503418e-01) (55, -2.93056607246398925781e-01) (56, 9.00920182466506958008e-02) (57, 2.37341031432151794434e-01) (58, -1.04852870106697082520e-01) (59, 1.00591942667961120605e-01) (60, 2.46980488300323486328e-01) (61, 2.71242428570985794067e-02) (62, 7.44510069489479064941e-02) (63, -1.14720545709133148193e-01) (64, 2.40156605839729309082e-01) (65, -2.91041910648345947266e-01) (66, 4.08641137182712554932e-02) (67, 5.87418265640735626221e-02) (68, -1.33339166641235351562e-01) (69, 2.85799354314804077148e-01) (70, -3.12389638274908065796e-02) (71, -1.88558652997016906738e-01) (0, 2.77201145887374877930e-01) (1, -8.55854898691177368164e-02) (2, -9.07214451581239700317e-03) (3, 2.27527618408203125000e-01) (4, 2.93762564659118652344e-01) (5, -4.26718145608901977539e-02) (6, 4.29657176136970520020e-02) (7, -2.43457093834877014160e-01) (8, 7.67659619450569152832e-02) (9, -1.14272527396678924561e-01) (10, -1.87360465526580810547e-01) (11, -7.92079940438270568848e-02) (12, 2.87008225917816162109e-01) (13, 2.94529289007186889648e-01) (14, -5.67359589040279388428e-02) (15, 7.17720910906791687012e-02) (16, 2.41802498698234558105e-01) (17, 1.29739463329315185547e-01) (18, -1.28723561763763427734e-01) (19, 1.66648566722869873047e-01) (20, -1.50033503770828247070e-01) (21, 2.52786755561828613281e-01) (22, -2.45566353201866149902e-01) (23, -2.15402260422706604004e-01) (24, 2.56894320249557495117e-01) (25, 8.62280055880546569824e-02) (26, 1.17172792553901672363e-01) (27, -1.94220662117004394531e-01) (28, 8.66850465536117553711e-02) (29, -2.08817124366760253906e-01) (30, -8.18308517336845397949e-02) (31, 5.56469187140464782715e-02) (32, -1.14002851769328117371e-02) (33, 2.04704552888870239258e-01) (34, -3.63725721836090087891e-02) (35, -1.61235388368368148804e-02) (36, -1.69445425271987915039e-01) (37, 2.71252274513244628906e-01) (38, -1.69119350612163543701e-02) (39, 2.34307095408439636230e-01) (40, -1.20500504970550537109e-01) (41, 1.36159658432006835938e-01) (42, -1.81227996945381164551e-01) (43, -1.59376591444015502930e-01) (44, 1.47059068083763122559e-01) (45, 3.92530411481857299805e-02) (46, 2.25437730550765991211e-01) (47, 6.45886287093162536621e-02) (48, -1.79254248738288879395e-01) (49, -2.28112667798995971680e-01) (50, -5.32665103673934936523e-02) (51, -3.24151292443275451660e-02) (52, -2.55260944366455078125e-01) (53, -1.99152547866106033325e-02) (54, 3.62490005791187286377e-02) (55, 3.03087025880813598633e-01) (56, -2.23460152745246887207e-01) (57, -1.44628137350082397461e-01) (58, -1.78173243999481201172e-01) (59, 1.51938125491142272949e-01) (60, -6.64835721254348754883e-02) (61, 2.91733853518962860107e-02) (62, -9.09822061657905578613e-02) (63, 2.43343010544776916504e-01) (64, -6.85152858495712280273e-02) (65, 1.76602050662040710449e-01) (66, -7.43187069892883300781e-02) (67, 5.37028349936008453369e-02) (68, 1.52531757950782775879e-01) (69, 2.52380341291427612305e-01) (70, -2.78105940669775009155e-02) (71, -2.86687046289443969727e-01) (0, 1.00149296224117279053e-01) (1, 5.54376095533370971680e-02) (2, -1.23251877725124359131e-01) (3, -8.21444243192672729492e-02) (4, -2.08756521344184875488e-01) (5, -2.46168076992034912109e-01) (6, -3.25553864240646362305e-01) (7, -8.44377204775810241699e-02) (8, -1.19232833385467529297e-01) (9, -7.24296569824218750000e-02) (10, 1.82127222418785095215e-01) (11, -1.00392885506153106689e-01) (12, 2.02850282192230224609e-01) (13, -6.49366080760955810547e-02) (14, -1.15523040294647216797e-01) (15, 2.91117668151855468750e-01) (16, 8.02080854773521423340e-02) (17, 2.07671001553535461426e-02) (18, 1.31659910082817077637e-01) (19, -2.79536366462707519531e-01) (20, -2.74104624986648559570e-01) (21, -2.62557864189147949219e-01) (22, 2.48419135808944702148e-01) (23, -2.91034840047359466553e-02) (24, 1.99933409690856933594e-01) (25, -1.46552190184593200684e-01) (26, -2.74249672889709472656e-01) (27, 5.53542934358119964600e-02) (28, -1.93723037838935852051e-01) (29, -7.89847783744335174561e-03) (30, 8.53451639413833618164e-02) (31, 2.01726883649826049805e-01) (32, -2.35790848731994628906e-01) (33, 2.49657794833183288574e-01) (34, -1.67467534542083740234e-01) (35, -1.31095036864280700684e-01) (36, -2.57603973150253295898e-01) (37, -1.55547976493835449219e-01) (38, 9.76204276084899902344e-02) (39, -8.22449252009391784668e-02) (40, 9.37038511037826538086e-02) (41, 1.53209334239363670349e-02) (42, 1.55799657106399536133e-01) (43, 8.85759107768535614014e-03) (44, 2.18193888664245605469e-01) (45, -2.19254195690155029297e-01) (46, 6.19130581617355346680e-03) (47, -3.03994608111679553986e-03) (48, 8.64459201693534851074e-02) (49, -1.43687173724174499512e-01) (50, 1.80686488747596740723e-02) (51, 1.31640195846557617188e-01) (52, -1.29537224769592285156e-01) (53, -7.46566876769065856934e-02) (54, -1.97026610374450683594e-01) (55, -2.43381768465042114258e-01) (56, 8.89274999499320983887e-02) (57, -1.78974613547325134277e-01) (58, 1.11414797604084014893e-01) (59, 2.19926491379737854004e-01) (60, 1.44459962844848632812e-01) (61, -8.65479931235313415527e-02) (62, 1.19987316429615020752e-01) (63, 1.73564791679382324219e-01) (64, -1.54699131846427917480e-01) (65, 2.22430214285850524902e-01) (66, -2.49179393053054809570e-01) (67, -9.06532257795333862305e-02) (68, -1.95635616779327392578e-01) (69, 1.70203402638435363770e-01) (70, 1.24888867139816284180e-01) (71, 1.55742555856704711914e-01) (0, -1.51915311813354492188e-01) (1, -3.44571508467197418213e-02) (2, -1.42959192395210266113e-01) (3, -2.23296403884887695312e-01) (4, 2.81593650579452514648e-02) (5, 1.62986844778060913086e-01) (6, 6.84758499264717102051e-02) (7, -1.82869434356689453125e-01) (8, 2.78593212366104125977e-01) (9, -2.10650950670242309570e-01) (10, 2.47167259454727172852e-01) (11, -1.52861371636390686035e-01) (12, 4.28015999495983123779e-02) (13, -2.47736647725105285645e-01) (14, -8.59239101409912109375e-02) (15, -1.35606065392494201660e-01) (16, -1.24306060373783111572e-01) (17, -2.77750790119171142578e-01) (18, -2.30739384889602661133e-01) (19, 2.99351304769515991211e-01) (20, -7.83493071794509887695e-02) (21, 1.79823562502861022949e-01) (22, 1.88651725649833679199e-01) (23, 6.88739866018295288086e-02) (24, 1.17531910538673400879e-01) (25, 2.48696610331535339355e-01) (26, 2.62684583663940429688e-01) (27, 1.97492450475692749023e-01) (28, 1.05563476681709289551e-01) (29, 8.06519463658332824707e-02) (30, 5.41423931717872619629e-02) (31, 2.56642162799835205078e-01) (32, -2.52721309661865234375e-01) (33, 2.24113330245018005371e-01) (34, -2.68233984708786010742e-01) (35, 7.24399089813232421875e-02) (36, 7.15732574462890625000e-02) (37, 1.10945492982864379883e-01) (38, 1.74567386507987976074e-01) (39, 4.29112687706947326660e-02) (40, 1.83906227350234985352e-01) (41, 1.23025298118591308594e-01) (42, 1.87556341290473937988e-01) (43, -8.90335515141487121582e-02) (44, 1.81871786713600158691e-01) (45, -1.92789509892463684082e-01) (46, 7.48651996254920959473e-02) (47, -2.45757758617401123047e-01) (48, -2.00739085674285888672e-01) (49, 1.38276308774948120117e-01) (50, -2.47161909937858581543e-01) (51, 2.52040289342403411865e-02) (52, 1.27370171248912811279e-02) (53, 1.97644472122192382812e-01) (54, -2.31739372014999389648e-01) (55, -1.67608156800270080566e-01) (56, 1.77353754639625549316e-01) (57, -2.64569431543350219727e-01) (58, -2.68744170665740966797e-01) (59, -1.83409471064805984497e-02) (60, 1.19238667190074920654e-01) (61, 8.92355889081954956055e-02) (62, -5.63831329345703125000e-02) (63, 1.77985444664955139160e-01) (64, 8.05472582578659057617e-03) (65, -1.92215237766504287720e-02) (66, -5.83656691014766693115e-02) (67, -2.28319466114044189453e-01) (68, -2.33949139714241027832e-01) (69, -1.81782335042953491211e-01) (70, 1.31340920925140380859e-01) (71, 2.77777373790740966797e-01) (0, 2.88147270679473876953e-01) (1, 2.70812902599573135376e-02) (2, -7.42820054292678833008e-02) (3, 1.47496029734611511230e-01) (4, 1.17784604430198669434e-01) (5, 3.16020697355270385742e-01) (6, 2.05006822943687438965e-01) (7, 2.24249422550201416016e-01) (8, 1.54343619942665100098e-01) (9, 2.48196199536323547363e-01) (10, -4.78201061487197875977e-02) (11, -1.16973094642162322998e-01) (12, 1.87616407871246337891e-01) (13, 5.13355433940887451172e-02) (14, 7.16094821691513061523e-02) (15, 9.79220345616340637207e-02) (16, 1.17565162479877471924e-01) (17, 9.31062251329421997070e-02) (18, -2.44758024811744689941e-01) (19, -4.90341931581497192383e-02) (20, -1.00493930280208587646e-01) (21, 3.83726358413696289062e-02) (22, -1.62869676947593688965e-01) (23, 2.08964034914970397949e-01) (24, -2.97031253576278686523e-01) (25, 7.97137320041656494141e-02) (26, 2.81021654605865478516e-01) (27, -2.05917239189147949219e-01) (28, 2.32275024056434631348e-01) (29, 1.37846216559410095215e-01) (30, -2.14235380291938781738e-01) (31, 2.07627549767494201660e-01) (32, -1.64669454097747802734e-01) (33, -2.92206499725580215454e-02) (34, 4.57990765571594238281e-02) (35, 2.71876305341720581055e-01) (36, -1.60751938819885253906e-02) (37, -1.59171782433986663818e-02) (38, 2.46468290686607360840e-01) (39, -1.48870512843132019043e-01) (40, -1.01099655032157897949e-01) (41, -1.34630158543586730957e-01) (42, 7.44677381590008735657e-03) (43, -1.92783907055854797363e-01) (44, 1.97342753410339355469e-01) (45, -2.36094608902931213379e-01) (46, 1.67614534497261047363e-01) (47, 7.66911264508962631226e-03) (48, 1.03359892964363098145e-01) (49, 2.45264366269111633301e-01) (50, 2.55781620740890502930e-01) (51, 2.78088033199310302734e-01) (52, -3.75550724565982818604e-02) (53, -2.10529178380966186523e-01) (54, 1.67021781206130981445e-01) (55, -3.24715338647365570068e-02) (56, 1.76842778921127319336e-01) (57, 1.38670548796653747559e-01) (58, 7.35300853848457336426e-02) (59, 8.85421410202980041504e-02) (60, -4.86026257276535034180e-02) (61, 1.27816945314407348633e-01) (62, -2.74999774992465972900e-02) (63, 1.44519880414009094238e-01) (64, -1.61917105317115783691e-01) (65, -2.57697403430938720703e-01) (66, 9.19321477413177490234e-02) (67, 1.01044155657291412354e-01) (68, -2.27336995303630828857e-02) (69, -2.01271828263998031616e-02) (70, 2.37380310893058776855e-01) (71, 2.03567773103713989258e-01) (0, 1.56742841005325317383e-01) (1, -4.29373867809772491455e-02) (2, 3.03464204072952270508e-01) (3, 4.36184555292129516602e-02) (4, 9.22816153615713119507e-03) (5, 1.52289554476737976074e-01) (6, -2.10595101118087768555e-01) (7, -1.91631153225898742676e-01) (8, 1.27052649855613708496e-01) (9, -2.67557650804519653320e-01) (10, -2.07396477460861206055e-01) (11, -2.19492182135581970215e-01) (12, -1.60439208149909973145e-01) (13, 2.57707387208938598633e-01) (14, 3.41378450393676757812e-02) (15, -3.02480846643447875977e-01) (16, 8.69755223393440246582e-02) (17, -1.84159189462661743164e-01) (18, 9.32649001479148864746e-02) (19, -2.27016702294349670410e-01) (20, 2.72566497325897216797e-01) (21, -2.17417761683464050293e-01) (22, 1.75401344895362854004e-01) (23, -1.94807663559913635254e-01) (24, -1.85416817665100097656e-01) (25, -2.74247266352176666260e-02) (26, 2.32932552695274353027e-01) (27, 9.85812917351722717285e-02) (28, 2.57374376058578491211e-01) (29, 1.72250434756278991699e-01) (30, -1.94437056779861450195e-03) (31, 1.18645608425140380859e-01) (32, -1.61889061331748962402e-01) (33, -2.53338161855936050415e-02) (34, -1.31104782223701477051e-01) (35, 1.56055897474288940430e-01) (36, -1.42265945672988891602e-01) (37, -4.35784310102462768555e-02) (38, 2.97240525484085083008e-01) (39, 2.45902106165885925293e-01) (40, -3.34499520249664783478e-03) (41, -2.19833731651306152344e-01) (42, -2.19868898391723632812e-01) (43, 1.41018539667129516602e-01) (44, -2.79205530881881713867e-01) (45, 1.22284881770610809326e-01) (46, 1.46901726722717285156e-01) (47, 1.18037812411785125732e-01) (48, -2.89432823657989501953e-01) (49, -3.87144386768341064453e-02) (50, 2.06168606877326965332e-01) (51, 2.82250821590423583984e-01) (52, 3.44795808196067810059e-02) (53, 8.88326391577720642090e-02) (54, -1.93413376808166503906e-01) (55, 1.56413182616233825684e-01) (56, -2.39302232861518859863e-01) (57, -2.61829465627670288086e-01) (58, -6.61815851926803588867e-02) (59, -2.57929772138595581055e-01) (60, 2.48059347271919250488e-01) (61, 2.41246387362480163574e-01) (62, 1.50566413998603820801e-01) (63, -2.46275275945663452148e-01) (64, -9.30869951844215393066e-02) (65, -2.93532907962799072266e-01) (66, 2.11919367313385009766e-01) (67, 7.50648155808448791504e-02) (68, -4.29591201245784759521e-02) (69, 1.92674323916435241699e-01) (70, 6.31298124790191650391e-02) (71, 2.70604819059371948242e-01) (0, 2.86145031452178955078e-01) (1, 1.20684944093227386475e-01) (2, 1.09629049897193908691e-01) (3, -3.13027977943420410156e-01) (4, -1.04123027995228767395e-02) (5, -9.12416726350784301758e-02) (6, 1.36505737900733947754e-01) (7, -1.29770515486598014832e-02) (8, 1.91677197813987731934e-01) (9, 4.87818792462348937988e-02) (10, -1.27468621358275413513e-02) (11, -1.02073453366756439209e-01) (12, -1.45596206188201904297e-01) (13, 1.23191408812999725342e-01) (14, -2.56094574928283691406e-01) (15, -6.37007206678390502930e-02) (16, 1.65726616978645324707e-01) (17, -4.67491522431373596191e-03) (18, -2.57574375718832015991e-02) (19, 9.87193584442138671875e-02) (20, -5.62835484743118286133e-02) (21, -1.66682675480842590332e-01) (22, 1.69227018952369689941e-01) (23, 1.65440723299980163574e-01) (24, -1.48955732583999633789e-01) (25, 9.49607118964195251465e-02) (26, -4.98784892261028289795e-02) (27, 1.21341176331043243408e-01) (28, 6.70551182702183723450e-03) (29, -2.87332803010940551758e-01) (30, 9.58028510212898254395e-02) (31, -1.47500913590192794800e-02) (32, 1.46283969283103942871e-01) (33, -1.26914963126182556152e-01) (34, -1.72522366046905517578e-02) (35, -1.43159180879592895508e-01) (36, 1.27998292446136474609e-01) (37, -2.11956724524497985840e-01) (38, 1.42199069261550903320e-01) (39, 9.66741424053907394409e-03) (40, 2.10907205939292907715e-01) (41, -1.25840634107589721680e-01) (42, 2.44698241353034973145e-01) (43, -2.35587686300277709961e-01) (44, 2.75679767131805419922e-01) (45, -2.85965442657470703125e-01) (46, 1.48768434301018714905e-02) (47, 1.19469456374645233154e-01) (48, 4.35235127806663513184e-02) (49, 2.83311426639556884766e-01) (50, -6.85644149780273437500e-02) (51, 2.82281458377838134766e-01) (52, -1.65427923202514648438e-01) (53, -1.83148786425590515137e-01) (54, 1.48700356483459472656e-01) (55, -8.06900300085544586182e-03) (56, 1.89420580863952636719e-01) (57, -1.81824699044227600098e-01) (58, -1.90845951437950134277e-01) (59, -8.96655097603797912598e-02) (60, -1.60361543297767639160e-01) (61, 1.97321116924285888672e-01) (62, 1.71588465571403503418e-01) (63, 2.46429339051246643066e-01) (64, -2.34432786703109741211e-01) (65, -1.57027065753936767578e-01) (66, -1.60880997776985168457e-01) (67, 2.03903123736381530762e-01) (68, -1.17811532691121101379e-02) (69, 2.92894393205642700195e-01) (70, -8.06874409317970275879e-02) (71, -1.24351784586906433105e-01) (0, -1.42807930707931518555e-01) (1, -1.24668642878532409668e-01) (2, -5.92959523200988769531e-02) (3, -1.44246980547904968262e-01) (4, -1.10924854874610900879e-01) (5, 2.92171955108642578125e-01) (6, 3.05227458477020263672e-01) (7, 2.06767246127128601074e-01) (8, 2.44849219918251037598e-01) (9, -8.23230221867561340332e-02) (10, 1.93788602948188781738e-01) (11, -2.05726563930511474609e-01) (12, 1.77321732044219970703e-02) (13, 2.92218551039695739746e-02) (14, 9.98344048857688903809e-02) (15, -9.38278660178184509277e-02) (16, 1.26340046525001525879e-01) (17, 1.61630704998970031738e-01) (18, 8.35420936346054077148e-02) (19, 2.54087746143341064453e-01) (20, 6.62653371691703796387e-02) (21, -4.38225306570529937744e-02) (22, 2.22730726003646850586e-01) (23, 1.14725515246391296387e-01) (24, 9.76457968354225158691e-02) (25, -2.40523740649223327637e-01) (26, 9.52433235943317413330e-03) (27, -2.23223522305488586426e-01) (28, -2.47914552688598632812e-01) (29, 2.30548888444900512695e-01) (30, -4.52960357069969177246e-02) (31, -8.80772024393081665039e-02) (32, -2.21727594733238220215e-01) (33, 1.96773827075958251953e-01) (34, 4.87305819988250732422e-02) (35, -5.53250871598720550537e-02) (36, 1.46650999784469604492e-01) (37, 6.35927096009254455566e-02) (38, -1.34400755167007446289e-01) (39, 1.00574240088462829590e-01) (40, 2.06097736954689025879e-01) (41, -2.99985527992248535156e-01) (42, 1.50900483131408691406e-01) (43, -7.39739611744880676270e-02) (44, 4.81250695884227752686e-02) (45, -6.70049712061882019043e-02) (46, 1.03206582367420196533e-01) (47, -1.25761240720748901367e-01) (48, -2.47777581214904785156e-01) (49, -1.37711748480796813965e-01) (50, -1.68015092611312866211e-01) (51, 8.45851004123687744141e-02) (52, 1.41544103622436523438e-01) (53, -2.55832433700561523438e-01) (54, -9.54567044973373413086e-02) (55, -4.40113134682178497314e-02) (56, -1.69437810778617858887e-01) (57, 2.22157254815101623535e-01) (58, 2.79596168547868728638e-02) (59, -1.47441595792770385742e-01) (60, 1.13004930317401885986e-01) (61, 2.66070008277893066406e-01) (62, 7.34001174569129943848e-02) (63, 2.41343796253204345703e-01) (64, 1.62834331393241882324e-01) (65, -1.77225813269615173340e-01) (66, -1.24476000666618347168e-01) (67, 1.93107165396213531494e-02) (68, 1.50729015469551086426e-01) (69, 6.59994455054402351379e-03) (70, -1.86251550912857055664e-01) (71, 1.00419245660305023193e-01) (0, 2.09477003663778305054e-02) (1, 2.94877946376800537109e-01) (2, -2.78463065624237060547e-01) (3, -2.16010525822639465332e-01) (4, -8.91661867499351501465e-02) (5, 1.63817211985588073730e-01) (6, -2.87211611866950988770e-02) (7, -2.57762446999549865723e-02) (8, -2.38278999924659729004e-01) (9, 9.70356091856956481934e-02) (10, -2.13700979948043823242e-01) (11, 2.29283213615417480469e-01) (12, 1.63847193121910095215e-01) (13, -9.64103639125823974609e-03) (14, -1.21390171349048614502e-01) (15, 2.61532872915267944336e-01) (16, -8.78228545188903808594e-02) (17, 2.20020785927772521973e-01) (18, -1.44043222069740295410e-01) (19, -2.35582932829856872559e-01) (20, 1.96271106600761413574e-01) (21, 2.31489747762680053711e-01) (22, 2.92632162570953369141e-01) (23, 8.36433991789817810059e-02) (24, -2.21436262130737304688e-01) (25, -1.28374785184860229492e-01) (26, -1.89691722393035888672e-01) (27, 2.42997169494628906250e-01) (28, 1.75192132592201232910e-01) (29, -7.75468200445175170898e-02) (30, 3.14783118665218353271e-02) (31, -9.48345586657524108887e-02) (32, -8.09942856431007385254e-02) (33, 7.25125595927238464355e-02) (34, -1.67741179466247558594e-02) (35, 1.10457278788089752197e-01) (36, -7.98442661762237548828e-02) (37, 2.36985817551612854004e-01) (38, -2.33849599957466125488e-01) (39, -1.79686248302459716797e-02) (40, 2.10387818515300750732e-02) (41, -1.41525790095329284668e-01) (42, -9.76080223917961120605e-02) (43, -1.19747273623943328857e-01) (44, 1.33255094289779663086e-01) (45, 8.67395251989364624023e-02) (46, -1.53661042451858520508e-01) (47, -2.44623452425003051758e-01) (48, -1.50594739243388175964e-02) (49, 2.00922554358839988708e-03) (50, -1.77578166127204895020e-01) (51, -1.13963924348354339600e-01) (52, -7.32231661677360534668e-02) (53, -2.07413762807846069336e-01) (54, 2.54246056079864501953e-01) (55, 2.33479011803865432739e-02) (56, -1.23650915920734405518e-02) (57, -2.33777359127998352051e-01) (58, -4.77730892598628997803e-02) (59, -1.26879766583442687988e-01) (60, -3.97872366011142730713e-03) (61, 2.86837846040725708008e-01) (62, 9.27852541208267211914e-02) (63, 2.10775405168533325195e-01) (64, 3.10990735888481140137e-02) (65, -2.41564273834228515625e-01) (66, 1.35793443769216537476e-02) (67, 2.74233877658843994141e-01) (68, -2.95033246278762817383e-01) (69, 9.69959124922752380371e-02) (70, -4.16733287274837493896e-02) (71, 3.78632768988609313965e-02) (0, 2.63789802789688110352e-01) (1, 1.54146805405616760254e-01) (2, 2.16602489352226257324e-01) (3, 8.29463303089141845703e-02) (4, -5.29906004667282104492e-02) (5, -2.78682500123977661133e-01) (6, 1.46247163414955139160e-01) (7, 2.25403606891632080078e-01) (8, 4.73582744598388671875e-02) (9, 2.71641641855239868164e-01) (10, -1.82793155312538146973e-01) (11, 2.61964321136474609375e-01) (12, -2.01841667294502258301e-01) (13, -1.92206770181655883789e-01) (14, -1.55318342149257659912e-02) (15, 1.15320630371570587158e-01) (16, -1.44108816981315612793e-01) (17, 2.21246868371963500977e-01) (18, 2.79029220342636108398e-01) (19, 1.86796069145202636719e-01) (20, 2.43737086653709411621e-01) (21, 9.11080986261367797852e-02) (22, 9.00944545865058898926e-02) (23, -8.55469796806573867798e-03) (24, 1.58022508025169372559e-01) (25, -1.80332422256469726562e-01) (26, -1.55406007543206214905e-02) (27, 1.71394094824790954590e-01) (28, 2.27085709571838378906e-01) (29, 2.47635796666145324707e-01) (30, -8.51644501090049743652e-02) (31, 1.89593166112899780273e-01) (32, 1.07400588691234588623e-01) (33, -1.96885764598846435547e-01) (34, -2.58885324001312255859e-02) (35, -2.36663550138473510742e-01) (36, -1.36201307177543640137e-01) (37, -1.97637140750885009766e-01) (38, -3.25495213270187377930e-01) (39, 2.16847524046897888184e-01) (40, -1.83510094881057739258e-01) (41, -1.72394379973411560059e-01) (42, 1.97586402297019958496e-01) (43, -9.68931764364242553711e-02) (44, -8.94750431180000305176e-02) (45, -1.35884925723075866699e-01) (46, -2.74804234504699707031e-01) (47, 8.16773101687431335449e-02) (48, -1.58149003982543945312e-01) (49, -2.89473980665206909180e-01) (50, -5.05524650216102600098e-02) (51, -2.14532941579818725586e-01) (52, 9.37035754323005676270e-02) (53, -2.67040818929672241211e-01) (54, 8.85802209377288818359e-02) (55, -4.29350771009922027588e-02) (56, -1.51834368705749511719e-01) (57, -2.29154482483863830566e-01) (58, -1.79807707667350769043e-01) (59, -2.13478133082389831543e-01) (60, -2.74262547492980957031e-01) (61, 3.00172194838523864746e-02) (62, 2.68573403358459472656e-01) (63, 1.10022068023681640625e-01) (64, 1.50686860084533691406e-01) (65, -6.37894868850708007812e-02) (66, 1.98034062981605529785e-01) (67, -2.95491278171539306641e-01) (68, 6.86416849493980407715e-02) (69, 2.05147355794906616211e-01) (70, 2.16990798711776733398e-01) (71, 1.69548720121383666992e-01) (0, -2.75129318237304687500e-01) (1, 1.21067240834236145020e-01) (2, -2.10016146302223205566e-01) (3, -4.98863458633422851562e-02) (4, 3.04154604673385620117e-01) (5, -1.57687976956367492676e-01) (6, -2.69452989101409912109e-01) (7, -1.62420466542243957520e-01) (8, -1.82640597224235534668e-01) (9, -3.76976840198040008545e-02) (10, -7.89785161614418029785e-02) (11, 2.25236743688583374023e-01) (12, 2.24107922986149787903e-03) (13, 2.89241850376129150391e-01) (14, -1.24311052262783050537e-01) (15, 1.45782515406608581543e-01) (16, -2.33744889497756958008e-01) (17, 2.69781379029154777527e-03) (18, 2.29322001338005065918e-01) (19, -2.14414358139038085938e-01) (20, 3.11351925134658813477e-01) (21, 1.92956611514091491699e-01) (22, 2.26460337638854980469e-01) (23, 1.52715489268302917480e-01) (24, -1.71097114682197570801e-01) (25, 1.29078209400177001953e-01) (26, 1.38211622834205627441e-01) (27, 1.94589957594871520996e-01) (28, 3.29294875264167785645e-02) (29, 5.31070344150066375732e-02) (30, 6.90544620156288146973e-02) (31, 5.58400340378284454346e-02) (32, -1.48667126893997192383e-01) (33, 1.55418947339057922363e-01) (34, 2.89990484714508056641e-01) (35, -1.55867516994476318359e-01) (36, 2.67213225364685058594e-01) (37, 3.07141453027725219727e-01) (38, -1.58647205680608749390e-02) (39, -2.10879489779472351074e-01) (40, -4.63364720344543457031e-02) (41, 1.87045678496360778809e-01) (42, 2.92344599962234497070e-01) (43, 2.48049184679985046387e-01) (44, 1.93619281053543090820e-01) (45, -1.46531850099563598633e-01) (46, 8.72170850634574890137e-02) (47, 2.58699119091033935547e-01) (48, 1.21039696037769317627e-01) (49, 1.31637481972575187683e-02) (50, -2.47947350144386291504e-01) (51, 1.09616480767726898193e-01) (52, -8.62157791852951049805e-02) (53, 2.79270201921463012695e-01) (54, -5.55510334670543670654e-02) (55, 3.21486033499240875244e-02) (56, 1.05512410402297973633e-01) (57, -2.20158308744430541992e-01) (58, -6.20013065636157989502e-02) (59, -1.61745414137840270996e-01) (60, 1.37959450483322143555e-01) (61, -2.95198231935501098633e-01) (62, 1.92406997084617614746e-01) (63, 3.15979570150375366211e-01) (64, 1.54034286737442016602e-01) (65, 1.86555504798889160156e-01) (66, -1.57002195715904235840e-01) (67, 1.31272450089454650879e-01) (68, 1.81660696864128112793e-01) (69, 1.12149596214294433594e-01) (70, 2.13074013590812683105e-01) (71, -1.69559583067893981934e-01) (0, -4.78416867554187774658e-03) (1, 2.05050900578498840332e-01) (2, -2.25971147418022155762e-01) (3, -1.13520398736000061035e-01) (4, -2.49807104468345642090e-01) (5, 1.62226080894470214844e-01) (6, -1.58710494637489318848e-01) (7, 1.68515041470527648926e-01) (8, -1.12671658396720886230e-01) (9, -1.05320334434509277344e-01) (10, -1.34923458099365234375e-02) (11, 9.94593352079391479492e-02) (12, -1.28168016672134399414e-01) (13, 2.27640137076377868652e-01) (14, -1.76845550537109375000e-01) (15, 2.81335592269897460938e-01) (16, -2.84380763769149780273e-01) (17, 7.89381191134452819824e-02) (18, -1.83303371071815490723e-01) (19, 1.55181586742401123047e-01) (20, 7.55380913615226745605e-02) (21, -2.92674213647842407227e-01) (22, 1.45777463912963867188e-01) (23, -5.40989227592945098877e-02) (24, 1.89132124185562133789e-01) (25, 2.85044491291046142578e-01) (26, -2.24308207631111145020e-01) (27, 6.66938722133636474609e-02) (28, 9.19253379106521606445e-02) (29, 2.90641844272613525391e-01) (30, 1.99186220765113830566e-01) (31, -2.11785942316055297852e-01) (32, 1.92208856344223022461e-01) (33, 2.77072608470916748047e-01) (34, -2.72320210933685302734e-02) (35, 2.39450067281723022461e-01) (36, 1.42384976148605346680e-01) (37, 1.02311223745346069336e-01) (38, 9.90584567189216613770e-02) (39, -2.66668051481246948242e-01) (40, -2.94123977422714233398e-01) (41, -2.13713988661766052246e-01) (42, 1.36930853128433227539e-01) (43, -1.02462641894817352295e-01) (44, -2.73125410079956054688e-01) (45, 2.73624628782272338867e-01) (46, -1.38604059815406799316e-01) (47, -2.60713130235671997070e-01) (48, 6.98135420680046081543e-02) (49, -5.80867305397987365723e-02) (50, 2.10459664463996887207e-01) (51, -1.70681655406951904297e-01) (52, -1.20686190202832221985e-02) (53, 6.03127926588058471680e-02) (54, 9.32078137993812561035e-02) (55, -1.24458685517311096191e-01) (56, 4.47866618633270263672e-02) (57, 1.80359795689582824707e-01) (58, 2.42009907960891723633e-01) (59, -1.67577937245368957520e-01) (60, 1.63627088069915771484e-01) (61, 1.41194760799407958984e-01) (62, -7.94803649187088012695e-02) (63, 3.71499322354793548584e-02) (64, 1.13867513835430145264e-01) (65, 1.93402439355850219727e-01) (66, -1.42659600824117660522e-02) (67, -4.65101413428783416748e-02) (68, 5.15939341858029365540e-03) (69, -2.02883675694465637207e-01) (70, -1.12307909876108169556e-02) (71, 5.09872846305370330811e-03) (0, -1.00853040814399719238e-01) (1, -1.90225794911384582520e-01) (2, 2.10416615009307861328e-01) (3, -8.19867476820945739746e-02) (4, -2.25622072815895080566e-01) (5, -2.19457224011421203613e-01) (6, -4.60062250494956970215e-02) (7, 1.40880554914474487305e-01) (8, 2.48021315783262252808e-02) (9, -1.52613133192062377930e-01) (10, 2.84026682376861572266e-01) (11, -2.86450058221817016602e-01) (12, 1.96042835712432861328e-01) (13, 1.08192667365074157715e-01) (14, -7.93959349393844604492e-02) (15, -4.06081117689609527588e-02) (16, -2.34646145254373550415e-02) (17, -1.70351013541221618652e-01) (18, 4.43036518990993499756e-02) (19, -1.61095052957534790039e-01) (20, 2.83750057220458984375e-01) (21, 3.04767429828643798828e-01) (22, 1.89227417111396789551e-01) (23, 8.01613479852676391602e-02) (24, 1.71199470758438110352e-01) (25, -1.39963030815124511719e-01) (26, -2.84185707569122314453e-01) (27, -1.23395740985870361328e-01) (28, -3.16351056098937988281e-02) (29, 2.20728293061256408691e-02) (30, 2.10504621267318725586e-01) (31, 1.53961420059204101562e-01) (32, 9.66178849339485168457e-02) (33, 6.56360387802124023438e-02) (34, -2.62650996446609497070e-01) (35, 2.06385150551795959473e-01) (36, 1.33018493652343750000e-01) (37, -2.14462950825691223145e-02) (38, 1.96733679622411727905e-02) (39, -1.25245422124862670898e-01) (40, 1.38183459639549255371e-01) (41, 2.98517215996980667114e-02) (42, -1.34199902415275573730e-01) (43, 5.09413368999958038330e-02) (44, -1.31987392902374267578e-01) (45, 2.29092128574848175049e-02) (46, 2.63545155525207519531e-01) (47, 1.08590900897979736328e-01) (48, 1.41649842262268066406e-01) (49, -1.04998436290770769119e-03) (50, 2.46032312512397766113e-01) (51, 7.75244459509849548340e-02) (52, 1.95261090993881225586e-03) (53, 7.87719413638114929199e-02) (54, -1.52201712131500244141e-01) (55, -1.45109832286834716797e-01) (56, 2.52820998430252075195e-01) (57, -1.39892011880874633789e-01) (58, 4.89082448184490203857e-02) (59, -8.54513868689537048340e-02) (60, 1.70170366764068603516e-01) (61, -5.10151088237762451172e-02) (62, -2.48827666044235229492e-01) (63, -1.83904971927404403687e-02) (64, -2.63806194067001342773e-01) (65, -2.14188352227210998535e-01) (66, -1.14383950829505920410e-01) (67, 1.50226458907127380371e-01) (68, 6.75938427448272705078e-02) (69, 2.60230839252471923828e-01) (70, -2.93641805648803710938e-01) (71, -1.07865333557128906250e-01) (0, 1.27764856442809104919e-02) (1, -1.18239291012287139893e-01) (2, 2.46603295207023620605e-01) (3, 1.43308341503143310547e-01) (4, 2.15983942151069641113e-01) (5, 1.98873192071914672852e-01) (6, -4.97943386435508728027e-02) (7, 5.84435425698757171631e-02) (8, -7.62537121772766113281e-02) (9, -1.22561760246753692627e-01) (10, -1.43778786063194274902e-01) (11, 2.24991872906684875488e-01) (12, 2.80792027711868286133e-01) (13, 1.79541781544685363770e-02) (14, -1.91717326641082763672e-01) (15, 2.55561858415603637695e-01) (16, 1.83999851346015930176e-01) (17, 1.65300667285919189453e-01) (18, -1.46324917674064636230e-01) (19, 6.69777765870094299316e-02) (20, -1.81486219167709350586e-01) (21, -7.54850432276725769043e-02) (22, -2.53525495529174804688e-01) (23, -1.49985238909721374512e-01) (24, 5.51084848120808601379e-03) (25, -6.14146068692207336426e-02) (26, -2.89768368005752563477e-01) (27, -2.20851466059684753418e-01) (28, -1.08580954372882843018e-01) (29, -2.65371918678283691406e-01) (30, -3.43848415650427341461e-03) (31, 2.01352909207344055176e-01) (32, -1.00144237279891967773e-01) (33, -9.09919440746307373047e-02) (34, 3.64906489849090576172e-02) (35, -1.74238577485084533691e-01) (36, -1.82543218135833740234e-01) (37, 2.79662847518920898438e-01) (38, 1.55725494027137756348e-01) (39, 4.55777794122695922852e-02) (40, -1.16605915129184722900e-01) (41, -2.46194288134574890137e-01) (42, -2.53912452608346939087e-02) (43, -1.36986196041107177734e-01) (44, 6.74432069063186645508e-02) (45, 6.87976554036140441895e-02) (46, -1.79674237966537475586e-01) (47, -5.14735281467437744141e-02) (48, -4.80496622622013092041e-02) (49, -3.05766351521015167236e-02) (50, -2.85777717828750610352e-01) (51, 4.88162823021411895752e-02) (52, 2.00425982475280761719e-01) (53, -2.53877550363540649414e-01) (54, 1.94020152091979980469e-01) (55, -1.17416732013225555420e-01) (56, -1.73649452626705169678e-02) (57, 2.02293083071708679199e-01) (58, -2.32842043042182922363e-02) (59, 1.87196388840675354004e-01) (60, 2.51087754964828491211e-01) (61, 2.74819314479827880859e-01) (62, 8.08785110712051391602e-02) (63, -1.67713522911071777344e-01) (64, -1.36415749788284301758e-01) (65, -2.12384328246116638184e-01) (66, -3.98588515818119049072e-02) (67, -6.23442756477743387222e-05) (68, -1.91870227456092834473e-01) (69, -1.28735780715942382812e-01) (70, -2.49142795801162719727e-01) (71, -2.54528336226940155029e-02) (0, -8.23326557874679565430e-02) (1, 1.48485228419303894043e-02) (2, 1.45470529794692993164e-01) (3, 2.77477830648422241211e-01) (4, -2.12968453764915466309e-01) (5, 2.46109411120414733887e-01) (6, -6.95588886737823486328e-02) (7, 3.28498929738998413086e-02) (8, -6.95924833416938781738e-02) (9, -6.23443387448787689209e-02) (10, -2.15215161442756652832e-01) (11, -1.82599231600761413574e-01) (12, -1.73262658063322305679e-03) (13, 2.88100481033325195312e-01) (14, 2.04365737736225128174e-02) (15, 3.00292134284973144531e-01) (16, 1.91709443926811218262e-01) (17, -2.96343266963958740234e-01) (18, 1.79752513766288757324e-01) (19, 1.43489047884941101074e-01) (20, 2.71240055561065673828e-01) (21, -3.90017107129096984863e-02) (22, 2.93201059103012084961e-01) (23, -1.41599938273429870605e-01) (24, 7.00430795550346374512e-02) (25, -2.43677143007516860962e-02) (26, 1.62675097584724426270e-01) (27, 1.73616200685501098633e-01) (28, 1.44408240914344787598e-01) (29, 2.10318982601165771484e-01) (30, -1.44918113946914672852e-01) (31, -2.38972127437591552734e-01) (32, -8.04523006081581115723e-02) (33, 2.91818320751190185547e-01) (34, -2.65200346708297729492e-01) (35, 1.58237647265195846558e-02) (36, 2.48355925083160400391e-01) (37, -4.36882041394710540771e-02) (38, -2.49183326959609985352e-01) (39, -1.24996110796928405762e-01) (40, 2.08824485540390014648e-01) (41, -1.56932622194290161133e-01) (42, 5.42540289461612701416e-03) (43, -9.70743000507354736328e-02) (44, -1.66048452258110046387e-01) (45, -2.89107203483581542969e-01) (46, -9.64748337864875793457e-02) (47, -2.68850713968276977539e-01) (48, -2.66599178314208984375e-01) (49, -2.38533526659011840820e-01) (50, 1.79273948073387145996e-01) (51, -3.04266035556793212891e-01) (52, 4.19374778866767883301e-02) (53, 1.65373444557189941406e-01) (54, -1.36622458696365356445e-01) (55, -1.79967135190963745117e-01) (56, -1.53152212500572204590e-01) (57, -2.76847451925277709961e-01) (58, 2.87178397178649902344e-01) (59, 2.96687453985214233398e-01) (60, 2.35529899597167968750e-01) (61, -1.61474481225013732910e-01) (62, -2.47210770845413208008e-01) (63, -1.48672848939895629883e-01) (64, -1.67980879545211791992e-01) (65, -2.04972758889198303223e-01) (66, 1.78237423300743103027e-01) (67, -2.19257846474647521973e-01) (68, 5.44339232146739959717e-02) (69, 2.24046602845191955566e-01) (70, -4.22566831111907958984e-02) (71, -5.12145943939685821533e-02) (0, -2.48258188366889953613e-01) (1, 2.47698128223419189453e-01) (2, 1.49031460285186767578e-01) (3, -1.19663573801517486572e-01) (4, 2.76481628417968750000e-01) (5, -2.55824983119964599609e-01) (6, -8.76612141728401184082e-02) (7, -2.91293621063232421875e-01) (8, -1.68507605791091918945e-01) (9, -2.07052156329154968262e-01) (10, -2.91503846645355224609e-01) (11, 1.70124098658561706543e-01) (12, 2.65655606985092163086e-01) (13, -1.27989962697029113770e-01) (14, 2.68336683511734008789e-01) (15, -1.84504598379135131836e-01) (16, -1.01333655416965484619e-01) (17, 2.61970609426498413086e-01) (18, -1.88949674367904663086e-01) (19, -1.80123880505561828613e-01) (20, -2.14296415448188781738e-01) (21, -1.46260082721710205078e-01) (22, -2.38636042922735214233e-02) (23, -7.92083516716957092285e-02) (24, -5.81208504736423492432e-02) (25, -1.56522169709205627441e-01) (26, -1.11154385376721620560e-03) (27, 2.92247086763381958008e-01) (28, -2.40852475166320800781e-01) (29, 2.51701295375823974609e-01) (30, -6.24753125011920928955e-02) (31, -1.85986608266830444336e-01) (32, 2.15357616543769836426e-01) (33, -1.97243988513946533203e-01) (34, 9.01916623115539550781e-03) (35, 1.91079288721084594727e-01) (36, -1.50561854243278503418e-01) (37, 2.40790575742721557617e-01) (38, 2.26434782147407531738e-01) (39, -3.04056275635957717896e-02) (40, -2.77836203575134277344e-01) (41, 2.11276367306709289551e-01) (42, -1.55273661017417907715e-01) (43, 2.79754161834716796875e-01) (44, -2.19967842102050781250e-01) (45, -1.56109079718589782715e-01) (46, -2.02438265085220336914e-01) (47, -8.55514686554670333862e-03) (48, -2.21432030200958251953e-01) (49, -9.27724391222000122070e-02) (50, 1.02602012455463409424e-01) (51, -1.08097769320011138916e-01) (52, 6.76612928509712219238e-02) (53, -2.06186503171920776367e-01) (54, 1.00155971944332122803e-01) (55, -2.79273867607116699219e-01) (56, -6.54888823628425598145e-02) (57, -1.76099568605422973633e-01) (58, -2.92071104049682617188e-01) (59, -7.76715623214840888977e-03) (60, -2.34820395708084106445e-01) (61, -6.02516941726207733154e-02) (62, 1.08265034854412078857e-01) (63, 2.84566581249237060547e-01) (64, 5.13986609876155853271e-02) (65, -1.68262705206871032715e-01) (66, 1.70483872294425964355e-01) (67, 1.87023624777793884277e-01) (68, -2.60541051626205444336e-01) (69, 6.46391138434410095215e-02) (70, -1.33050814270973205566e-01) (71, -2.20134928822517395020e-01) (0, -1.37987658381462097168e-02) (1, 3.46705503761768341064e-02) (2, -2.34412327408790588379e-01) (3, 7.77103751897811889648e-02) (4, 1.62475660443305969238e-01) (5, -1.25400274991989135742e-01) (6, -2.37593814730644226074e-01) (7, 2.61231541633605957031e-01) (8, 8.65986123681068420410e-02) (9, 1.72026246786117553711e-01) (10, -1.52460679411888122559e-01) (11, -1.44445374608039855957e-01) (12, 2.57424116134643554688e-01) (13, 2.55089402198791503906e-01) (14, -1.32678776979446411133e-01) (15, -1.20827563107013702393e-01) (16, -2.27515757083892822266e-01) (17, -1.37305751442909240723e-01) (18, 1.75819173455238342285e-01) (19, -1.60966590046882629395e-01) (20, 1.12295031547546386719e-01) (21, -1.70167442411184310913e-02) (22, -1.82715922594070434570e-01) (23, -1.49572148919105529785e-01) (24, 1.06343246996402740479e-01) (25, 2.88637280464172363281e-01) (26, -2.55806088447570800781e-01) (27, 1.55940234661102294922e-01) (28, 5.94532825052738189697e-02) (29, -7.81602784991264343262e-02) (30, 2.30359718203544616699e-01) (31, -2.56869584321975708008e-01) (32, 2.48975843191146850586e-01) (33, 2.98044830560684204102e-01) (34, 1.21548622846603393555e-01) (35, 1.09733715653419494629e-01) (36, -1.30183666944503784180e-01) (37, 1.93866640329360961914e-01) (38, 7.79015570878982543945e-02) (39, 2.53477126359939575195e-01) (40, 5.12609519064426422119e-02) (41, 2.01156228780746459961e-01) (42, -1.86332732439041137695e-01) (43, 1.34713128209114074707e-02) (44, 1.76776528358459472656e-01) (45, -4.09773252904415130615e-02) (46, 1.91091015934944152832e-01) (47, 2.51463949680328369141e-01) (48, 1.45514473319053649902e-01) (49, 8.39728489518165588379e-02) (50, -2.05162256956100463867e-01) (51, -5.27699664235115051270e-02) (52, -2.47324958443641662598e-01) (53, -8.70946273207664489746e-02) (54, 1.05698302388191223145e-01) (55, 1.64445281028747558594e-01) (56, -8.86171534657478332520e-02) (57, 1.53706565499305725098e-01) (58, 1.59558821469545364380e-02) (59, 2.60318905115127563477e-01) (60, -2.34153673052787780762e-01) (61, -5.29085062444210052490e-02) (62, -2.94980227947235107422e-01) (63, -2.61688143014907836914e-01) (64, -5.36727644503116607666e-02) (65, 1.37781202793121337891e-01) (66, 1.35864004492759704590e-01) (67, 1.09588295221328735352e-01) (68, 5.06912404671311378479e-03) (69, -1.07875838875770568848e-01) (70, 7.29597061872482299805e-02) (71, -2.38009542226791381836e-01) (0, -1.95171013474464416504e-01) (1, 1.78393095731735229492e-01) (2, 7.10127651691436767578e-02) (3, 2.93988823890686035156e-01) (4, -1.42434597015380859375e-01) (5, -2.80464850366115570068e-02) (6, 2.37109333276748657227e-01) (7, -3.01307231187820434570e-01) (8, -2.67415672540664672852e-01) (9, -2.67788797616958618164e-01) (10, -4.44775745272636413574e-02) (11, -2.08702653646469116211e-01) (12, -5.56569844484329223633e-02) (13, -2.39748433232307434082e-01) (14, 2.52275526523590087891e-01) (15, 1.45872727036476135254e-01) (16, 2.10159286856651306152e-01) (17, -3.61567474901676177979e-02) (18, 1.06039591133594512939e-01) (19, 2.83626317977905273438e-01) (20, 2.11099743843078613281e-01) (21, 1.09997175633907318115e-01) (22, -3.01565885543823242188e-01) (23, -1.49604544043540954590e-01) (24, -6.44803494215011596680e-02) (25, 1.30123600363731384277e-01) (26, 2.64648616313934326172e-01) (27, 2.44983181357383728027e-01) (28, -2.72841334342956542969e-01) (29, 3.10616828501224517822e-02) (30, -2.94688463211059570312e-01) (31, -1.71596199274063110352e-01) (32, -8.57831612229347229004e-02) (33, 8.09396952390670776367e-02) (34, -1.89335256814956665039e-01) (35, 7.10107609629631042480e-02) (36, -2.56030797958374023438e-01) (37, -2.43262037634849548340e-01) (38, 6.15511946380138397217e-02) (39, -2.16813415288925170898e-01) (40, -2.34986245632171630859e-01) (41, -2.78959870338439941406e-01) (42, -1.34601354598999023438e-01) (43, 3.75305442139506340027e-03) (44, -2.11436077952384948730e-01) (45, -1.99133917689323425293e-01) (46, -1.54518142342567443848e-01) (47, 2.95839488506317138672e-01) (48, 8.90296399593353271484e-02) (49, 2.66616433858871459961e-01) (50, 2.87742555141448974609e-01) (51, 1.14178366493433713913e-03) (52, 6.45983219146728515625e-02) (53, 2.90472865104675292969e-01) (54, 1.39042168855667114258e-01) (55, -3.03589284420013427734e-01) (56, 1.12722426652908325195e-01) (57, 9.80402156710624694824e-02) (58, 2.37151294946670532227e-01) (59, 1.33546084165573120117e-01) (60, -1.75915807485580444336e-01) (61, 2.52309948205947875977e-01) (62, 2.71040707826614379883e-01) (63, 4.41775359213352203369e-02) (64, 3.20750474929809570312e-02) (65, -2.24602386355400085449e-01) (66, -1.76607221364974975586e-01) (67, 8.67608413100242614746e-02) (68, -1.70696005225181579590e-01) (69, 1.99133068323135375977e-01) (70, 1.62569090723991394043e-01) (71, -1.14769972860813140869e-01) (0, 2.10727930068969726562e-01) (1, -2.82401829957962036133e-01) (2, 1.94922730326652526855e-01) (3, -3.26473802328109741211e-01) (4, -1.73246741294860839844e-01) (5, -2.77957111597061157227e-01) (6, 2.62404859066009521484e-01) (7, 2.15155035257339477539e-01) (8, -2.90785938501358032227e-01) (9, 2.69326388835906982422e-01) (10, -1.07078328728675842285e-01) (11, 6.39585703611373901367e-02) (12, 2.45388284325599670410e-01) (13, -2.68403619527816772461e-01) (14, 5.09340167045593261719e-02) (15, 7.86446109414100646973e-02) (16, 1.34501338005065917969e-01) (17, 2.18676626682281494141e-02) (18, -8.21271464228630065918e-02) (19, 2.69086539745330810547e-01) (20, -3.47075536847114562988e-02) (21, -1.21986746788024902344e-01) (22, 1.54763525351881980896e-02) (23, -2.87718206644058227539e-01) (24, -4.21447642147541046143e-02) (25, 1.39509037137031555176e-01) (26, 9.78289023041725158691e-02) (27, 7.77387917041778564453e-02) (28, 2.92095132172107696533e-02) (29, -4.33100424706935882568e-02) (30, 2.63554602861404418945e-01) (31, -6.18473887443542480469e-02) (32, -1.41224823892116546631e-02) (33, 1.71920940279960632324e-01) (34, -5.58115094900131225586e-02) (35, 1.19716845452785491943e-01) (36, 2.19906508922576904297e-01) (37, -7.24879056215286254883e-02) (38, 2.52503883093595504761e-02) (39, 2.08882734179496765137e-01) (40, -7.04682022333145141602e-02) (41, 2.11834847927093505859e-01) (42, 5.98201854154467582703e-03) (43, -1.04914262890815734863e-01) (44, 2.74878263473510742188e-01) (45, -2.42676153779029846191e-01) (46, 2.72738844156265258789e-01) (47, 1.20801776647567749023e-01) (48, 1.16473682224750518799e-01) (49, -1.21960178017616271973e-01) (50, 9.39595699310302734375e-02) (51, -2.10785463452339172363e-01) (52, 6.59820958971977233887e-02) (53, -2.00291037559509277344e-01) (54, -1.71925008296966552734e-01) (55, -2.88454025983810424805e-01) (56, 2.37689152359962463379e-01) (57, 2.15592920780181884766e-01) (58, 9.97443795204162597656e-02) (59, -1.55505836009979248047e-02) (60, -1.08702264726161956787e-01) (61, 7.51684457063674926758e-02) (62, 2.29697301983833312988e-01) (63, 1.29862651228904724121e-01) (64, -8.42381566762924194336e-02) (65, -1.51651099324226379395e-01) (66, -3.55250388383865356445e-02) (67, -1.59572303295135498047e-01) (68, 1.08615569770336151123e-01) (69, -2.83886462450027465820e-01) (70, -2.18858003616333007812e-01) (71, -2.68440783023834228516e-01) (0, 2.52862185239791870117e-01) (1, 7.89990872144699096680e-02) (2, -7.19063058495521545410e-02) (3, 1.93201854825019836426e-01) (4, 1.88909068703651428223e-01) (5, -1.62299513816833496094e-01) (6, 1.05477776378393173218e-03) (7, -1.11398855224251747131e-02) (8, 7.40470141172409057617e-02) (9, -1.83834895491600036621e-01) (10, 1.02106563746929168701e-01) (11, -1.98827281594276428223e-01) (12, -7.64340013265609741211e-02) (13, 2.02630043029785156250e-01) (14, -2.31306225061416625977e-01) (15, -1.26968890428543090820e-01) (16, 1.32037952542304992676e-01) (17, 1.99337780475616455078e-01) (18, 1.80393040180206298828e-01) (19, -2.92542576789855957031e-01) (20, -3.50794084370136260986e-02) (21, 8.99178758263587951660e-02) (22, 1.66765451431274414062e-01) (23, 2.12580963969230651855e-01) (24, 2.73368746042251586914e-01) (25, -1.46399676799774169922e-01) (26, -2.14148640632629394531e-01) (27, 8.48838463425636291504e-02) (28, -1.36380985379219055176e-01) (29, -1.45424649119377136230e-01) (30, 1.23698115348815917969e-01) (31, -1.78965151309967041016e-01) (32, 2.51840800046920776367e-01) (33, -2.53523707389831542969e-01) (34, -2.53445982933044433594e-01) (35, 1.28699690103530883789e-01) (36, -5.78369200229644775391e-02) (37, 9.00762528181076049805e-02) (38, -1.34430661797523498535e-01) (39, -3.16846489906311035156e-01) (40, 2.30141460895538330078e-01) (41, 2.26287364959716796875e-01) (42, -1.49213880300521850586e-01) (43, -1.11965633928775787354e-01) (44, 1.41098603606224060059e-01) (45, -2.60944645851850509644e-02) (46, 7.32436552643775939941e-02) (47, 4.29900828748941421509e-03) (48, -4.42077033221721649170e-02) (49, -3.10828513465821743011e-03) (50, -4.01920778676867485046e-03) (51, 2.35454499721527099609e-01) (52, -2.20410928130149841309e-01) (53, -1.37967973947525024414e-01) (54, 1.84733822941780090332e-01) (55, -2.54825979471206665039e-01) (56, 2.96631176024675369263e-02) (57, 2.89840310811996459961e-01) (58, 1.10063500702381134033e-01) (59, 1.89279273152351379395e-01) (60, -1.51637226343154907227e-01) (61, -4.99843508005142211914e-02) (62, -2.71218717098236083984e-01) (63, -2.10978835821151733398e-01) (64, 1.80612709373235702515e-02) (65, -2.22909584641456604004e-01) (66, 2.25011974573135375977e-01) (67, 2.35776081681251525879e-01) (68, 1.53166413307189941406e-01) (69, -2.43450820446014404297e-01) (70, 2.61008024215698242188e-01) (71, 9.10495072603225708008e-02) (0, 2.68074542284011840820e-01) (1, -1.81833073496818542480e-01) (2, 2.62283682823181152344e-01) (3, 1.37638777494430541992e-01) (4, 1.00746482610702514648e-01) (5, 9.18939858675003051758e-02) (6, -1.97773024439811706543e-01) (7, -2.41657868027687072754e-01) (8, -2.99841374158859252930e-01) (9, 1.04511097073554992676e-01) (10, -2.94649720191955566406e-01) (11, -2.06706613302230834961e-01) (12, 2.73336172103881835938e-01) (13, 1.98786124587059020996e-01) (14, -1.66475057601928710938e-01) (15, -1.16435717791318893433e-03) (16, 1.76566034555435180664e-01) (17, 2.57684618234634399414e-01) (18, -1.00815184414386749268e-01) (19, -2.74785518646240234375e-01) (20, -1.19366094470024108887e-01) (21, -8.24358314275741577148e-02) (22, -1.74288287758827209473e-01) (23, 1.74203455448150634766e-01) (24, -1.36609748005867004395e-02) (25, -2.43887245655059814453e-01) (26, 9.05398428440093994141e-02) (27, -1.53936892747879028320e-01) (28, -1.92775055766105651855e-01) (29, 4.49688695371150970459e-02) (30, 2.32150390744209289551e-01) (31, -2.26156607270240783691e-01) (32, 1.42582491040229797363e-01) (33, 2.04689666628837585449e-01) (34, 1.88929826021194458008e-01) (35, -6.23817853629589080811e-02) (36, -5.71932494640350341797e-02) (37, 2.28571698069572448730e-01) (38, -5.39540313184261322021e-02) (39, -1.54960313811898231506e-02) (40, 7.64447078108787536621e-02) (41, -1.13298129290342330933e-02) (42, 1.65256578475236892700e-02) (43, 2.88372226059436798096e-02) (44, -1.07849739491939544678e-01) (45, 1.42928391695022583008e-01) (46, -2.71626114845275878906e-01) (47, -2.25722759962081909180e-01) (48, 3.89961227774620056152e-02) (49, -1.06280781328678131104e-01) (50, -1.99039652943611145020e-01) (51, 2.09604829549789428711e-01) (52, 1.47302955389022827148e-01) (53, -7.83547461032867431641e-02) (54, 6.55382946133613586426e-02) (55, -1.55985653400421142578e-01) (56, -1.42892058938741683960e-02) (57, -1.58167272806167602539e-01) (58, -2.31546554714441299438e-02) (59, 9.33952480554580688477e-02) (60, 1.84480026364326477051e-01) (61, -9.65888649225234985352e-02) (62, 1.64578571915626525879e-01) (63, 5.43811656534671783447e-02) (64, -2.01800197362899780273e-01) (65, 6.09114915132522583008e-02) (66, 2.92495399713516235352e-01) (67, 6.44024014472961425781e-02) (68, 4.07224968075752258301e-02) (69, -5.00560291111469268799e-02) (70, 3.02411258220672607422e-01) (71, -2.21320852637290954590e-01) (0, 2.27280467748641967773e-01) (1, 3.14964505378156900406e-04) (2, 1.16240397095680236816e-01) (3, -1.92650809884071350098e-01) (4, -1.90424934029579162598e-01) (5, 1.28180101513862609863e-01) (6, -1.29194930195808410645e-01) (7, 1.45378470420837402344e-01) (8, -2.42157980799674987793e-01) (9, -3.85849364101886749268e-02) (10, 4.15299944579601287842e-02) (11, 1.88966140151023864746e-01) (12, 1.79372251033782958984e-01) (13, -2.00751349329948425293e-01) (14, -2.94055640697479248047e-01) (15, -1.47714897990226745605e-01) (16, -7.20214173197746276855e-02) (17, -1.38250058516860008240e-02) (18, 2.34709545969963073730e-01) (19, -1.79836645722389221191e-01) (20, 1.82554617524147033691e-01) (21, 9.04151722788810729980e-02) (22, 1.34479492902755737305e-01) (23, 2.92817711830139160156e-01) (24, -1.63159951567649841309e-01) (25, 9.69854369759559631348e-02) (26, 3.81287783384323120117e-02) (27, 1.62628561258316040039e-01) (28, -2.63595938682556152344e-01) (29, 2.64335870742797851562e-02) (30, 2.50267297029495239258e-01) (31, 2.66014784574508666992e-01) (32, -2.68808066844940185547e-01) (33, 7.12019726634025573730e-02) (34, -2.22139060497283935547e-01) (35, -1.58714324235916137695e-01) (36, -9.08270329236984252930e-02) (37, -4.60645407438278198242e-02) (38, 3.01119774580001831055e-01) (39, -2.93360464274883270264e-02) (40, 2.12564900517463684082e-01) (41, 3.75934168696403503418e-02) (42, -1.42757147550582885742e-01) (43, 9.53061133623123168945e-02) (44, 1.16783082485198974609e-01) (45, -1.04344636201858520508e-01) (46, 2.45332807302474975586e-01) (47, -2.48391896486282348633e-01) (48, 1.58712878823280334473e-01) (49, 1.86175763607025146484e-01) (50, -1.26412764191627502441e-01) (51, 5.01117147505283355713e-02) (52, -3.63659299910068511963e-02) (53, -2.82512784004211425781e-01) (54, 4.34476211667060852051e-02) (55, 1.11016541719436645508e-01) (56, 1.14964410662651062012e-01) (57, -2.17855587601661682129e-01) (58, -3.69276404380798339844e-02) (59, 1.47569134831428527832e-01) (60, 1.07509247958660125732e-01) (61, -8.70703309774398803711e-02) (62, 1.14111572504043579102e-01) (63, 1.45744577050209045410e-01) (64, 2.90939599275588989258e-01) (65, 1.99147582054138183594e-01) (66, 2.80820041894912719727e-01) (67, -1.04462422430515289307e-01) (68, -1.49050459265708923340e-01) (69, 2.64347165822982788086e-01) (70, 1.61315649747848510742e-01) (71, -2.32267513871192932129e-01) (0, -3.75018361955881118774e-03) (1, -2.63019591569900512695e-01) (2, 1.59358084201812744141e-01) (3, -1.90914317965507507324e-01) (4, -8.43318775296211242676e-02) (5, 1.14985443651676177979e-01) (6, -1.18963249027729034424e-01) (7, -2.24988907575607299805e-01) (8, -1.72400400042533874512e-02) (9, 4.93783727288246154785e-02) (10, 1.29538372159004211426e-01) (11, 2.57670879364013671875e-01) (12, 7.28851631283760070801e-02) (13, -1.28292888402938842773e-01) (14, 6.79945722222328186035e-02) (15, -1.15855447947978973389e-01) (16, -5.50395213067531585693e-02) (17, -2.71826922893524169922e-01) (18, -2.68153190612792968750e-01) (19, -2.40827441215515136719e-01) (20, -5.02266958355903625488e-02) (21, 1.53481572866439819336e-01) (22, 1.96998253464698791504e-01) (23, -6.57655671238899230957e-02) (24, 4.81721237301826477051e-02) (25, 1.78785562515258789062e-01) (26, 1.30368426442146301270e-01) (27, 1.98101684451103210449e-01) (28, 1.40450417995452880859e-01) (29, -1.04088047519326210022e-02) (30, 2.62440770864486694336e-01) (31, -1.58004269003868103027e-01) (32, 2.33215168118476867676e-02) (33, 1.19085878133773803711e-01) (34, -4.05656695365905761719e-02) (35, 2.32118546962738037109e-01) (36, -7.65033811330795288086e-02) (37, 1.54087394475936889648e-01) (38, -2.88407772779464721680e-01) (39, 2.03014120459556579590e-01) (40, -1.09655097126960754395e-01) (41, 1.52369379997253417969e-01) (42, 1.56193867325782775879e-01) (43, 2.49100878834724426270e-01) (44, 2.80737340450286865234e-01) (45, -8.56769084930419921875e-02) (46, -1.54817193746566772461e-01) (47, -7.15920999646186828613e-02) (48, -6.14560283720493316650e-02) (49, -1.34661987423896789551e-01) (50, -2.05976217985153198242e-02) (51, 1.81706473231315612793e-01) (52, -2.77975201606750488281e-01) (53, -1.30070939660072326660e-01) (54, -1.93704515695571899414e-01) (55, 8.40545892715454101562e-02) (56, -2.52806454896926879883e-01) (57, 2.36178755760192871094e-01) (58, -3.18658798933029174805e-02) (59, 2.04022929072380065918e-01) (60, -4.86426241695880889893e-02) (61, -6.67291954159736633301e-02) (62, -2.55875498056411743164e-01) (63, 2.47983217239379882812e-01) (64, -2.63552069664001464844e-01) (65, -1.63054727017879486084e-02) (66, 1.74530953168869018555e-01) (67, -3.96663732826709747314e-02) (68, -1.52659475803375244141e-01) (69, 1.91268131136894226074e-01) (70, -1.25603869557380676270e-01) (71, 4.51510846614837646484e-02) (0, 1.39928199350833892822e-02) (1, -2.57939308881759643555e-01) (2, -1.17898331955075263977e-02) (3, 2.83824205398559570312e-02) (4, -5.02256788313388824463e-02) (5, 1.46164953708648681641e-01) (6, 2.54269540309906005859e-01) (7, 2.01950594782829284668e-01) (8, -2.88329571485519409180e-01) (9, -5.37647381424903869629e-02) (10, 8.00543203949928283691e-02) (11, -2.53020077943801879883e-01) (12, 1.27180710434913635254e-01) (13, 1.93582981824874877930e-01) (14, 1.09296210110187530518e-01) (15, 1.77821815013885498047e-01) (16, 1.45047485828399658203e-01) (17, -2.10981756448745727539e-01) (18, 9.85465273261070251465e-02) (19, -2.22600445151329040527e-01) (20, 1.23500451445579528809e-02) (21, 1.36210083961486816406e-01) (22, -2.53832101821899414062e-01) (23, 6.96226805448532104492e-02) (24, -1.47560030221939086914e-01) (25, 2.46089354157447814941e-01) (26, -2.54344850778579711914e-01) (27, -1.62600120529532432556e-03) (28, 1.39968454837799072266e-01) (29, -7.56229013204574584961e-02) (30, -2.73398190736770629883e-01) (31, -1.43453747034072875977e-01) (32, -2.28316523134708404541e-02) (33, 4.00984399020671844482e-02) (34, 1.76000177860260009766e-01) (35, 2.25516706705093383789e-01) (36, -1.30314037203788757324e-01) (37, 9.70736518502235412598e-02) (38, 7.60038867592811584473e-02) (39, -1.07725806534290313721e-01) (40, -2.48166963458061218262e-01) (41, -1.04758873581886291504e-01) (42, -7.65392780303955078125e-02) (43, 1.74794241786003112793e-01) (44, -1.95500880479812622070e-01) (45, -2.60467767715454101562e-01) (46, 5.47599568963050842285e-02) (47, 2.33079105615615844727e-01) (48, -1.80206447839736938477e-01) (49, -1.68376684188842773438e-01) (50, -2.69352644681930541992e-01) (51, 1.30497857928276062012e-01) (52, 2.83939033746719360352e-01) (53, -2.48560398817062377930e-01) (54, -9.74803194403648376465e-02) (55, -1.74337506294250488281e-01) (56, -2.86478459835052490234e-01) (57, -4.46596071124076843262e-02) (58, 1.22562490403652191162e-01) (59, 1.56890332698822021484e-01) (60, 1.85015141963958740234e-01) (61, 1.69165417551994323730e-01) (62, -2.76145875453948974609e-01) (63, -1.47771522402763366699e-01) (64, -1.10419519245624542236e-01) (65, 1.92766547203063964844e-01) (66, -2.27469578385353088379e-01) (67, 5.00175021588802337646e-02) (68, 5.15208160504698753357e-03) (69, 2.06969782710075378418e-01) (70, 2.57993370294570922852e-01) (71, 6.82707652449607849121e-02) (0, -1.98903799057006835938e-01) (1, -1.16648808121681213379e-01) (2, -6.13340102136135101318e-02) (3, -8.47658663988113403320e-02) (4, -7.51784294843673706055e-02) (5, 3.08701783418655395508e-01) (6, -1.41070693731307983398e-01) (7, 4.68839704990386962891e-02) (8, -1.64772778749465942383e-01) (9, -1.21212206780910491943e-01) (10, -1.06048002839088439941e-01) (11, -1.72376111149787902832e-01) (12, -4.55924682319164276123e-02) (13, 1.03947110474109649658e-01) (14, -2.96473260968923568726e-02) (15, -2.62768212705850601196e-02) (16, -2.42947056889533996582e-01) (17, -2.09119215607643127441e-01) (18, -1.70249506831169128418e-01) (19, 2.52693951129913330078e-01) (20, 2.64309048652648925781e-01) (21, -1.45060271024703979492e-01) (22, -1.91797032952308654785e-01) (23, -1.42554938793182373047e-01) (24, -2.46145755052566528320e-01) (25, -1.03834860026836395264e-01) (26, 2.29827642440795898438e-01) (27, 7.64677152037620544434e-02) (28, -2.05708160996437072754e-01) (29, 1.79420307278633117676e-01) (30, -1.56176790595054626465e-01) (31, -9.72183272242546081543e-02) (32, -2.33832582831382751465e-01) (33, 9.88199785351753234863e-02) (34, 1.13784074783325195312e-01) (35, -2.15398520231246948242e-02) (36, 8.87412726879119873047e-02) (37, 2.63648331165313720703e-01) (38, -2.45132833719253540039e-01) (39, 2.30206578969955444336e-01) (40, -1.72695443034172058105e-01) (41, -8.13130736351013183594e-02) (42, -2.61166274547576904297e-01) (43, 8.15920233726501464844e-02) (44, -3.08525711297988891602e-01) (45, 2.44878083467483520508e-02) (46, -2.56579011678695678711e-01) (47, -2.44748681783676147461e-01) (48, 7.92797580361366271973e-02) (49, -1.39666229486465454102e-01) (50, -2.90005683898925781250e-01) (51, 3.91822569072246551514e-02) (52, 1.46466763690114021301e-02) (53, -1.59533739089965820312e-01) (54, 2.03125029802322387695e-01) (55, 7.60750770568847656250e-02) (56, 2.91467849165201187134e-02) (57, 1.32199972867965698242e-01) (58, -1.44972443580627441406e-01) (59, 1.24410443007946014404e-01) (60, 4.99358493834733963013e-03) (61, -8.45638010650873184204e-03) (62, -2.70106673240661621094e-01) (63, 8.21765288710594177246e-02) (64, -2.09532007575035095215e-01) (65, 1.54616639018058776855e-01) (66, -2.44506746530532836914e-01) (67, 1.79839819669723510742e-01) (68, 1.09858825802803039551e-01) (69, -2.30173870921134948730e-01) (70, 9.96821373701095581055e-02) (71, 2.46519297361373901367e-01) (0, -3.34984436631202697754e-02) (1, 1.58144563436508178711e-01) (2, 6.03029318153858184814e-03) (3, -7.44929595384746789932e-04) (4, -1.60998865962028503418e-01) (5, 7.05349147319793701172e-02) (6, 5.49878031015396118164e-02) (7, 2.39173337817192077637e-01) (8, 2.18901678919792175293e-01) (9, 7.86465406417846679688e-02) (10, -3.03436331450939178467e-02) (11, -5.12560606002807617188e-02) (12, 2.03068509697914123535e-01) (13, -1.32691562175750732422e-01) (14, -2.57526576519012451172e-01) (15, -6.61078020930290222168e-02) (16, 3.05420905351638793945e-01) (17, -1.28903195261955261230e-01) (18, -2.46922701597213745117e-01) (19, 1.41746900044381618500e-03) (20, 1.66077718138694763184e-01) (21, -2.16122701764106750488e-01) (22, -2.16873541474342346191e-01) (23, 2.46449634432792663574e-01) (24, 2.29686975479125976562e-01) (25, -1.71544373035430908203e-01) (26, 1.16620525717735290527e-01) (27, 3.64340096712112426758e-02) (28, -9.94878858327865600586e-02) (29, -7.40804597735404968262e-02) (30, -3.40855680406093597412e-02) (31, 1.65378555655479431152e-01) (32, -2.27025374770164489746e-01) (33, 2.99555182456970214844e-01) (34, -1.46713986992835998535e-01) (35, -9.21119377017021179199e-02) (36, 4.42119538784027099609e-02) (37, 1.91441193222999572754e-01) (38, -1.43265366554260253906e-01) (39, -9.80545114725828170776e-03) (40, -4.42160107195377349854e-02) (41, 8.61949697136878967285e-02) (42, 2.02157303690910339355e-01) (43, -1.36265233159065246582e-01) (44, 2.65397220849990844727e-01) (45, 2.20345541834831237793e-01) (46, 6.49657472968101501465e-02) (47, 2.70319789648056030273e-01) (48, -2.38158896565437316895e-01) (49, 1.14613428711891174316e-01) (50, -3.04421614855527877808e-02) (51, 2.27991178631782531738e-01) (52, 2.05382108688354492188e-01) (53, 7.32250586152076721191e-02) (54, 1.63325980305671691895e-01) (55, 1.02179788053035736084e-01) (56, 1.91703200340270996094e-01) (57, -3.02378050982952117920e-02) (58, -1.26498684287071228027e-01) (59, -2.26601094007492065430e-01) (60, 1.68831154704093933105e-01) (61, 1.35141864418983459473e-01) (62, 2.45957165956497192383e-01) (63, 2.85183578729629516602e-01) (64, 1.31069496273994445801e-01) (65, -1.78377628326416015625e-01) (66, -1.27696141600608825684e-01) (67, -1.14372618496417999268e-01) (68, 3.10627579689025878906e-01) (69, -2.89158499799668788910e-03) (70, 1.31573751568794250488e-01) (71, -3.62800322473049163818e-02) (0, -2.14054480195045471191e-01) (1, 3.24970260262489318848e-02) (2, 1.12526692450046539307e-01) (3, -2.37699419260025024414e-01) (4, -5.56612350046634674072e-02) (5, -1.23152233660221099854e-01) (6, -2.65552103519439697266e-01) (7, 1.05135911144316196442e-03) (8, -2.85737842321395874023e-01) (9, 2.03376263380050659180e-03) (10, -8.97901430726051330566e-02) (11, 2.10517168045043945312e-01) (12, -2.49029219150543212891e-01) (13, -2.57520288228988647461e-01) (14, 3.03888488560914993286e-02) (15, 2.12961152195930480957e-01) (16, 1.47018837742507457733e-03) (17, 1.89182683825492858887e-01) (18, 3.00311863422393798828e-01) (19, -1.12689845263957977295e-01) (20, 3.69406715035438537598e-02) (21, 2.30151057243347167969e-01) (22, -1.69717565178871154785e-01) (23, -1.37923985719680786133e-01) (24, -2.63781964778900146484e-01) (25, -3.26326489448547363281e-03) (26, 4.99647334218025207520e-02) (27, -2.65415310859680175781e-01) (28, 2.78372019529342651367e-01) (29, -1.21742561459541320801e-01) (30, -9.41258575767278671265e-03) (31, -2.27099999785423278809e-01) (32, 2.30210557579994201660e-01) (33, -1.74317166209220886230e-01) (34, -1.53384819626808166504e-01) (35, -1.38324797153472900391e-01) (36, 1.39389336109161376953e-02) (37, -1.35640799999237060547e-01) (38, 1.72850295901298522949e-01) (39, 3.04719787091016769409e-02) (40, 1.74880206584930419922e-01) (41, -2.29573637247085571289e-01) (42, -5.32204918563365936279e-02) (43, 2.32297584414482116699e-01) (44, -1.75747603178024291992e-01) (45, 2.79322206974029541016e-01) (46, 1.41530930995941162109e-01) (47, 1.35992556810379028320e-01) (48, 2.02922224998474121094e-01) (49, 1.31160184741020202637e-01) (50, -2.66643971204757690430e-01) (51, -5.05828633904457092285e-02) (52, 7.53211453557014465332e-02) (53, -1.25623434782028198242e-01) (54, 1.27130270004272460938e-01) (55, 1.20108544826507568359e-01) (56, 1.85040310025215148926e-01) (57, -1.10798284411430358887e-01) (58, 1.57600715756416320801e-01) (59, 1.63594603538513183594e-01) (60, 6.32679760456085205078e-02) (61, -1.57688573002815246582e-01) (62, 2.43692532181739807129e-01) (63, -5.44021325185894966125e-03) (64, -2.63036694377660751343e-02) (65, -1.92676097154617309570e-01) (66, 1.54781386256217956543e-01) (67, 2.82918781042098999023e-01) (68, -2.88254395127296447754e-02) (69, 1.14559615030884742737e-02) (70, 6.52674306184053421021e-03) (71, -1.58896520733833312988e-01) (0, 7.33748674392700195312e-02) (1, 2.50794529914855957031e-01) (2, -2.36412376165390014648e-01) (3, 1.98107630014419555664e-01) (4, 2.40252211689949035645e-01) (5, 2.09081009030342102051e-01) (6, 3.50393056869506835938e-02) (7, 1.43312498927116394043e-01) (8, 4.55554611980915069580e-02) (9, 6.93246573209762573242e-02) (10, -2.10841327905654907227e-01) (11, -1.83146998286247253418e-01) (12, 2.46228784322738647461e-01) (13, 2.15231180191040039062e-01) (14, 2.18720123171806335449e-01) (15, 1.12986758351325988770e-01) (16, -2.05733969807624816895e-01) (17, 6.98297321796417236328e-02) (18, -2.02439706772565841675e-02) (19, 1.53860121965408325195e-01) (20, 2.06308707594871520996e-01) (21, -8.60217064619064331055e-02) (22, -1.59969404339790344238e-01) (23, -1.29934489727020263672e-01) (24, 6.80096400901675224304e-03) (25, 2.88368910551071166992e-01) (26, -1.54611960053443908691e-01) (27, 2.74002343416213989258e-01) (28, -6.34649535641074180603e-03) (29, 1.48752599954605102539e-01) (30, -1.87236770987510681152e-01) (31, -2.32181161642074584961e-01) (32, 1.04527279734611511230e-01) (33, -1.12898975610733032227e-01) (34, 2.70398855209350585938e-01) (35, 4.26778495311737060547e-02) (36, -2.05520063638687133789e-01) (37, 2.76423105970025062561e-03) (38, 1.45653080940246582031e+00) (39, 1.41958802938461303711e-01) (40, -2.28377997875213623047e-01) (41, -2.47395262122154235840e-02) (42, 2.58053809404373168945e-01) (43, -2.85426735877990722656e-01) (44, -1.20328247547149658203e-01) (45, 1.87635049223899841309e-01) (46, 1.33174210786819458008e-01) (47, -1.21898166835308074951e-02) (48, -4.70970235764980316162e-02) (49, -1.79104059934616088867e-01) (50, -1.63643151521682739258e-01) (51, -1.30558997392654418945e-01) (52, 2.59496867656707763672e-02) (53, -1.58521067351102828979e-02) (54, 3.78190279006958007812e-02) (55, -2.61432409286499023438e-01) (56, -3.04920598864555358887e-02) (57, 1.84717252850532531738e-01) (58, -2.94411957263946533203e-01) (59, 2.65248149633407592773e-01) (60, 3.45327332615852355957e-02) (61, -1.79128050804138183594e-01) (62, -2.67666608095169067383e-01) (63, -1.63642883300781250000e-01) (64, 1.24006187543272972107e-02) (65, -2.92348563671112060547e-01) (66, 1.78793132305145263672e-01) (67, 1.03024691343307495117e-01) (68, 1.03455986827611923218e-02) (69, -2.41371020674705505371e-01) (70, -5.93734197318553924561e-02) (71, 8.33254680037498474121e-02) (0, 4.14912067353725433350e-02) (1, -1.04521468281745910645e-01) (2, 1.01940698921680450439e-01) (3, 2.19365790486335754395e-01) (4, -2.12235555052757263184e-01) (5, -8.88515487313270568848e-02) (6, -9.31260958313941955566e-02) (7, 3.31859812140464782715e-02) (8, 3.74614223837852478027e-02) (9, 4.37085852026939392090e-02) (10, 2.02707946300506591797e-01) (11, -2.49084308743476867676e-01) (12, -2.74451881647109985352e-01) (13, -5.35669140517711639404e-02) (14, -2.09015622735023498535e-01) (15, 6.98017049580812454224e-03) (16, -1.80879786610603332520e-01) (17, -2.06825107336044311523e-01) (18, -4.38186936080455780029e-02) (19, 1.62296921014785766602e-01) (20, -7.52639174461364746094e-02) (21, 4.33088419958949089050e-03) (22, 2.90628433227539062500e-01) (23, 2.30283662676811218262e-01) (24, 1.27513636834919452667e-03) (25, 1.66148602962493896484e-01) (26, 3.39204147458076477051e-02) (27, -2.91130542755126953125e-01) (28, 2.30569437146186828613e-01) (29, 2.77174562215805053711e-01) (30, 9.67780500650405883789e-02) (31, -3.20367664098739624023e-02) (32, -1.28409534692764282227e-01) (33, -1.19901061058044433594e-01) (34, -1.11495852470397949219e-01) (35, -3.69744673371315002441e-02) (36, 1.14690154790878295898e-01) (37, 7.23690986633300781250e-02) (38, -3.12546372413635253906e-01) (39, -1.47175610065460205078e-01) (40, -1.45496800541877746582e-01) (41, 2.06101045012474060059e-01) (42, -8.37148427963256835938e-02) (43, -1.35624185204505920410e-01) (44, -1.51421502232551574707e-01) (45, -1.50962825864553451538e-03) (46, 1.82583600282669067383e-01) (47, -2.87319310009479522705e-02) (48, 1.12531729042530059814e-01) (49, -1.51030912995338439941e-01) (50, -1.71438857913017272949e-01) (51, -2.66445547342300415039e-01) (52, 1.41004815697669982910e-01) (53, -1.65264189243316650391e-01) (54, 2.68424093723297119141e-01) (55, -1.61637827754020690918e-01) (56, 2.82969921827316284180e-01) (57, 1.28566389903426170349e-02) (58, -1.47897273302078247070e-01) (59, 2.01710075139999389648e-01) (60, -1.99439805001020431519e-02) (61, 2.48555794358253479004e-01) (62, -1.26433998346328735352e-01) (63, 1.45228222012519836426e-01) (64, -1.56142905354499816895e-01) (65, 7.13092237710952758789e-02) (66, -1.67654812335968017578e-01) (67, 2.53705531358718872070e-01) (68, -1.50586187839508056641e-01) (69, -1.75772622227668762207e-01) (70, -2.00220704078674316406e-01) (71, -5.57794119231402873993e-05) (0, -2.73472607135772705078e-01) (1, 1.42835229635238647461e-02) (2, 1.85763716697692871094e-01) (3, -1.17636062204837799072e-01) (4, -2.76904284954071044922e-01) (5, 7.84375295042991638184e-02) (6, 1.52682170271873474121e-01) (7, 1.38485938310623168945e-01) (8, 2.10474699735641479492e-01) (9, 2.71391630172729492188e-01) (10, 1.76715314388275146484e-01) (11, 5.68146184086799621582e-02) (12, -2.16756105422973632812e-01) (13, 1.46593302488327026367e-01) (14, 2.09305986762046813965e-01) (15, -2.49790251255035400391e-01) (16, -1.46657988429069519043e-01) (17, -2.60132879018783569336e-01) (18, 2.63806909322738647461e-01) (19, 1.30659997463226318359e-01) (20, 2.95345842838287353516e-01) (21, -1.76077127456665039062e-01) (22, -8.60672071576118469238e-03) (23, -1.88305437564849853516e-01) (24, 1.85015618801116943359e-01) (25, 1.12101301550865173340e-01) (26, -2.42785558104515075684e-01) (27, -2.61478930711746215820e-01) (28, 2.34571218490600585938e-01) (29, -1.48854464292526245117e-01) (30, 4.38451729714870452881e-02) (31, 2.64143675565719604492e-01) (32, 1.63638934493064880371e-01) (33, -6.49861991405487060547e-02) (34, -1.60517841577529907227e-01) (35, 1.81587159633636474609e-01) (36, -3.00354063510894775391e-01) (37, 2.66249269247055053711e-01) (38, -5.94536494463682174683e-03) (39, 2.16800123453140258789e-01) (40, 2.50462532043457031250e-01) (41, -1.13361731171607971191e-01) (42, -3.18234153091907501221e-02) (43, -2.74642080068588256836e-01) (44, -2.63888210058212280273e-01) (45, -1.58867552876472473145e-01) (46, -2.17674031853675842285e-01) (47, -1.12792052328586578369e-01) (48, -9.47780385613441467285e-02) (49, -2.63635545969009399414e-01) (50, -2.81761109828948974609e-01) (51, -1.17749854922294616699e-01) (52, -1.22455529868602752686e-01) (53, -9.28214658051729202271e-03) (54, 3.33645497448742389679e-04) (55, -2.48358786106109619141e-01) (56, -1.75141170620918273926e-01) (57, 6.25587776303291320801e-02) (58, -2.04834640026092529297e-01) (59, -2.50431180000305175781e-01) (60, 2.10264220833778381348e-01) (61, 1.46247997879981994629e-01) (62, -2.80785262584686279297e-01) (63, 6.24199546873569488525e-02) (64, -2.30365291237831115723e-01) (65, -1.41822591423988342285e-01) (66, -4.56328056752681732178e-02) (67, -2.20887050032615661621e-01) (68, -1.58850952982902526855e-01) (69, 2.70503789186477661133e-01) (70, 2.91343450546264648438e-01) (71, -2.27451249957084655762e-01) (0, -1.46739512681961059570e-01) (1, -6.02398775517940521240e-02) (2, -1.91110417246818542480e-01) (3, -1.17073573172092437744e-01) (4, 9.01281312108039855957e-02) (5, -1.12820290029048919678e-01) (6, 6.57622516155242919922e-02) (7, 2.87699162960052490234e-01) (8, -7.21962973475456237793e-02) (9, 7.25203603506088256836e-02) (10, -1.34896427392959594727e-01) (11, 9.64062064886093139648e-02) (12, -2.28154480457305908203e-01) (13, 1.64301455020904541016e-01) (14, 1.49120599031448364258e-01) (15, -1.16751447319984436035e-01) (16, -8.16971436142921447754e-02) (17, 2.45174407958984375000e-01) (18, -7.31858462095260620117e-02) (19, -1.75702035427093505859e-01) (20, 8.36990550160408020020e-02) (21, -5.60219436883926391602e-02) (22, 1.92379727959632873535e-01) (23, 1.57592236995697021484e-01) (24, 9.48968902230262756348e-02) (25, -1.62482634186744689941e-01) (26, 2.28816464543342590332e-01) (27, 2.28906512260437011719e-01) (28, -1.92447394132614135742e-01) (29, 2.18051135540008544922e-01) (30, -2.86746829748153686523e-01) (31, -4.58387136459350585938e-02) (32, -1.48452267050743103027e-01) (33, -1.87011063098907470703e-01) (34, 1.33644312620162963867e-01) (35, 2.51605182886123657227e-01) (36, 3.51929664611816406250e-03) (37, -1.00984252989292144775e-01) (38, 2.18617886304855346680e-01) (39, 2.32345744967460632324e-01) (40, 2.82547444105148315430e-01) (41, -2.01171129941940307617e-01) (42, 3.88835072517395019531e-02) (43, -2.44496196508407592773e-01) (44, 2.98151254653930664062e-01) (45, -1.34274303913116455078e-01) (46, -6.68900087475776672363e-02) (47, -9.77313816547393798828e-02) (48, -1.72799035906791687012e-01) (49, 1.72302201390266418457e-01) (50, 3.59266810119152069092e-02) (51, 2.06436827778816223145e-01) (52, -1.85215666890144348145e-01) (53, -9.92897674441337585449e-02) (54, 6.28128275275230407715e-02) (55, 1.65002495050430297852e-01) (56, 5.10657876729965209961e-02) (57, -1.73867437988519668579e-02) (58, 1.24196290969848632812e-01) (59, 1.61781713366508483887e-01) (60, -9.21069979667663574219e-02) (61, 1.48366153240203857422e-01) (62, -1.80583566427230834961e-01) (63, 6.19051121175289154053e-02) (64, 2.34793171286582946777e-01) (65, 2.38981574773788452148e-01) (66, 1.45650655031204223633e-02) (67, -4.09845970571041107178e-02) (68, -1.63732409477233886719e-01) (69, -4.18575070798397064209e-02) (70, -1.00503459572792053223e-01) (71, -2.12813660502433776855e-01) (0, 5.15005886554718017578e-02) (1, 2.24639490246772766113e-01) (2, -1.65984302759170532227e-01) (3, 4.74812574684619903564e-02) (4, -2.05596402287483215332e-01) (5, 8.40476900339126586914e-02) (6, 2.50078618526458740234e-01) (7, -7.65481591224670410156e-02) (8, -7.75803923606872558594e-02) (9, -3.34475412964820861816e-02) (10, -1.74529105424880981445e-01) (11, 3.44096310436725616455e-02) (12, 1.83225780725479125977e-01) (13, 1.77618592977523803711e-01) (14, 