FANN_FIX_2.0
decimal_point=12
num_layers=4
learning_rate=0.900000
connection_rate=1.000000
network_type=0
learning_momentum=0.000000
training_algorithm=3
train_error_function=1
train_stop_function=0
cascade_output_change_fraction=0.010000
quickprop_decay=-0.000100
quickprop_mu=1.750000
rprop_increase_factor=1.200000
rprop_decrease_factor=0.500000
rprop_delta_min=0.000000
rprop_delta_max=50.000000
rprop_delta_zero=0.100000
cascade_output_stagnation_epochs=12
cascade_candidate_change_fraction=0.010000
cascade_candidate_stagnation_epochs=12
cascade_max_out_epochs=150
cascade_min_out_epochs=50
cascade_max_cand_epochs=150
cascade_min_cand_epochs=50
cascade_num_candidate_groups=2
bit_fail_limit=1434
cascade_candidate_limit=4096000
cascade_weight_multiplier=1638
cascade_activation_functions_count=10
cascade_activation_functions=3 5 7 8 10 11 14 15 16 17 
cascade_activation_steepnesses_count=4
cascade_activation_steepnesses=1024 2048 3072 4096 
layer_sizes=27 53 21 2 
neurons (num_inputs, activation_function, activation_steepness)=(0, 0, 0) (0, 0, 0) (0, 0, 0) (0, 0, 0) (0, 0, 0) (0, 0, 0) (0, 0, 0) (0, 0, 0) (0, 0, 0) (0, 0, 0) (0, 0, 0) (0, 0, 0) (0, 0, 0) (0, 0, 0) (0, 0, 0) (0, 0, 0) (0, 0, 0) (0, 0, 0) (0, 0, 0) (0, 0, 0) (0, 0, 0) (0, 0, 0) (0, 0, 0) (0, 0, 0) (0, 0, 0) (0, 0, 0) (0, 0, 0) (27, 11, 4096) (27, 11, 4096) (27, 11, 4096) (27, 11, 4096) (27, 11, 4096) (27, 11, 4096) (27, 11, 4096) (27, 11, 4096) (27, 11, 4096) (27, 11, 4096) (27, 11, 4096) (27, 11, 4096) (27, 11, 4096) (27, 11, 4096) (27, 11, 4096) (27, 11, 4096) (27, 11, 4096) (27, 11, 4096) (27, 11, 4096) (27, 11, 4096) (27, 11, 4096) (27, 11, 4096) (27, 11, 4096) (27, 11, 4096) (27, 11, 4096) (27, 11, 4096) (27, 11, 4096) (27, 11, 4096) (27, 11, 4096) (27, 11, 4096) (27, 11, 4096) (27, 11, 4096) (27, 11, 4096) (27, 11, 4096) (27, 11, 4096) (27, 11, 4096) (27, 11, 4096) (27, 11, 4096) (27, 11, 4096) (27, 11, 4096) (27, 11, 4096) (27, 11, 4096) (27, 11, 4096) (27, 11, 4096) (27, 11, 4096) (27, 11, 4096) (27, 11, 4096) (27, 11, 4096) (27, 11, 4096) (27, 11, 4096) (27, 11, 4096) (27, 11, 4096) (0, 11, 4096) (53, 11, 4096) (53, 11, 4096) (53, 11, 4096) (53, 11, 4096) (53, 11, 4096) (53, 11, 4096) (53, 11, 4096) (53, 11, 4096) (53, 11, 4096) (53, 11, 4096) (53, 11, 4096) (53, 11, 4096) (53, 11, 4096) (53, 11, 4096) (53, 11, 4096) (53, 11, 4096) (53, 11, 4096) (53, 11, 4096) (53, 11, 4096) (53, 11, 4096) (0, 11, 4096) (21, 11, 4096) (0, 11, 4096) 
connections (connected_to_neuron, weight)=(0, 600) (1, -2685) (2, -1854) (3, -1016) (4, 3864) (5, 3195) (6, 1333) (7, 1231) (8, -1466) (9, -2071) (10, -1622) (11, -3841) (12, 2866) (13, 2687) (14, 2723) (15, -3932) (16, 408) (17, 2927) (18, 3960) (19, -1758) (20, 2310) (21, 3309) (22, 3055) (23, -963) (24, 468) (25, -1116) (26, 3844) (0, -3314) (1, -1958) (2, 3868) (3, -582) (4, 2738) (5, -2913) (6, 1660) (7, -2374) (8, -3145) (9, 759) (10, 3055) (11, 2182) (12, 3389) (13, -3113) (14, -3536) (15, 3644) (16, 3849) (17, 3247) (18, 2272) (19, 4014) (20, -441) (21, 1103) (22, 3878) (23, 1897) (24, -683) (25, 3091) (26, 856) (0, 2450) (1, -537) (2, 3836) (3, 2198) (4, 244) (5, -2218) (6, 1969) (7, 3759) (8, -3575) (9, 3152) (10, 1323) (11, -1853) (12, -4089) (13, -2014) (14, -2895) (15, 2189) (16, -2721) (17, -1911) (18, 2749) (19, -3172) (20, -2158) (21, 1899) (22, 3195) (23, -2240) (24, -2637) (25, 202) (26, -2459) (0, 3356) (1, 3615) (2, -3464) (3, 116) (4, 1969) (5, 95) (6, -143) (7, 71) (8, -3757) (9, 1735) (10, -2056) (11, -4094) (12, 2255) (13, -3000) (14, 1325) (15, -3694) (16, -2993) (17, 3407) (18, -2493) (19, 3292) (20, -3409) (21, -308) (22, 1944) (23, -2486) (24, 1630) (25, -252) (26, -3386) (0, 3486) (1, 1206) (2, 912) (3, -3069) (4, 467) (5, 431) (6, -2437) (7, -3513) (8, -1696) (9, 1754) (10, 440) (11, 2470) (12, 2093) (13, -1921) (14, -3682) (15, 2095) (16, -3762) (17, -2586) (18, -676) (19, -3360) (20, -1484) (21, -1365) (22, -1757) (23, -2288) (24, -678) (25, 2031) (26, 3752) (0, 932) (1, -435) (2, -596) (3, 1642) (4, -1045) (5, -3486) (6, -1542) (7, -18) (8, 1077) (9, 2985) (10, 1641) (11, 1660) (12, -2808) (13, -702) (14, -1996) (15, 3759) (16, -2705) (17, 179) (18, -4020) (19, 3486) (20, 512) (21, -2510) (22, -1287) (23, 1248) (24, 102) (25, 1444) (26, 3587) (0, 1910) (1, -3330) (2, 1522) (3, 1566) (4, 1698) (5, -3009) (6, -3126) (7, -756) (8, 42) (9, -2515) (10, 1797) (11, -4072) (12, 2658) (13, 686) (14, 1664) (15, 222) (16, 1974) (17, -3133) (18, 2322) (19, 1637) (20, -1742) (21, -1595) (22, 1713) (23, -2353) (24, 3013) (25, 3299) (26, 457) (0, 165) (1, -694) (2, -2195) (3, -343) (4, -2880) (5, -1429) (6, -2917) (7, 2782) (8, -3827) (9, -1830) (10, 3753) (11, -488) (12, 2308) (13, -2859) (14, -2786) (15, 2332) (16, 3895) (17, 1996) (18, -100) (19, 21) (20, -126) (21, 863) (22, -1752) (23, -2585) (24, 3217) (25, 748) (26, 3224) (0, -3232) (1, -335) (2, 2428) (3, 1321) (4, 3927) (5, -2362) (6, 3222) (7, -512) (8, -1146) (9, -2303) (10, 666) (11, -2460) (12, -2034) (13, 2933) (14, -2804) (15, 1574) (16, 1145) (17, -1566) (18, 2884) (19, -619) (20, -1767) (21, 783) (22, 3378) (23, 2350) (24, -3438) (25, 145) (26, -3498) (0, -1927) (1, -734) (2, 1346) (3, -2799) (4, 130) (5, -3084) (6, 3725) (7, -2645) (8, -3253) (9, -2733) (10, -3519) (11, 330) (12, 216) (13, -1726) (14, -3099) (15, 1852) (16, 336) (17, 3929) (18, 3144) (19, -2186) (20, 978) (21, -2518) (22, -3398) (23, -3737) (24, -189) (25, 1481) (26, 3737) (0, -1935) (1, 2139) (2, -214) (3, -1337) (4, -3884) (5, 3148) (6, -4086) (7, -2588) (8, -818) (9, -3075) (10, -2959) (11, 633) (12, -2232) (13, -1596) (14, 1211) (15, 2194) (16, 2716) (17, 3581) (18, 3191) (19, 472) (20, -179) (21, 3024) (22, -480) (23, 1732) (24, -93) (25, 1098) (26, 2430) (0, 266) (1, -3187) (2, -185) (3, -93) (4, -1025) (5, -2142) (6, 3789) (7, 1734) (8, -1931) (9, 2841) (10, 1744) (11, -422) (12, -2073) (13, 2765) (14, 715) (15, 2656) (16, -3563) (17, 3215) (18, -229) (19, 2728) (20, 1835) (21, -744) (22, 1823) (23, -1789) (24, 3174) (25, 751) (26, 1827) (0, 809) (1, -3438) (2, -1170) (3, -857) (4, 924) (5, -261) (6, 3054) (7, -3265) (8, 2810) (9, -3184) (10, -3572) (11, 448) (12, -1019) (13, 3365) (14, -1904) (15, 2655) (16, -2804) (17, -3235) (18, -725) (19, 3948) (20, -2702) (21, -1606) (22, -377) (23, -4070) (24, -3867) (25, 2976) (26, 1849) (0, -1560) (1, 2053) (2, -1496) (3, -3829) (4, -1233) (5, -839) (6, -903) (7, 2006) (8, -4011) (9, 2932) (10, 964) (11, -3181) (12, 1646) (13, 1876) (14, -2657) (15, -2002) (16, -3239) (17, -3388) (18, 189) (19, 3512) (20, -2097) (21, 1050) (22, -1309) (23, -2245) (24, 2444) (25, 1181) (26, 1474) (0, 2470) (1, 1410) (2, 354) (3, 223) (4, 3946) (5, -1689) (6, 2823) (7, -3979) (8, 1174) (9, -2112) (10, -786) (11, -916) (12, -2028) (13, -1950) (14, -4048) (15, -1112) (16, 3792) (17, 1924) (18, 327) (19, -2306) (20, 2781) (21, 1035) (22, 1979) (23, 2198) (24, 3034) (25, -1067) (26, -3207) (0, -3306) (1, -2718) (2, 2070) (3, 2264) (4, 3848) (5, -617) (6, -1478) (7, -25) (8, -767) (9, 930) (10, -1298) (11, -650) (12, -1992) (13, 685) (14, 2660) (15, 1188) (16, 2753) (17, -3385) (18, 1237) (19, -2455) (20, -3689) (21, -935) (22, 1968) (23, -1899) (24, -2250) (25, -1093) (26, -4016) (0, 4044) (1, -2154) (2, -987) (3, -3260) (4, -1365) (5, 391) (6, 2906) (7, -3196) (8, 143) (9, -1807) (10, -578) (11, -3978) (12, 1522) (13, -3745) (14, -1181) (15, -3224) (16, -1641) (17, 3600) (18, 3533) (19, 3644) (20, 2258) (21, -3949) (22, 785) (23, 3899) (24, -3542) (25, 3945) (26, 1771) (0, -1345) (1, -2401) (2, -3417) (3, -1265) (4, -2453) (5, -1476) (6, 1844) (7, -1617) (8, 1256) (9, -1861) (10, -2807) (11, 2155) (12, 2378) (13, -518) (14, -2519) (15, 2495) (16, -3092) (17, -2168) (18, -2781) (19, -2219) (20, 288) (21, -3277) (22, -2783) (23, -164) (24, 3077) (25, -2636) (26, -3476) (0, 2880) (1, -2081) (2, -3627) (3, 556) (4, 669) (5, -1931) (6, 1234) (7, 3500) (8, -289) (9, 3854) (10, 1248) (11, 2190) (12, 1014) (13, 3483) (14, 3479) (15, -927) (16, 1765) (17, -1134) (18, 650) (19, 164) (20, -130) (21, 2578) (22, 1479) (23, 1746) (24, -1231) (25, 2298) (26, 3060) (0, 2701) (1, 1279) (2, -3672) (3, 3321) (4, 63) (5, -1657) (6, 3790) (7, -3477) (8, 3108) (9, -2237) (10, 1853) (11, 2512) (12, 1570) (13, 1611) (14, -336) (15, -335) (16, -1471) (17, -949) (18, -952) (19, 1698) (20, -3280) (21, 2010) (22, -1748) (23, 980) (24, -2216) (25, -3266) (26, -1637) (0, 3626) (1, -401) (2, -3436) (3, 2590) (4, -1796) (5, 1939) (6, 3014) (7, -2571) (8, -2093) (9, -2740) (10, -2877) (11, -1475) (12, -3728) (13, -1018) (14, -3718) (15, 2880) (16, -3543) (17, 1990) (18, -1551) (19, 217) (20, -3577) (21, 1596) (22, 3362) (23, 2217) (24, 2412) (25, 1276) (26, -3627) (0, -704) (1, 3155) (2, -2797) (3, 1755) (4, 2686) (5, 898) (6, 2415) (7, 1179) (8, 3198) (9, 259) (10, 97) (11, -3469) (12, 2261) (13, 1453) (14, -2250) (15, -3309) (16, 1822) (17, 829) (18, -2931) (19, 606) (20, 1382) (21, 3155) (22, 3151) (23, -2497) (24, 3674) (25, 651) (26, -3231) (0, 1795) (1, -1032) (2, 2140) (3, 2265) (4, 2360) (5, 1200) (6, 3563) (7, 19) (8, -211) (9, 365) (10, -1661) (11, -3127) (12, -533) (13, 2693) (14, 1066) (15, 94) (16, 859) (17, -1577) (18, 1941) (19, 1646) (20, -3851) (21, -1326) (22, 2811) (23, 851) (24, -4041) (25, 1870) (26, -94) (0, -2442) (1, 1448) (2, -3539) (3, -1577) (4, -852) (5, -475) (6, -3533) (7, -2684) (8, -2211) (9, 1763) (10, -3217) (11, 1904) (12, -2544) (13, 1245) (14, -3853) (15, -1575) (16, -3384) (17, 2936) (18, 3587) (19, 806) (20, -301) (21, -2086) (22, -1349) (23, -2751) (24, -1841) (25, 1421) (26, -4037) (0, 3106) (1, 1476) (2, 1929) (3, -1084) (4, 3130) (5, -718) (6, -527) (7, -2543) (8, 2525) (9, 3094) (10, -1980) (11, 3937) (12, -3213) (13, 3879) (14, -3375) (15, 2787) (16, -2761) (17, 1965) (18, 3029) (19, -240) (20, 2677) (21, 1869) (22, -750) (23, -612) (24, -2528) (25, 1260) (26, 2135) (0, -1183) (1, 3515) (2, -541) (3, -1124) (4, 2524) (5, -3161) (6, -3290) (7, -2656) (8, 4065) (9, 87) (10, 913) (11, -2575) (12, -1484) (13, -89) (14, -459) (15, -1643) (16, 793) (17, -676) (18, -922) (19, -516) (20, 660) (21, -3053) (22, -1583) (23, -3676) (24, 3721) (25, -3809) (26, -330) (0, -987) (1, -2241) (2, -3166) (3, -2949) (4, 672) (5, -3747) (6, 607) (7, 3644) (8, 2873) (9, 1542) (10, -3742) (11, -3879) (12, 1510) (13, 441) (14, 1130) (15, 3032) (16, 3053) (17, -3055) (18, -1523) (19, -2685) (20, 1834) (21, 1897) (22, 489) (23, -2778) (24, -1539) (25, 1532) (26, -265) (0, -1119) (1, 1157) (2, 22) (3, 2647) (4, -3926) (5, 1877) (6, 3577) (7, -2779) (8, -1547) (9, 3926) (10, 1924) (11, -1999) (12, 2704) (13, -631) (14, -1645) (15, 2921) (16, -3216) (17, 2892) (18, -45) (19, 3911) (20, 1849) (21, 996) (22, -1708) (23, 3260) (24, -1266) (25, -3906) (26, -347) (0, 52) (1, -1349) (2, -2911) (3, 3883) (4, 1627) (5, 2342) (6, -191) (7, 178) (8, 2512) (9, -2410) (10, -340) (11, 3829) (12, 139) (13, -510) (14, 1656) (15, 2236) (16, -1902) (17, -3070) (18, -3506) (19, -3077) (20, -2191) (21, 3482) (22, 975) (23, -2376) (24, 1235) (25, -2125) (26, 13) (0, 399) (1, 705) (2, 202) (3, -4045) (4, -3339) (5, 2949) (6, -2860) (7, -3551) (8, 480) (9, 3578) (10, 354) (11, -3437) (12, 1993) (13, 2040) (14, 318) (15, 1726) (16, -1917) (17, 3904) (18, -713) (19, -3777) (20, -2094) (21, 312) (22, -3187) (23, -1075) (24, 2218) (25, -3801) (26, 3996) (0, 3938) (1, 1530) (2, -2225) (3, -145) (4, -2168) (5, 2576) (6, -4039) (7, -2116) (8, 3333) (9, 3006) (10, -880) (11, 3878) (12, -610) (13, -1398) (14, 136) (15, 49) (16, -3501) (17, -1920) (18, -3729) (19, 2321) (20, 260) (21, -3920) (22, -2488) (23, 579) (24, -1918) (25, 1920) (26, 1488) (0, 1103) (1, 42) (2, 1782) (3, 1004) (4, -116) (5, -784) (6, 2875) (7, 3835) (8, 1145) (9, 1355) (10, 3892) (11, 3124) (12, 592) (13, 2802) (14, -1852) (15, 374) (16, -1904) (17, 846) (18, -3586) (19, 2241) (20, 1441) (21, -1410) (22, 2608) (23, -334) (24, 2946) (25, 2784) (26, 1274) (0, -572) (1, -3230) (2, -902) (3, -3180) (4, 1969) (5, 3236) (6, 2698) (7, -1123) (8, -976) (9, -2182) (10, -2345) (11, -1237) (12, 3059) (13, 3106) (14, -1441) (15, 2087) (16, -398) (17, -2736) (18, -3861) (19, 4071) (20, -544) (21, 1081) (22, -3611) (23, -2399) (24, -1574) (25, -925) (26, -3887) (0, 2188) (1, -2075) (2, 2993) (3, -634) (4, 1450) (5, 3858) (6, 2560) (7, 2366) (8, 1731) (9, 1700) (10, 968) (11, -3488) (12, -3372) (13, 2883) (14, -1737) (15, -513) (16, 1846) (17, -2727) (18, 2141) (19, -163) (20, 971) (21, 3502) (22, 72) (23, 946) (24, -1138) (25, -2943) (26, 1432) (0, 559) (1, -421) (2, -3589) (3, 767) (4, -2330) (5, -1567) (6, -336) (7, 1132) (8, 3978) (9, -574) (10, -404) (11, 2248) (12, -2938) (13, -2801) (14, -879) (15, -2330) (16, -2077) (17, -2093) (18, 29) (19, 1505) (20, 3849) (21, 1399) (22, -449) (23, -410) (24, -1726) (25, -1044) (26, 3758) (0, 3316) (1, 1914) (2, -3281) (3, 652) (4, -1624) (5, 394) (6, 1159) (7, 3240) (8, 2160) (9, 3688) (10, -1192) (11, -804) (12, 3570) (13, 2330) (14, 2888) (15, 1722) (16, 3488) (17, -4009) (18, -3253) (19, -2938) (20, -1990) (21, -1250) (22, 1187) (23, 3611) (24, -1497) (25, -1510) (26, -934) (0, 2189) (1, 859) (2, 2118) (3, 1851) (4, 79) (5, -64) (6, 2665) (7, -3365) (8, 2409) (9, -1037) (10, 1890) (11, 1552) (12, -2973) (13, 1482) (14, -3736) (15, 319) (16, 956) (17, 2690) (18, -890) (19, -1418) (20, 2082) (21, -803) (22, -575) (23, 3240) (24, 1303) (25, 2271) (26, 331) (0, 818) (1, -3323) (2, 2917) (3, 3980) (4, 2962) (5, -320) (6, 2003) (7, 717) (8, 3856) (9, -2157) (10, -714) (11, -3605) (12, -3845) (13, 2345) (14, 2381) (15, 1804) (16, 3468) (17, -234) (18, 2164) (19, -309) (20, -3374) (21, 758) (22, 2897) (23, -696) (24, -1256) (25, -2002) (26, 2824) (0, -2112) (1, 3397) (2, 999) (3, 2315) (4, 120) (5, 1772) (6, 1136) (7, 4) (8, 638) (9, -3280) (10, -2089) (11, -2741) (12, -3520) (13, -150) (14, 641) (15, -3029) (16, 101) (17, -1110) (18, 3448) (19, -2192) (20, -1738) (21, -882) (22, 4068) (23, 2048) (24, -160) (25, 730) (26, 849) (0, 3240) (1, 3571) (2, 2943) (3, 1968) (4, -2637) (5, 2245) (6, -1130) (7, 3775) (8, -1731) (9, -3453) (10, 815) (11, 2369) (12, 1281) (13, 1631) (14, -3816) (15, 2636) (16, 2207) (17, 130) (18, -819) (19, 3274) (20, -3865) (21, 2167) (22, 2626) (23, -1961) (24, -3668) (25, -2352) (26, -1989) (0, 2476) (1, 1584) (2, 2838) (3, -771) (4, 727) (5, 2312) (6, -1923) (7, -1401) (8, 3772) (9, -3774) (10, 1565) (11, 3450) (12, -1409) (13, 2208) (14, 169) (15, -3136) (16, -607) (17, -2296) (18, -2856) (19, -2067) (20, 4008) (21, 1370) (22, 1209) (23, 3186) (24, 1600) (25, -720) (26, 1716) (0, 3736) (1, -292) (2, 3460) (3, -2349) (4, -1912) (5, 947) (6, -3607) (7, 1414) (8, -2421) (9, 2801) (10, 3587) (11, 274) (12, 2477) (13, 3908) (14, -2257) (15, 1831) (16, -1597) (17, 4047) (18, -2096) (19, -637) (20, -656) (21, -296) (22, 603) (23, 1372) (24, -385) (25, -2124) (26, -1514) (0, -1295) (1, 3573) (2, 1862) (3, -3675) (4, 3212) (5, -2526) (6, 3880) (7, -3233) (8, -342) (9, 731) (10, -2744) (11, -3024) (12, 2406) (13, -4039) (14, -3533) (15, -1417) (16, 2533) (17, -3721) (18, 422) (19, 268) (20, -1222) (21, 373) (22, 2268) (23, 2236) (24, 3813) (25, -2125) (26, -1257) (0, 1090) (1, 1587) (2, 715) (3, 3671) (4, -3804) (5, 192) (6, 1437) (7, -3384) (8, -692) (9, 3007) (10, -3600) (11, 172) (12, -1431) (13, 1228) (14, 1524) (15, -358) (16, -463) (17, 1580) (18, 204) (19, 2217) (20, 18) (21, 579) (22, -1457) (23, -3810) (24, 3453) (25, 3013) (26, 2554) (0, 1594) (1, 2730) (2, -3667) (3, -3759) (4, -276) (5, 2016) (6, 1052) (7, -701) (8, 2307) (9, -2852) (10, -3359) (11, 3019) (12, 552) (13, 3744) (14, 3515) (15, -3372) (16, -1783) (17, 647) (18, 2248) (19, 1955) (20, -3911) (21, -268) (22, -1937) (23, 2401) (24, 3846) (25, 2738) (26, -3151) (0, -4060) (1, 2096) (2, 3958) (3, 2590) (4, -407) (5, 2592) (6, 3019) (7, -70) (8, -1780) (9, 939) (10, -3114) (11, 1615) (12, -850) (13, -1870) (14, 2352) (15, -1927) (16, 2779) (17, 1999) (18, -2507) (19, 3503) (20, -3880) (21, 2236) (22, 1655) (23, 2171) (24, 2420) (25, -2709) (26, -3862) (0, 726) (1, -2959) (2, 2972) (3, 1670) (4, -2923) (5, 972) (6, 1532) (7, 3763) (8, -3531) (9, 28) (10, 2686) (11, 495) (12, 2344) (13, -472) (14, 1478) (15, -137) (16, 2774) (17, 3704) (18, -1882) (19, -3249) (20, 2387) (21, -3979) (22, -1660) (23, 1794) (24, -3763) (25, -3521) (26, -647) (0, 2504) (1, 2995) (2, 739) (3, 2738) (4, -375) (5, 1876) (6, 1614) (7, -2801) (8, 3049) (9, -1511) (10, 2827) (11, 2716) (12, -946) (13, -1241) (14, 1306) (15, 3646) (16, -2993) (17, -3262) (18, 1027) (19, 966) (20, 3608) (21, 635) (22, 3180) (23, -3736) (24, -1074) (25, 3297) (26, -1301) (0, -3377) (1, 3631) (2, -726) (3, 72) (4, 2039) (5, -1826) (6, -3285) (7, 681) (8, 1895) (9, 2688) (10, -1802) (11, 3190) (12, 1641) (13, 784) (14, 1921) (15, 261) (16, 3934) (17, -3415) (18, -2529) (19, 3483) (20, -2312) (21, -1695) (22, 414) (23, 2749) (24, -2182) (25, -3047) (26, 1833) (0, -1823) (1, -25) (2, 1034) (3, 972) (4, 695) (5, 569) (6, -3849) (7, -3330) (8, -1488) (9, -1579) (10, -2518) (11, 3289) (12, -3781) (13, -3927) (14, -2609) (15, 3505) (16, 1810) (17, 2271) (18, 1330) (19, -2025) (20, 2109) (21, 2011) (22, -458) (23, 1496) (24, 3794) (25, 1944) (26, -2185) (0, 2448) (1, 3857) (2, -1136) (3, 185) (4, -2061) (5, 2935) (6, -2877) (7, 3007) (8, -466) (9, 1788) (10, 3254) (11, 300) (12, -3796) (13, -2422) (14, 1878) (15, 3589) (16, -2107) (17, 2047) (18, -3116) (19, -2698) (20, -238) (21, 3251) (22, 2729) (23, 1833) (24, 1264) (25, 643) (26, -2721) (0, -1336) (1, 342) (2, 3319) (3, 575) (4, -1306) (5, 3081) (6, 3535) (7, 2975) (8, -3077) (9, 2374) (10, -3998) (11, 4026) (12, -2189) (13, 1886) (14, 3184) (15, 2207) (16, 2187) (17, -3334) (18, -11) (19, 1680) (20, -1344) (21, -2059) (22, 2660) (23, 54) (24, 1798) (25, 1815) (26, -1313) (27, -465) (28, -1017) (29, 3427) (30, 911) (31, 1743) (32, -327) (33, 134) (34, -1779) (35, 2462) (36, -881) (37, -2340) (38, 1341) (39, 138) (40, -4062) (41, 1438) (42, 68) (43, -2155) (44, -771) (45, -844) (46, -4044) (47, -2681) (48, -81) (49, 41) (50, 3095) (51, 2671) (52, 2078) (53, 1659) (54, -1371) (55, -220) (56, -622) (57, 1412) (58, 3411) (59, 2457) (60, 743) (61, 226) (62, 104) (63, -3681) (64, -3736) (65, 2422) (66, 2878) (67, -522) (68, -4014) (69, 122) (70, 3712) (71, -3981) (72, -2535) (73, -315) (74, -2040) (75, 789) (76, 2937) (77, -1988) (78, 2205) (79, -1240) (27, 2150) (28, 1204) (29, -2666) (30, 132) (31, -1233) (32, 60) (33, 4008) (34, 2241) (35, -2624) (36, 3323) (37, 602) (38, 2215) (39, -547) (40, -3389) (41, 2630) (42, -187) (43, 3128) (44, 1412) (45, 3388) (46, 3210) (47, -2562) (48, 3004) (49, 3325) (50, -1001) (51, -1407) (52, -2811) (53, 3884) (54, -2567) (55, -703) (56, 1993) (57, 289) (58, -2649) (59, -899) (60, 1720) (61, 1579) (62, 1964) (63, -2317) (64, 1491) (65, 109) (66, -845) (67, 718) (68, -3385) (69, -2726) (70, -3925) (71, -2678) (72, 4000) (73, -15) (74, -3646) (75, 1316) (76, -724) (77, 3659) (78, 2850) (79, -1816) (27, 2888) (28, -2247) (29, 873) (30, -4019) (31, -2459) (32, 2402) (33, -626) (34, 3630) (35, -1404) (36, 821) (37, -1366) (38, -3781) (39, -1696) (40, -3498) (41, -2002) (42, 3891) (43, 706) (44, 1249) (45, 513) (46, 1418) (47, 2619) (48, 684) (49, 2835) (50, 2523) (51, -3427) (52, 3285) (53, -257) (54, -55) (55, 2848) (56, -1503) (57, 2225) (58, 1640) (59, 346) (60, -998) (61, 1717) (62, 1983) (63, -2692) (64, -3005) (65, 1516) (66, 0) (67, 1912) (68, -3946) (69, 315) (70, -3880) (71, -3348) (72, 2409) (73, -4085) (74, 1454) (75, -437) (76, 523) (77, -1224) (78, -1914) (79, -2889) (27, -2485) (28, -3486) (29, -2220) (30, -3296) (31, 353) (32, 1821) (33, 3649) (34, 2946) (35, -50) (36, 1193) (37, -804) (38, 3048) (39, -1186) (40, -2917) (41, -3740) (42, -95) (43, 2695) (44, 356) (45, -2278) (46, 2845) (47, -3425) (48, -2062) (49, 3593) (50, 3081) (51, -2052) (52, 951) (53, -1452) (54, 2567) (55, 3823) (56, 730) (57, 3775) (58, -2758) (59, 1339) (60, -2542) (61, -1957) (62, -2404) (63, 3375) (64, -2405) (65, -3554) (66, -772) (67, 2884) (68, -262) (69, -1820) (70, -2398) (71, 917) (72, -1464) (73, 1603) (74, -485) (75, 2988) (76, 3421) (77, -1736) (78, 3660) (79, -2738) (27, -2239) (28, 2644) (29, -693) (30, 2808) (31, -2904) (32, -2222) (33, 2535) (34, 1922) (35, -2544) (36, 3874) (37, -835) (38, -989) (39, -2180) (40, 857) (41, -1711) (42, -489) (43, 1400) (44, 1614) (45, -1701) (46, -2958) (47, 3890) (48, -3) (49, 2055) (50, -1670) (51, -2495) (52, -2526) (53, -2778) (54, -3170) (55, -165) (56, -3214) (57, -1812) (58, 1692) (59, 3526) (60, 1591) (61, 404) (62, -3474) (63, 3465) (64, -1157) (65, 2544) (66, -3175) (67, -1379) (68, -2387) (69, -68) (70, 537) (71, 2566) (72, 2318) (73, -4048) (74, -130) (75, -165) (76, -1652) (77, 1008) (78, -371) (79, 2441) (27, -1034) (28, 2056) (29, 4042) (30, 537) (31, 3374) (32, -3224) (33, -3725) (34, -3936) (35, -940) (36, 2063) (37, 3686) (38, -3445) (39, -1629) (40, -3883) (41, -4076) (42, 1311) (43, 2756) (44, -3155) (45, 4028) (46, -3727) (47, 874) (48, 469) (49, 2936) (50, -905) (51, 517) (52, -1291) (53, 3027) (54, 2961) (55, 3813) (56, -1440) (57, 1306) (58, -1316) (59, -3480) (60, 1253) (61, 3316) (62, 3990) (63, 2125) (64, 3688) (65, -4042) (66, -2911) (67, 1655) (68, 3740) (69, -2260) (70, -4070) (71, 3953) (72, -2240) (73, 1336) (74, 2613) (75, -1298) (76, 1268) (77, 2983) (78, 3671) (79, -2359) (27, 1822) (28, -1330) (29, 2254) (30, -3565) (31, -2399) (32, 1119) (33, -3847) (34, 257) (35, -1671) (36, -1068) (37, 872) (38, 3678) (39, -1848) (40, 766) (41, 1707) (42, -2256) (43, 820) (44, 2891) (45, 3494) (46, 464) (47, -3464) (48, 3520) (49, 320) (50, -1608) (51, 760) (52, -1162) (53, 1190) (54, -2068) (55, -2276) (56, 765) (57, -331) (58, 3642) (59, 3531) (60, -2173) (61, -4018) (62, -2964) (63, 3042) (64, -3770) (65, 1389) (66, -2724) (67, -742) (68, -1835) (69, -3142) (70, 1507) (71, 3027) (72, 2661) (73, 3346) (74, -249) (75, 1456) (76, 2745) (77, -3882) (78, 2087) (79, 2169) (27, 535) (28, -3617) (29, -1167) (30, 3469) (31, 1669) (32, 862) (33, -2903) (34, -1662) (35, -3565) (36, -3357) (37, -2227) (38, -1642) (39, -3279) (40, -1095) (41, -2695) (42, -2952) (43, -3802) (44, -1323) (45, 402) (46, -1541) (47, -369) (48, -2187) (49, -2610) (50, -1805) (51, -2937) (52, 1237) (53, 3747) (54, 3904) (55, 1451) (56, 1739) (57, 1977) (58, -2110) (59, 2218) (60, -3286) (61, -2737) (62, -209) (63, 1672) (64, -1544) (65, 2224) (66, 2203) (67, -805) (68, 4093) (69, -3535) (70, 12) (71, -1098) (72, -2134) (73, 1156) (74, -804) (75, 639) (76, -2538) (77, 1750) (78, -3826) (79, -630) (27, 3236) (28, -1535) (29, 529) (30, 377) (31, -1883) (32, 337) (33, -2268) (34, 3951) (35, -1782) (36, -282) (37, 2073) (38, -973) (39, 1076) (40, -2232) (41, -3397) (42, 3628) (43, 4089) (44, 2902) (45, -1273) (46, 4086) (47, 3463) (48, 2835) (49, -1108) (50, -2767) (51, -106) (52, 2183) (53, 1968) (54, 1452) (55, -162) (56, 2238) (57, -3274) (58, -1022) (59, -3393) (60, 1352) (61, 3450) (62, -1180) (63, -2407) (64, -2914) (65, -1325) (66, -93) (67, 900) (68, -3348) (69, 3030) (70, -2120) (71, -1484) (72, 3729) (73, -2588) (74, -1491) (75, 2535) (76, 234) (77, -1501) (78, 1902) (79, -1027) (27, 1486) (28, 3231) (29, 2963) (30, -426) (31, 1103) (32, 319) (33, 3507) (34, -756) (35, 1141) (36, -1611) (37, -53) (38, -1603) (39, -2257) (40, 2863) (41, 86) (42, -1074) (43, -2558) (44, 4089) (45, 3921) (46, -1810) (47, 3023) (48, -2295) (49, 802) (50, 2656) (51, -787) (52, 3407) (53, 1095) (54, 3543) (55, -2190) (56, -1099) (57, -1581) (58, 3392) (59, -1964) (60, -2714) (61, -1130) (62, 3235) (63, 1701) (64, -1719) (65, -1617) (66, -1254) (67, 766) (68, 2427) (69, 1239) (70, 2606) (71, 1193) (72, -2771) (73, -2565) (74, 2731) (75, -2778) (76, -2740) (77, -3175) (78, -3851) (79, -939) (27, 1724) (28, 2901) (29, 2370) (30, 1035) (31, -100) (32, 1817) (33, 2941) (34, 2898) (35, -3860) (36, 2238) (37, -3162) (38, -2478) (39, -2988) (40, -4024) (41, 3319) (42, -611) (43, -1544) (44, -2031) (45, -3941) (46, -3214) (47, 3304) (48, 2761) (49, 2075) (50, -3563) (51, -3900) (52, 711) (53, -2245) (54, -2544) (55, 1632) (56, -2000) (57, 614) (58, -741) (59, -3195) (60, -1112) (61, -3801) (62, 801) (63, -3392) (64, 3236) (65, -397) (66, -3156) (67, 1377) (68, 536) (69, -1538) (70, 2485) (71, 609) (72, -2315) (73, -2222) (74, 3160) (75, -250) (76, -2067) (77, 4042) (78, -1043) (79, -3402) (27, 2022) (28, -510) (29, -3206) (30, -1363) (31, 1341) (32, -1654) (33, -3828) (34, 3437) (35, 3056) (36, -472) (37, -3854) (38, -2153) (39, -178) (40, 1043) (41, -1448) (42, -1038) (43, -3450) (44, -508) (45, -3757) (46, 1183) (47, 2050) (48, 2824) (49, -2304) (50, 3831) (51, -3494) (52, -3240) (53, -516) (54, -1465) (55, -3294) (56, 2538) (57, -771) (58, 2824) (59, -2068) (60, 118) (61, -2635) (62, 3369) (63, 2560) (64, -2367) (65, 2711) (66, 1520) (67, 1257) (68, 2953) (69, 3463) (70, -3016) (71, -100) (72, -2081) (73, 42) (74, 546) (75, 1507) (76, 381) (77, -2367) (78, -539) (79, -891) (27, -575) (28, -805) (29, -289) (30, 281) (31, 2776) (32, 2342) (33, 1083) (34, 1217) (35, -2526) (36, -189) (37, 3245) (38, 1689) (39, 1272) (40, 2519) (41, 153) (42, 3001) (43, 1133) (44, -2423) (45, 162) (46, -10) (47, -3056) (48, 1242) (49, 3986) (50, -1041) (51, -2812) (52, 436) (53, -3631) (54, 1664) (55, 2165) (56, -74) (57, -3323) (58, -2506) (59, 3218) (60, 484) (61, 1871) (62, 1897) (63, -1270) (64, -1142) (65, -981) (66, 301) (67, 2765) (68, -1832) (69, -2107) (70, -59) (71, -3409) (72, 2142) (73, -1154) (74, 1820) (75, 3815) (76, 3104) (77, -2286) (78, -3337) (79, 250) (27, -2396) (28, -283) (29, 1534) (30, 2137) (31, 183) (32, -898) (33, 206) (34, -3987) (35, -124) (36, 1796) (37, 3327) (38, -3736) (39, -429) (40, 1128) (41, -910) (42, 2525) (43, -3949) (44, 3487) (45, 1193) (46, -1685) (47, -2716) (48, -2962) (49, -998) (50, 3523) (51, -20) (52, -3274) (53, 3241) (54, -1011) (55, -1464) (56, 4000) (57, 3335) (58, 236) (59, -379) (60, 773) (61, -1723) (62, 3900) (63, 3971) (64, 2580) (65, 4009) (66, -249) (67, 280) (68, 3240) (69, 111) (70, 3947) (71, 272) (72, 3298) (73, 2376) (74, 418) (75, 2689) (76, -527) (77, 2829) (78, 4069) (79, 607) (27, -2265) (28, 3496) (29, -3509) (30, -1444) (31, 2641) (32, -424) (33, 1188) (34, 2545) (35, -1185) (36, -2671) (37, -1929) (38, 3684) (39, -298) (40, -2125) (41, 3560) (42, -1814) (43, -2212) (44, -785) (45, 2562) (46, -3069) (47, 3422) (48, 2413) (49, 1299) (50, 2624) (51, 692) (52, -2379) (53, 1217) (54, -3931) (55, -3646) (56, 1190) (57, 773) (58, -1815) (59, 590) (60, 1360) (61, 837) (62, -864) (63, -3160) (64, -2070) (65, -2415) (66, -249) (67, -646) (68, -248) (69, -661) (70, 3152) (71, 1723) (72, -1197) (73, -2758) (74, 3606) (75, 2114) (76, 3899) (77, -3559) (78, 1440) (79, 2216) (27, 1836) (28, -32) (29, -1188) (30, 3553) (31, -2911) (32, -1022) (33, 4004) (34, 2375) (35, 3846) (36, -1907) (37, -1130) (38, 1110) (39, 3026) (40, 2101) (41, 2046) (42, -3141) (43, 3783) (44, -2299) (45, 310) (46, -562) (47, 1137) (48, -634) (49, -2935) (50, 4035) (51, 704) (52, -3425) (53, 2053) (54, 507) (55, -2887) (56, -603) (57, -1373) (58, 3045) (59, 3461) (60, 1535) (61, 2502) (62, -3547) (63, -3583) (64, 2410) (65, 2925) (66, -3833) (67, -3594) (68, -2302) (69, 1374) (70, 3528) (71, 3895) (72, -676) (73, -3709) (74, 3582) (75, 1122) (76, 697) (77, -1076) (78, -1838) (79, -4033) (27, 85) (28, -1898) (29, 767) (30, 757) (31, -3941) (32, -2822) (33, 1965) (34, -449) (35, -99) (36, 914) (37, -1084) (38, -2660) (39, -680) (40, -535) (41, -2147) (42, -2366) (43, -1706) (44, -1884) (45, -1864) (46, 88) (47, 3585) (48, -2432) (49, -113) (50, -1187) (51, -2045) (52, -627) (53, 4031) (54, 2748) (55, 2394) (56, -1903) (57, 2811) (58, -1617) (59, 295) (60, -518) (61, 3236) (62, 449) (63, 756) (64, 1105) (65, -4095) (66, -3439) (67, -2077) (68, -1084) (69, -2004) (70, 1339) (71, 2478) (72, -55) (73, 3069) (74, -3325) (75, 2157) (76, -2891) (77, 859) (78, 1646) (79, -1227) (27, -3350) (28, -3636) (29, 824) (30, 120) (31, -3701) (32, -524) (33, -1583) (34, -1508) (35, -1808) (36, 897) (37, 2883) (38, 1770) (39, 37) (40, -764) (41, -1570) (42, -2954) (43, -763) (44, -914) (45, -935) (46, 2249) (47, 1179) (48, -3692) (49, 630) (50, -2973) (51, 3473) (52, 1402) (53, 3280) (54, -3514) (55, -1835) (56, 830) (57, -645) (58, -1089) (59, 1290) (60, -3917) (61, 3127) (62, 1684) (63, -345) (64, -2552) (65, -3920) (66, 1943) (67, 2441) (68, 3059) (69, -383) (70, -1618) (71, -1801) (72, 2142) (73, -477) (74, 1532) (75, -2867) (76, 2685) (77, -315) (78, 2407) (79, 3089) (27, -3781) (28, 3531) (29, 2466) (30, 1717) (31, 2715) (32, 3049) (33, 3978) (34, -551) (35, -1692) (36, -1207) (37, -3357) (38, -1513) (39, -2176) (40, 2424) (41, 2238) (42, -632) (43, 2600) (44, 84) (45, -2287) (46, 1563) (47, 3797) (48, 191) (49, 3858) (50, 1843) (51, 3810) (52, 1294) (53, 3072) (54, 2399) (55, -3118) (56, 1384) (57, 1392) (58, -2803) (59, 818) (60, -238) (61, 3010) (62, -562) (63, -1285) (64, 2892) (65, 2983) (66, 1119) (67, -2411) (68, 3722) (69, 3702) (70, -492) (71, 2050) (72, 1843) (73, 2973) (74, 554) (75, -2168) (76, -3410) (77, -1979) (78, -2467) (79, 877) (27, -2217) (28, 3472) (29, 591) (30, 3172) (31, 2448) (32, -1106) (33, -4042) (34, -264) (35, -3810) (36, -2748) (37, -3542) (38, 48) (39, -3834) (40, -8) (41, 2859) (42, 3153) (43, -1121) (44, -118) (45, -3354) (46, -1495) (47, -512) (48, 250) (49, -3542) (50, -2765) (51, -873) (52, 1108) (53, -837) (54, -187) (55, 3224) (56, 792) (57, -3407) (58, -3089) (59, 168) (60, 1280) (61, -4013) (62, -1480) (63, -3922) (64, -3959) (65, 2352) (66, -3637) (67, -2611) (68, 2906) (69, 507) (70, -2349) (71, -1199) (72, -730) (73, -3292) (74, 1776) (75, 3248) (76, -2550) (77, -3815) (78, -1360) (79, 1796) (80, -3261) (81, -29) (82, -3173) (83, 1943) (84, 3230) (85, 736) (86, 1071) (87, -75) (88, 1425) (89, 2078) (90, -4003) (91, -1391) (92, 2161) (93, -1387) (94, -1217) (95, 2298) (96, -3132) (97, -758) (98, 3783) (99, 3870) (100, 3845) 
