FANN_FLO_2.1
num_layers=4
learning_rate=0.900000
connection_rate=1.000000
network_type=0
learning_momentum=0.000000
training_algorithm=3
train_error_function=1
train_stop_function=0
cascade_output_change_fraction=0.010000
quickprop_decay=-0.000100
quickprop_mu=1.750000
rprop_increase_factor=1.200000
rprop_decrease_factor=0.500000
rprop_delta_min=0.000000
rprop_delta_max=50.000000
rprop_delta_zero=0.100000
cascade_output_stagnation_epochs=12
cascade_candidate_change_fraction=0.010000
cascade_candidate_stagnation_epochs=12
cascade_max_out_epochs=150
cascade_min_out_epochs=50
cascade_max_cand_epochs=150
cascade_min_cand_epochs=50
cascade_num_candidate_groups=2
bit_fail_limit=3.49999994039535522461e-01
cascade_candidate_limit=1.00000000000000000000e+03
cascade_weight_multiplier=4.00000005960464477539e-01
cascade_activation_functions_count=10
cascade_activation_functions=3 5 7 8 10 11 14 15 16 17 
cascade_activation_steepnesses_count=4
cascade_activation_steepnesses=2.50000000000000000000e-01 5.00000000000000000000e-01 7.50000000000000000000e-01 1.00000000000000000000e+00 
layer_sizes=27 53 21 2 
scale_included=0
neurons (num_inputs, activation_function, activation_steepness)=(0, 0, 0.00000000000000000000e+00) (0, 0, 0.00000000000000000000e+00) (0, 0, 0.00000000000000000000e+00) (0, 0, 0.00000000000000000000e+00) (0, 0, 0.00000000000000000000e+00) (0, 0, 0.00000000000000000000e+00) (0, 0, 0.00000000000000000000e+00) (0, 0, 0.00000000000000000000e+00) (0, 0, 0.00000000000000000000e+00) (0, 0, 0.00000000000000000000e+00) (0, 0, 0.00000000000000000000e+00) (0, 0, 0.00000000000000000000e+00) (0, 0, 0.00000000000000000000e+00) (0, 0, 0.00000000000000000000e+00) (0, 0, 0.00000000000000000000e+00) (0, 0, 0.00000000000000000000e+00) (0, 0, 0.00000000000000000000e+00) (0, 0, 0.00000000000000000000e+00) (0, 0, 0.00000000000000000000e+00) (0, 0, 0.00000000000000000000e+00) (0, 0, 0.00000000000000000000e+00) (0, 0, 0.00000000000000000000e+00) (0, 0, 0.00000000000000000000e+00) (0, 0, 0.00000000000000000000e+00) (0, 0, 0.00000000000000000000e+00) (0, 0, 0.00000000000000000000e+00) (0, 0, 0.00000000000000000000e+00) (27, 11, 1.00000000000000000000e+00) (27, 11, 1.00000000000000000000e+00) (27, 11, 1.00000000000000000000e+00) (27, 11, 1.00000000000000000000e+00) (27, 11, 1.00000000000000000000e+00) (27, 11, 1.00000000000000000000e+00) (27, 11, 1.00000000000000000000e+00) (27, 11, 1.00000000000000000000e+00) (27, 11, 1.00000000000000000000e+00) (27, 11, 1.00000000000000000000e+00) (27, 11, 1.00000000000000000000e+00) (27, 11, 1.00000000000000000000e+00) (27, 11, 1.00000000000000000000e+00) (27, 11, 1.00000000000000000000e+00) (27, 11, 1.00000000000000000000e+00) (27, 11, 1.00000000000000000000e+00) (27, 11, 1.00000000000000000000e+00) (27, 11, 1.00000000000000000000e+00) (27, 11, 1.00000000000000000000e+00) (27, 11, 1.00000000000000000000e+00) (27, 11, 1.00000000000000000000e+00) (27, 11, 1.00000000000000000000e+00) (27, 11, 1.00000000000000000000e+00) (27, 11, 1.00000000000000000000e+00) (27, 11, 1.00000000000000000000e+00) (27, 11, 1.00000000000000000000e+00) (27, 11, 1.00000000000000000000e+00) (27, 11, 1.00000000000000000000e+00) (27, 11, 1.00000000000000000000e+00) (27, 11, 1.00000000000000000000e+00) (27, 11, 1.00000000000000000000e+00) (27, 11, 1.00000000000000000000e+00) (27, 11, 1.00000000000000000000e+00) (27, 11, 1.00000000000000000000e+00) (27, 11, 1.00000000000000000000e+00) (27, 11, 1.00000000000000000000e+00) (27, 11, 1.00000000000000000000e+00) (27, 11, 1.00000000000000000000e+00) (27, 11, 1.00000000000000000000e+00) (27, 11, 1.00000000000000000000e+00) (27, 11, 1.00000000000000000000e+00) (27, 11, 1.00000000000000000000e+00) (27, 11, 1.00000000000000000000e+00) (27, 11, 1.00000000000000000000e+00) (27, 11, 1.00000000000000000000e+00) (27, 11, 1.00000000000000000000e+00) (27, 11, 1.00000000000000000000e+00) (27, 11, 1.00000000000000000000e+00) (27, 11, 1.00000000000000000000e+00) (27, 11, 1.00000000000000000000e+00) (27, 11, 1.00000000000000000000e+00) (27, 11, 1.00000000000000000000e+00) (0, 11, 1.00000000000000000000e+00) (53, 11, 1.00000000000000000000e+00) (53, 11, 1.00000000000000000000e+00) (53, 11, 1.00000000000000000000e+00) (53, 11, 1.00000000000000000000e+00) (53, 11, 1.00000000000000000000e+00) (53, 11, 1.00000000000000000000e+00) (53, 11, 1.00000000000000000000e+00) (53, 11, 1.00000000000000000000e+00) (53, 11, 1.00000000000000000000e+00) (53, 11, 1.00000000000000000000e+00) (53, 11, 1.00000000000000000000e+00) (53, 11, 1.00000000000000000000e+00) (53, 11, 1.00000000000000000000e+00) (53, 11, 1.00000000000000000000e+00) (53, 11, 1.00000000000000000000e+00) (53, 11, 1.00000000000000000000e+00) (53, 11, 1.00000000000000000000e+00) (53, 11, 1.00000000000000000000e+00) (53, 11, 1.00000000000000000000e+00) (53, 11, 1.00000000000000000000e+00) (0, 11, 1.00000000000000000000e+00) (21, 11, 1.00000000000000000000e+00) (0, 11, 1.00000000000000000000e+00) 
connections (connected_to_neuron, weight)=(0, 1.46587967872619628906e-01) (1, -6.55421376228332519531e-01) (2, -4.52706038951873779297e-01) (3, -2.48128771781921386719e-01) (4, 9.43380713462829589844e-01) (5, 7.80015826225280761719e-01) (6, 3.25349807739257812500e-01) (7, 3.00498604774475097656e-01) (8, -3.57936143875122070312e-01) (9, -5.05668759346008300781e-01) (10, -3.95974218845367431641e-01) (11, -9.37655210494995117188e-01) (12, 6.99657797813415527344e-01) (13, 6.55957937240600585938e-01) (14, 6.64878606796264648438e-01) (15, -9.59879696369171142578e-01) (16, 9.97167825698852539062e-02) (17, 7.14611768722534179688e-01) (18, 9.66808915138244628906e-01) (19, -4.29117262363433837891e-01) (20, 5.63908338546752929688e-01) (21, 8.07887792587280273438e-01) (22, 7.45803117752075195312e-01) (23, -2.34987795352935791016e-01) (24, 1.14208221435546875000e-01) (25, -2.72493243217468261719e-01) (26, 9.38372850418090820312e-01) (0, -8.09114933013916015625e-01) (1, -4.78034555912017822266e-01) (2, 9.44215297698974609375e-01) (3, -1.41971051692962646484e-01) (4, 6.68553471565246582031e-01) (5, -7.11206078529357910156e-01) (6, 4.05322909355163574219e-01) (7, -5.79575359821319580078e-01) (8, -7.67825365066528320312e-01) (9, 1.85338735580444335938e-01) (10, 7.45774507522583007812e-01) (11, 5.32673239707946777344e-01) (12, 8.27402591705322265625e-01) (13, -7.59894251823425292969e-01) (14, -8.63300979137420654297e-01) (15, 8.89747381210327148438e-01) (16, 9.39763426780700683594e-01) (17, 7.92657017707824707031e-01) (18, 5.54625988006591796875e-01) (19, 9.79883790016174316406e-01) (20, -1.07626259326934814453e-01) (21, 2.69237756729125976562e-01) (22, 9.46692705154418945312e-01) (23, 4.63256478309631347656e-01) (24, -1.66853904724121093750e-01) (25, 7.54580497741699218750e-01) (26, 2.09059715270996093750e-01) (0, 5.98158240318298339844e-01) (1, -1.31211400032043457031e-01) (2, 9.36566472053527832031e-01) (3, 5.36531090736389160156e-01) (4, 5.96736669540405273438e-02) (5, -5.41468143463134765625e-01) (6, 4.80746507644653320312e-01) (7, 9.17702674865722656250e-01) (8, -8.72914731502532958984e-01) (9, 7.69540309906005859375e-01) (10, 3.23025584220886230469e-01) (11, -4.52490091323852539062e-01) (12, -9.98284995555877685547e-01) (13, -4.91635680198669433594e-01) (14, -7.06715583801269531250e-01) (15, 5.34388184547424316406e-01) (16, -6.64232969284057617188e-01) (17, -4.66609835624694824219e-01) (18, 6.71087265014648437500e-01) (19, -7.74485588073730468750e-01) (20, -5.26846408843994140625e-01) (21, 4.63744282722473144531e-01) (22, 7.80140399932861328125e-01) (23, -5.46962618827819824219e-01) (24, -6.43882036209106445312e-01) (25, 4.93781566619873046875e-02) (26, -6.00269913673400878906e-01) (0, 8.19374561309814453125e-01) (1, 8.82524132728576660156e-01) (2, -8.45689535140991210938e-01) (3, 2.84341573715209960938e-02) (4, 4.80682492256164550781e-01) (5, 2.30990648269653320312e-02) (6, -3.49993705749511718750e-02) (7, 1.72135829925537109375e-02) (8, -9.17227208614349365234e-01) (9, 4.23532485961914062500e-01) (10, -5.02039909362792968750e-01) (11, -9.99524593353271484375e-01) (12, 5.50617814064025878906e-01) (13, -7.32499599456787109375e-01) (14, 3.23500990867614746094e-01) (15, -9.01872277259826660156e-01) (16, -7.30784595012664794922e-01) (17, 8.31865310668945312500e-01) (18, -6.08587861061096191406e-01) (19, 8.03603649139404296875e-01) (20, -8.32367658615112304688e-01) (21, -7.51976966857910156250e-02) (22, 4.74690914154052734375e-01) (23, -6.06853246688842773438e-01) (24, 3.97955894470214843750e-01) (25, -6.15648627281188964844e-02) (26, -8.26712846755981445312e-01) (0, 8.50993275642395019531e-01) (1, 2.94553160667419433594e-01) (2, 2.22665309906005859375e-01) (3, -7.49276638031005859375e-01) (4, 1.13927721977233886719e-01) (5, 1.05189442634582519531e-01) (6, -5.94966173171997070312e-01) (7, -8.57638120651245117188e-01) (8, -4.14128065109252929688e-01) (9, 4.28133010864257812500e-01) (10, 1.07362508773803710938e-01) (11, 6.03085517883300781250e-01) (12, 5.10905742645263671875e-01) (13, -4.69105005264282226562e-01) (14, -8.98954391479492187500e-01) (15, 5.11381149291992187500e-01) (16, -9.18487250804901123047e-01) (17, -6.31453990936279296875e-01) (18, -1.65117859840393066406e-01) (19, -8.20359528064727783203e-01) (20, -3.62238585948944091797e-01) (21, -3.33252489566802978516e-01) (22, -4.28947389125823974609e-01) (23, -5.58634936809539794922e-01) (24, -1.65620148181915283203e-01) (25, 4.95854973793029785156e-01) (26, 9.16055917739868164062e-01) (0, 2.27526545524597167969e-01) (1, -1.06189191341400146484e-01) (2, -1.45508885383605957031e-01) (3, 4.00813698768615722656e-01) (4, -2.55195856094360351562e-01) (5, -8.50955724716186523438e-01) (6, -3.76520991325378417969e-01) (7, -4.47249412536621093750e-03) (8, 2.62971878051757812500e-01) (9, 7.28668451309204101562e-01) (10, 4.00561332702636718750e-01) (11, 4.05333757400512695312e-01) (12, -6.85459613800048828125e-01) (13, -1.71305716037750244141e-01) (14, -4.87303733825683593750e-01) (15, 9.17625904083251953125e-01) (16, -6.60399973392486572266e-01) (17, 4.35912609100341796875e-02) (18, -9.81328487396240234375e-01) (19, 8.50981235504150390625e-01) (20, 1.25103950500488281250e-01) (21, -6.12782478332519531250e-01) (22, -3.14136624336242675781e-01) (23, 3.04744482040405273438e-01) (24, 2.49788761138916015625e-02) (25, 3.52610826492309570312e-01) (26, 8.75797033309936523438e-01) (0, 4.66343998908996582031e-01) (1, -8.13009262084960937500e-01) (2, 3.71652007102966308594e-01) (3, 3.82399916648864746094e-01) (4, 4.14517283439636230469e-01) (5, -7.34537184238433837891e-01) (6, -7.63108968734741210938e-01) (7, -1.84668958187103271484e-01) (8, 1.02670192718505859375e-02) (9, -6.14064693450927734375e-01) (10, 4.38809990882873535156e-01) (11, -9.94205534458160400391e-01) (12, 6.48907184600830078125e-01) (13, 1.67478561401367187500e-01) (14, 4.06355857849121093750e-01) (15, 5.42410612106323242188e-02) (16, 4.82018828392028808594e-01) (17, -7.64949917793273925781e-01) (18, 5.66937208175659179688e-01) (19, 3.99644732475280761719e-01) (20, -4.25349831581115722656e-01) (21, -3.89471530914306640625e-01) (22, 4.18316245079040527344e-01) (23, -5.74368655681610107422e-01) (24, 7.35632419586181640625e-01) (25, 8.05533766746520996094e-01) (26, 1.11494660377502441406e-01) (0, 4.03769016265869140625e-02) (1, -1.69487237930297851562e-01) (2, -5.35894453525543212891e-01) (3, -8.38260054588317871094e-02) (4, -7.03143239021301269531e-01) (5, -3.48903715610504150391e-01) (6, -7.12174057960510253906e-01) (7, 6.79256677627563476562e-01) (8, -9.34386432170867919922e-01) (9, -4.46711242198944091797e-01) (10, 9.16147708892822265625e-01) (11, -1.19055390357971191406e-01) (12, 5.63555717468261718750e-01) (13, -6.97916984558105468750e-01) (14, -6.80245339870452880859e-01) (15, 5.69350242614746093750e-01) (16, 9.50990200042724609375e-01) (17, 4.87233161926269531250e-01) (18, -2.42939591407775878906e-02) (19, 5.23126125335693359375e-03) (20, -3.07479500770568847656e-02) (21, 2.10756182670593261719e-01) (22, -4.27831470966339111328e-01) (23, -6.31103157997131347656e-01) (24, 7.85406351089477539062e-01) (25, 1.82697057723999023438e-01) (26, 7.87213087081909179688e-01) (0, -7.88962364196777343750e-01) (1, -8.16705226898193359375e-02) (2, 5.92746853828430175781e-01) (3, 3.22532415390014648438e-01) (4, 9.58706378936767578125e-01) (5, -5.76740384101867675781e-01) (6, 7.86637902259826660156e-01) (7, -1.25119626522064208984e-01) (8, -2.79883623123168945312e-01) (9, -5.62265813350677490234e-01) (10, 1.62706375122070312500e-01) (11, -6.00626945495605468750e-01) (12, -4.96652245521545410156e-01) (13, 7.15995192527770996094e-01) (14, -6.84479236602783203125e-01) (15, 3.84292364120483398438e-01) (16, 2.79550909996032714844e-01) (17, -3.82396161556243896484e-01) (18, 7.04046964645385742188e-01) (19, -1.51098906993865966797e-01) (20, -4.31405901908874511719e-01) (21, 1.91280126571655273438e-01) (22, 8.24607133865356445312e-01) (23, 5.73825359344482421875e-01) (24, -8.39467823505401611328e-01) (25, 3.53633165359497070312e-02) (26, -8.54006171226501464844e-01) (0, -4.70570981502532958984e-01) (1, -1.79230391979217529297e-01) (2, 3.28690886497497558594e-01) (3, -6.83357894420623779297e-01) (4, 3.18071842193603515625e-02) (5, -7.52979636192321777344e-01) (6, 9.09389019012451171875e-01) (7, -6.45660400390625000000e-01) (8, -7.94273257255554199219e-01) (9, -6.67351365089416503906e-01) (10, -8.59022498130798339844e-01) (11, 8.06071758270263671875e-02) (12, 5.27650117874145507812e-02) (13, -4.21288311481475830078e-01) (14, -7.56686508655548095703e-01) (15, 4.52138066291809082031e-01) (16, 8.20595026016235351562e-02) (17, 9.59308624267578125000e-01) (18, 7.67658948898315429688e-01) (19, -5.33648252487182617188e-01) (20, 2.38859534263610839844e-01) (21, -6.14737272262573242188e-01) (22, -8.29601228237152099609e-01) (23, -9.12239372730255126953e-01) (24, -4.61432337760925292969e-02) (25, 3.61678957939147949219e-01) (26, 9.12367701530456542969e-01) (0, -4.72317874431610107422e-01) (1, 5.22211074829101562500e-01) (2, -5.22689819335937500000e-02) (3, -3.26324045658111572266e-01) (4, -9.48359906673431396484e-01) (5, 7.68500566482543945312e-01) (6, -9.97633159160614013672e-01) (7, -6.31717801094055175781e-01) (8, -1.99692130088806152344e-01) (9, -7.50612795352935791016e-01) (10, -7.22328782081604003906e-01) (11, 1.54647469520568847656e-01) (12, -5.44886112213134765625e-01) (13, -3.89680147171020507812e-01) (14, 2.95624971389770507812e-01) (15, 5.35721063613891601562e-01) (16, 6.63084864616394042969e-01) (17, 8.74336719512939453125e-01) (18, 7.79034495353698730469e-01) (19, 1.15223050117492675781e-01) (20, -4.36038374900817871094e-02) (21, 7.38343119621276855469e-01) (22, -1.17118120193481445312e-01) (23, 4.22747969627380371094e-01) (24, -2.27972865104675292969e-02) (25, 2.68144607543945312500e-01) (26, 5.93146681785583496094e-01) (0, 6.49633407592773437500e-02) (1, -7.77998566627502441406e-01) (2, -4.51743602752685546875e-02) (3, -2.26688981056213378906e-02) (4, -2.50316441059112548828e-01) (5, -5.22963285446166992188e-01) (6, 9.25062179565429687500e-01) (7, 4.23359513282775878906e-01) (8, -4.71323192119598388672e-01) (9, 6.93562746047973632812e-01) (10, 4.25726413726806640625e-01) (11, -1.03040993213653564453e-01) (12, -5.06129384040832519531e-01) (13, 6.75113558769226074219e-01) (14, 1.74630165100097656250e-01) (15, 6.48518085479736328125e-01) (16, -8.69772553443908691406e-01) (17, 7.84950017929077148438e-01) (18, -5.58570027351379394531e-02) (19, 6.65948510169982910156e-01) (20, 4.48035001754760742188e-01) (21, -1.81520283222198486328e-01) (22, 4.44983124732971191406e-01) (23, -4.36742007732391357422e-01) (24, 7.74875879287719726562e-01) (25, 1.83326244354248046875e-01) (26, 4.46139931678771972656e-01) (0, 1.97623729705810546875e-01) (1, -8.39471042156219482422e-01) (2, -2.85715520381927490234e-01) (3, -2.09229528903961181641e-01) (4, 2.25492238998413085938e-01) (5, -6.37140870094299316406e-02) (6, 7.45596170425415039062e-01) (7, -7.97176659107208251953e-01) (8, 6.85969471931457519531e-01) (9, -7.77367115020751953125e-01) (10, -8.72114539146423339844e-01) (11, 1.09328985214233398438e-01) (12, -2.48690307140350341797e-01) (13, 8.21448206901550292969e-01) (14, -4.64944660663604736328e-01) (15, 6.48268699645996093750e-01) (16, -6.84681177139282226562e-01) (17, -7.89831161499023437500e-01) (18, -1.77101075649261474609e-01) (19, 9.63836908340454101562e-01) (20, -6.59603655338287353516e-01) (21, -3.92151057720184326172e-01) (22, -9.20200943946838378906e-02) (23, -9.93655145168304443359e-01) (24, -9.44116055965423583984e-01) (25, 7.26459622383117675781e-01) (26, 4.51327919960021972656e-01) (0, -3.80858063697814941406e-01) (1, 5.01335382461547851562e-01) (2, -3.65345835685729980469e-01) (3, -9.34718191623687744141e-01) (4, -3.01040768623352050781e-01) (5, -2.04816877841949462891e-01) (6, -2.20433712005615234375e-01) (7, 4.89729642868041992188e-01) (8, -9.79324638843536376953e-01) (9, 7.15852260589599609375e-01) (10, 2.35325813293457031250e-01) (11, -7.76501297950744628906e-01) (12, 4.01821613311767578125e-01) (13, 4.57958698272705078125e-01) (14, -6.48615777492523193359e-01) (15, -4.88849341869354248047e-01) (16, -7.90731668472290039062e-01) (17, -8.27167570590972900391e-01) (18, 4.62059974670410156250e-02) (19, 8.57537031173706054688e-01) (20, -5.11848807334899902344e-01) (21, 2.56374835968017578125e-01) (22, -3.19564044475555419922e-01) (23, -5.48011898994445800781e-01) (24, 5.96771121025085449219e-01) (25, 2.88284897804260253906e-01) (26, 3.59967947006225585938e-01) (0, 6.03116035461425781250e-01) (1, 3.44168782234191894531e-01) (2, 8.64275693893432617188e-02) (3, 5.44439554214477539062e-02) (4, 9.63310718536376953125e-01) (5, -4.12236988544464111328e-01) (6, 6.89098119735717773438e-01) (7, -9.71407473087310791016e-01) (8, 2.86722183227539062500e-01) (9, -5.15718817710876464844e-01) (10, -1.91841185092926025391e-01) (11, -2.23548114299774169922e-01) (12, -4.95043396949768066406e-01) (13, -4.75988924503326416016e-01) (14, -9.88222301006317138672e-01) (15, -2.71544635295867919922e-01) (16, 9.25832748413085937500e-01) (17, 4.69736337661743164062e-01) (18, 7.98395872116088867188e-02) (19, -5.63016653060913085938e-01) (20, 6.79004669189453125000e-01) (21, 2.52671957015991210938e-01) (22, 4.83189344406127929688e-01) (23, 5.36541700363159179688e-01) (24, 7.40823149681091308594e-01) (25, -2.60435879230499267578e-01) (26, -7.83022403717041015625e-01) (0, -8.07188749313354492188e-01) (1, -6.63664698600769042969e-01) (2, 5.05262494087219238281e-01) (3, 5.52779197692871093750e-01) (4, 9.39451336860656738281e-01) (5, -1.50568664073944091797e-01) (6, -3.60793232917785644531e-01) (7, -6.10476732254028320312e-03) (8, -1.87257885932922363281e-01) (9, 2.26969838142395019531e-01) (10, -3.17006647586822509766e-01) (11, -1.58665359020233154297e-01) (12, -4.86308038234710693359e-01) (13, 1.67274594306945800781e-01) (14, 6.49493455886840820312e-01) (15, 2.90143847465515136719e-01) (16, 6.72231197357177734375e-01) (17, -8.26495468616485595703e-01) (18, 3.01921486854553222656e-01) (19, -5.99313497543334960938e-01) (20, -9.00662720203399658203e-01) (21, -2.28342115879058837891e-01) (22, 4.80526089668273925781e-01) (23, -4.63679373264312744141e-01) (24, -5.49337446689605712891e-01) (25, -2.66801953315734863281e-01) (26, -9.80490088462829589844e-01) (0, 9.87204194068908691406e-01) (1, -5.25978744029998779297e-01) (2, -2.40925908088684082031e-01) (3, -7.95818150043487548828e-01) (4, -3.33167493343353271484e-01) (5, 9.54093933105468750000e-02) (6, 7.09444403648376464844e-01) (7, -7.80388236045837402344e-01) (8, 3.48607301712036132812e-02) (9, -4.41124260425567626953e-01) (10, -1.41181409358978271484e-01) (11, -9.71244037151336669922e-01) (12, 3.71617913246154785156e-01) (13, -9.14211630821228027344e-01) (14, -2.88250684738159179688e-01) (15, -7.87047505378723144531e-01) (16, -4.00519669055938720703e-01) (17, 8.79023909568786621094e-01) (18, 8.62445950508117675781e-01) (19, 8.89624238014221191406e-01) (20, 5.51255106925964355469e-01) (21, -9.64049458503723144531e-01) (22, 1.91545724868774414062e-01) (23, 9.51941609382629394531e-01) (24, -8.64712238311767578125e-01) (25, 9.63203549385070800781e-01) (26, 4.32467699050903320312e-01) (0, -3.28391611576080322266e-01) (1, -5.86133837699890136719e-01) (2, -8.34334254264831542969e-01) (3, -3.08881640434265136719e-01) (4, -5.98929643630981445312e-01) (5, -3.60312998294830322266e-01) (6, 4.50192451477050781250e-01) (7, -3.94747734069824218750e-01) (8, 3.06519508361816406250e-01) (9, -4.54398214817047119141e-01) (10, -6.85303330421447753906e-01) (11, 5.26131272315979003906e-01) (12, 5.80462455749511718750e-01) (13, -1.26427590847015380859e-01) (14, -6.15050137042999267578e-01) (15, 6.09218478202819824219e-01) (16, -7.54809737205505371094e-01) (17, -5.29261767864227294922e-01) (18, -6.79032266139984130859e-01) (19, -5.41857242584228515625e-01) (20, 7.02185630798339843750e-02) (21, -8.00008356571197509766e-01) (22, -6.79411292076110839844e-01) (23, -4.01572585105895996094e-02) (24, 7.51246690750122070312e-01) (25, -6.43460750579833984375e-01) (26, -8.48611533641815185547e-01) (0, 7.03188300132751464844e-01) (1, -5.08172988891601562500e-01) (2, -8.85407924652099609375e-01) (3, 1.35655999183654785156e-01) (4, 1.63435459136962890625e-01) (5, -4.71541821956634521484e-01) (6, 3.01321744918823242188e-01) (7, 8.54553818702697753906e-01) (8, -7.04714059829711914062e-02) (9, 9.41008806228637695312e-01) (10, 3.04746270179748535156e-01) (11, 5.34780859947204589844e-01) (12, 2.47528314590454101562e-01) (13, 8.50348114967346191406e-01) (14, 8.49477529525756835938e-01) (15, -2.26340413093566894531e-01) (16, 4.30810570716857910156e-01) (17, -2.76950061321258544922e-01) (18, 1.58609509468078613281e-01) (19, 4.00289297103881835938e-02) (20, -3.17597985267639160156e-02) (21, 6.29347681999206542969e-01) (22, 3.60996723175048828125e-01) (23, 4.26382899284362792969e-01) (24, -3.00433754920959472656e-01) (25, 5.60988306999206542969e-01) (26, 7.46971726417541503906e-01) (0, 6.59409046173095703125e-01) (1, 3.12235116958618164062e-01) (2, -8.96489024162292480469e-01) (3, 8.10797452926635742188e-01) (4, 1.54234170913696289062e-02) (5, -4.04662013053894042969e-01) (6, 9.25389528274536132812e-01) (7, -8.48920524120330810547e-01) (8, 7.58773446083068847656e-01) (9, -5.46152293682098388672e-01) (10, 4.52401280403137207031e-01) (11, 6.13327264785766601562e-01) (12, 3.83376240730285644531e-01) (13, 3.93410086631774902344e-01) (14, -8.19264650344848632812e-02) (15, -8.18428397178649902344e-02) (16, -3.59061658382415771484e-01) (17, -2.31578409671783447266e-01) (18, -2.32365369796752929688e-01) (19, 4.14597988128662109375e-01) (20, -8.00767838954925537109e-01) (21, 4.90684509277343750000e-01) (22, -4.26792562007904052734e-01) (23, 2.39261150360107421875e-01) (24, -5.41075289249420166016e-01) (25, -7.97444880008697509766e-01) (26, -3.99742186069488525391e-01) (0, 8.85307669639587402344e-01) (1, -9.78785753250122070312e-02) (2, -8.38753819465637207031e-01) (3, 6.32279396057128906250e-01) (4, -4.38469588756561279297e-01) (5, 4.73481297492980957031e-01) (6, 7.35790252685546875000e-01) (7, -6.27672135829925537109e-01) (8, -5.11095285415649414062e-01) (9, -6.68871700763702392578e-01) (10, -7.02282667160034179688e-01) (11, -3.60015809535980224609e-01) (12, -9.10098254680633544922e-01) (13, -2.48434960842132568359e-01) (14, -9.07614588737487792969e-01) (15, 7.03229069709777832031e-01) (16, -8.65058660507202148438e-01) (17, 4.85795497894287109375e-01) (18, -3.78697395324707031250e-01) (19, 5.30984401702880859375e-02) (20, -8.73266160488128662109e-01) (21, 3.89724254608154296875e-01) (22, 8.20733070373535156250e-01) (23, 5.41331768035888671875e-01) (24, 5.88956356048583984375e-01) (25, 3.11417698860168457031e-01) (26, -8.85460793972015380859e-01) (0, -1.71782493591308593750e-01) (1, 7.70342350006103515625e-01) (2, -6.82905673980712890625e-01) (3, 4.28475260734558105469e-01) (4, 6.55650019645690917969e-01) (5, 2.19215750694274902344e-01) (6, 5.89721560478210449219e-01) (7, 2.87929415702819824219e-01) (8, 7.80746102333068847656e-01) (9, 6.32027387619018554688e-02) (10, 2.37196683883666992188e-02) (11, -8.46925973892211914062e-01) (12, 5.52107453346252441406e-01) (13, 3.54848027229309082031e-01) (14, -5.49208641052246093750e-01) (15, -8.07908356189727783203e-01) (16, 4.44749712944030761719e-01) (17, 2.02356457710266113281e-01) (18, -7.15522885322570800781e-01) (19, 1.47978782653808593750e-01) (20, 3.37297797203063964844e-01) (21, 7.70272612571716308594e-01) (22, 7.69281387329101562500e-01) (23, -6.09603762626647949219e-01) (24, 8.97006392478942871094e-01) (25, 1.59005641937255859375e-01) (26, -7.88870632648468017578e-01) (0, 4.38338160514831542969e-01) (1, -2.52038002014160156250e-01) (2, 5.22547006607055664062e-01) (3, 5.52877306938171386719e-01) (4, 5.76179504394531250000e-01) (5, 2.92889475822448730469e-01) (6, 8.69971632957458496094e-01) (7, 4.65476512908935546875e-03) (8, -5.14605045318603515625e-02) (9, 8.91873836517333984375e-02) (10, -4.05623674392700195312e-01) (11, -7.63531088829040527344e-01) (12, -1.30066454410552978516e-01) (13, 6.57579064369201660156e-01) (14, 2.60188579559326171875e-01) (15, 2.30075120925903320312e-02) (16, 2.09686517715454101562e-01) (17, -3.84963452816009521484e-01) (18, 4.73798871040344238281e-01) (19, 4.01778221130371093750e-01) (20, -9.40213680267333984375e-01) (21, -3.23844671249389648438e-01) (22, 6.86255216598510742188e-01) (23, 2.07765221595764160156e-01) (24, -9.86546933650970458984e-01) (25, 4.56527829170227050781e-01) (26, -2.29533910751342773438e-02) (0, -5.96150696277618408203e-01) (1, 3.53534221649169921875e-01) (2, -8.63947749137878417969e-01) (3, -3.85021328926086425781e-01) (4, -2.08127617835998535156e-01) (5, -1.15985751152038574219e-01) (6, -8.62474322319030761719e-01) (7, -6.55250310897827148438e-01) (8, -5.39806306362152099609e-01) (9, 4.30415153503417968750e-01) (10, -7.85278618335723876953e-01) (11, 4.64848518371582031250e-01) (12, -6.21045410633087158203e-01) (13, 3.03908824920654296875e-01) (14, -9.40775215625762939453e-01) (15, -3.84576559066772460938e-01) (16, -8.26157629489898681641e-01) (17, 7.16803908348083496094e-01) (18, 8.75612020492553710938e-01) (19, 1.96849942207336425781e-01) (20, -7.35095739364624023438e-02) (21, -5.09351372718811035156e-01) (22, -3.29351127147674560547e-01) (23, -6.71731352806091308594e-01) (24, -4.49565052986145019531e-01) (25, 3.46804141998291015625e-01) (26, -9.85476136207580566406e-01) (0, 7.58200168609619140625e-01) (1, 3.60257267951965332031e-01) (2, 4.71051692962646484375e-01) (3, -2.64753282070159912109e-01) (4, 7.64106512069702148438e-01) (5, -1.75414085388183593750e-01) (6, -1.28701031208038330078e-01) (7, -6.20914816856384277344e-01) (8, 6.16458296775817871094e-01) (9, 7.55313277244567871094e-01) (10, -4.83389139175415039062e-01) (11, 9.61207985877990722656e-01) (12, -7.84493088722229003906e-01) (13, 9.47026014328002929688e-01) (14, -8.24070632457733154297e-01) (15, 6.80355429649353027344e-01) (16, -6.74019455909729003906e-01) (17, 4.79838252067565917969e-01) (18, 7.39580273628234863281e-01) (19, -5.85959553718566894531e-02) (20, 6.53680562973022460938e-01) (21, 4.56384062767028808594e-01) (22, -1.82983934879302978516e-01) (23, -1.49469435214996337891e-01) (24, -6.17125511169433593750e-01) (25, 3.07664752006530761719e-01) (26, 5.21179437637329101562e-01) (0, -2.88856923580169677734e-01) (1, 8.58099699020385742188e-01) (2, -1.32016420364379882812e-01) (3, -2.74333000183105468750e-01) (4, 6.16299748420715332031e-01) (5, -7.71759212017059326172e-01) (6, -8.03281307220458984375e-01) (7, -6.48453474044799804688e-01) (8, 9.92347240447998046875e-01) (9, 2.13046073913574218750e-02) (10, 2.22845554351806640625e-01) (11, -6.28567576408386230469e-01) (12, -3.62237095832824707031e-01) (13, -2.18412876129150390625e-02) (14, -1.11956655979156494141e-01) (15, -4.01029109954833984375e-01) (16, 1.93665623664855957031e-01) (17, -1.64930641651153564453e-01) (18, -2.25099682807922363281e-01) (19, -1.25978887081146240234e-01) (20, 1.61049962043762207031e-01) (21, -7.45261490345001220703e-01) (22, -3.86398673057556152344e-01) (23, -8.97546052932739257812e-01) (24, 9.08419132232666015625e-01) (25, -9.30014610290527343750e-01) (26, -8.05299282073974609375e-02) (0, -2.41050362586975097656e-01) (1, -5.47140121459960937500e-01) (2, -7.72865235805511474609e-01) (3, -7.19870924949645996094e-01) (4, 1.64003014564514160156e-01) (5, -9.14765596389770507812e-01) (6, 1.48112654685974121094e-01) (7, 8.89670014381408691406e-01) (8, 7.01534271240234375000e-01) (9, 3.76353383064270019531e-01) (10, -9.13611292839050292969e-01) (11, -9.46919262409210205078e-01) (12, 3.68700623512268066406e-01) (13, 1.07693314552307128906e-01) (14, 2.75926232337951660156e-01) (15, 7.40133166313171386719e-01) (16, 7.45456218719482421875e-01) (17, -7.45914995670318603516e-01) (18, -3.71823549270629882812e-01) (19, -6.55572831630706787109e-01) (20, 4.47750687599182128906e-01) (21, 4.63245749473571777344e-01) (22, 1.19327425956726074219e-01) (23, -6.78228259086608886719e-01) (24, -3.75704288482666015625e-01) (25, 3.74065995216369628906e-01) (26, -6.46269321441650390625e-02) (0, -2.73250341415405273438e-01) (1, 2.82485127449035644531e-01) (2, 5.35845756530761718750e-03) (3, 6.46219730377197265625e-01) (4, -9.58565235137939453125e-01) (5, 4.58218336105346679688e-01) (6, 8.73354434967041015625e-01) (7, -6.78436160087585449219e-01) (8, -3.77778649330139160156e-01) (9, 9.58588838577270507812e-01) (10, 4.69676375389099121094e-01) (11, -4.88108634948730468750e-01) (12, 6.60123109817504882812e-01) (13, -1.53970181941986083984e-01) (14, -4.01719927787780761719e-01) (15, 7.13203907012939453125e-01) (16, -7.85269558429718017578e-01) (17, 7.05973386764526367188e-01) (18, -1.08698606491088867188e-02) (19, 9.54863548278808593750e-01) (20, 4.51429605484008789062e-01) (21, 2.43215203285217285156e-01) (22, -4.16959941387176513672e-01) (23, 7.95856833457946777344e-01) (24, -3.09034168720245361328e-01) (25, -9.53714132308959960938e-01) (26, -8.48157405853271484375e-02) (0, 1.27376317977905273438e-02) (1, -3.29418420791625976562e-01) (2, -7.10749745368957519531e-01) (3, 9.48110699653625488281e-01) (4, 3.97331237792968750000e-01) (5, 5.71735382080078125000e-01) (6, -4.65308427810668945312e-02) (7, 4.35509681701660156250e-02) (8, 6.13170027732849121094e-01) (9, -5.88312447071075439453e-01) (10, -8.30945372581481933594e-02) (11, 9.34733867645263671875e-01) (12, 3.39089632034301757812e-02) (13, -1.24505639076232910156e-01) (14, 4.04410362243652343750e-01) (15, 5.45800328254699707031e-01) (16, -4.64382529258728027344e-01) (17, -7.49559879302978515625e-01) (18, -8.55919659137725830078e-01) (19, -7.51178681850433349609e-01) (20, -5.34829497337341308594e-01) (21, 8.50053787231445312500e-01) (22, 2.37951517105102539062e-01) (23, -5.79965829849243164062e-01) (24, 3.01483392715454101562e-01) (25, -5.18833398818969726562e-01) (26, 3.07416915893554687500e-03) (0, 9.73402261734008789062e-02) (1, 1.72132492065429687500e-01) (2, 4.93600368499755859375e-02) (3, -9.87475514411926269531e-01) (4, -8.15129935741424560547e-01) (5, 7.19941616058349609375e-01) (6, -6.98225259780883789062e-01) (7, -8.67019236087799072266e-01) (8, 1.17272853851318359375e-01) (9, 8.73510003089904785156e-01) (10, 8.64498615264892578125e-02) (11, -8.39176118373870849609e-01) (12, 4.86680150032043457031e-01) (13, 4.98137474060058593750e-01) (14, 7.77293443679809570312e-02) (15, 4.21414017677307128906e-01) (16, -4.67953622341156005859e-01) (17, 9.53223705291748046875e-01) (18, -1.74175679683685302734e-01) (19, -9.22153353691101074219e-01) (20, -5.11158823966979980469e-01) (21, 7.62643814086914062500e-02) (22, -7.78072953224182128906e-01) (23, -2.62337446212768554688e-01) (24, 5.41435003280639648438e-01) (25, -9.28019225597381591797e-01) (26, 9.75613951683044433594e-01) (0, 9.61469054222106933594e-01) (1, 3.73464107513427734375e-01) (2, -5.43219327926635742188e-01) (3, -3.54567170143127441406e-02) (4, -5.29195666313171386719e-01) (5, 6.28913044929504394531e-01) (6, -9.86096680164337158203e-01) (7, -5.16671180725097656250e-01) (8, 8.13783168792724609375e-01) (9, 7.33844876289367675781e-01) (10, -2.14896500110626220703e-01) (11, 9.46763873100280761719e-01) (12, -1.48882210254669189453e-01) (13, -3.41386437416076660156e-01) (14, 3.32138538360595703125e-02) (15, 1.19416713714599609375e-02) (16, -8.54706346988677978516e-01) (17, -4.68648731708526611328e-01) (18, -9.10328984260559082031e-01) (19, 5.66707730293273925781e-01) (20, 6.33976459503173828125e-02) (21, -9.57105219364166259766e-01) (22, -6.07468008995056152344e-01) (23, 1.41244292259216308594e-01) (24, -4.68264043331146240234e-01) (25, 4.68796372413635253906e-01) (26, 3.63171339035034179688e-01) (0, 2.69398450851440429688e-01) (1, 1.02313756942749023438e-02) (2, 4.35152173042297363281e-01) (3, 2.45012521743774414062e-01) (4, -2.82995700836181640625e-02) (5, -1.91383719444274902344e-01) (6, 7.01793074607849121094e-01) (7, 9.36243653297424316406e-01) (8, 2.79420614242553710938e-01) (9, 3.30706238746643066406e-01) (10, 9.50146913528442382812e-01) (11, 7.62749433517456054688e-01) (12, 1.44489407539367675781e-01) (13, 6.83991909027099609375e-01) (14, -4.52147006988525390625e-01) (15, 9.12532806396484375000e-02) (16, -4.64890301227569580078e-01) (17, 2.06466555595397949219e-01) (18, -8.75532865524291992188e-01) (19, 5.47051429748535156250e-01) (20, 3.51760268211364746094e-01) (21, -3.44181597232818603516e-01) (22, 6.36722445487976074219e-01) (23, -8.15321207046508789062e-02) (24, 7.19216108322143554688e-01) (25, 6.79617166519165039062e-01) (26, 3.10999870300292968750e-01) (0, -1.39539599418640136719e-01) (1, -7.88646817207336425781e-01) (2, -2.20203757286071777344e-01) (3, -7.76368260383605957031e-01) (4, 4.80751633644104003906e-01) (5, 7.90027618408203125000e-01) (6, 6.58783912658691406250e-01) (7, -2.74235904216766357422e-01) (8, -2.38272011280059814453e-01) (9, -5.32599806785583496094e-01) (10, -5.72442770004272460938e-01) (11, -3.02028357982635498047e-01) (12, 7.46820807456970214844e-01) (13, 7.58263468742370605469e-01) (14, -3.51881384849548339844e-01) (15, 5.09570240974426269531e-01) (16, -9.72471237182617187500e-02) (17, -6.67889475822448730469e-01) (18, -9.42576706409454345703e-01) (19, 9.94006156921386718750e-01) (20, -1.32779777050018310547e-01) (21, 2.63889789581298828125e-01) (22, -8.81526708602905273438e-01) (23, -5.85728406906127929688e-01) (24, -3.84349942207336425781e-01) (25, -2.25708305835723876953e-01) (26, -9.49005961418151855469e-01) (0, 5.34117937088012695312e-01) (1, -5.06492257118225097656e-01) (2, 7.30611205101013183594e-01) (3, -1.54882192611694335938e-01) (4, 3.53968143463134765625e-01) (5, 9.41964387893676757812e-01) (6, 6.24914050102233886719e-01) (7, 5.77599883079528808594e-01) (8, 4.22716021537780761719e-01) (9, 4.14941668510437011719e-01) (10, 2.36383795738220214844e-01) (11, -8.51519882678985595703e-01) (12, -8.23330342769622802734e-01) (13, 7.03783869743347167969e-01) (14, -4.23962652683258056641e-01) (15, -1.25358641147613525391e-01) (16, 4.50604677200317382812e-01) (17, -6.65699124336242675781e-01) (18, 5.22759914398193359375e-01) (19, -3.98249626159667968750e-02) (20, 2.37053751945495605469e-01) (21, 8.54870438575744628906e-01) (22, 1.75982713699340820312e-02) (23, 2.31059908866882324219e-01) (24, -2.77909338474273681641e-01) (25, -7.18511819839477539062e-01) (26, 3.49533081054687500000e-01) (0, 1.36362195014953613281e-01) (1, -1.02861821651458740234e-01) (2, -8.76175165176391601562e-01) (3, 1.87356233596801757812e-01) (4, -5.68743824958801269531e-01) (5, -3.82667422294616699219e-01) (6, -8.20325016975402832031e-02) (7, 2.76373982429504394531e-01) (8, 9.71300721168518066406e-01) (9, -1.40068113803863525391e-01) (10, -9.87119674682617187500e-02) (11, 5.48900604248046875000e-01) (12, -7.17352032661437988281e-01) (13, -6.83770298957824707031e-01) (14, -2.14715719223022460938e-01) (15, -5.68871974945068359375e-01) (16, -5.07100582122802734375e-01) (17, -5.10931789875030517578e-01) (18, 7.16543197631835937500e-03) (19, 3.67540717124938964844e-01) (20, 9.39672946929931640625e-01) (21, 3.41466307640075683594e-01) (22, -1.09699308872222900391e-01) (23, -1.00152075290679931641e-01) (24, -4.21480000019073486328e-01) (25, -2.54828870296478271484e-01) (26, 9.17446255683898925781e-01) (0, 8.09579849243164062500e-01) (1, 4.67261791229248046875e-01) (2, -8.01065623760223388672e-01) (3, 1.59112930297851562500e-01) (4, -3.96375954151153564453e-01) (5, 9.60725545883178710938e-02) (6, 2.82937765121459960938e-01) (7, 7.90980339050292968750e-01) (8, 5.27328729629516601562e-01) (9, 9.00270342826843261719e-01) (10, -2.91052162647247314453e-01) (11, -1.96297347545623779297e-01) (12, 8.71571063995361328125e-01) (13, 5.68879723548889160156e-01) (14, 7.04990744590759277344e-01) (15, 4.20471549034118652344e-01) (16, 8.51527690887451171875e-01) (17, -9.78779554367065429688e-01) (18, -7.94244110584259033203e-01) (19, -7.17344284057617187500e-01) (20, -4.85880196094512939453e-01) (21, -3.05175900459289550781e-01) (22, 2.89821147918701171875e-01) (23, 8.81660461425781250000e-01) (24, -3.65502953529357910156e-01) (25, -3.68712544441223144531e-01) (26, -2.28038787841796875000e-01) (0, 5.34345030784606933594e-01) (1, 2.09807395935058593750e-01) (2, 5.17132282257080078125e-01) (3, 4.51791286468505859375e-01) (4, 1.93872451782226562500e-02) (5, -1.56059265136718750000e-02) (6, 6.50725603103637695312e-01) (7, -8.21499764919281005859e-01) (8, 5.88018059730529785156e-01) (9, -2.53201782703399658203e-01) (10, 4.61437940597534179688e-01) (11, 3.78998398780822753906e-01) (12, -7.25873053073883056641e-01) (13, 3.61708283424377441406e-01) (14, -9.12053704261779785156e-01) (15, 7.78295993804931640625e-02) (16, 2.33279347419738769531e-01) (17, 6.56826019287109375000e-01) (18, -2.17179656028747558594e-01) (19, -3.46249043941497802734e-01) (20, 5.08353710174560546875e-01) (21, -1.95959270000457763672e-01) (22, -1.40493154525756835938e-01) (23, 7.91009426116943359375e-01) (24, 3.18160533905029296875e-01) (25, 5.54330945014953613281e-01) (26, 8.08306932449340820312e-02) (0, 1.99821114540100097656e-01) (1, -8.11172008514404296875e-01) (2, 7.12118148803710937500e-01) (3, 9.71782207489013671875e-01) (4, 7.23173022270202636719e-01) (5, -7.80744552612304687500e-02) (6, 4.88914608955383300781e-01) (7, 1.74964189529418945312e-01) (8, 9.41312789916992187500e-01) (9, -5.26691317558288574219e-01) (10, -1.74310147762298583984e-01) (11, -8.80186975002288818359e-01) (12, -9.38673257827758789062e-01) (13, 5.72488069534301757812e-01) (14, 5.81251025199890136719e-01) (15, 4.40325140953063964844e-01) (16, 8.46615076065063476562e-01) (17, -5.70406317710876464844e-02) (18, 5.28271436691284179688e-01) (19, -7.55553245544433593750e-02) (20, -8.23761284351348876953e-01) (21, 1.85097455978393554688e-01) (22, 7.07265019416809082031e-01) (23, -1.70010328292846679688e-01) (24, -3.06548774242401123047e-01) (25, -4.88694250583648681641e-01) (26, 6.89496517181396484375e-01) (0, -5.15539348125457763672e-01) (1, 8.29466223716735839844e-01) (2, 2.43827462196350097656e-01) (3, 5.65291285514831542969e-01) (4, 2.92873382568359375000e-02) (5, 4.32655453681945800781e-01) (6, 2.77409434318542480469e-01) (7, 1.06966495513916015625e-03) (8, 1.55828475952148437500e-01) (9, -8.00665020942687988281e-01) (10, -5.10015845298767089844e-01) (11, -6.69207334518432617188e-01) (12, -8.59352231025695800781e-01) (13, -3.67071628570556640625e-02) (14, 1.56482577323913574219e-01) (15, -7.39539206027984619141e-01) (16, 2.46195793151855468750e-02) (17, -2.71029353141784667969e-01) (18, 8.41711878776550292969e-01) (19, -5.35055160522460937500e-01) (20, -4.24414336681365966797e-01) (21, -2.15328812599182128906e-01) (22, 9.93216276168823242188e-01) (23, 5.00030279159545898438e-01) (24, -3.90900969505310058594e-02) (25, 1.78313732147216796875e-01) (26, 2.07295298576354980469e-01) (0, 7.90899515151977539062e-01) (1, 8.71765017509460449219e-01) (2, 7.18600988388061523438e-01) (3, 4.80396032333374023438e-01) (4, -6.43774330615997314453e-01) (5, 5.48067331314086914062e-01) (6, -2.75776445865631103516e-01) (7, 9.21517014503479003906e-01) (8, -4.22645330429077148438e-01) (9, -8.43120992183685302734e-01) (10, 1.98926329612731933594e-01) (11, 5.78424334526062011719e-01) (12, 3.12707424163818359375e-01) (13, 3.98261308670043945312e-01) (14, -9.31591510772705078125e-01) (15, 6.43500089645385742188e-01) (16, 5.38909077644348144531e-01) (17, 3.17013263702392578125e-02) (18, -2.00017392635345458984e-01) (19, 7.99369931221008300781e-01) (20, -9.43679034709930419922e-01) (21, 5.28953313827514648438e-01) (22, 6.41081690788269042969e-01) (23, -4.78734195232391357422e-01) (24, -8.95461082458496093750e-01) (25, -5.74247121810913085938e-01) (26, -4.85517919063568115234e-01) (0, 6.04569315910339355469e-01) (1, 3.86662840843200683594e-01) (2, 6.92795872688293457031e-01) (3, -1.88135445117950439453e-01) (4, 1.77562355995178222656e-01) (5, 5.64560890197753906250e-01) (6, -4.69534397125244140625e-01) (7, -3.42041552066802978516e-01) (8, 9.20786499977111816406e-01) (9, -9.21467125415802001953e-01) (10, 3.82182002067565917969e-01) (11, 8.42303514480590820312e-01) (12, -3.44112455844879150391e-01) (13, 5.39060950279235839844e-01) (14, 4.12298440933227539062e-02) (15, -7.65688180923461914062e-01) (16, -1.48231625556945800781e-01) (17, -5.60508847236633300781e-01) (18, -6.97279691696166992188e-01) (19, -5.04731535911560058594e-01) (20, 9.78400230407714843750e-01) (21, 3.34421634674072265625e-01) (22, 2.95251131057739257812e-01) (23, 7.77770161628723144531e-01) (24, 3.90742659568786621094e-01) (25, -1.75795614719390869141e-01) (26, 4.18851852416992187500e-01) (0, 9.12008404731750488281e-01) (1, -7.12566971778869628906e-02) (2, 8.44604730606079101562e-01) (3, -5.73509514331817626953e-01) (4, -4.66687440872192382812e-01) (5, 2.31267571449279785156e-01) (6, -8.80713701248168945312e-01) (7, 3.45177173614501953125e-01) (8, -5.91170072555541992188e-01) (9, 6.83847188949584960938e-01) (10, 8.75642776489257812500e-01) (11, 6.67883157730102539062e-02) (12, 6.04633688926696777344e-01) (13, 9.54175591468811035156e-01) (14, -5.51029682159423828125e-01) (15, 4.46937203407287597656e-01) (16, -3.89936804771423339844e-01) (17, 9.88031268119812011719e-01) (18, -5.11832952499389648438e-01) (19, -1.55624985694885253906e-01) (20, -1.60200297832489013672e-01) (21, -7.23417997360229492188e-02) (22, 1.47095322608947753906e-01) (23, 3.35068225860595703125e-01) (24, -9.39415097236633300781e-02) (25, -5.18482983112335205078e-01) (26, -3.69680702686309814453e-01) (0, -3.16171348094940185547e-01) (1, 8.72259616851806640625e-01) (2, 4.54523682594299316406e-01) (3, -8.97319495677947998047e-01) (4, 7.84268140792846679688e-01) (5, -6.16733014583587646484e-01) (6, 9.47285294532775878906e-01) (7, -7.89241433143615722656e-01) (8, -8.34204554557800292969e-02) (9, 1.78552746772766113281e-01) (10, -6.69955134391784667969e-01) (11, -7.38243281841278076172e-01) (12, 5.87382674217224121094e-01) (13, -9.86107945442199707031e-01) (14, -8.62600564956665039062e-01) (15, -3.45828950405120849609e-01) (16, 6.18525743484497070312e-01) (17, -9.08424913883209228516e-01) (18, 1.03141427040100097656e-01) (19, 6.54629468917846679688e-02) (20, -2.98361778259277343750e-01) (21, 9.11726951599121093750e-02) (22, 5.53629875183105468750e-01) (23, 5.46013236045837402344e-01) (24, 9.30972456932067871094e-01) (25, -5.18711924552917480469e-01) (26, -3.06891381740570068359e-01) (0, 2.66040563583374023438e-01) (1, 3.87346625328063964844e-01) (2, 1.74625635147094726562e-01) (3, 8.96359920501708984375e-01) (4, -9.28824782371520996094e-01) (5, 4.68853712081909179688e-02) (6, 3.50883603096008300781e-01) (7, -8.26144278049468994141e-01) (8, -1.68846607208251953125e-01) (9, 7.34150528907775878906e-01) (10, -8.78859043121337890625e-01) (11, 4.19119596481323242188e-02) (12, -3.49269866943359375000e-01) (13, 2.99693822860717773438e-01) (14, 3.71956944465637207031e-01) (15, -8.75131487846374511719e-02) (16, -1.12923502922058105469e-01) (17, 3.85848999023437500000e-01) (18, 4.98863458633422851562e-02) (19, 5.41247606277465820312e-01) (20, 4.37474250793457031250e-03) (21, 1.41461372375488281250e-01) (22, -3.55611026287078857422e-01) (23, -9.30162370204925537109e-01) (24, 8.43099594116210937500e-01) (25, 7.35561728477478027344e-01) (26, 6.23467564582824707031e-01) (0, 3.89112830162048339844e-01) (1, 6.66534185409545898438e-01) (2, -8.95244300365447998047e-01) (3, -9.17778491973876953125e-01) (4, -6.74252510070800781250e-02) (5, 4.92102265357971191406e-01) (6, 2.56847143173217773438e-01) (7, -1.71065390110015869141e-01) (8, 5.63277482986450195312e-01) (9, -6.96267545223236083984e-01) (10, -8.20181846618652343750e-01) (11, 7.37133264541625976562e-01) (12, 1.34885907173156738281e-01) (13, 9.13968682289123535156e-01) (14, 8.58274221420288085938e-01) (15, -8.23202133178710937500e-01) (16, -4.35301184654235839844e-01) (17, 1.57968044281005859375e-01) (18, 5.48754692077636718750e-01) (19, 4.77185726165771484375e-01) (20, -9.54955518245697021484e-01) (21, -6.53962492942810058594e-02) (22, -4.72928047180175781250e-01) (23, 5.86292028427124023438e-01) (24, 9.38978433609008789062e-01) (25, 6.68533325195312500000e-01) (26, -7.69318938255310058594e-01) (0, -9.91183876991271972656e-01) (1, 5.11632919311523437500e-01) (2, 9.66242790222167968750e-01) (3, 6.32283687591552734375e-01) (4, -9.92541313171386718750e-02) (5, 6.32776856422424316406e-01) (6, 7.37039327621459960938e-01) (7, -1.70326232910156250000e-02) (8, -4.34648334980010986328e-01) (9, 2.29141592979431152344e-01) (10, -7.60185480117797851562e-01) (11, 3.94286274909973144531e-01) (12, -2.07580864429473876953e-01) (13, -4.56453025341033935547e-01) (14, 5.74104428291320800781e-01) (15, -4.70447659492492675781e-01) (16, 6.78432822227478027344e-01) (17, 4.88073229789733886719e-01) (18, -6.12173438072204589844e-01) (19, 8.55230689048767089844e-01) (20, -9.47228014469146728516e-01) (21, 5.45794486999511718750e-01) (22, 4.03985500335693359375e-01) (23, 5.29957652091979980469e-01) (24, 5.90839028358459472656e-01) (25, -6.61410808563232421875e-01) (26, -9.42970335483551025391e-01) (0, 1.77131056785583496094e-01) (1, -7.22432374954223632812e-01) (2, 7.25562930107116699219e-01) (3, 4.07812118530273437500e-01) (4, -7.13616251945495605469e-01) (5, 2.37195968627929687500e-01) (6, 3.74054908752441406250e-01) (7, 9.18667435646057128906e-01) (8, -8.62058222293853759766e-01) (9, 6.83188438415527343750e-03) (10, 6.55706763267517089844e-01) (11, 1.20909094810485839844e-01) (12, 5.72183489799499511719e-01) (13, -1.15151584148406982422e-01) (14, 3.60723614692687988281e-01) (15, -3.35302352905273437500e-02) (16, 6.77267551422119140625e-01) (17, 9.04270648956298828125e-01) (18, -4.59425747394561767578e-01) (19, -7.93180167675018310547e-01) (20, 5.82703471183776855469e-01) (21, -9.71352577209472656250e-01) (22, -4.05353665351867675781e-01) (23, 4.37934160232543945312e-01) (24, -9.18580591678619384766e-01) (25, -8.59559118747711181641e-01) (26, -1.58080339431762695312e-01) (0, 6.11377120018005371094e-01) (1, 7.31279850006103515625e-01) (2, 1.80508852005004882812e-01) (3, 6.68406724929809570312e-01) (4, -9.15890336036682128906e-02) (5, 4.58076477050781250000e-01) (6, 3.93969774246215820312e-01) (7, -6.83776855468750000000e-01) (8, 7.44460225105285644531e-01) (9, -3.68834316730499267578e-01) (10, 6.90278053283691406250e-01) (11, 6.63127660751342773438e-01) (12, -2.30892539024353027344e-01) (13, -3.02890121936798095703e-01) (14, 3.18834424018859863281e-01) (15, 8.90016555786132812500e-01) (16, -7.30706572532653808594e-01) (17, -7.96317219734191894531e-01) (18, 2.50740289688110351562e-01) (19, 2.35763192176818847656e-01) (20, 8.80950331687927246094e-01) (21, 1.55010819435119628906e-01) (22, 7.76337385177612304688e-01) (23, -9.12229835987091064453e-01) (24, -2.62285649776458740234e-01) (25, 8.04984807968139648438e-01) (26, -3.17583501338958740234e-01) (0, -8.24351489543914794922e-01) (1, 8.86404275894165039062e-01) (2, -1.77142620086669921875e-01) (3, 1.75681114196777343750e-02) (4, 4.97781395912170410156e-01) (5, -4.45862710475921630859e-01) (6, -8.01923036575317382812e-01) (7, 1.66188120841979980469e-01) (8, 4.62548255920410156250e-01) (9, 6.56153440475463867188e-01) (10, -4.39842164516448974609e-01) (11, 7.78771400451660156250e-01) (12, 4.00613665580749511719e-01) (13, 1.91323518753051757812e-01) (14, 4.69049453735351562500e-01) (15, 6.37413263320922851562e-02) (16, 9.60430979728698730469e-01) (17, -8.33840668201446533203e-01) (18, -6.17424249649047851562e-01) (19, 8.50447535514831542969e-01) (20, -5.64547300338745117188e-01) (21, -4.13741469383239746094e-01) (22, 1.01187825202941894531e-01) (23, 6.71215891838073730469e-01) (24, -5.32791137695312500000e-01) (25, -7.43801295757293701172e-01) (26, 4.47553277015686035156e-01) (0, -4.45020973682403564453e-01) (1, -6.08694553375244140625e-03) (2, 2.52538084983825683594e-01) (3, 2.37395524978637695312e-01) (4, 1.69561624526977539062e-01) (5, 1.38942360877990722656e-01) (6, -9.39747095108032226562e-01) (7, -8.12870264053344726562e-01) (8, -3.63276302814483642578e-01) (9, -3.85609805583953857422e-01) (10, -6.14793300628662109375e-01) (11, 8.02911758422851562500e-01) (12, -9.23061549663543701172e-01) (13, -9.58639800548553466797e-01) (14, -6.36930346488952636719e-01) (15, 8.55709791183471679688e-01) (16, 4.41973924636840820312e-01) (17, 5.54393172264099121094e-01) (18, 3.24759244918823242188e-01) (19, -4.94284808635711669922e-01) (20, 5.14824151992797851562e-01) (21, 4.90918636322021484375e-01) (22, -1.11709058284759521484e-01) (23, 3.65271687507629394531e-01) (24, 9.26371335983276367188e-01) (25, 4.74549531936645507812e-01) (26, -5.33540427684783935547e-01) (0, 5.97587227821350097656e-01) (1, 9.41758394241333007812e-01) (2, -2.77341723442077636719e-01) (3, 4.51405048370361328125e-02) (4, -5.03262639045715332031e-01) (5, 7.16571331024169921875e-01) (6, -7.02321410179138183594e-01) (7, 7.34132885932922363281e-01) (8, -1.13867104053497314453e-01) (9, 4.36620950698852539062e-01) (10, 7.94385910034179687500e-01) (11, 7.32626914978027343750e-02) (12, -9.26655352115631103516e-01) (13, -5.91223955154418945312e-01) (14, 4.58469390869140625000e-01) (15, 8.76256465911865234375e-01) (16, -5.14285445213317871094e-01) (17, 4.99829649925231933594e-01) (18, -7.60673880577087402344e-01) (19, -6.58575654029846191406e-01) (20, -5.81964850425720214844e-02) (21, 7.93719291687011718750e-01) (22, 6.66183590888977050781e-01) (23, 4.47518706321716308594e-01) (24, 3.08543443679809570312e-01) (25, 1.57102227210998535156e-01) (26, -6.64190351963043212891e-01) (0, -3.26184868812561035156e-01) (1, 8.34735631942749023438e-02) (2, 8.10359120368957519531e-01) (3, 1.40274763107299804688e-01) (4, -3.18939268589019775391e-01) (5, 7.52117514610290527344e-01) (6, 8.62933039665222167969e-01) (7, 7.26201176643371582031e-01) (8, -7.51145064830780029297e-01) (9, 5.79504370689392089844e-01) (10, -9.76120173931121826172e-01) (11, 9.82987880706787109375e-01) (12, -5.34362733364105224609e-01) (13, 4.60500836372375488281e-01) (14, 7.77373790740966796875e-01) (15, 5.38899898529052734375e-01) (16, 5.33845424652099609375e-01) (17, -8.13850164413452148438e-01) (18, -2.63065099716186523438e-03) (19, 4.10101890563964843750e-01) (20, -3.28135669231414794922e-01) (21, -5.02801060676574707031e-01) (22, 6.49428009986877441406e-01) (23, 1.32886171340942382812e-02) (24, 4.39002394676208496094e-01) (25, 4.43147301673889160156e-01) (26, -3.20527732372283935547e-01) (27, -1.13478839397430419922e-01) (28, -2.48309314250946044922e-01) (29, 8.36574435234069824219e-01) (30, 2.22330808639526367188e-01) (31, 4.25505876541137695312e-01) (32, -7.99520015716552734375e-02) (33, 3.26899290084838867188e-02) (34, -4.34219479560852050781e-01) (35, 6.01108670234680175781e-01) (36, -2.15192496776580810547e-01) (37, -5.71286439895629882812e-01) (38, 3.27309966087341308594e-01) (39, 3.36624383926391601562e-02) (40, -9.91782128810882568359e-01) (41, 3.51189851760864257812e-01) (42, 1.66503190994262695312e-02) (43, -5.26144862174987792969e-01) (44, -1.88309371471405029297e-01) (45, -2.05975949764251708984e-01) (46, -9.87244963645935058594e-01) (47, -6.54463946819305419922e-01) (48, -1.98261737823486328125e-02) (49, 1.01243257522583007812e-02) (50, 7.55638003349304199219e-01) (51, 6.52038216590881347656e-01) (52, 5.07323265075683593750e-01) (53, 4.05066013336181640625e-01) (54, -3.34673166275024414062e-01) (55, -5.36742210388183593750e-02) (56, -1.51786744594573974609e-01) (57, 3.44799160957336425781e-01) (58, 8.32846879959106445312e-01) (59, 5.99903941154479980469e-01) (60, 1.81373596191406250000e-01) (61, 5.51776885986328125000e-02) (62, 2.54098176956176757812e-02) (63, -8.98578405380249023438e-01) (64, -9.12132322788238525391e-01) (65, 5.91190338134765625000e-01) (66, 7.02530264854431152344e-01) (67, -1.27324819564819335938e-01) (68, -9.80096161365509033203e-01) (69, 2.98402309417724609375e-02) (70, 9.06337618827819824219e-01) (71, -9.71878290176391601562e-01) (72, -6.18969917297363281250e-01) (73, -7.70121216773986816406e-02) (74, -4.98023152351379394531e-01) (75, 1.92720651626586914062e-01) (76, 7.17011928558349609375e-01) (77, -4.85268115997314453125e-01) (78, 5.38256764411926269531e-01) (79, -3.02814245223999023438e-01) (27, 5.24856209754943847656e-01) (28, 2.93894648551940917969e-01) (29, -6.50776028633117675781e-01) (30, 3.21795940399169921875e-02) (31, -3.01039338111877441406e-01) (32, 1.45508050918579101562e-02) (33, 9.78505373001098632812e-01) (34, 5.47173976898193359375e-01) (35, -6.40650033950805664062e-01) (36, 8.11352252960205078125e-01) (37, 1.47077918052673339844e-01) (38, 5.40723562240600585938e-01) (39, -1.33470118045806884766e-01) (40, -8.27512264251708984375e-01) (41, 6.42145156860351562500e-01) (42, -4.56024408340454101562e-02) (43, 7.63678073883056640625e-01) (44, 3.44675421714782714844e-01) (45, 8.27072739601135253906e-01) (46, 7.83581852912902832031e-01) (47, -6.25484228134155273438e-01) (48, 7.33410239219665527344e-01) (49, 8.11703562736511230469e-01) (50, -2.44454145431518554688e-01) (51, -3.43601822853088378906e-01) (52, -6.86319589614868164062e-01) (53, 9.48266506195068359375e-01) (54, -6.26589894294738769531e-01) (55, -1.71587705612182617188e-01) (56, 4.86523270606994628906e-01) (57, 7.05958604812622070312e-02) (58, -6.46731495857238769531e-01) (59, -2.19582021236419677734e-01) (60, 4.19819831848144531250e-01) (61, 3.85448098182678222656e-01) (62, 4.79378700256347656250e-01) (63, -5.65629363059997558594e-01) (64, 3.63953471183776855469e-01) (65, 2.65526771545410156250e-02) (66, -2.06279397010803222656e-01) (67, 1.75305604934692382812e-01) (68, -8.26369464397430419922e-01) (69, -6.65555834770202636719e-01) (70, -9.58164453506469726562e-01) (71, -6.53881728649139404297e-01) (72, 9.76589322090148925781e-01) (73, -3.76689434051513671875e-03) (74, -8.90203714370727539062e-01) (75, 3.21264743804931640625e-01) (76, -1.76694214344024658203e-01) (77, 8.93378138542175292969e-01) (78, 6.95780515670776367188e-01) (79, -4.43283915519714355469e-01) (27, 7.05081820487976074219e-01) (28, -5.48673629760742187500e-01) (29, 2.13114261627197265625e-01) (30, -9.81237828731536865234e-01) (31, -6.00407123565673828125e-01) (32, 5.86524367332458496094e-01) (33, -1.52825534343719482422e-01) (34, 8.86116147041320800781e-01) (35, -3.42879712581634521484e-01) (36, 2.00443029403686523438e-01) (37, -3.33465874195098876953e-01) (38, -9.23059821128845214844e-01) (39, -4.14108872413635253906e-01) (40, -8.54087173938751220703e-01) (41, -4.88689184188842773438e-01) (42, 9.49844479560852050781e-01) (43, 1.72465443611145019531e-01) (44, 3.05031418800354003906e-01) (45, 1.25150203704833984375e-01) (46, 3.46096038818359375000e-01) (47, 6.39475584030151367188e-01) (48, 1.66985750198364257812e-01) (49, 6.92214250564575195312e-01) (50, 6.16064906120300292969e-01) (51, -8.36781203746795654297e-01) (52, 8.02010536193847656250e-01) (53, -6.26702904701232910156e-02) (54, -1.34754180908203125000e-02) (55, 6.95388793945312500000e-01) (56, -3.66889715194702148438e-01) (57, 5.43240666389465332031e-01) (58, 4.00470495223999023438e-01) (59, 8.44366550445556640625e-02) (60, -2.43645012378692626953e-01) (61, 4.19232726097106933594e-01) (62, 4.84029531478881835938e-01) (63, -6.57120585441589355469e-01) (64, -7.33592808246612548828e-01) (65, 3.70145678520202636719e-01) (66, -3.57627868652343750000e-07) (67, 4.66850161552429199219e-01) (68, -9.63320136070251464844e-01) (69, 7.69398212432861328125e-02) (70, -9.47258651256561279297e-01) (71, -8.17407310009002685547e-01) (72, 5.88250637054443359375e-01) (73, -9.97414112091064453125e-01) (74, 3.55058073997497558594e-01) (75, -1.06717884540557861328e-01) (76, 1.27735972404479980469e-01) (77, -2.98845887184143066406e-01) (78, -4.67242240905761718750e-01) (79, -7.05278277397155761719e-01) (27, -6.06631636619567871094e-01) (28, -8.51177334785461425781e-01) (29, -5.42059540748596191406e-01) (30, -8.04621040821075439453e-01) (31, 8.61524343490600585938e-02) (32, 4.44465041160583496094e-01) (33, 8.90767693519592285156e-01) (34, 7.19262719154357910156e-01) (35, -1.22942328453063964844e-02) (36, 2.91238188743591308594e-01) (37, -1.96300685405731201172e-01) (38, 7.44060754776000976562e-01) (39, -2.89529025554656982422e-01) (40, -7.12271094322204589844e-01) (41, -9.13059830665588378906e-01) (42, -2.31218338012695312500e-02) (43, 6.57874584197998046875e-01) (44, 8.69398117065429687500e-02) (45, -5.56271612644195556641e-01) (46, 6.94554448127746582031e-01) (47, -8.36120367050170898438e-01) (48, -5.03530263900756835938e-01) (49, 8.77147197723388671875e-01) (50, 7.52130270004272460938e-01) (51, -5.00944435596466064453e-01) (52, 2.32205271720886230469e-01) (53, -3.54587614536285400391e-01) (54, 6.26791596412658691406e-01) (55, 9.33359384536743164062e-01) (56, 1.78170084953308105469e-01) (57, 9.21513319015502929688e-01) (58, -6.73272192478179931641e-01) (59, 3.26992869377136230469e-01) (60, -6.20546221733093261719e-01) (61, -4.77893233299255371094e-01) (62, -5.86854815483093261719e-01) (63, 8.23918938636779785156e-01) (64, -5.87125539779663085938e-01) (65, -8.67592096328735351562e-01) (66, -1.88375294208526611328e-01) (67, 7.04112768173217773438e-01) (68, -6.38927817344665527344e-02) (69, -4.44314539432525634766e-01) (70, -5.85416316986083984375e-01) (71, 2.23836064338684082031e-01) (72, -3.57374370098114013672e-01) (73, 3.91461849212646484375e-01) (74, -1.18289291858673095703e-01) (75, 7.29565501213073730469e-01) (76, 8.35190296173095703125e-01) (77, -4.23734784126281738281e-01) (78, 8.93445134162902832031e-01) (79, -6.68340086936950683594e-01) (27, -5.46587646007537841797e-01) (28, 6.45575404167175292969e-01) (29, -1.69284462928771972656e-01) (30, 6.85617685317993164062e-01) (31, -7.09012150764465332031e-01) (32, -5.42492866516113281250e-01) (33, 6.18977069854736328125e-01) (34, 4.69157934188842773438e-01) (35, -6.20979547500610351562e-01) (36, 9.45704936981201171875e-01) (37, -2.03849196434020996094e-01) (38, -2.41525769233703613281e-01) (39, -5.32188296318054199219e-01) (40, 2.09295988082885742188e-01) (41, -4.17606890201568603516e-01) (42, -1.19313776493072509766e-01) (43, 3.41703891754150390625e-01) (44, 3.94017815589904785156e-01) (45, -4.15201067924499511719e-01) (46, -7.22188830375671386719e-01) (47, 9.49703216552734375000e-01) (48, -6.17384910583496093750e-04) (49, 5.01647233963012695312e-01) (50, -4.07671093940734863281e-01) (51, -6.09155535697937011719e-01) (52, -6.16641998291015625000e-01) (53, -6.78105652332305908203e-01) (54, -7.73965239524841308594e-01) (55, -4.03768420219421386719e-02) (56, -7.84660518169403076172e-01) (57, -4.42305326461791992188e-01) (58, 4.13035511970520019531e-01) (59, 8.60914945602416992188e-01) (60, 3.88410210609436035156e-01) (61, 9.86531972885131835938e-02) (62, -8.48097264766693115234e-01) (63, 8.45917344093322753906e-01) (64, -2.82369673252105712891e-01) (65, 6.21060729026794433594e-01) (66, -7.75062263011932373047e-01) (67, -3.36664736270904541016e-01) (68, -5.82788467407226562500e-01) (69, -1.65880322456359863281e-02) (70, 1.31146907806396484375e-01) (71, 6.26507520675659179688e-01) (72, 5.65805077552795410156e-01) (73, -9.88166868686676025391e-01) (74, -3.17885279655456542969e-02) (75, -4.01771664619445800781e-02) (76, -4.03367936611175537109e-01) (77, 2.46022582054138183594e-01) (78, -9.04738903045654296875e-02) (79, 5.96014738082885742188e-01) (27, -2.52330124378204345703e-01) (28, 5.01855015754699707031e-01) (29, 9.86859202384948730469e-01) (30, 1.31027817726135253906e-01) (31, 8.23749303817749023438e-01) (32, -7.87106037139892578125e-01) (33, -9.09348964691162109375e-01) (34, -9.60911154747009277344e-01) (35, -2.29411363601684570312e-01) (36, 5.03686547279357910156e-01) (37, 9.00003790855407714844e-01) (38, -8.41001152992248535156e-01) (39, -3.97660195827484130859e-01) (40, -9.48093533515930175781e-01) (41, -9.95083868503570556641e-01) (42, 3.19970130920410156250e-01) (43, 6.72967195510864257812e-01) (44, -7.70146131515502929688e-01) (45, 9.83305335044860839844e-01) (46, -9.09821331501007080078e-01) (47, 2.13265895843505859375e-01) (48, 1.14452362060546875000e-01) (49, 7.16686248779296875000e-01) (50, -2.20929086208343505859e-01) (51, 1.26285433769226074219e-01) (52, -3.15102338790893554688e-01) (53, 7.38893747329711914062e-01) (54, 7.22917556762695312500e-01) (55, 9.30920243263244628906e-01) (56, -3.51580142974853515625e-01) (57, 3.18932294845581054688e-01) (58, -3.21409821510314941406e-01) (59, -8.49725127220153808594e-01) (60, 3.05791497230529785156e-01) (61, 8.09617996215820312500e-01) (62, 9.74024295806884765625e-01) (63, 5.18685340881347656250e-01) (64, 9.00269031524658203125e-01) (65, -9.86886918544769287109e-01) (66, -7.10726022720336914062e-01) (67, 4.03955698013305664062e-01) (68, 9.13116812705993652344e-01) (69, -5.51727175712585449219e-01) (70, -9.93704557418823242188e-01) (71, 9.65023279190063476562e-01) (72, -5.46811103820800781250e-01) (73, 3.26265573501586914062e-01) (74, 6.37990474700927734375e-01) (75, -3.16957175731658935547e-01) (76, 3.09570908546447753906e-01) (77, 7.28169202804565429688e-01) (78, 8.96308660507202148438e-01) (79, -5.75976729393005371094e-01) (27, 4.44855332374572753906e-01) (28, -3.24620425701141357422e-01) (29, 5.50308704376220703125e-01) (30, -8.70246946811676025391e-01) (31, -5.85726678371429443359e-01) (32, 2.73226261138916015625e-01) (33, -9.39326643943786621094e-01) (34, 6.26932382583618164062e-02) (35, -4.07841503620147705078e-01) (36, -2.60736465454101562500e-01) (37, 2.12968111038208007812e-01) (38, 8.97949934005737304688e-01) (39, -4.51118409633636474609e-01) (40, 1.86992287635803222656e-01) (41, 4.16635274887084960938e-01) (42, -5.50849318504333496094e-01) (43, 2.00105428695678710938e-01) (44, 7.05909252166748046875e-01) (45, 8.53106379508972167969e-01) (46, 1.13222241401672363281e-01) (47, -8.45817923545837402344e-01) (48, 8.59401822090148925781e-01) (49, 7.82455205917358398438e-02) (50, -3.92628967761993408203e-01) (51, 1.85667395591735839844e-01) (52, -2.83764064311981201172e-01) (53, 2.90413856506347656250e-01) (54, -5.04761695861816406250e-01) (55, -5.55594921112060546875e-01) (56, 1.86722517013549804688e-01) (57, -8.07384252548217773438e-02) (58, 8.89260411262512207031e-01) (59, 8.62102031707763671875e-01) (60, -5.30429720878601074219e-01) (61, -9.80986475944519042969e-01) (62, -7.23624587059020996094e-01) (63, 7.42796540260314941406e-01) (64, -9.20313119888305664062e-01) (65, 3.39068651199340820312e-01) (66, -6.65045022964477539062e-01) (67, -1.81049644947052001953e-01) (68, -4.47963297367095947266e-01) (69, -7.67095088958740234375e-01) (70, 3.67831945419311523438e-01) (71, 7.39029049873352050781e-01) (72, 6.49540305137634277344e-01) (73, 8.16982626914978027344e-01) (74, -6.08655810356140136719e-02) (75, 3.55449557304382324219e-01) (76, 6.70089006423950195312e-01) (77, -9.47643399238586425781e-01) (78, 5.09631633758544921875e-01) (79, 5.29490828514099121094e-01) (27, 1.30602121353149414062e-01) (28, -8.82997274398803710938e-01) (29, -2.84841835498809814453e-01) (30, 8.46837997436523437500e-01) (31, 4.07416582107543945312e-01) (32, 2.10396528244018554688e-01) (33, -7.08756804466247558594e-01) (34, -4.05860900878906250000e-01) (35, -8.70341956615447998047e-01) (36, -8.19496393203735351562e-01) (37, -5.43758869171142578125e-01) (38, -4.00771677494049072266e-01) (39, -8.00482869148254394531e-01) (40, -2.67383396625518798828e-01) (41, -6.57975196838378906250e-01) (42, -7.20796048641204833984e-01) (43, -9.28314805030822753906e-01) (44, -3.23020219802856445312e-01) (45, 9.81543064117431640625e-02) (46, -3.76278102397918701172e-01) (47, -9.01152491569519042969e-02) (48, -5.34013688564300537109e-01) (49, -6.37249112129211425781e-01) (50, -4.40575003623962402344e-01) (51, -7.17031061649322509766e-01) (52, 3.01885247230529785156e-01) (53, 9.14874553680419921875e-01) (54, 9.53057885169982910156e-01) (55, 3.54241847991943359375e-01) (56, 4.24506187438964843750e-01) (57, 4.82548713684082031250e-01) (58, -5.15156030654907226562e-01) (59, 5.41508913040161132812e-01) (60, -8.02293121814727783203e-01) (61, -6.68317914009094238281e-01) (62, -5.10745048522949218750e-02) (63, 4.08103346824645996094e-01) (64, -3.77074778079986572266e-01) (65, 5.43064594268798828125e-01) (66, 5.37761449813842773438e-01) (67, -1.96571171283721923828e-01) (68, 9.99305725097656250000e-01) (69, -8.63010287284851074219e-01) (70, 2.94589996337890625000e-03) (71, -2.68077671527862548828e-01) (72, -5.20985484123229980469e-01) (73, 2.82149910926818847656e-01) (74, -1.96392536163330078125e-01) (75, 1.55994415283203125000e-01) (76, -6.19695782661437988281e-01) (77, 4.27329301834106445312e-01) (78, -9.34120893478393554688e-01) (79, -1.53709411621093750000e-01) (27, 7.90080189704895019531e-01) (28, -3.74695897102355957031e-01) (29, 1.29259467124938964844e-01) (30, 9.19655561447143554688e-02) (31, -4.59821343421936035156e-01) (32, 8.23174715042114257812e-02) (33, -5.53792595863342285156e-01) (34, 9.64684844017028808594e-01) (35, -4.35133874416351318359e-01) (36, -6.89485669136047363281e-02) (37, 5.06193757057189941406e-01) (38, -2.37426996231079101562e-01) (39, 2.62733459472656250000e-01) (40, -5.44880747795104980469e-01) (41, -8.29323589801788330078e-01) (42, 8.85658740997314453125e-01) (43, 9.98183846473693847656e-01) (44, 7.08437800407409667969e-01) (45, -3.10912489891052246094e-01) (46, 9.97489571571350097656e-01) (47, 8.45427632331848144531e-01) (48, 6.92033529281616210938e-01) (49, -2.70588099956512451172e-01) (50, -6.75557851791381835938e-01) (51, -2.58166193962097167969e-02) (52, 5.33019423484802246094e-01) (53, 4.80436563491821289062e-01) (54, 3.54487657546997070312e-01) (55, -3.96512746810913085938e-02) (56, 5.46315670013427734375e-01) (57, -7.99221813678741455078e-01) (58, -2.49571025371551513672e-01) (59, -8.28380286693572998047e-01) (60, 3.30037713050842285156e-01) (61, 8.42394471168518066406e-01) (62, -2.88201630115509033203e-01) (63, -5.87644815444946289062e-01) (64, -7.11398124694824218750e-01) (65, -3.23516726493835449219e-01) (66, -2.27786898612976074219e-02) (67, 2.19653367996215820312e-01) (68, -8.17322909832000732422e-01) (69, 7.39794254302978515625e-01) (70, -5.17613172531127929688e-01) (71, -3.62203657627105712891e-01) (72, 9.10470724105834960938e-01) (73, -6.31954491138458251953e-01) (74, -3.64019811153411865234e-01) (75, 6.18908524513244628906e-01) (76, 5.71330785751342773438e-02) (77, -3.66530239582061767578e-01) (78, 4.64336156845092773438e-01) (79, -2.50833511352539062500e-01) (27, 3.62881660461425781250e-01) (28, 7.88778305053710937500e-01) (29, 7.23349928855895996094e-01) (30, -1.04098975658416748047e-01) (31, 2.69214749336242675781e-01) (32, 7.78375864028930664062e-02) (33, 8.56249809265136718750e-01) (34, -1.84469580650329589844e-01) (35, 2.78615713119506835938e-01) (36, -3.93321275711059570312e-01) (37, -1.28498673439025878906e-02) (38, -3.91346514225006103516e-01) (39, -5.50926804542541503906e-01) (40, 6.98948502540588378906e-01) (41, 2.10086107254028320312e-02) (42, -2.62324929237365722656e-01) (43, -6.24568223953247070312e-01) (44, 9.98229861259460449219e-01) (45, 9.57328438758850097656e-01) (46, -4.41891133785247802734e-01) (47, 7.38024234771728515625e-01) (48, -5.60284793376922607422e-01) (49, 1.95905208587646484375e-01) (50, 6.48494958877563476562e-01) (51, -1.92239284515380859375e-01) (52, 8.31885457038879394531e-01) (53, 2.67403483390808105469e-01) (54, 8.64893794059753417969e-01) (55, -5.34644782543182373047e-01) (56, -2.68260419368743896484e-01) (57, -3.85939717292785644531e-01) (58, 8.28236937522888183594e-01) (59, -4.79482114315032958984e-01) (60, -6.62589848041534423828e-01) (61, -2.75862038135528564453e-01) (62, 7.89732694625854492188e-01) (63, 4.15247678756713867188e-01) (64, -4.19612288475036621094e-01) (65, -3.94736945629119873047e-01) (66, -3.06136548519134521484e-01) (67, 1.87066435813903808594e-01) (68, 5.92413187026977539062e-01) (69, 3.02516937255859375000e-01) (70, 6.36139631271362304688e-01) (71, 2.91361689567565917969e-01) (72, -6.76474452018737792969e-01) (73, -6.26185297966003417969e-01) (74, 6.66793465614318847656e-01) (75, -6.78244590759277343750e-01) (76, -6.68856918811798095703e-01) (77, -7.75097608566284179688e-01) (78, -9.40220355987548828125e-01) (79, -2.29141712188720703125e-01) (27, 4.20807600021362304688e-01) (28, 7.08274602890014648438e-01) (29, 5.78619003295898437500e-01) (30, 2.52693057060241699219e-01) (31, -2.43219733238220214844e-02) (32, 4.43512797355651855469e-01) (33, 7.18048334121704101562e-01) (34, 7.07417607307434082031e-01) (35, -9.42426979541778564453e-01) (36, 5.46285152435302734375e-01) (37, -7.72064447402954101562e-01) (38, -6.05016827583312988281e-01) (39, -7.29576885700225830078e-01) (40, -9.82331812381744384766e-01) (41, 8.10230851173400878906e-01) (42, -1.49189174175262451172e-01) (43, -3.77068698406219482422e-01) (44, -4.95905697345733642578e-01) (45, -9.62122797966003417969e-01) (46, -7.84655511379241943359e-01) (47, 8.06611180305480957031e-01) (48, 6.74016833305358886719e-01) (49, 5.06706237792968750000e-01) (50, -8.69863212108612060547e-01) (51, -9.52168464660644531250e-01) (52, 1.73499703407287597656e-01) (53, -5.48107802867889404297e-01) (54, -6.21025383472442626953e-01) (55, 3.98402094841003417969e-01) (56, -4.88328158855438232422e-01) (57, 1.49832963943481445312e-01) (58, -1.80790245532989501953e-01) (59, -7.80053555965423583984e-01) (60, -2.71548092365264892578e-01) (61, -9.28097188472747802734e-01) (62, 1.95624470710754394531e-01) (63, -8.28035354614257812500e-01) (64, 7.89951086044311523438e-01) (65, -9.69578623771667480469e-02) (66, -7.70462334156036376953e-01) (67, 3.36236238479614257812e-01) (68, 1.30977630615234375000e-01) (69, -3.75479161739349365234e-01) (70, 6.06659412384033203125e-01) (71, 1.48645877838134765625e-01) (72, -5.65248370170593261719e-01) (73, -5.42529821395874023438e-01) (74, 7.71577239036560058594e-01) (75, -6.11540079116821289062e-02) (76, -5.04652559757232666016e-01) (77, 9.86921668052673339844e-01) (78, -2.54542768001556396484e-01) (79, -8.30635726451873779297e-01) (27, 4.93627905845642089844e-01) (28, -1.24406039714813232422e-01) (29, -7.82804191112518310547e-01) (30, -3.32872331142425537109e-01) (31, 3.27486157417297363281e-01) (32, -4.03829574584960937500e-01) (33, -9.34470236301422119141e-01) (34, 8.39158058166503906250e-01) (35, 7.46003389358520507812e-01) (36, -1.15260481834411621094e-01) (37, -9.40895557403564453125e-01) (38, -5.25544762611389160156e-01) (39, -4.33576703071594238281e-02) (40, 2.54728913307189941406e-01) (41, -3.53580057621002197266e-01) (42, -2.53406584262847900391e-01) (43, -8.42228949069976806641e-01) (44, -1.24042391777038574219e-01) (45, -9.17170286178588867188e-01) (46, 2.88748741149902343750e-01) (47, 5.00478386878967285156e-01) (48, 6.89489126205444335938e-01) (49, -5.62605381011962890625e-01) (50, 9.35230016708374023438e-01) (51, -8.53040695190429687500e-01) (52, -7.91028201580047607422e-01) (53, -1.25923991203308105469e-01) (54, -3.57693254947662353516e-01) (55, -8.04106473922729492188e-01) (56, 6.19533300399780273438e-01) (57, -1.88328981399536132812e-01) (58, 6.89521431922912597656e-01) (59, -5.04872798919677734375e-01) (60, 2.88667678833007812500e-02) (61, -6.43350958824157714844e-01) (62, 8.22613358497619628906e-01) (63, 6.25037193298339843750e-01) (64, -5.77821135520935058594e-01) (65, 6.61771416664123535156e-01) (66, 3.71040582656860351562e-01) (67, 3.06918382644653320312e-01) (68, 7.20875859260559082031e-01) (69, 8.45495820045471191406e-01) (70, -7.36439287662506103516e-01) (71, -2.43951678276062011719e-02) (72, -5.08084237575531005859e-01) (73, 1.01541280746459960938e-02) (74, 1.33375883102416992188e-01) (75, 3.67873311042785644531e-01) (76, 9.29838418960571289062e-02) (77, -5.77875375747680664062e-01) (78, -1.31648242473602294922e-01) (79, -2.17527031898498535156e-01) (27, -1.40480756759643554688e-01) (28, -1.96418225765228271484e-01) (29, -7.05677270889282226562e-02) (30, 6.84911012649536132812e-02) (31, 6.77657842636108398438e-01) (32, 5.71738958358764648438e-01) (33, 2.64384508132934570312e-01) (34, 2.97191023826599121094e-01) (35, -6.16590023040771484375e-01) (36, -4.60940599441528320312e-02) (37, 7.92318344116210937500e-01) (38, 4.12276864051818847656e-01) (39, 3.10554981231689453125e-01) (40, 6.14931702613830566406e-01) (41, 3.73140573501586914062e-02) (42, 7.32733845710754394531e-01) (43, 2.76703119277954101562e-01) (44, -5.91645359992980957031e-01) (45, 3.96522283554077148438e-02) (46, -2.42096185684204101562e-03) (47, -7.46149539947509765625e-01) (48, 3.03212881088256835938e-01) (49, 9.73183870315551757812e-01) (50, -2.54233777523040771484e-01) (51, -6.86632931232452392578e-01) (52, 1.06559753417968750000e-01) (53, -8.86360406875610351562e-01) (54, 4.06350970268249511719e-01) (55, 5.28684377670288085938e-01) (56, -1.80086493492126464844e-02) (57, -8.11176121234893798828e-01) (58, -6.11796379089355468750e-01) (59, 7.85573124885559082031e-01) (60, 1.18256211280822753906e-01) (61, 4.56694722175598144531e-01) (62, 4.63230967521667480469e-01) (63, -3.10004830360412597656e-01) (64, -2.78920710086822509766e-01) (65, -2.39578008651733398438e-01) (66, 7.34051465988159179688e-02) (67, 6.74985170364379882812e-01) (68, -4.47259724140167236328e-01) (69, -5.14317989349365234375e-01) (70, -1.44597887992858886719e-02) (71, -8.32328021526336669922e-01) (72, 5.22996068000793457031e-01) (73, -2.81725943088531494141e-01) (74, 4.44375157356262207031e-01) (75, 9.31350708007812500000e-01) (76, 7.57926225662231445312e-01) (77, -5.58045864105224609375e-01) (78, -8.14798831939697265625e-01) (79, 6.11392259597778320312e-02) (27, -5.84861993789672851562e-01) (28, -6.90326094627380371094e-02) (29, 3.74506235122680664062e-01) (30, 5.21697759628295898438e-01) (31, 4.46070432662963867188e-02) (32, -2.19142854213714599609e-01) (33, 5.03821372985839843750e-02) (34, -9.73401665687561035156e-01) (35, -3.03189158439636230469e-02) (36, 4.38585877418518066406e-01) (37, 8.12171459197998046875e-01) (38, -9.12062764167785644531e-01) (39, -1.04719460010528564453e-01) (40, 2.75402426719665527344e-01) (41, -2.22067594528198242188e-01) (42, 6.16359829902648925781e-01) (43, -9.64175641536712646484e-01) (44, 8.51337552070617675781e-01) (45, 2.91345119476318359375e-01) (46, -4.11435306072235107422e-01) (47, -6.62980437278747558594e-01) (48, -7.23114728927612304688e-01) (49, -2.43763327598571777344e-01) (50, 8.60015630722045898438e-01) (51, -4.84067201614379882812e-03) (52, -7.99388229846954345703e-01) (53, 7.91366338729858398438e-01) (54, -2.46914386749267578125e-01) (55, -3.57434093952178955078e-01) (56, 9.76567506790161132812e-01) (57, 8.14224720001220703125e-01) (58, 5.77039718627929687500e-02) (59, -9.24651026725769042969e-02) (60, 1.88730955123901367188e-01) (61, -4.20598268508911132812e-01) (62, 9.52141880989074707031e-01) (63, 9.69588160514831542969e-01) (64, 6.29783987998962402344e-01) (65, 9.78740215301513671875e-01) (66, -6.07307553291320800781e-02) (67, 6.83697462081909179688e-02) (68, 7.90911674499511718750e-01) (69, 2.72064208984375000000e-02) (70, 9.63650345802307128906e-01) (71, 6.63139820098876953125e-02) (72, 8.05138826370239257812e-01) (73, 5.80010175704956054688e-01) (74, 1.02138400077819824219e-01) (75, 6.56476497650146484375e-01) (76, -1.28644704818725585938e-01) (77, 6.90703034400939941406e-01) (78, 9.93496060371398925781e-01) (79, 1.48240566253662109375e-01) (27, -5.53060293197631835938e-01) (28, 8.53511691093444824219e-01) (29, -8.56600105762481689453e-01) (30, -3.52448523044586181641e-01) (31, 6.44878029823303222656e-01) (32, -1.03514492511749267578e-01) (33, 2.90117383003234863281e-01) (34, 6.21445536613464355469e-01) (35, -2.89289772510528564453e-01) (36, -6.52178645133972167969e-01) (37, -4.71019566059112548828e-01) (38, 8.99441242218017578125e-01) (39, -7.27768540382385253906e-02) (40, -5.18877685070037841797e-01) (41, 8.69029402732849121094e-01) (42, -4.42992925643920898438e-01) (43, -5.40137529373168945312e-01) (44, -1.91701352596282958984e-01) (45, 6.25376939773559570312e-01) (46, -7.49225854873657226562e-01) (47, 8.35505127906799316406e-01) (48, 5.89027285575866699219e-01) (49, 3.17088127136230468750e-01) (50, 6.40643954277038574219e-01) (51, 1.69037461280822753906e-01) (52, -5.80773472785949707031e-01) (53, 2.97120451927185058594e-01) (54, -9.59607303142547607422e-01) (55, -8.90070438385009765625e-01) (56, 2.90616512298583984375e-01) (57, 1.88633322715759277344e-01) (58, -4.43130671977996826172e-01) (59, 1.44128203392028808594e-01) (60, 3.32033157348632812500e-01) (61, 2.04420804977416992188e-01) (62, -2.10993766784667968750e-01) (63, -7.71481335163116455078e-01) (64, -5.05461752414703369141e-01) (65, -5.89548230171203613281e-01) (66, -6.07711076736450195312e-02) (67, -1.57640337944030761719e-01) (68, -6.05677962303161621094e-02) (69, -1.61329865455627441406e-01) (70, 7.69582748413085937500e-01) (71, 4.20554518699645996094e-01) (72, -2.92300462722778320312e-01) (73, -6.73410117626190185547e-01) (74, 8.80416989326477050781e-01) (75, 5.15998125076293945312e-01) (76, 9.51966762542724609375e-01) (77, -8.68808805942535400391e-01) (78, 3.51503252983093261719e-01) (79, 5.40994048118591308594e-01) (27, 4.48279261589050292969e-01) (28, -7.85279273986816406250e-03) (29, -2.89968550205230712891e-01) (30, 8.67505788803100585938e-01) (31, -7.10732340812683105469e-01) (32, -2.49575793743133544922e-01) (33, 9.77435469627380371094e-01) (34, 5.79884171485900878906e-01) (35, 9.39057469367980957031e-01) (36, -4.65695261955261230469e-01) (37, -2.75987684726715087891e-01) (38, 2.71090626716613769531e-01) (39, 7.38725543022155761719e-01) (40, 5.13018608093261718750e-01) (41, 4.99609231948852539062e-01) (42, -7.66736209392547607422e-01) (43, 9.23470377922058105469e-01) (44, -5.61161816120147705078e-01) (45, 7.56233930587768554688e-02) (46, -1.37097418308258056641e-01) (47, 2.77508258819580078125e-01) (48, -1.54793798923492431641e-01) (49, -7.16542840003967285156e-01) (50, 9.85207796096801757812e-01) (51, 1.71796083450317382812e-01) (52, -8.36125791072845458984e-01) (53, 5.01206040382385253906e-01) (54, 1.23762845993041992188e-01) (55, -7.04934597015380859375e-01) (56, -1.47290766239166259766e-01) (57, -3.35243105888366699219e-01) (58, 7.43344664573669433594e-01) (59, 8.44856500625610351562e-01) (60, 3.74788403511047363281e-01) (61, 6.10850572586059570312e-01) (62, -8.65875899791717529297e-01) (63, -8.74787449836730957031e-01) (64, 5.88285923004150390625e-01) (65, 7.14008212089538574219e-01) (66, -9.35729980468750000000e-01) (67, -8.77409338951110839844e-01) (68, -5.61979472637176513672e-01) (69, 3.35360646247863769531e-01) (70, 8.61316204071044921875e-01) (71, 9.51039075851440429688e-01) (72, -1.65030062198638916016e-01) (73, -9.05420005321502685547e-01) (74, 8.74509453773498535156e-01) (75, 2.73808121681213378906e-01) (76, 1.70203447341918945312e-01) (77, -2.62587904930114746094e-01) (78, -4.48683559894561767578e-01) (79, -9.84590351581573486328e-01) (27, 2.08692550659179687500e-02) (28, -4.63475704193115234375e-01) (29, 1.87205672264099121094e-01) (30, 1.84743404388427734375e-01) (31, -9.62269663810729980469e-01) (32, -6.89031362533569335938e-01) (33, 4.79808807373046875000e-01) (34, -1.09560430049896240234e-01) (35, -2.42745280265808105469e-02) (36, 2.23153471946716308594e-01) (37, -2.64703989028930664062e-01) (38, -6.49486184120178222656e-01) (39, -1.65995955467224121094e-01) (40, -1.30579888820648193359e-01) (41, -5.24273574352264404297e-01) (42, -5.77710032463073730469e-01) (43, -4.16571676731109619141e-01) (44, -4.60003554821014404297e-01) (45, -4.55119311809539794922e-01) (46, 2.14488506317138671875e-02) (47, 8.75357151031494140625e-01) (48, -5.93803107738494873047e-01) (49, -2.75120139122009277344e-02) (50, -2.89672970771789550781e-01) (51, -4.99223113059997558594e-01) (52, -1.53002560138702392578e-01) (53, 9.84135150909423828125e-01) (54, 6.70980334281921386719e-01) (55, 5.84409594535827636719e-01) (56, -4.64548349380493164062e-01) (57, 6.86389923095703125000e-01) (58, -3.94721210002899169922e-01) (59, 7.19759464263916015625e-02) (60, -1.26404345035552978516e-01) (61, 7.90022253990173339844e-01) (62, 1.09706282615661621094e-01) (63, 1.84564232826232910156e-01) (64, 2.69831061363220214844e-01) (65, -9.99854207038879394531e-01) (66, -8.39710235595703125000e-01) (67, -5.07015466690063476562e-01) (68, -2.64558196067810058594e-01) (69, -4.89196419715881347656e-01) (70, 3.26988577842712402344e-01) (71, 6.04861855506896972656e-01) (72, -1.34699940681457519531e-02) (73, 7.49278545379638671875e-01) (74, -8.11709761619567871094e-01) (75, 5.26526451110839843750e-01) (76, -7.05840706825256347656e-01) (77, 2.09739089012145996094e-01) (78, 4.01883602142333984375e-01) (79, -2.99643814563751220703e-01) (27, -8.17772984504699707031e-01) (28, -8.87789368629455566406e-01) (29, 2.01133012771606445312e-01) (30, 2.92245149612426757812e-02) (31, -9.03654217720031738281e-01) (32, -1.27886652946472167969e-01) (33, -3.86366009712219238281e-01) (34, -3.68202567100524902344e-01) (35, -4.41496729850769042969e-01) (36, 2.18912839889526367188e-01) (37, 7.03773379325866699219e-01) (38, 4.32098984718322753906e-01) (39, 8.93497467041015625000e-03) (40, -1.86520397663116455078e-01) (41, -3.83336782455444335938e-01) (42, -7.21233963966369628906e-01) (43, -1.86374604701995849609e-01) (44, -2.23047077655792236328e-01) (45, -2.28249430656433105469e-01) (46, 5.49067258834838867188e-01) (47, 2.87756562232971191406e-01) (48, -9.01260852813720703125e-01) (49, 1.53929114341735839844e-01) (50, -7.25713431835174560547e-01) (51, 8.48017692565917968750e-01) (52, 3.42219352722167968750e-01) (53, 8.00813078880310058594e-01) (54, -8.57823014259338378906e-01) (55, -4.48041617870330810547e-01) (56, 2.02696561813354492188e-01) (57, -1.57466888427734375000e-01) (58, -2.65814602375030517578e-01) (59, 3.14907193183898925781e-01) (60, -9.56333816051483154297e-01) (61, 7.63409852981567382812e-01) (62, 4.11252975463867187500e-01) (63, -8.42204093933105468750e-02) (64, -6.22956097126007080078e-01) (65, -9.56949532032012939453e-01) (66, 4.74282860755920410156e-01) (67, 5.95956683158874511719e-01) (68, 7.46823787689208984375e-01) (69, -9.36181545257568359375e-02) (70, -3.95108282566070556641e-01) (71, -4.39696550369262695312e-01) (72, 5.23045063018798828125e-01) (73, -1.16342246532440185547e-01) (74, 3.73928904533386230469e-01) (75, -7.00002074241638183594e-01) (76, 6.55408382415771484375e-01) (77, -7.70038962364196777344e-02) (78, 5.87754487991333007812e-01) (79, 7.54147529602050781250e-01) (27, -9.23074781894683837891e-01) (28, 8.62041115760803222656e-01) (29, 6.02165222167968750000e-01) (30, 4.19144511222839355469e-01) (31, 6.62854075431823730469e-01) (32, 7.44342207908630371094e-01) (33, 9.71102952957153320312e-01) (34, -1.34449303150177001953e-01) (35, -4.13124680519104003906e-01) (36, -2.94711649417877197266e-01) (37, -8.19542109966278076172e-01) (38, -3.69458496570587158203e-01) (39, -5.31301736831665039062e-01) (40, 5.91710925102233886719e-01) (41, 5.46321034431457519531e-01) (42, -1.54257893562316894531e-01) (43, 6.34761333465576171875e-01) (44, 2.06038951873779296875e-02) (45, -5.58301210403442382812e-01) (46, 3.81585121154785156250e-01) (47, 9.26985740661621093750e-01) (48, 4.65905666351318359375e-02) (49, 9.41888570785522460938e-01) (50, 4.50030803680419921875e-01) (51, 9.30248260498046875000e-01) (52, 3.15817475318908691406e-01) (53, 7.50028729438781738281e-01) (54, 5.85656642913818359375e-01) (55, -7.61186480522155761719e-01) (56, 3.37783217430114746094e-01) (57, 3.39804053306579589844e-01) (58, -6.84261262416839599609e-01) (59, 1.99824333190917968750e-01) (60, -5.80307245254516601562e-02) (61, 7.34883308410644531250e-01) (62, -1.37321591377258300781e-01) (63, -3.13688516616821289062e-01) (64, 7.05986261367797851562e-01) (65, 7.28229045867919921875e-01) (66, 2.73186802864074707031e-01) (67, -5.88725447654724121094e-01) (68, 9.08686995506286621094e-01) (69, 9.03728365898132324219e-01) (70, -1.20027184486389160156e-01) (71, 5.00397801399230957031e-01) (72, 4.50049400329589843750e-01) (73, 7.25714921951293945312e-01) (74, 1.35159134864807128906e-01) (75, -5.29346644878387451172e-01) (76, -8.32586228847503662109e-01) (77, -4.83255684375762939453e-01) (78, -6.02360904216766357422e-01) (79, 2.14004278182983398438e-01) (27, -5.41367113590240478516e-01) (28, 8.47669839859008789062e-01) (29, 1.44252538681030273438e-01) (30, 7.74450302124023437500e-01) (31, 5.97698688507080078125e-01) (32, -2.70090818405151367188e-01) (33, -9.86736118793487548828e-01) (34, -6.45180940628051757812e-02) (35, -9.30286765098571777344e-01) (36, -6.70997381210327148438e-01) (37, -8.64693760871887207031e-01) (38, 1.16825103759765625000e-02) (39, -9.36114132404327392578e-01) (40, -2.01541185379028320312e-03) (41, 6.97993993759155273438e-01) (42, 7.69872069358825683594e-01) (43, -2.73786306381225585938e-01) (44, -2.88192033767700195312e-02) (45, -8.18853318691253662109e-01) (46, -3.65099370479583740234e-01) (47, -1.25090897083282470703e-01) (48, 6.11195564270019531250e-02) (49, -8.64701569080352783203e-01) (50, -6.75041556358337402344e-01) (51, -2.13165521621704101562e-01) (52, 2.70457625389099121094e-01) (53, -2.04388201236724853516e-01) (54, -4.57516908645629882812e-02) (55, 7.87201881408691406250e-01) (56, 1.93250894546508789062e-01) (57, -8.31747412681579589844e-01) (58, -7.54165232181549072266e-01) (59, 4.09208536148071289062e-02) (60, 3.12505125999450683594e-01) (61, -9.79714870452880859375e-01) (62, -3.61380517482757568359e-01) (63, -9.57585692405700683594e-01) (64, -9.66451048851013183594e-01) (65, 5.74101328849792480469e-01) (66, -8.87872397899627685547e-01) (67, -6.37448430061340332031e-01) (68, 7.09407567977905273438e-01) (69, 1.23810052871704101562e-01) (70, -5.73562622070312500000e-01) (71, -2.92607843875885009766e-01) (72, -1.78195893764495849609e-01) (73, -8.03690493106842041016e-01) (74, 4.33605909347534179688e-01) (75, 7.92984843254089355469e-01) (76, -6.22543811798095703125e-01) (77, -9.31493520736694335938e-01) (78, -3.32106053829193115234e-01) (79, 4.38575744628906250000e-01) (80, -7.96195089817047119141e-01) (81, -7.14761018753051757812e-03) (82, -7.74589776992797851562e-01) (83, 4.74262475967407226562e-01) (84, 7.88464188575744628906e-01) (85, 1.79658532142639160156e-01) (86, 2.61464357376098632812e-01) (87, -1.82848572731018066406e-02) (88, 3.47911119461059570312e-01) (89, 5.07299065589904785156e-01) (90, -9.77364063262939453125e-01) (91, -3.39583754539489746094e-01) (92, 5.27584195137023925781e-01) (93, -3.38744640350341796875e-01) (94, -2.97169387340545654297e-01) (95, 5.61133146286010742188e-01) (96, -7.64643251895904541016e-01) (97, -1.85041844844818115234e-01) (98, 9.23684716224670410156e-01) (99, 9.44764375686645507812e-01) (100, 9.38768267631530761719e-01) 
