FANN_FIX_2.0
decimal_point=7
num_layers=4
learning_rate=0.900000
connection_rate=1.000000
network_type=0
learning_momentum=0.000000
training_algorithm=2
train_error_function=1
train_stop_function=0
cascade_output_change_fraction=0.010000
quickprop_decay=-0.000100
quickprop_mu=1.750000
rprop_increase_factor=1.200000
rprop_decrease_factor=0.500000
rprop_delta_min=0.000000
rprop_delta_max=50.000000
rprop_delta_zero=0.100000
cascade_output_stagnation_epochs=12
cascade_candidate_change_fraction=0.010000
cascade_candidate_stagnation_epochs=12
cascade_max_out_epochs=150
cascade_min_out_epochs=50
cascade_max_cand_epochs=150
cascade_min_cand_epochs=50
cascade_num_candidate_groups=2
bit_fail_limit=45
cascade_candidate_limit=128000
cascade_weight_multiplier=51
cascade_activation_functions_count=10
cascade_activation_functions=3 5 7 8 10 11 14 15 16 17 
cascade_activation_steepnesses_count=4
cascade_activation_steepnesses=32 64 96 128 
layer_sizes=42 41 8 2 
neurons (num_inputs, activation_function, activation_steepness)=(0, 0, 0) (0, 0, 0) (0, 0, 0) (0, 0, 0) (0, 0, 0) (0, 0, 0) (0, 0, 0) (0, 0, 0) (0, 0, 0) (0, 0, 0) (0, 0, 0) (0, 0, 0) (0, 0, 0) (0, 0, 0) (0, 0, 0) (0, 0, 0) (0, 0, 0) (0, 0, 0) (0, 0, 0) (0, 0, 0) (0, 0, 0) (0, 0, 0) (0, 0, 0) (0, 0, 0) (0, 0, 0) (0, 0, 0) (0, 0, 0) (0, 0, 0) (0, 0, 0) (0, 0, 0) (0, 0, 0) (0, 0, 0) (0, 0, 0) (0, 0, 0) (0, 0, 0) (0, 0, 0) (0, 0, 0) (0, 0, 0) (0, 0, 0) (0, 0, 0) (0, 0, 0) (0, 0, 0) (42, 6, 128) (42, 6, 128) (42, 6, 128) (42, 6, 128) (42, 6, 128) (42, 6, 128) (42, 6, 128) (42, 6, 128) (42, 6, 128) (42, 6, 128) (42, 6, 128) (42, 6, 128) (42, 6, 128) (42, 6, 128) (42, 6, 128) (42, 6, 128) (42, 6, 128) (42, 6, 128) (42, 6, 128) (42, 6, 128) (42, 6, 128) (42, 6, 128) (42, 6, 128) (42, 6, 128) (42, 6, 128) (42, 6, 128) (42, 6, 128) (42, 6, 128) (42, 6, 128) (42, 6, 128) (42, 6, 128) (42, 6, 128) (42, 6, 128) (42, 6, 128) (42, 6, 128) (42, 6, 128) (42, 6, 128) (42, 6, 128) (42, 6, 128) (42, 6, 128) (0, 6, 128) (41, 6, 128) (41, 6, 128) (41, 6, 128) (41, 6, 128) (41, 6, 128) (41, 6, 128) (41, 6, 128) (0, 6, 128) (8, 3, 128) (0, 3, 128) 
connections (connected_to_neuron, weight)=(0, 192000) (1, 192000) (2, 192000) (3, 192000) (4, 192000) (5, 192000) (6, 192000) (7, 192000) (8, 192000) (9, 192000) (10, 192000) (11, 192000) (12, 192000) (13, 192000) (14, 192000) (15, 192000) (16, 192000) (17, 192000) (18, 192000) (19, 192000) (20, 192000) (21, 192000) (22, 192000) (23, 192000) (24, -192000) (25, -192000) (26, 192000) (27, 183447) (28, 192000) (29, -192000) (30, 192000) (31, 192000) (32, 192000) (33, 192000) (34, 192000) (35, 192000) (36, 192000) (37, -192000) (38, 192000) (39, 192000) (40, 192000) (41, 192000) (0, -192000) (1, -192000) (2, -192000) (3, -192000) (4, -192000) (5, -192000) (6, -192000) (7, -192000) (8, -192000) (9, -192000) (10, -192000) (11, -192000) (12, -192000) (13, -192000) (14, -192000) (15, -192000) (16, -192000) (17, -192000) (18, -192000) (19, -192000) (20, -192000) (21, -192000) (22, -192000) (23, -192000) (24, 192000) (25, 192000) (26, -192000) (27, -192000) (28, -192000) (29, 192000) (30, -192000) (31, -192000) (32, -192000) (33, -192000) (34, -192000) (35, -192000) (36, -192000) (37, 192000) (38, -192000) (39, -192000) (40, -192000) (41, -192000) (0, 192000) (1, 192000) (2, 192000) (3, 192000) (4, 192000) (5, 192000) (6, 192000) (7, 192000) (8, 192000) (9, 192000) (10, 192000) (11, 192000) (12, 192000) (13, 192000) (14, 192000) (15, 192000) (16, 192000) (17, 192000) (18, 192000) (19, 192000) (20, 192000) (21, 192000) (22, 192000) (23, 192000) (24, -192000) (25, -192000) (26, 192000) (27, 192000) (28, 192000) (29, -192000) (30, 192000) (31, 192000) (32, 192000) (33, 192000) (34, 192000) (35, 192000) (36, 192000) (37, -192000) (38, 192000) (39, 192000) (40, 192000) (41, 192000) (0, -192000) (1, -192000) (2, -192000) (3, -192000) (4, -192000) (5, -192000) (6, -192000) (7, -192000) (8, -192000) (9, -192000) (10, -192000) (11, -192000) (12, -192000) (13, -192000) (14, -192000) (15, -192000) (16, -192000) (17, -192000) (18, -192000) (19, -192000) (20, -192000) (21, -192000) (22, -192000) (23, -192000) (24, 192000) (25, 192000) (26, -192000) (27, -192000) (28, -192000) (29, 192000) (30, -192000) (31, -192000) (32, -192000) (33, -192000) (34, -192000) (35, -192000) (36, -192000) (37, 192000) (38, -192000) (39, -192000) (40, -192000) (41, -192000) (0, -192000) (1, -192000) (2, -192000) (3, -192000) (4, -192000) (5, -192000) (6, -192000) (7, -192000) (8, -192000) (9, -192000) (10, -192000) (11, -192000) (12, -192000) (13, -192000) (14, -192000) (15, -192000) (16, -192000) (17, -192000) (18, -192000) (19, -192000) (20, -192000) (21, -192000) (22, -192000) (23, -192000) (24, 192000) (25, 192000) (26, -192000) (27, -192000) (28, -192000) (29, 192000) (30, -192000) (31, -192000) (32, -192000) (33, -192000) (34, -192000) (35, -192000) (36, -192000) (37, 192000) (38, -192000) (39, -192000) (40, -192000) (41, -192000) (0, -192000) (1, -192000) (2, -192000) (3, -192000) (4, -192000) (5, -192000) (6, -192000) (7, -192000) (8, -192000) (9, -192000) (10, -192000) (11, -192000) (12, -192000) (13, -192000) (14, -192000) (15, -192000) (16, -192000) (17, -192000) (18, -192000) (19, -192000) (20, -192000) (21, -192000) (22, -192000) (23, -192000) (24, 192000) (25, 192000) (26, -192000) (27, -153034) (28, -192000) (29, 192000) (30, -192000) (31, -192000) (32, -192000) (33, -192000) (34, -192000) (35, -192000) (36, -192000) (37, 192000) (38, -192000) (39, -192000) (40, -192000) (41, -192000) (0, -192000) (1, -192000) (2, -192000) (3, -192000) (4, -192000) (5, -192000) (6, -192000) (7, -192000) (8, -192000) (9, -192000) (10, -192000) (11, -192000) (12, -192000) (13, -192000) (14, -192000) (15, -192000) (16, -192000) (17, -192000) (18, -192000) (19, -192000) (20, -192000) (21, -192000) (22, -192000) (23, -192000) (24, 192000) (25, 192000) (26, -192000) (27, -192000) (28, -192000) (29, 192000) (30, -192000) (31, -192000) (32, -192000) (33, -192000) (34, -192000) (35, -192000) (36, -192000) (37, 192000) (38, -192000) (39, -192000) (40, -192000) (41, -192000) (0, -192000) (1, -192000) (2, -192000) (3, -192000) (4, -192000) (5, -192000) (6, -192000) (7, -192000) (8, -192000) (9, -192000) (10, -192000) (11, -192000) (12, -192000) (13, -192000) (14, -192000) (15, -192000) (16, -192000) (17, -192000) (18, -192000) (19, -192000) (20, -192000) (21, -192000) (22, -192000) (23, -192000) (24, 192000) (25, 192000) (26, -192000) (27, -183469) (28, -192000) (29, 192000) (30, -192000) (31, -192000) (32, -192000) (33, -192000) (34, -192000) (35, -192000) (36, -192000) (37, 192000) (38, -192000) (39, -192000) (40, -192000) (41, -192000) (0, -192000) (1, -192000) (2, -192000) (3, -192000) (4, -192000) (5, -192000) (6, -192000) (7, -192000) (8, -192000) (9, -192000) (10, -192000) (11, -192000) (12, -192000) (13, -192000) (14, -192000) (15, -192000) (16, -192000) (17, -192000) (18, -192000) (19, -192000) (20, -192000) (21, -192000) (22, -192000) (23, -192000) (24, 192000) (25, 192000) (26, -192000) (27, -183388) (28, -192000) (29, 192000) (30, -192000) (31, -192000) (32, -192000) (33, -192000) (34, -192000) (35, -192000) (36, -192000) (37, 192000) (38, -192000) (39, -192000) (40, -192000) (41, -192000) (0, 192000) (1, 192000) (2, 192000) (3, 192000) (4, 192000) (5, 192000) (6, 192000) (7, 192000) (8, 192000) (9, 192000) (10, 192000) (11, 192000) (12, 192000) (13, 192000) (14, 192000) (15, 192000) (16, 192000) (17, 192000) (18, 192000) (19, 192000) (20, 192000) (21, 192000) (22, 192000) (23, 192000) (24, -192000) (25, -192000) (26, 192000) (27, 122407) (28, 192000) (29, -192000) (30, 192000) (31, 192000) (32, 192000) (33, 192000) (34, 192000) (35, 192000) (36, 192000) (37, -192000) (38, 192000) (39, 192000) (40, 192000) (41, 192000) (0, 192000) (1, 192000) (2, 192000) (3, 192000) (4, 192000) (5, 192000) (6, 192000) (7, 192000) (8, 192000) (9, 192000) (10, 192000) (11, 192000) (12, 192000) (13, 192000) (14, 192000) (15, 192000) (16, 192000) (17, 192000) (18, 192000) (19, 192000) (20, 192000) (21, 192000) (22, 192000) (23, 192000) (24, -192000) (25, -192000) (26, 192000) (27, 183550) (28, 192000) (29, -192000) (30, 192000) (31, 192000) (32, 192000) (33, 192000) (34, 192000) (35, 192000) (36, 192000) (37, -192000) (38, 192000) (39, 192000) (40, 192000) (41, 192000) (0, -192000) (1, -192000) (2, -192000) (3, -192000) (4, -192000) (5, -192000) (6, -192000) (7, -192000) (8, -192000) (9, -192000) (10, -192000) (11, -192000) (12, -192000) (13, -192000) (14, -192000) (15, -192000) (16, -192000) (17, -192000) (18, -192000) (19, -192000) (20, -192000) (21, -192000) (22, -192000) (23, -192000) (24, 192000) (25, 192000) (26, -192000) (27, -183300) (28, -192000) (29, 192000) (30, -192000) (31, -192000) (32, -192000) (33, -192000) (34, -192000) (35, -192000) (36, -192000) (37, 192000) (38, -192000) (39, -192000) (40, -192000) (41, -192000) (0, -192000) (1, -192000) (2, -192000) (3, -192000) (4, -192000) (5, -192000) (6, -192000) (7, -192000) (8, -192000) (9, -192000) (10, -192000) (11, -192000) (12, -192000) (13, -192000) (14, -192000) (15, -192000) (16, -192000) (17, -192000) (18, -192000) (19, -192000) (20, -192000) (21, -192000) (22, -192000) (23, -192000) (24, 192000) (25, 192000) (26, -192000) (27, -183314) (28, -192000) (29, 192000) (30, -192000) (31, -192000) (32, -192000) (33, -192000) (34, -192000) (35, -192000) (36, -192000) (37, 192000) (38, -192000) (39, -192000) (40, -192000) (41, -192000) (0, 192000) (1, 192000) (2, 192000) (3, 192000) (4, 192000) (5, 192000) (6, 192000) (7, 192000) (8, 192000) (9, 192000) (10, 192000) (11, 192000) (12, 192000) (13, 192000) (14, 192000) (15, 192000) (16, 192000) (17, 192000) (18, 192000) (19, 192000) (20, 192000) (21, 192000) (22, 192000) (23, 192000) (24, -192000) (25, -192000) (26, 192000) (27, 183788) (28, 192000) (29, -192000) (30, 192000) (31, 192000) (32, 192000) (33, 192000) (34, 192000) (35, 192000) (36, 192000) (37, -192000) (38, 192000) (39, 192000) (40, 192000) (41, 192000) (0, 192000) (1, 192000) (2, 192000) (3, 192000) (4, 192000) (5, 192000) (6, 192000) (7, 192000) (8, 192000) (9, 192000) (10, 192000) (11, 192000) (12, 192000) (13, 192000) (14, 192000) (15, 192000) (16, 192000) (17, 192000) (18, 192000) (19, 192000) (20, 192000) (21, 192000) (22, 192000) (23, 192000) (24, -192000) (25, -192000) (26, 192000) (27, 152752) (28, 192000) (29, -192000) (30, 192000) (31, 192000) (32, 192000) (33, 192000) (34, 192000) (35, 192000) (36, 192000) (37, -192000) (38, 192000) (39, 192000) (40, 192000) (41, 192000) (0, 192000) (1, 192000) (2, 192000) (3, 192000) (4, 192000) (5, 192000) (6, 192000) (7, 192000) (8, 192000) (9, 192000) (10, 192000) (11, 192000) (12, 192000) (13, 192000) (14, 192000) (15, 192000) (16, 192000) (17, 192000) (18, 192000) (19, 192000) (20, 192000) (21, 192000) (22, 192000) (23, 192000) (24, -192000) (25, -192000) (26, 192000) (27, 183600) (28, 192000) (29, -192000) (30, 192000) (31, 192000) (32, 192000) (33, 192000) (34, 192000) (35, 192000) (36, 192000) (37, -192000) (38, 192000) (39, 192000) (40, 192000) (41, 192000) (0, -192000) (1, -192000) (2, -192000) (3, -192000) (4, -192000) (5, -192000) (6, -192000) (7, -192000) (8, -192000) (9, -192000) (10, -192000) (11, -192000) (12, -192000) (13, -192000) (14, -192000) (15, -192000) (16, -192000) (17, -192000) (18, -192000) (19, -192000) (20, -192000) (21, -192000) (22, -192000) (23, -192000) (24, 192000) (25, 192000) (26, -192000) (27, -183709) (28, -192000) (29, 192000) (30, -192000) (31, -192000) (32, -192000) (33, -192000) (34, -192000) (35, -192000) (36, -192000) (37, 192000) (38, -192000) (39, -192000) (40, -192000) (41, -192000) (0, 192000) (1, 192000) (2, 192000) (3, 192000) (4, 192000) (5, 192000) (6, 192000) (7, 192000) (8, 192000) (9, 192000) (10, 192000) (11, 192000) (12, 192000) (13, 192000) (14, 192000) (15, 192000) (16, 192000) (17, 192000) (18, 192000) (19, 192000) (20, 192000) (21, 192000) (22, 192000) (23, 192000) (24, -192000) (25, -192000) (26, 192000) (27, 192000) (28, 192000) (29, -192000) (30, 192000) (31, 192000) (32, 192000) (33, 192000) (34, 192000) (35, 192000) (36, 192000) (37, -192000) (38, 192000) (39, 192000) (40, 192000) (41, 192000) (0, 192000) (1, 192000) (2, 192000) (3, 192000) (4, 192000) (5, 192000) (6, 192000) (7, 192000) (8, 192000) (9, 192000) (10, 192000) (11, 192000) (12, 192000) (13, 192000) (14, 192000) (15, 192000) (16, 192000) (17, 192000) (18, 192000) (19, 192000) (20, 192000) (21, 192000) (22, 192000) (23, 192000) (24, -192000) (25, -192000) (26, 192000) (27, 183397) (28, 192000) (29, -192000) (30, 192000) (31, 192000) (32, 192000) (33, 192000) (34, 192000) (35, 192000) (36, 192000) (37, -192000) (38, 192000) (39, 192000) (40, 192000) (41, 192000) (0, 192000) (1, 192000) (2, 192000) (3, 192000) (4, 192000) (5, 192000) (6, 192000) (7, 192000) (8, 192000) (9, 192000) (10, 192000) (11, 192000) (12, 192000) (13, 192000) (14, 192000) (15, 192000) (16, 192000) (17, 192000) (18, 192000) (19, 192000) (20, 192000) (21, 192000) (22, 192000) (23, 192000) (24, -192000) (25, -192000) (26, 192000) (27, 192000) (28, 192000) (29, -192000) (30, 192000) (31, 192000) (32, 192000) (33, 192000) (34, 192000) (35, 192000) (36, 192000) (37, -192000) (38, 192000) (39, 192000) (40, 192000) (41, 192000) (0, -192000) (1, -192000) (2, -192000) (3, -192000) (4, -192000) (5, -192000) (6, -192000) (7, -192000) (8, -192000) (9, -192000) (10, -192000) (11, -192000) (12, -192000) (13, -192000) (14, -192000) (15, -192000) (16, -192000) (17, -192000) (18, -192000) (19, -192000) (20, -192000) (21, -192000) (22, -192000) (23, -192000) (24, 192000) (25, 192000) (26, -192000) (27, -192000) (28, -192000) (29, 192000) (30, -192000) (31, -192000) (32, -192000) (33, -192000) (34, -192000) (35, -192000) (36, -192000) (37, 192000) (38, -192000) (39, -192000) (40, -192000) (41, -192000) (0, -192000) (1, -192000) (2, -192000) (3, -192000) (4, -192000) (5, -192000) (6, -192000) (7, -192000) (8, -192000) (9, -192000) (10, -192000) (11, -192000) (12, -192000) (13, -192000) (14, -192000) (15, -192000) (16, -192000) (17, -192000) (18, -192000) (19, -192000) (20, -192000) (21, -192000) (22, -192000) (23, -192000) (24, 192000) (25, 192000) (26, -192000) (27, -192000) (28, -192000) (29, 192000) (30, -192000) (31, -192000) (32, -192000) (33, -192000) (34, -192000) (35, -192000) (36, -192000) (37, 192000) (38, -192000) (39, -192000) (40, -192000) (41, -192000) (0, -192000) (1, -192000) (2, -192000) (3, -192000) (4, -192000) (5, -192000) (6, -192000) (7, -192000) (8, -192000) (9, -192000) (10, -192000) (11, -192000) (12, -192000) (13, -192000) (14, -192000) (15, -192000) (16, -192000) (17, -192000) (18, -192000) (19, -192000) (20, -192000) (21, -192000) (22, -192000) (23, -192000) (24, 192000) (25, 192000) (26, -192000) (27, -192000) (28, -192000) (29, 192000) (30, -192000) (31, -192000) (32, -192000) (33, -192000) (34, -192000) (35, -192000) (36, -192000) (37, 192000) (38, -192000) (39, -192000) (40, -192000) (41, -192000) (0, -192000) (1, -192000) (2, -192000) (3, -192000) (4, -192000) (5, -192000) (6, -192000) (7, -192000) (8, -192000) (9, -192000) (10, -192000) (11, -192000) (12, -192000) (13, -192000) (14, -192000) (15, -192000) (16, -192000) (17, -192000) (18, -192000) (19, -192000) (20, -192000) (21, -192000) (22, -192000) (23, -192000) (24, 192000) (25, 192000) (26, -192000) (27, -192000) (28, -192000) (29, 192000) (30, -192000) (31, -192000) (32, -192000) (33, -192000) (34, -192000) (35, -192000) (36, -192000) (37, 192000) (38, -192000) (39, -192000) (40, -192000) (41, -192000) (0, 192000) (1, 192000) (2, 192000) (3, 192000) (4, 192000) (5, 192000) (6, 192000) (7, 192000) (8, 192000) (9, 192000) (10, 192000) (11, 192000) (12, 192000) (13, 192000) (14, 192000) (15, 192000) (16, 192000) (17, 192000) (18, 192000) (19, 192000) (20, 192000) (21, 192000) (22, 192000) (23, 192000) (24, -192000) (25, -192000) (26, 192000) (27, 192000) (28, 192000) (29, -192000) (30, 192000) (31, 192000) (32, 192000) (33, 192000) (34, 192000) (35, 192000) (36, 192000) (37, -192000) (38, 192000) (39, 192000) (40, 192000) (41, 192000) (0, -192000) (1, -192000) (2, -192000) (3, -192000) (4, -192000) (5, -192000) (6, -192000) (7, -192000) (8, -192000) (9, -192000) (10, -192000) (11, -192000) (12, -192000) (13, -192000) (14, -192000) (15, -192000) (16, -192000) (17, -192000) (18, -192000) (19, -192000) (20, -192000) (21, -192000) (22, -192000) (23, -192000) (24, 192000) (25, 192000) (26, -192000) (27, -192000) (28, -192000) (29, 192000) (30, -192000) (31, -192000) (32, -192000) (33, -192000) (34, -192000) (35, -192000) (36, -192000) (37, 192000) (38, -192000) (39, -192000) (40, -192000) (41, -192000) (0, 192000) (1, 192000) (2, 192000) (3, 192000) (4, 192000) (5, 192000) (6, 192000) (7, 192000) (8, 192000) (9, 192000) (10, 192000) (11, 192000) (12, 192000) (13, 192000) (14, 192000) (15, 192000) (16, 192000) (17, 192000) (18, 192000) (19, 192000) (20, 192000) (21, 192000) (22, 192000) (23, 192000) (24, -192000) (25, -192000) (26, 192000) (27, 153066) (28, 192000) (29, -192000) (30, 192000) (31, 192000) (32, 192000) (33, 192000) (34, 192000) (35, 192000) (36, 192000) (37, -192000) (38, 192000) (39, 192000) (40, 192000) (41, 192000) (0, 192000) (1, 192000) (2, 192000) (3, 192000) (4, 192000) (5, 192000) (6, 192000) (7, 192000) (8, 192000) (9, 192000) (10, 192000) (11, 192000) (12, 192000) (13, 192000) (14, 192000) (15, 192000) (16, 192000) (17, 192000) (18, 192000) (19, 192000) (20, 192000) (21, 192000) (22, 192000) (23, 192000) (24, -192000) (25, -192000) (26, 192000) (27, 183731) (28, 192000) (29, -192000) (30, 192000) (31, 192000) (32, 192000) (33, 192000) (34, 192000) (35, 192000) (36, 192000) (37, -192000) (38, 192000) (39, 192000) (40, 192000) (41, 192000) (0, -192000) (1, -192000) (2, -192000) (3, -192000) (4, -192000) (5, -192000) (6, -192000) (7, -192000) (8, -192000) (9, -192000) (10, -192000) (11, -192000) (12, -192000) (13, -192000) (14, -192000) (15, -192000) (16, -192000) (17, -192000) (18, -192000) (19, -192000) (20, -192000) (21, -192000) (22, -192000) (23, -192000) (24, 192000) (25, 192000) (26, -192000) (27, -192000) (28, -192000) (29, 192000) (30, -192000) (31, -192000) (32, -192000) (33, -192000) (34, -192000) (35, -192000) (36, -192000) (37, 192000) (38, -192000) (39, -192000) (40, -192000) (41, -192000) (0, -192000) (1, -192000) (2, -192000) (3, -192000) (4, -192000) (5, -192000) (6, -192000) (7, -192000) (8, -192000) (9, -192000) (10, -192000) (11, -192000) (12, -192000) (13, -192000) (14, -192000) (15, -192000) (16, -192000) (17, -192000) (18, -192000) (19, -192000) (20, -192000) (21, -192000) (22, -192000) (23, -192000) (24, 192000) (25, 192000) (26, -192000) (27, -192000) (28, -192000) (29, 192000) (30, -192000) (31, -192000) (32, -192000) (33, -192000) (34, -192000) (35, -192000) (36, -192000) (37, 192000) (38, -192000) (39, -192000) (40, -192000) (41, -192000) (0, -192000) (1, -192000) (2, -192000) (3, -192000) (4, -192000) (5, -192000) (6, -192000) (7, -192000) (8, -192000) (9, -192000) (10, -192000) (11, -192000) (12, -192000) (13, -192000) (14, -192000) (15, -192000) (16, -192000) (17, -192000) (18, -192000) (19, -192000) (20, -192000) (21, -192000) (22, -192000) (23, -192000) (24, 192000) (25, 192000) (26, -192000) (27, -192000) (28, -192000) (29, 192000) (30, -192000) (31, -192000) (32, -192000) (33, -192000) (34, -192000) (35, -192000) (36, -192000) (37, 192000) (38, -192000) (39, -192000) (40, -192000) (41, -192000) (0, 192000) (1, 192000) (2, 192000) (3, 192000) (4, 192000) (5, 192000) (6, 192000) (7, 192000) (8, 192000) (9, 192000) (10, 192000) (11, 192000) (12, 192000) (13, 192000) (14, 192000) (15, 192000) (16, 192000) (17, 192000) (18, 192000) (19, 192000) (20, 192000) (21, 192000) (22, 192000) (23, 192000) (24, -192000) (25, -192000) (26, 192000) (27, 192000) (28, 192000) (29, -192000) (30, 192000) (31, 192000) (32, 192000) (33, 192000) (34, 192000) (35, 192000) (36, 192000) (37, -192000) (38, 192000) (39, 192000) (40, 192000) (41, 192000) (0, -192000) (1, -192000) (2, -192000) (3, -192000) (4, -192000) (5, -192000) (6, -192000) (7, -192000) (8, -192000) (9, -192000) (10, -192000) (11, -192000) (12, -192000) (13, -192000) (14, -192000) (15, -192000) (16, -192000) (17, -192000) (18, -192000) (19, -192000) (20, -192000) (21, -192000) (22, -192000) (23, -192000) (24, 192000) (25, 192000) (26, -192000) (27, -192000) (28, -192000) (29, 192000) (30, -192000) (31, -192000) (32, -192000) (33, -192000) (34, -192000) (35, -192000) (36, -192000) (37, 192000) (38, -192000) (39, -192000) (40, -192000) (41, -192000) (0, -192000) (1, -192000) (2, -192000) (3, -192000) (4, -192000) (5, -192000) (6, -192000) (7, -192000) (8, -192000) (9, -192000) (10, -192000) (11, -192000) (12, -192000) (13, -192000) (14, -192000) (15, -192000) (16, -192000) (17, -192000) (18, -192000) (19, -192000) (20, -192000) (21, -192000) (22, -192000) (23, -192000) (24, 192000) (25, 192000) (26, -192000) (27, -183594) (28, -192000) (29, 192000) (30, -192000) (31, -192000) (32, -192000) (33, -192000) (34, -192000) (35, -192000) (36, -192000) (37, 192000) (38, -192000) (39, -192000) (40, -192000) (41, -192000) (0, -192000) (1, -192000) (2, -192000) (3, -192000) (4, -192000) (5, -192000) (6, -192000) (7, -192000) (8, -192000) (9, -192000) (10, -192000) (11, -192000) (12, -192000) (13, -192000) (14, -192000) (15, -192000) (16, -192000) (17, -192000) (18, -192000) (19, -192000) (20, -192000) (21, -192000) (22, -192000) (23, -192000) (24, 192000) (25, 192000) (26, -192000) (27, -192000) (28, -192000) (29, 192000) (30, -192000) (31, -192000) (32, -192000) (33, -192000) (34, -192000) (35, -192000) (36, -192000) (37, 192000) (38, -192000) (39, -192000) (40, -192000) (41, -192000) (0, -192000) (1, -192000) (2, -192000) (3, -192000) (4, -192000) (5, -192000) (6, -192000) (7, -192000) (8, -192000) (9, -192000) (10, -192000) (11, -192000) (12, -192000) (13, -192000) (14, -192000) (15, -192000) (16, -192000) (17, -192000) (18, -192000) (19, -192000) (20, -192000) (21, -192000) (22, -192000) (23, -192000) (24, 192000) (25, 192000) (26, -192000) (27, -153034) (28, -192000) (29, 192000) (30, -192000) (31, -192000) (32, -192000) (33, -192000) (34, -192000) (35, -192000) (36, -192000) (37, 192000) (38, -192000) (39, -192000) (40, -192000) (41, -192000) (0, -192000) (1, -192000) (2, -192000) (3, -192000) (4, -192000) (5, -192000) (6, -192000) (7, -192000) (8, -192000) (9, -192000) (10, -192000) (11, -192000) (12, -192000) (13, -192000) (14, -192000) (15, -192000) (16, -192000) (17, -192000) (18, -192000) (19, -192000) (20, -192000) (21, -192000) (22, -192000) (23, -192000) (24, 192000) (25, 192000) (26, -192000) (27, -192000) (28, -192000) (29, 192000) (30, -192000) (31, -192000) (32, -192000) (33, -192000) (34, -192000) (35, -192000) (36, -192000) (37, 192000) (38, -192000) (39, -192000) (40, -192000) (41, -192000) (0, -192000) (1, -192000) (2, -192000) (3, -192000) (4, -192000) (5, -192000) (6, -192000) (7, -192000) (8, -192000) (9, -192000) (10, -192000) (11, -192000) (12, -192000) (13, -192000) (14, -192000) (15, -192000) (16, -192000) (17, -192000) (18, -192000) (19, -192000) (20, -192000) (21, -192000) (22, -192000) (23, -192000) (24, 192000) (25, 192000) (26, -192000) (27, -192000) (28, -192000) (29, 192000) (30, -192000) (31, -192000) (32, -192000) (33, -192000) (34, -192000) (35, -192000) (36, -192000) (37, 192000) (38, -192000) (39, -192000) (40, -192000) (41, -192000) (0, 192000) (1, 192000) (2, 192000) (3, 192000) (4, 192000) (5, 192000) (6, 192000) (7, 192000) (8, 192000) (9, 192000) (10, 192000) (11, 192000) (12, 192000) (13, 192000) (14, 192000) (15, 192000) (16, 192000) (17, 192000) (18, 192000) (19, 192000) (20, 192000) (21, 192000) (22, 192000) (23, 192000) (24, -192000) (25, -192000) (26, 192000) (27, 183432) (28, 192000) (29, -192000) (30, 192000) (31, 192000) (32, 192000) (33, 192000) (34, 192000) (35, 192000) (36, 192000) (37, -192000) (38, 192000) (39, 192000) (40, 192000) (41, 192000) (0, -192000) (1, -192000) (2, -192000) (3, -192000) (4, -192000) (5, -192000) (6, -192000) (7, -192000) (8, -192000) (9, -192000) (10, -192000) (11, -192000) (12, -192000) (13, -192000) (14, -192000) (15, -192000) (16, -192000) (17, -192000) (18, -192000) (19, -192000) (20, -192000) (21, -192000) (22, -192000) (23, -192000) (24, 192000) (25, 192000) (26, -192000) (27, -192000) (28, -192000) (29, 192000) (30, -192000) (31, -192000) (32, -192000) (33, -192000) (34, -192000) (35, -192000) (36, -192000) (37, 192000) (38, -192000) (39, -192000) (40, -192000) (41, -192000) (42, 192000) (43, -192000) (44, 192000) (45, -192000) (46, -192000) (47, -192000) (48, -192000) (49, -192000) (50, -192000) (51, 192000) (52, 192000) (53, -192000) (54, -192000) (55, 192000) (56, 192000) (57, 192000) (58, -192000) (59, 192000) (60, 192000) (61, 192000) (62, -192000) (63, -192000) (64, -192000) (65, -192000) (66, 192000) (67, -192000) (68, 192000) (69, 192000) (70, -192000) (71, -192000) (72, -192000) (73, 192000) (74, -192000) (75, -192000) (76, -192000) (77, -192000) (78, -192000) (79, -192000) (80, 192000) (81, -192000) (82, 192000) (42, 192000) (43, -192000) (44, 192000) (45, -192000) (46, -192000) (47, -192000) (48, -192000) (49, -192000) (50, -192000) (51, 192000) (52, 192000) (53, -192000) (54, -192000) (55, 192000) (56, 192000) (57, 192000) (58, -192000) (59, 192000) (60, 192000) (61, 192000) (62, -192000) (63, -192000) (64, -192000) (65, -192000) (66, 192000) (67, -192000) (68, 192000) (69, 192000) (70, -192000) (71, -192000) (72, -192000) (73, 192000) (74, -192000) (75, -192000) (76, -192000) (77, -192000) (78, -192000) (79, -192000) (80, 192000) (81, -192000) (82, 192000) (42, -192000) (43, 192000) (44, -192000) (45, 192000) (46, 192000) (47, 192000) (48, 192000) (49, 192000) (50, 192000) (51, -192000) (52, -192000) (53, 192000) (54, 192000) (55, -192000) (56, -192000) (57, -192000) (58, 192000) (59, -192000) (60, -192000) (61, -192000) (62, 192000) (63, 192000) (64, 192000) (65, 192000) (66, -192000) (67, 192000) (68, -192000) (69, -192000) (70, 192000) (71, 192000) (72, 192000) (73, -192000) (74, 192000) (75, 192000) (76, 192000) (77, 192000) (78, 192000) (79, 192000) (80, -192000) (81, 192000) (82, -192000) (42, -192000) (43, 192000) (44, -192000) (45, 192000) (46, 192000) (47, 192000) (48, 192000) (49, 192000) (50, 192000) (51, -192000) (52, -192000) (53, 192000) (54, 192000) (55, -192000) (56, -192000) (57, -192000) (58, 192000) (59, -192000) (60, -192000) (61, -192000) (62, 192000) (63, 192000) (64, 192000) (65, 192000) (66, -192000) (67, 192000) (68, -192000) (69, -192000) (70, 192000) (71, 192000) (72, 192000) (73, -192000) (74, 192000) (75, 192000) (76, 192000) (77, 192000) (78, 192000) (79, 192000) (80, -192000) (81, 192000) (82, -192000) (42, 192000) (43, -192000) (44, 192000) (45, -192000) (46, -192000) (47, -192000) (48, -192000) (49, -192000) (50, -192000) (51, 192000) (52, 192000) (53, -192000) (54, -192000) (55, 192000) (56, 192000) (57, 192000) (58, -192000) (59, 192000) (60, 192000) (61, 192000) (62, -192000) (63, -192000) (64, -192000) (65, -192000) (66, 192000) (67, -192000) (68, 192000) (69, 192000) (70, -192000) (71, -192000) (72, -192000) (73, 192000) (74, -192000) (75, -192000) (76, -192000) (77, -192000) (78, -192000) (79, -192000) (80, 192000) (81, -192000) (82, 192000) (42, 192000) (43, -192000) (44, 192000) (45, -192000) (46, -192000) (47, -192000) (48, -192000) (49, -192000) (50, -192000) (51, 192000) (52, 192000) (53, -192000) (54, -192000) (55, 192000) (56, 192000) (57, 192000) (58, -192000) (59, 192000) (60, 192000) (61, 192000) (62, -192000) (63, -192000) (64, -192000) (65, -192000) (66, 192000) (67, -192000) (68, 192000) (69, 192000) (70, -192000) (71, -192000) (72, -192000) (73, 192000) (74, -192000) (75, -192000) (76, -192000) (77, -192000) (78, -192000) (79, -192000) (80, 192000) (81, -192000) (82, 192000) (42, -192000) (43, 192000) (44, -192000) (45, 192000) (46, 192000) (47, 192000) (48, 192000) (49, 192000) (50, 192000) (51, -192000) (52, -192000) (53, 192000) (54, 192000) (55, -192000) (56, -192000) (57, -192000) (58, 192000) (59, -192000) (60, -192000) (61, -192000) (62, 192000) (63, 192000) (64, 192000) (65, 192000) (66, -192000) (67, 192000) (68, -192000) (69, -192000) (70, 192000) (71, 192000) (72, 192000) (73, -192000) (74, 192000) (75, 192000) (76, 192000) (77, 192000) (78, 192000) (79, 192000) (80, -192000) (81, 192000) (82, -192000) (83, -192000) (84, -192000) (85, 192000) (86, 192000) (87, -192000) (88, -192000) (89, 192000) (90, -192000) 
